#include <math.h> 
 #include <string.h> 
#include "./include/k2c_include.h" 
#include "./include/k2c_tensor_include.h" 

 
static struct FRNN_0D_12channels_ipsip_static_vars 
{ 
float lstm_1_state[256]; 
} FRNN_0D_12channels_ipsip_states; 


void FRNN_0D_12channels_ipsip(k2c_tensor* input_1_input, k2c_tensor* dense_1_output) { 

float lstm_1_output_array[128] = {0}; 
k2c_tensor lstm_1_output = {&lstm_1_output_array[0],1,128,{128,  1,  1,  1,  1}}; 
float lstm_1_fwork[1024] = {0}; 
int lstm_1_go_backwards = 0;
int lstm_1_return_sequences = 0;
float * lstm_1_state = FRNN_0D_12channels_ipsip_states.lstm_1_state; 
float lstm_1_kernel_array[6144] = {
1.90417394e-02,-1.01105586e-01,1.09275706e-01,8.65395293e-02,6.73363209e-02,
-3.18434052e-02,3.11778486e-02,-5.59153967e-03,-8.14591572e-02,7.69194290e-02,
9.79760438e-02,-6.91255778e-02,5.42206578e-02,-5.58158681e-02,6.08156472e-02,
5.40951490e-02,-2.19547283e-03,3.52258645e-02,-5.43645769e-02,3.07048764e-02,
-3.31254341e-02,1.82355642e-02,-3.91121302e-03,-1.31720537e-02,-4.34192345e-02,
-1.17386498e-01,2.78312601e-02,-1.29404575e-01,-1.60081282e-01,2.42970213e-02,
2.12792233e-02,8.61352235e-02,-1.89192239e-02,-6.32036030e-02,-5.19341184e-03,
-7.42676556e-02,-1.80430233e-01,-9.57108438e-02,-1.70354042e-02,-7.66374394e-02,
-4.28914949e-02,9.66625363e-02,9.02894810e-02,-1.26118124e-01,1.03535242e-01,
2.04819511e-03,-7.48466253e-02,-9.18970555e-02,-2.97652707e-02,4.68065105e-02,
-2.37025172e-02,7.61265010e-02,-1.97812449e-02,-7.83345625e-02,1.26090935e-02,
-1.61596268e-01,-6.73177943e-04,-1.73567384e-02,7.49607012e-02,-1.25317261e-01,
-6.31251857e-02,2.50408053e-02,-1.23495013e-02,2.26691685e-04,3.58586870e-02,
-1.45330727e-02,7.31475800e-02,-1.10756084e-01,9.38108787e-02,1.19141482e-01,
-2.70847511e-02,-3.39060314e-02,-2.93892920e-02,-7.81813115e-02,-9.62948203e-02,
9.00123045e-02,6.25399202e-02,-1.08658522e-01,8.16852320e-03,-3.85328452e-03,
1.45419106e-01,6.78364486e-02,2.81462036e-02,6.57997206e-02,2.54866909e-02,
2.67957570e-04,-6.37974367e-02,-6.76341876e-02,-6.39614686e-02,-1.14950582e-01,
4.79620285e-02,-8.56609493e-02,1.48677034e-02,2.54741963e-03,-8.69468376e-02,
5.78192361e-02,-1.45749331e-01,3.08298152e-02,3.20451558e-02,-3.45121883e-02,
3.10843997e-02,-9.18032676e-02,1.31371934e-02,7.08617419e-02,3.24474946e-02,
-3.34073417e-02,1.38169169e-01,-8.43160003e-02,7.73882726e-03,-6.94457665e-02,
5.49448021e-02,-9.86173153e-02,-3.87187600e-02,-7.77655989e-02,4.16705869e-02,
6.02768362e-02,-5.76848984e-02,-5.67587540e-02,5.11576682e-02,-5.39476164e-02,
-1.30665228e-01,-2.94977636e-03,7.01362416e-02,1.45824522e-01,-1.05327062e-01,
-1.55155629e-01,-5.53834811e-02,-2.41083018e-02,1.93563364e-02,5.40299863e-02,
-5.22961952e-02,5.20524718e-02,1.09662272e-01,1.51245698e-01,6.49421886e-02,
4.91974950e-02,5.53681627e-02,-1.45754457e-01,-5.33416122e-02,-5.87605536e-02,
1.02447480e-01,2.97007170e-02,7.21933395e-02,7.35594630e-02,-3.00609358e-02,
-9.45522040e-02,-9.75980386e-02,2.16241758e-02,1.11024538e-02,6.71428964e-02,
-4.22552004e-02,6.65087299e-03,-6.72855973e-02,-4.98526469e-02,-1.24746248e-01,
3.09878774e-02,-1.42668232e-01,-1.25579014e-01,1.28041163e-01,-8.79282206e-02,
7.76318684e-02,-5.41787036e-02,-1.14511780e-01,-9.85127762e-02,3.01508959e-02,
2.56486870e-02,-9.62467748e-04,-9.03512388e-02,-3.55914831e-02,7.86584541e-02,
-7.64315203e-02,-3.72988731e-02,-7.50444457e-02,-1.21008508e-01,-8.70651454e-02,
-7.37899616e-02,-5.13326637e-02,4.66340557e-02,-5.42025156e-02,5.54650091e-02,
5.04546091e-02,4.39210385e-02,-1.49670362e-01,3.57838944e-02,-1.24318227e-01,
2.21236404e-02,-2.87381280e-02,-4.65955436e-02,5.27269654e-02,7.90149048e-02,
-5.59766367e-02,-1.23991676e-01,6.21855818e-02,-3.48622128e-02,-5.19090034e-02,
-1.14937484e-01,-1.72242597e-02,-6.72153905e-02,-3.96814197e-02,-8.04280192e-02,
6.85611665e-02,2.53471378e-02,1.08979166e-01,9.54211922e-04,-1.12756118e-01,
3.00319754e-02,-3.60546596e-02,-2.87083630e-03,8.63285512e-02,-1.05986930e-01,
-1.08270884e-01,6.86431676e-03,-1.08175777e-01,1.34082716e-02,3.36240679e-02,
-4.87755239e-02,7.55401403e-02,-5.02459034e-02,-4.15274091e-02,-2.76799798e-02,
3.73467915e-02,1.21489808e-01,7.84674212e-02,-1.08635232e-01,-8.36851150e-02,
-5.58116892e-03,1.08394176e-01,3.03679742e-02,-1.53507724e-01,-3.59662808e-02,
-7.94202834e-02,-2.86105890e-02,-9.18768439e-03,-3.30786444e-02,1.73964262e-01,
-8.02004188e-02,-2.26451419e-02,-4.66053039e-02,9.78093520e-02,3.44966655e-03,
1.41146011e-03,-8.66494328e-03,9.34025925e-03,-9.75012407e-02,5.28888553e-02,
-1.24815889e-01,-1.17457099e-02,-4.83730510e-02,-3.03378166e-03,5.71105853e-02,
-9.26445499e-02,1.56994671e-01,-1.10397980e-01,3.88729125e-02,7.99818784e-02,
7.26134777e-02,-4.04461883e-02,4.10279259e-03,-6.30468945e-04,1.25976846e-01,
-4.01316173e-02,5.07255532e-02,1.04318820e-02,5.87315932e-02,2.75181588e-02,
-9.18032452e-02,8.04245844e-02,-9.59234983e-02,1.05556861e-01,-3.05542070e-02,
8.43255743e-02,1.52545543e-02,-1.14035070e-01,2.43223924e-02,-5.07195592e-02,
-5.00998832e-02,-3.80077921e-02,-6.13764934e-02,-7.31988475e-02,-2.73446203e-03,
7.93512091e-02,-1.08918779e-01,-1.08388793e-02,2.78543634e-03,9.02285799e-02,
-9.05615538e-02,1.48152590e-01,-7.23553225e-02,-4.81405444e-02,-1.00174032e-01,
1.63587388e-02,-1.50226597e-02,-7.61944428e-02,-5.87626472e-02,-1.03555635e-01,
-1.19181864e-01,-1.10702649e-01,1.40373021e-01,3.59281301e-02,3.19091715e-02,
-9.95187014e-02,-5.94809018e-02,-7.16136694e-02,-6.44410104e-02,3.69070247e-02,
-6.15154952e-02,7.64859170e-02,4.07964922e-02,-1.11121982e-01,-6.75295964e-02,
1.08053992e-02,2.83512287e-02,1.00230500e-01,9.93588343e-02,-1.01771057e-02,
-4.31845486e-02,-2.53792778e-02,3.97155248e-02,1.85202491e-02,2.00167242e-02,
-8.25140327e-02,-4.98001324e-03,2.52487548e-02,6.69529587e-02,8.76125544e-02,
1.03133777e-02,-4.13067453e-02,4.48738374e-02,-9.42677557e-02,-4.12735604e-02,
9.39279720e-02,-1.21555533e-02,4.55555134e-02,5.50374985e-02,-1.41226826e-03,
1.91093888e-02,-2.36784145e-02,-1.31307319e-01,-1.31870195e-01,5.07472865e-02,
4.70480658e-02,-3.52823846e-02,5.20158932e-02,-1.51859876e-02,8.52597728e-02,
7.71391718e-03,-1.41219839e-01,-1.00176871e-01,-3.71705927e-02,-5.31592555e-02,
-6.87527806e-02,6.93168715e-02,-1.03661716e-02,-8.73533171e-03,-7.46834558e-03,
-1.91580283e-03,1.16253458e-01,-3.82050686e-02,1.57044996e-02,-9.68150869e-02,
-7.99353793e-02,-2.73465104e-02,4.05388474e-02,-9.85490531e-03,6.77220896e-02,
-9.79712084e-02,9.72881019e-02,-4.90141325e-02,-6.70795888e-02,-4.94180024e-02,
3.30731161e-02,2.83617936e-02,-2.41214279e-02,2.26542670e-02,-3.53646241e-02,
6.68301210e-02,-1.87592860e-02,-1.06890118e-02,-2.02075709e-02,2.36051809e-02,
5.95852919e-02,3.37494463e-02,-1.21750198e-01,-9.74833872e-03,-3.84500343e-03,
-3.59769985e-02,-1.29818901e-01,1.46944281e-02,1.80299848e-01,-2.94458289e-02,
-2.22962424e-02,-1.10704340e-01,2.80230697e-02,5.21816127e-02,4.78063338e-03,
1.08748942e-03,4.42617796e-02,-2.38989536e-02,-4.09721211e-03,-4.18967716e-02,
1.06731266e-01,-5.37301525e-02,4.65281382e-02,1.98347405e-01,-1.14004299e-01,
-2.03467589e-02,-4.49838024e-03,-2.06144392e-01,-8.10660347e-02,-1.30578697e-01,
9.39589515e-02,-5.73167279e-02,-1.39116254e-02,-3.46074975e-03,2.38762610e-02,
3.19436863e-02,-3.80657353e-02,-4.29159962e-02,4.97047789e-02,-4.77222726e-02,
2.68207546e-02,2.63355626e-03,1.04673669e-01,-5.14750630e-02,-9.06348303e-02,
1.22096829e-01,4.00777124e-02,-6.60709143e-02,-4.93732244e-02,-7.70912990e-02,
1.25638964e-02,-1.32716056e-02,3.12907882e-02,1.40852882e-02,1.90033391e-02,
-1.55434385e-02,-1.29896730e-01,-6.27348870e-02,-2.45006215e-02,-9.21671018e-02,
6.81111366e-02,-1.20811768e-01,-1.94136366e-01,-1.79862112e-01,1.37696654e-01,
-2.25298367e-02,-1.87564734e-02,-6.96089268e-02,2.73790173e-02,2.21847549e-01,
1.80051401e-02,5.91190867e-02,1.58942509e-02,-9.95172858e-02,7.07103014e-02,
-1.01952730e-02,1.05232663e-01,-3.78128476e-02,-3.01181618e-02,-5.39322123e-02,
-9.62250382e-02,8.40674788e-02,-4.52441256e-03,1.04092896e-01,-6.14948347e-02,
-8.11724663e-02,2.80705988e-02,9.43709239e-02,-5.51134348e-02,-1.75651237e-02,
6.21204898e-02,-5.48575483e-02,3.45384739e-02,-1.26067614e-02,-7.70138344e-03,
2.77782325e-02,-6.28832821e-03,9.72553622e-03,2.17365846e-02,-4.41250801e-02,
-1.04438908e-01,-1.17153414e-01,-7.86104798e-02,1.24742864e-02,-4.26706150e-02,
1.00068837e-01,-5.37902564e-02,3.58806700e-02,-7.15711266e-02,1.56039804e-01,
4.59386148e-02,3.02158333e-02,2.32124999e-02,-3.30870226e-03,1.25346169e-01,
-2.01329179e-02,7.11910874e-02,-5.34766428e-02,1.92713924e-02,3.52852186e-03,
-7.17465580e-02,-5.76426461e-02,-1.34181365e-01,1.01957239e-01,1.95857584e-02,
4.81652506e-02,9.65720881e-03,-2.08054911e-02,7.63821602e-02,-7.78833702e-02,
6.60565123e-02,6.59573823e-02,-1.47420079e-01,3.29064168e-02,8.90151709e-02,
-1.79822352e-02,-1.08333677e-02,4.17429395e-03,8.78425092e-02,-6.88805804e-02,
-2.70707130e-01,-5.71641736e-02,-6.40581250e-02,1.33198693e-01,-1.11773789e-01,
-2.12573763e-02,-1.77117400e-02,-1.47792831e-01,7.95654356e-02,7.03527778e-02,
8.78062025e-02,1.53492674e-01,-8.86344090e-02,1.02478378e-01,7.49394000e-02,
-1.32498629e-02,-1.27961278e-01,-5.26704872e-03,-1.51613802e-01,-7.76159717e-03,
-7.16537982e-02,-7.27092549e-02,-2.64857858e-02,-7.51092210e-02,2.59310231e-02,
-7.96632692e-02,-1.30713969e-01,-1.27531499e-01,-2.53797974e-02,-1.05698340e-01,
2.92212181e-02,5.57124838e-02,4.61492650e-02,-3.28454636e-02,-7.23144561e-02,
-4.37263958e-02,7.52825849e-03,5.22994623e-02,-1.08008981e-01,-7.82398805e-02,
7.54385665e-02,-1.29615545e-01,9.73140970e-02,-6.82258308e-02,-7.81344436e-03,
3.06668654e-02,-5.19658551e-02,1.74324703e-03,4.48146984e-02,-3.66197079e-02,
2.36900505e-02,3.64477024e-03,5.34391515e-02,-1.28244743e-01,-1.27001047e-01,
-1.03443071e-01,-8.31928328e-02,1.64649021e-02,2.70644426e-02,7.71433040e-02,
-3.68758179e-02,4.36934195e-02,-4.79171723e-02,9.15201567e-03,-8.87008756e-02,
-1.64784610e-01,-9.09629650e-03,7.72604346e-02,-7.07902238e-02,3.84557806e-02,
9.69301760e-02,-1.42675070e-02,3.67042646e-02,-2.54923422e-02,-3.68696302e-02,
1.86028853e-02,9.38987136e-02,7.59169981e-02,-1.35704437e-02,6.00817846e-03,
-6.80042282e-02,-1.08393408e-01,-6.07207119e-02,-4.95611876e-02,1.78467017e-02,
-4.95389551e-02,-7.77412653e-02,5.57685010e-02,-2.35123839e-03,2.90993731e-02,
-6.90460056e-02,-5.56580834e-02,-4.39040698e-02,-8.58272910e-02,-8.88457969e-02,
1.05845623e-01,-1.71237707e-01,-9.55087766e-02,6.81023579e-03,4.73602153e-02,
9.45998654e-02,-4.13502418e-02,-1.12439282e-02,1.33106440e-01,-1.77049786e-02,
-8.02878514e-02,4.72238474e-02,-9.89882648e-02,4.13995646e-02,6.84109703e-02,
8.57041217e-03,-3.65111865e-02,-1.27903461e-01,5.57405055e-02,1.20495513e-01,
7.16314092e-02,7.38498271e-02,-1.12060741e-01,3.68891284e-02,-6.95475414e-02,
-1.92399144e-01,6.55701458e-02,6.37708232e-02,5.53666279e-02,-2.55005397e-02,
4.73271273e-02,7.05452263e-02,-1.24005914e-01,-1.64970011e-01,1.07504763e-02,
4.52906312e-03,-9.70603526e-02,1.78413261e-02,-9.61748287e-02,7.00077266e-02,
-1.50951162e-01,2.78470144e-02,-1.04336776e-02,-1.37085570e-02,-6.09933436e-02,
-9.18754563e-02,8.24806914e-02,-1.18731938e-01,3.72751579e-02,-4.33852039e-02,
1.13573549e-02,-8.93441513e-02,-1.17683321e-01,-2.47338042e-02,-6.44063056e-02,
-4.87304553e-02,-6.39985502e-02,-1.93074327e-02,2.56955042e-04,-1.32687509e-01,
-1.02202609e-01,-4.72134277e-02,-1.36261761e-01,-5.37763676e-03,6.07736558e-02,
6.87787123e-03,2.20162421e-02,9.68482345e-02,3.28536890e-02,-1.19273655e-01,
-5.47937453e-02,2.49210428e-02,-1.64032653e-01,-8.49864259e-03,-1.65611342e-01,
5.81605807e-02,5.63997366e-02,4.25885580e-02,-2.65513584e-02,-1.18042909e-01,
6.21646978e-02,-5.23617640e-02,-5.25875017e-02,-2.47920528e-02,-5.70708606e-03,
1.37656584e-01,-1.39925241e-01,-3.07530966e-02,-8.95930529e-02,3.35641839e-02,
-3.56456116e-02,-1.15848370e-01,7.54009783e-02,7.20312595e-02,-8.44789967e-02,
-4.24563140e-02,-5.53430654e-02,-4.50613573e-02,-1.12575531e-01,1.38589934e-01,
9.86102670e-02,9.53830853e-02,-3.48501876e-02,-9.15342942e-02,-3.38288732e-02,
-9.19362828e-02,7.13934451e-02,-4.03176546e-02,-9.33881253e-02,8.38455483e-02,
-3.88012081e-02,-1.09248077e-02,6.63995519e-02,-5.76020069e-02,-1.16830453e-01,
-1.06434580e-02,3.69678289e-02,-9.94720086e-02,1.48155168e-01,-8.68194103e-02,
1.08371995e-01,-6.14064522e-02,1.23024331e-02,-1.27576694e-01,3.60365510e-02,
3.31944553e-03,-1.12994105e-01,-6.12252802e-02,8.86574537e-02,-1.88078463e-01,
-5.60780149e-03,-5.68324029e-02,-1.37306944e-01,-4.45009433e-02,8.59861821e-02,
-8.98801349e-03,1.23976111e-01,4.77627628e-02,-1.23205058e-01,6.23398088e-02,
1.60947666e-02,-3.44823487e-02,-6.21718168e-02,1.04035130e-02,-1.23717099e-01,
2.09841598e-02,5.20965010e-02,7.63512552e-02,8.85112584e-02,-1.22864164e-01,
-7.72210956e-02,2.81318575e-02,6.10164963e-02,-1.49556130e-01,-1.40718296e-01,
-3.67465131e-02,1.15613684e-01,3.47136445e-02,-7.06084371e-02,1.04582608e-01,
-1.83050856e-01,1.06507011e-01,-1.10789038e-01,6.71474934e-02,6.03179000e-02,
5.18468432e-02,-7.48138055e-02,3.68805453e-02,5.67629524e-02,-9.63465720e-02,
1.26177803e-01,8.83550718e-02,1.05384178e-01,-1.34798571e-01,8.36673677e-02,
-1.16122693e-01,-1.25797942e-01,-1.05586246e-01,-4.75616269e-02,-2.05330029e-02,
-7.02542737e-02,1.40116587e-01,-1.54432267e-01,-4.13875729e-02,-1.60658434e-02,
-1.19949700e-02,5.44883348e-02,2.23869774e-02,-2.94832438e-02,1.10562164e-02,
7.96488896e-02,4.01686803e-02,-4.84194793e-02,-7.87993222e-02,9.82611775e-02,
1.70991108e-01,-8.03778395e-02,-5.90260606e-03,9.25000533e-02,-1.16361259e-02,
-8.90003368e-02,-2.11961493e-02,-9.93577540e-02,1.26516190e-03,-6.82203323e-02,
-4.83274944e-02,4.05227244e-02,1.64079070e-02,-5.96160702e-02,7.68072233e-02,
-1.39682308e-01,3.65072936e-02,-1.18928158e-03,1.39222322e-02,-2.34763354e-01,
-1.24805197e-01,-7.82003105e-02,-1.25985052e-02,3.81997339e-02,-1.52939828e-02,
-1.02722503e-01,-6.04758561e-02,5.98417073e-02,-7.33223110e-02,-9.84483287e-02,
8.27229396e-02,5.93572296e-02,1.33636162e-01,1.38893068e-01,-9.31084007e-02,
1.47379741e-01,-1.16848990e-01,-8.89643133e-02,-1.46828786e-01,5.59101114e-03,
-5.48816547e-02,1.18526094e-01,-4.89295051e-02,8.11043754e-02,-9.37910154e-02,
-1.40903085e-01,3.12871896e-02,1.81038752e-02,-3.69362463e-03,-5.77299483e-02,
-1.73188392e-02,5.48093989e-02,1.02073271e-02,8.48171711e-02,-7.91403726e-02,
-5.78966886e-02,-1.39283672e-01,-1.35178035e-02,5.05744107e-02,7.18771806e-03,
-1.14892863e-01,7.17874765e-02,8.90636526e-04,-7.51793608e-02,4.05169092e-03,
-1.27063259e-01,-7.40670413e-02,2.39723548e-03,1.45522773e-01,-3.52747068e-02,
7.50256181e-02,1.16074763e-01,9.74739790e-02,-3.28627117e-02,1.05176512e-02,
-1.21686615e-01,-1.87734783e-01,3.17871310e-02,-1.69981178e-02,2.00216230e-02,
-6.68590814e-02,-3.48420925e-02,5.39044440e-02,-1.00045288e-02,-5.80288917e-02,
-7.11349174e-02,-6.05486482e-02,4.12968472e-02,-1.78283844e-02,-2.84149796e-02,
7.38504380e-02,-6.40076995e-02,1.20953470e-01,3.31343226e-02,4.17196713e-02,
-6.69791102e-02,6.13351800e-02,4.34747748e-02,-4.89963545e-03,6.94679543e-02,
2.59710047e-02,-1.24203525e-01,-1.25843704e-01,2.98500583e-02,-4.22190316e-02,
1.45633351e-02,-1.01491950e-01,-1.59673188e-02,3.20388041e-02,-4.43991572e-02,
6.95810318e-02,6.37748241e-02,5.04954681e-02,2.13587862e-02,7.15290336e-03,
5.26238903e-02,1.98720526e-02,3.86605859e-02,-5.87120466e-02,3.66776474e-02,
-1.11962473e-02,-6.69763088e-02,-7.00243413e-02,-8.42436925e-02,1.60012934e-02,
-5.57960533e-02,-2.09453590e-02,-1.44374430e-01,2.74660643e-02,1.72294360e-02,
-9.00330395e-02,1.20822219e-02,-1.92798022e-02,-3.24170440e-02,3.15764025e-02,
4.68644388e-02,-3.78897600e-02,-9.88486856e-02,9.55012590e-02,-1.17466919e-01,
2.68066525e-02,-9.73840728e-02,9.41336229e-02,-3.40775214e-02,-6.97974861e-02,
-6.48484752e-02,9.24813282e-03,-8.56823102e-02,9.21166167e-02,-6.58690557e-02,
-2.59810500e-02,-1.94206014e-02,-7.54270554e-02,7.38160536e-02,-1.63893968e-01,
-3.36280726e-02,-1.24365211e-01,9.50489659e-03,-7.76100755e-02,4.63250391e-02,
1.27988964e-01,5.38608618e-02,2.01475937e-02,-1.18849799e-03,-4.38149311e-02,
6.57363161e-02,-1.08032458e-01,-4.41367067e-02,5.50543703e-02,-1.71306103e-01,
-6.73242807e-02,6.61702678e-02,-4.41739187e-02,-3.75496857e-02,-8.97404253e-02,
2.42507346e-02,-8.13242048e-02,-2.77032163e-02,-6.31548166e-02,1.49573326e-01,
-2.88049988e-02,5.72743565e-02,6.83237240e-02,4.38388251e-02,3.43026742e-02,
-4.84125465e-02,-1.17574669e-02,9.87666380e-03,4.40708287e-02,-1.59736443e-02,
4.81298827e-02,5.76557219e-03,8.95741358e-02,-2.61436962e-02,-6.37060627e-02,
9.89611074e-02,-5.61358146e-02,-1.02143399e-01,-6.13106489e-02,-6.90616444e-02,
-1.58498839e-01,-8.82096589e-02,-7.59820491e-02,-1.73139200e-01,6.05649129e-02,
-5.26745133e-02,7.42761493e-02,9.79412645e-02,6.80898428e-02,-1.10643981e-02,
5.05891740e-02,-2.76196897e-02,-1.50154889e-01,-9.30488948e-03,1.38887912e-02,
4.75705490e-02,-5.46494871e-02,1.51241481e-01,-1.68197639e-02,-7.55300075e-02,
8.91637877e-02,-1.45079195e-01,-6.13076380e-03,-2.00048164e-02,2.14327630e-02,
-9.12041869e-03,1.25760466e-01,3.12049501e-02,6.53422102e-02,-2.18293026e-01,
-1.09361574e-01,-3.98219004e-03,-4.04831357e-02,-2.28424873e-02,7.42455870e-02,
6.39210688e-03,1.47770196e-01,5.13630100e-02,-1.66853547e-01,2.75634434e-02,
-1.21113405e-01,4.12915312e-02,9.20194536e-02,-2.28164177e-02,1.29068077e-01,
-1.86880212e-02,-3.65957106e-03,5.64226918e-02,-1.68249622e-01,-5.68791069e-02,
-1.65246814e-01,6.04094006e-02,-5.23378477e-02,5.20609841e-02,8.18925947e-02,
7.76034147e-02,1.29548177e-01,-1.26700968e-01,-9.36888382e-02,-4.92857909e-03,
-6.26468137e-02,-4.59653698e-02,2.82342434e-01,-2.32691213e-01,2.11374536e-02,
7.43958652e-02,5.65906055e-02,1.14521263e-02,3.26237418e-02,-7.56081641e-02,
1.05951831e-01,-1.10773422e-01,7.06026778e-02,-7.90740997e-02,1.03817709e-01,
-1.91022307e-02,3.27098593e-02,5.93899600e-02,-1.44257829e-01,-4.17251810e-02,
1.28144613e-02,6.26046360e-02,6.35836422e-02,8.48819036e-04,-8.57339129e-02,
-9.64556113e-02,-7.74172693e-03,-1.55723169e-01,7.90271722e-03,4.85097319e-02,
9.74706411e-02,5.74440844e-02,7.75456950e-02,-2.01312564e-02,-6.82080835e-02,
-7.20816627e-02,1.78833053e-01,-1.92828442e-03,-6.43269420e-02,-1.00294381e-01,
6.37658313e-02,-8.81122798e-02,1.31763276e-02,-4.06438038e-02,3.90205309e-02,
5.55728972e-02,2.73003932e-02,-5.36339022e-02,-7.85242617e-02,-5.58315180e-02,
-2.63022650e-02,2.68738088e-03,-2.28845909e-01,-8.87009278e-02,5.63648082e-02,
-3.06996168e-03,1.48281537e-03,-1.19594974e-03,8.37688372e-02,1.35490159e-02,
-9.12525803e-02,-1.17418051e-01,9.53363627e-02,-7.90867880e-02,9.48086381e-02,
-8.39542300e-02,-5.91267422e-02,-7.07760677e-02,-7.09901825e-02,3.41155790e-02,
4.11047824e-02,-2.62773875e-02,3.75078656e-02,1.88738313e-02,-2.17960496e-02,
-7.86030740e-02,1.27292871e-01,1.47587717e-01,7.11332336e-02,1.38244787e-02,
-1.33931339e-01,-1.73293464e-02,-1.16294146e-01,5.97926788e-02,-9.23383161e-02,
2.82668014e-04,9.15279984e-02,2.33944412e-02,6.52979612e-02,-8.91909450e-02,
6.53127432e-02,8.30889791e-02,-1.31040579e-03,-2.21192688e-02,-9.43065528e-03,
9.37029161e-03,6.64496720e-02,-2.01390367e-02,-1.16005376e-01,-3.09746545e-02,
-2.14999299e-02,1.29513502e-01,-3.80014651e-03,-5.00480942e-02,-1.12472631e-01,
-1.29959911e-01,-1.05975412e-01,1.05033964e-02,1.74068864e-02,7.13123530e-02,
5.86445406e-02,-7.51646534e-02,-3.86898755e-03,3.03792469e-02,2.59329062e-02,
-3.06183677e-02,-2.90284865e-03,3.37238275e-02,-5.44378087e-02,-1.96210071e-02,
1.30982682e-01,-6.46013021e-02,-4.83159088e-02,1.29495606e-01,1.75678149e-01,
4.01171446e-02,9.95265469e-02,3.41647938e-02,-3.04247742e-03,-1.03549957e-01,
-6.62504369e-03,2.74776760e-02,2.49113701e-03,3.60647216e-02,5.23585938e-02,
-1.86694171e-02,-7.62567297e-02,-5.12252264e-02,-1.11621879e-01,9.22103822e-02,
-5.02158403e-02,8.51892680e-03,1.35136358e-02,-9.48707107e-03,-1.32732272e-01,
-1.05120488e-01,8.93160030e-02,1.35991886e-01,-7.48262107e-02,-2.61812583e-02,
5.01625575e-02,-6.67021573e-02,-3.79751176e-02,4.80365865e-02,1.41675957e-02,
-8.29340294e-02,-1.53891444e-01,-2.36086342e-02,6.20149337e-02,-1.57965925e-02,
-3.70448222e-03,-6.54602945e-02,1.20747328e-01,-1.12155899e-01,-8.75341743e-02,
3.49188231e-05,-4.56716344e-02,-5.83013333e-02,-3.36311646e-02,4.24120389e-02,
3.15471664e-02,1.89090113e-03,-6.51929229e-02,-4.20755371e-02,-4.32803594e-02,
-3.37169804e-02,-1.01829916e-02,-9.97220054e-02,-8.62534046e-02,-1.08013518e-01,
-4.49900702e-02,-7.29171708e-02,-7.30847195e-02,-4.12525237e-02,5.81098581e-03,
3.31516191e-02,7.45592415e-02,6.44888058e-02,1.21493295e-01,-7.82485083e-02,
-1.12292236e-02,9.16946307e-02,-4.13748808e-02,-1.22957686e-02,-1.15724429e-01,
-4.44745310e-02,1.46952393e-02,-9.57912579e-03,2.13738736e-02,-3.35463956e-02,
-6.19368292e-02,-7.68108219e-02,1.37202814e-03,1.10126808e-01,-4.67141122e-02,
7.20534772e-02,7.08903447e-02,-9.01183230e-05,9.00657624e-02,-4.14463021e-02,
-1.01294249e-01,3.39982496e-03,-6.69342279e-02,7.00829923e-02,-4.55053374e-02,
1.60766438e-01,4.33159471e-02,-5.66536859e-02,-9.89041030e-02,8.57593939e-02,
-6.75729364e-02,-2.21086536e-02,1.20653860e-01,-5.88113368e-02,1.36218658e-02,
-1.03395909e-01,-8.22685137e-02,1.73328184e-02,3.44373472e-02,6.63670972e-02,
3.26432362e-02,5.75648248e-02,-1.02743976e-01,5.86457215e-02,-8.87967348e-02,
-2.17129700e-02,-9.93868560e-02,8.05581957e-02,-5.09788767e-02,-4.90571931e-02,
2.75057983e-02,1.50252031e-02,-9.16420296e-02,-1.69117525e-02,-7.12193251e-02,
-2.31623650e-02,-3.23796272e-02,-1.65800422e-01,-8.13396797e-02,6.57558367e-02,
9.75402743e-02,-5.02584837e-02,7.69147724e-02,7.44291246e-02,8.54259804e-02,
-1.28081605e-01,-1.39240354e-01,-1.94913354e-02,5.05295582e-02,-3.70209999e-02,
-5.33038899e-02,-7.60625601e-02,-1.16603807e-01,-3.24433446e-02,-1.29198298e-01,
6.16671816e-02,-4.50018980e-02,-2.79881638e-02,-5.05623929e-02,-9.51960906e-02,
7.05728009e-02,-8.73152539e-02,-5.91371283e-02,1.49304066e-02,-2.43119858e-02,
-2.84958500e-02,-3.47044840e-02,-8.87790099e-02,-1.25812754e-01,9.22360048e-02,
-9.47559252e-02,-7.75761083e-02,8.78188685e-02,-5.17928675e-02,-5.86431213e-02,
-1.16761439e-01,2.81847604e-02,-5.34817018e-02,-6.07110187e-02,-6.72970340e-02,
9.53906327e-02,6.12232741e-03,-5.38971052e-02,-7.53758699e-02,-4.24327031e-02,
2.71707233e-02,-3.11827473e-02,-9.02408361e-02,5.49501441e-02,1.84972733e-02,
-8.27737823e-02,5.50531112e-02,-1.18344553e-01,5.66907898e-02,-2.05027424e-02,
5.57313189e-02,4.20943946e-02,-1.22902796e-01,6.29959479e-02,-8.15201923e-02,
-1.42221794e-01,-9.80341882e-02,-1.22811273e-01,3.42700407e-02,-1.00002326e-01,
-5.84029742e-02,1.90126207e-02,-4.68937978e-02,2.24049594e-02,3.05396505e-02,
1.61247570e-02,3.03128827e-02,-9.17428359e-02,-1.18649088e-01,-8.61499738e-03,
-8.67614076e-02,-1.01258487e-01,-1.08462021e-01,7.16072246e-02,2.24009603e-02,
2.73431987e-02,-1.23109646e-01,3.43814050e-03,-6.80179745e-02,-1.20590679e-01,
-4.23857458e-02,-9.39353108e-02,-9.00405869e-02,2.35468931e-02,7.04874005e-03,
3.95590365e-02,-4.98764217e-02,4.11242768e-02,1.86726853e-01,5.33190370e-02,
-9.93264187e-03,-1.62104219e-02,7.76473731e-02,3.61299627e-02,1.06269836e-01,
7.10515380e-02,1.62989721e-02,-8.00480172e-02,-9.74447802e-02,-1.58698112e-02,
-7.02897459e-02,1.07483482e-02,7.72043988e-02,-2.96187922e-02,-1.22387223e-01,
8.65058005e-02,-4.70476672e-02,-1.47130340e-01,-3.42162326e-02,-3.49210165e-02,
1.08748771e-01,-3.19990739e-02,1.81685202e-02,2.90345345e-02,-1.97992213e-02,
-7.32391924e-02,-2.07446337e-01,-8.68022293e-02,4.08172645e-02,-6.75661564e-02,
-3.10397316e-02,-3.73963825e-02,3.65755074e-02,-6.16354272e-02,4.00997847e-02,
-3.18099931e-02,1.03252765e-03,-4.71185073e-02,1.16543792e-01,-8.36164877e-02,
-5.95157295e-02,5.01212627e-02,4.73807827e-02,-7.90190846e-02,2.52007023e-02,
4.67142314e-02,1.39510393e-01,5.18875010e-02,-1.58942640e-01,5.78606091e-02,
-1.96905863e-02,-3.77078429e-02,1.19880758e-01,1.93267427e-02,-1.47709809e-02,
-9.77425743e-03,3.32007855e-02,-5.90753071e-02,-7.02952445e-02,6.81540146e-02,
2.46832054e-02,-4.68952954e-02,-1.11422651e-01,-5.84044382e-02,-8.26126488e-05,
-6.39998615e-02,1.05175665e-02,2.85004340e-02,9.96218696e-02,-4.69012298e-02,
-5.47652692e-02,1.17885217e-01,-2.99982596e-02,-2.20706742e-02,1.28871631e-02,
-1.57122180e-01,8.51670653e-02,1.12481609e-01,-7.71614835e-02,3.11790314e-02,
5.75152691e-03,5.59117123e-02,-1.03680000e-01,4.41327877e-02,-8.66693037e-04,
7.40498900e-02,6.85674623e-02,-8.29175413e-02,2.65421495e-02,1.55563187e-02,
1.53078005e-01,6.78837113e-03,1.20611690e-01,-6.82934979e-03,-3.46304588e-02,
-1.69206828e-01,-1.74187452e-01,1.67322960e-02,-4.01700251e-02,-5.94220683e-02,
-5.30387163e-02,1.57650933e-01,6.77503496e-02,-3.25582474e-02,-8.03648029e-03,
-2.20667552e-02,-3.75450067e-02,2.28780154e-02,3.50182988e-02,-2.04603955e-01,
-1.46474438e-02,3.75058502e-02,1.15435906e-01,1.90849025e-02,5.91965839e-02,
-2.66912542e-02,2.45724842e-02,1.00819692e-01,2.11985987e-02,-5.40438741e-02,
-1.23096190e-01,-4.20980342e-02,-4.14799191e-02,1.72726482e-01,1.68861464e-01,
9.98978317e-02,-8.62280726e-02,-2.80044377e-02,-9.55236889e-03,6.94523454e-02,
-1.19917523e-02,-5.29036857e-02,2.98364069e-02,-3.64868180e-03,3.11170314e-02,
-5.96229210e-02,2.44447589e-02,2.78388001e-02,1.06036901e-01,-1.24161191e-01,
3.77090322e-03,6.36990741e-02,1.01690046e-01,-4.59465198e-02,-7.87779540e-02,
6.16548024e-02,2.67140530e-02,-1.08029939e-01,6.83870749e-04,-1.74041465e-02,
-4.86369245e-02,8.96644667e-02,5.26553877e-02,-8.26689303e-02,-3.23805399e-02,
-1.99845843e-02,-2.10040938e-02,2.68839411e-02,2.43388303e-02,-3.09145041e-02,
5.20207211e-02,-1.65822953e-02,-3.18185538e-02,5.80945499e-02,-4.84930128e-02,
-9.68755409e-02,6.78505749e-02,-3.29627767e-02,-1.26937656e-02,1.71828911e-01,
1.01712957e-01,-9.82916728e-02,1.33135682e-02,1.75120439e-02,-8.71551260e-02,
1.81043252e-01,3.56870033e-02,1.83154084e-02,-2.83194911e-02,-9.26082581e-02,
4.50733304e-02,6.72358721e-02,2.59034019e-02,-4.16085459e-02,-1.00297004e-01,
-5.26160449e-02,8.07709768e-02,1.10814631e-01,6.40854165e-02,1.60810560e-01,
1.34487167e-01,6.02177717e-02,-2.66654585e-02,5.12506627e-02,-8.10089633e-02,
-5.74120209e-02,4.41804230e-02,-1.21788085e-02,6.00301288e-02,1.61166545e-02,
8.63110274e-02,-8.11311707e-04,1.63436651e-01,7.38177896e-02,-4.02048342e-02,
-7.24674761e-02,2.38887873e-02,-3.63624953e-02,9.32512339e-03,-8.61862004e-02,
-3.44326198e-02,1.65348038e-01,-5.07699186e-03,-1.16195202e-01,6.31005678e-05,
3.69628146e-02,-7.47279897e-02,-3.80945802e-02,1.27655208e-01,-5.79907335e-02,
3.80701572e-02,1.22658551e-01,4.51297946e-02,-9.37852040e-02,-4.01233621e-02,
-9.10399389e-03,1.07585043e-01,8.91551897e-02,-3.00284438e-02,8.05594102e-02,
-2.76274215e-02,3.51773426e-02,-4.27918658e-02,-1.91379804e-02,-3.54219563e-02,
6.96983486e-02,-3.98573205e-02,3.82934958e-02,3.03827729e-02,4.20046225e-02,
5.01218252e-02,-5.08027747e-02,-2.57319491e-02,-7.99791366e-02,1.21215351e-01,
-3.08047999e-02,-8.22606534e-02,-8.14457834e-02,6.70764968e-03,-4.61485470e-03,
5.91044575e-02,-1.87255088e-02,1.87393706e-02,-6.23032041e-02,7.09587410e-02,
-5.06432019e-02,-1.38111031e-02,-4.12772670e-02,-3.85288633e-02,-7.95907378e-02,
-6.92770258e-02,-9.71704572e-02,-5.56144901e-02,-6.10636882e-02,9.02838334e-02,
1.25962898e-01,-6.12476692e-02,-6.48270175e-02,9.01352540e-02,1.09062260e-02,
1.79523289e-01,5.34730591e-02,-9.07442272e-02,9.86075625e-02,4.94393222e-02,
-2.79279314e-02,-7.83949494e-02,1.86641905e-02,2.41929404e-02,2.03431532e-01,
-9.48255286e-02,-1.32360831e-02,-5.68729006e-02,7.64999464e-02,-6.50599077e-02,
6.00072965e-02,2.60407999e-02,-3.70178595e-02,-6.28002658e-02,7.15346038e-02,
1.33624971e-01,4.90327319e-03,-5.38402945e-02,-1.10570356e-01,7.96247497e-02,
4.63934056e-02,3.30553949e-02,7.63115957e-02,-1.92570128e-02,2.30969745e-03,
-5.93136214e-02,-4.77737375e-02,7.73361251e-02,-4.37815394e-03,-1.04257442e-01,
5.02669141e-02,7.67451897e-02,-5.82314320e-02,7.50421286e-02,1.78391654e-02,
1.29326150e-01,2.69512869e-02,-1.55722452e-02,-5.65594137e-02,3.01777665e-02,
4.95382063e-02,-7.86511041e-03,7.54852369e-02,3.20938416e-02,-9.32686031e-02,
2.16630870e-03,4.67136391e-02,-4.15332019e-02,9.47969779e-02,-1.09388120e-02,
1.64466817e-02,-1.77601259e-02,9.00575295e-02,2.22642533e-02,1.41424928e-02,
1.09913694e-02,8.71581510e-02,4.39453311e-02,-6.02128096e-02,-4.39378768e-02,
3.53172049e-02,-1.18698215e-03,1.69632409e-03,5.15220053e-02,-3.94806564e-02,
-2.39949264e-02,4.36226688e-02,-4.51743510e-03,-7.46747628e-02,-9.44277272e-02,
3.00971349e-03,1.15202270e-01,7.49374554e-02,1.18984587e-01,4.55553904e-02,
-2.59349984e-03,5.70021793e-02,-4.16347422e-02,3.93431215e-03,1.45610452e-01,
3.95130180e-02,1.22557275e-01,1.22608617e-01,6.62530065e-02,1.26769871e-01,
-1.43433528e-04,-3.41025256e-02,-7.86063671e-02,9.21784043e-02,-1.14559971e-01,
-4.45793271e-02,-2.93833315e-02,-2.30588373e-02,-7.64280150e-04,1.06011331e-01,
9.35386717e-02,8.43305290e-02,1.48002177e-01,1.69701187e-03,4.21621092e-02,
-6.70904592e-02,1.11293711e-01,-2.79326793e-02,-1.40233152e-02,-3.87907773e-03,
8.58385786e-02,-1.45935295e-02,-3.23147066e-02,-4.69190925e-02,-4.93859351e-02,
-4.59118187e-02,-4.31452803e-02,-6.67001680e-02,-6.75512627e-02,-3.42926197e-02,
8.45465288e-02,5.00620678e-02,-8.30381736e-03,6.63957596e-02,-7.06713945e-02,
8.88763294e-02,-2.27805004e-02,3.30750681e-02,7.04083918e-03,1.18792944e-01,
3.74856815e-02,-7.09251910e-02,4.73479591e-02,8.58494192e-02,-5.52346755e-04,
6.46357015e-02,1.03822164e-01,1.88741326e-01,8.22392553e-02,-7.27195740e-02,
9.53429788e-02,1.12763971e-01,-7.80891180e-02,-7.98038691e-02,-3.61111872e-02,
8.28585550e-02,-8.37340802e-02,-5.25685139e-02,3.44345681e-02,6.63321167e-02,
1.49216857e-02,-3.29597481e-02,-4.16194126e-02,1.97355598e-02,1.02052458e-01,
4.77225408e-02,-9.36946657e-04,2.53226869e-02,5.56664504e-02,3.57235074e-02,
1.99506134e-02,1.00554312e-02,5.54766580e-02,-7.24049062e-02,2.61657033e-02,
6.97705820e-02,6.94543645e-02,5.90761900e-02,-1.63534395e-02,8.37347209e-02,
9.05451104e-02,-8.76118392e-02,9.56343710e-02,3.26540805e-02,-3.40774953e-02,
5.55877723e-02,1.17250020e-02,-8.67728516e-02,4.61261459e-02,-5.04957661e-02,
-8.54137167e-02,6.55111372e-02,7.15882704e-02,-1.94064751e-02,-8.41521174e-02,
-5.74679337e-02,7.60813206e-02,-3.15043554e-02,6.84439316e-02,-4.61136512e-02,
5.16952910e-02,-5.14605902e-02,5.35182208e-02,4.74762879e-02,7.10653216e-02,
-2.73963325e-02,5.60892979e-04,-4.25417461e-02,-9.88980904e-02,3.16345580e-02,
-4.72948216e-02,-2.11403612e-02,7.06711039e-02,-3.77281457e-02,-3.21030989e-02,
1.18551254e-02,-1.27516473e-02,-4.17414531e-02,-7.20921159e-02,-5.60932048e-02,
-5.91126317e-03,4.88421582e-02,4.66250889e-02,4.00408506e-02,-1.37456357e-02,
1.16482764e-01,-1.06313311e-01,-3.24660316e-02,-3.25657018e-02,-1.18186891e-01,
1.06741898e-02,1.81883890e-02,-1.66122057e-02,-6.61284998e-02,-7.51823792e-03,
-2.57923398e-02,-5.95428273e-02,-3.31138773e-03,6.22260384e-02,-7.83583447e-02,
2.17175171e-01,-1.30855501e-01,8.10465366e-02,-1.60201378e-02,8.67960006e-02,
1.59911779e-05,6.18098862e-02,2.85899229e-02,1.04069211e-01,-5.88872433e-02,
2.92868875e-02,-1.27736563e-02,-4.82684225e-02,4.44398634e-03,8.97595361e-02,
-1.10849604e-01,-1.02412969e-01,2.30839960e-02,2.02202648e-02,-9.47846659e-03,
-8.03412274e-02,4.06677946e-02,-4.68791202e-02,1.00971460e-01,7.43090990e-04,
6.60960153e-02,3.50987203e-02,-5.10493573e-03,-2.42047995e-01,-2.01043263e-02,
-1.06384002e-01,-1.65646553e-01,-9.76433419e-03,-6.19182736e-02,-6.11713715e-02,
1.24878600e-01,1.16318896e-01,-2.94740926e-02,-2.62499247e-02,1.32092476e-01,
4.52429103e-03,5.18094888e-03,8.99373889e-02,3.38209905e-02,-6.58441859e-04,
-6.31871819e-02,8.79480541e-02,-4.23953608e-02,3.56083624e-02,-6.02561720e-02,
4.29333672e-02,-6.88703135e-02,-2.38350127e-03,-1.09501062e-02,6.23708591e-03,
-3.60140018e-02,1.78342797e-02,-1.44059090e-02,-2.17387336e-03,8.26128945e-02,
5.41051850e-02,-2.90064327e-02,-1.16813801e-01,-9.32864472e-02,-7.54087651e-03,
-2.57660542e-02,3.40980105e-02,7.76212895e-03,1.25763699e-01,1.24926015e-03,
1.44164547e-01,-3.65024880e-02,3.54847200e-02,-8.52860883e-02,-7.36972541e-02,
1.26494750e-01,-5.25387712e-02,1.03325218e-01,2.21590530e-02,-1.46883707e-02,
-3.24163027e-02,-2.30356157e-02,-1.09312322e-03,-2.28979923e-02,9.45733041e-02,
3.58558865e-03,-6.11681119e-02,5.98456003e-02,1.84273142e-02,-9.05462366e-04,
-8.38485360e-02,-8.63626674e-02,2.09392067e-02,7.32347891e-02,7.97584560e-03,
3.75980511e-02,-1.27103865e-01,4.67123650e-02,-6.89060390e-02,2.06061285e-02,
8.19834024e-02,1.35933176e-01,6.84594810e-02,5.66192642e-02,-6.65680915e-02,
3.17523666e-02,-4.02819701e-02,-5.99314049e-02,-2.48490721e-02,9.45546329e-02,
9.61330608e-02,-3.83009240e-02,9.34308916e-02,1.17406689e-01,-7.21663088e-02,
1.22984834e-01,-4.06475775e-02,3.15058269e-02,9.28506553e-02,-9.91411060e-02,
-1.09643511e-01,-1.39649466e-01,-2.84099556e-03,-3.19332955e-03,4.35561463e-02,
1.43619210e-01,1.61656011e-02,1.14985947e-02,2.21658632e-01,5.85247204e-02,
4.00266759e-02,9.65336189e-02,-1.52246309e-02,-2.17472091e-02,8.36176276e-02,
2.11523786e-01,4.24939021e-02,-4.82193008e-02,3.16766463e-02,1.66317672e-01,
-5.27528077e-02,-2.18228269e-02,8.87967199e-02,-7.65788555e-02,6.09651916e-02,
7.21247569e-02,-1.27487898e-01,8.93520042e-02,5.42473830e-02,5.77608049e-02,
1.20802578e-02,-5.36379404e-02,-3.08290333e-03,5.49731180e-02,5.85323125e-02,
5.16681187e-02,4.51470017e-02,-1.70131084e-02,-7.68401176e-02,-6.18086345e-02,
-4.97313067e-02,-5.31501696e-02,-3.41989398e-02,-8.08071643e-02,-7.10437819e-02,
-2.92184819e-02,8.18703473e-02,1.78536568e-02,8.23116004e-02,3.24160494e-02,
4.45748158e-02,8.90758634e-02,1.05360009e-01,7.99971074e-02,1.11859869e-02,
-8.52447152e-02,-3.96003872e-02,-3.30322944e-02,-6.43528253e-02,-8.09794739e-02,
5.24198934e-02,-2.01502759e-02,6.49508089e-02,6.48232624e-02,4.60303240e-02,
-4.19864357e-02,9.92524549e-02,-8.98186192e-02,-4.61184978e-02,-6.17051870e-02,
-7.75371045e-02,1.71641354e-02,-2.24295314e-02,-7.43880197e-02,8.25232768e-04,
-8.53784457e-02,9.69624296e-02,2.01636609e-02,1.01958856e-01,-1.31108195e-01,
-1.51133342e-02,-1.07187673e-03,-4.78816368e-02,8.10010508e-02,1.68249253e-02,
-3.32457423e-02,3.43091488e-02,6.11425601e-02,1.49119556e-01,7.06463009e-02,
5.26130125e-02,5.54984063e-02,1.56825967e-02,-6.83927909e-02,4.26883139e-02,
-6.23054020e-02,9.81205478e-02,-6.11563660e-02,-7.10410578e-03,3.79152931e-02,
1.66185930e-01,-1.17103480e-01,-2.00545549e-01,5.81880622e-02,-1.92785114e-02,
1.43889815e-01,-2.70900298e-02,1.16897881e-01,-3.61237451e-02,-1.13688139e-02,
5.97919039e-02,4.67133932e-02,-7.45970476e-03,-4.92047220e-02,-1.23420827e-01,
1.98233090e-02,-5.46884835e-02,-7.77853653e-02,-6.39820695e-02,-9.77900997e-02,
1.17354661e-01,-1.47536793e-03,-9.02817547e-02,-5.41235767e-02,2.62283031e-02,
-7.52016827e-02,8.21533054e-02,-1.26353865e-02,8.75271782e-02,-9.83689278e-02,
5.72394617e-02,-4.74108830e-02,7.40402266e-02,-5.38503043e-02,4.51467335e-02,
7.38906637e-02,-2.52059530e-02,-7.76143074e-02,-2.02756157e-04,8.87419805e-02,
-7.85083789e-03,5.03279492e-02,9.37003940e-02,7.14741424e-02,1.31282717e-01,
8.43988732e-03,-1.70831755e-02,1.17051512e-01,-7.78183434e-03,-1.96135238e-01,
-4.01817858e-02,-4.12232578e-02,1.19149387e-01,5.32413609e-02,-8.43313560e-02,
2.94662062e-02,-4.77323309e-02,1.82232633e-01,-6.49698228e-02,-2.92380806e-02,
-6.12255149e-02,1.36159539e-01,1.43225536e-01,-5.62639814e-03,5.76322526e-02,
5.41005544e-02,-7.99394995e-02,1.83092635e-02,-3.57702412e-02,3.58127058e-02,
-2.71718614e-02,-7.18392953e-02,-1.34328291e-01,1.29843622e-01,-4.56145480e-02,
1.03201240e-01,-1.17750242e-01,-3.63354362e-03,-4.95967008e-02,3.07765119e-02,
1.17949359e-02,2.27402784e-02,1.29510254e-01,2.95067076e-02,5.44536412e-02,
-1.98994428e-02,1.10024652e-02,-1.26990765e-01,3.67749594e-02,-8.49874020e-02,
-4.53580469e-02,-4.91658933e-02,1.05940223e-01,4.48364206e-02,-3.66134383e-02,
6.02666065e-02,3.18472646e-03,5.07480204e-02,8.64972472e-02,1.06842145e-01,
-7.28308633e-02,1.81944929e-02,-8.42412636e-02,-6.25997558e-02,-1.34386458e-02,
-1.15253702e-01,-6.83984831e-02,-5.49617857e-02,-5.53871505e-02,-3.09529547e-02,
1.82798691e-02,1.04519874e-01,8.25175494e-02,-1.03531748e-01,2.13884544e-02,
5.63166179e-02,-1.64013414e-03,-5.64751327e-02,8.33742768e-02,-6.56227991e-02,
-6.38414994e-02,5.96060045e-02,6.02074154e-02,3.14721745e-03,-6.98041841e-02,
1.77447814e-02,-2.53774319e-02,-7.35372379e-02,-2.94194948e-02,-7.39146546e-02,
-1.52366012e-01,8.17064941e-02,-3.97971869e-02,-6.11654408e-02,-4.23336849e-02,
8.29930007e-02,-2.60993801e-02,-1.64980860e-03,1.32748052e-01,-4.80028950e-02,
4.26315628e-02,3.70316356e-02,5.12217432e-02,-7.44506577e-03,1.85093004e-02,
-9.09926370e-02,-2.36883219e-02,5.59804291e-02,1.06050642e-02,1.48067996e-01,
6.13643527e-02,-5.90768084e-02,-1.55286929e-02,-3.90482433e-02,-4.30486947e-02,
1.31024927e-01,-1.03562959e-01,8.61549303e-02,-2.06235461e-02,-6.89057335e-02,
-1.02310460e-02,1.36851594e-01,-5.83643578e-02,-5.61742671e-02,-5.08330204e-02,
-7.70324394e-02,2.91788485e-02,6.43637851e-02,8.06847215e-02,-3.36125791e-02,
-1.20745704e-01,6.70005903e-02,1.54318377e-01,-5.00885434e-02,-4.36378159e-02,
1.41474888e-01,-3.40093523e-02,7.06585571e-02,2.35664248e-02,-2.69936305e-02,
-7.23040327e-02,9.38564725e-03,-1.91898853e-01,-4.92869727e-02,1.32776797e-01,
1.30337216e-02,7.92134851e-02,-1.88448168e-02,8.81240144e-02,-3.41058932e-02,
1.19832285e-01,-7.09882658e-03,-4.46743816e-02,-1.06415257e-01,9.98158455e-02,
6.38251305e-02,7.62612671e-02,3.37394467e-03,1.54802960e-03,1.50123641e-01,
6.46865740e-02,-7.44310766e-02,6.98233247e-02,-2.22120639e-02,-6.59872070e-02,
1.14069216e-01,1.70101821e-01,-7.44859595e-03,9.76425596e-03,2.25469451e-02,
1.31148398e-01,1.32768288e-01,6.08477481e-02,4.01765220e-02,1.77938212e-02,
4.64309752e-02,-2.87987236e-02,-1.15675693e-02,-6.70519331e-03,1.18727572e-01,
-6.19065985e-02,-1.08094342e-01,-8.61885250e-02,7.74720386e-02,5.50549142e-02,
9.15546156e-03,6.23338260e-02,-8.15836266e-02,1.40397221e-01,1.13000115e-03,
-1.62379473e-01,3.22641060e-02,4.76600267e-02,-1.39651708e-02,-3.26720737e-02,
7.08566681e-02,5.03825955e-02,-4.12622280e-02,-6.75028339e-02,-5.71196042e-02,
-8.37754644e-03,6.21513613e-02,3.37804593e-02,3.49988639e-02,1.68229491e-01,
5.97799681e-02,8.96495953e-02,-1.12541504e-01,5.55884279e-02,-4.77303788e-02,
3.34524289e-02,9.39106271e-02,9.87657830e-02,-3.84367071e-02,-1.49472430e-02,
-1.15376182e-01,-5.51782474e-02,9.17241722e-02,-4.66025174e-02,6.39113560e-02,
-8.28483552e-02,2.48845946e-02,-9.86155793e-02,4.11642864e-02,-5.88150211e-02,
-1.24673009e-01,-6.23104386e-02,1.08793797e-02,-9.12687257e-02,1.16081968e-01,
-5.45377731e-02,6.14845008e-02,-1.84301846e-02,1.29578233e-01,-4.53627259e-02,
-1.00974768e-01,-2.61989236e-02,-1.18344404e-01,-1.14127718e-01,1.28571898e-01,
4.87532057e-02,-6.60642330e-03,-3.66983153e-02,3.01220138e-02,1.79324877e-02,
2.30225623e-02,4.66277730e-03,-1.04196794e-01,3.00017670e-02,-8.33372492e-03,
-6.91893846e-02,1.06892832e-01,1.48548916e-01,-3.16159651e-02,-8.18039523e-04,
-7.39363506e-02,-9.35610309e-02,3.02727968e-02,7.17457384e-02,5.97997122e-02,
-3.79010569e-04,8.77372548e-02,6.86232448e-02,6.36539841e-03,7.52627524e-03,
-1.37235641e-01,-5.55251613e-02,8.30473155e-02,-2.26695389e-02,-2.02750228e-02,
-1.64485183e-02,5.69195151e-02,4.02054712e-02,-1.17768468e-02,4.82415296e-02,
1.36950254e-01,1.20908700e-01,-5.97540252e-02,1.15348496e-01,8.84667709e-02,
-7.62949660e-02,1.66129202e-01,5.07534295e-02,-7.52560347e-02,2.26562526e-02,
8.00115243e-03,1.43121123e-01,-6.83147237e-02,-8.06333423e-02,-2.18973644e-02,
1.15585923e-02,4.93192226e-02,3.74532975e-02,4.06043269e-02,-3.15623842e-02,
-4.68699597e-02,-7.65434206e-02,-1.32713411e-02,-8.23902339e-02,1.90753359e-02,
1.92651134e-02,3.77255194e-02,1.98411383e-02,5.63189089e-02,1.74959123e-01,
1.92625951e-02,-3.02121323e-02,-9.26861390e-02,-8.77164770e-03,2.99274419e-02,
-1.06842563e-01,-6.59378991e-02,1.10622332e-01,-6.83445409e-02,6.85169697e-02,
1.04314439e-01,-5.11058271e-02,-4.78263572e-03,-1.28499493e-01,1.35170519e-01,
1.43748954e-01,-3.33039165e-02,1.32400393e-01,-7.77066872e-02,6.38240278e-02,
-3.96219902e-02,1.91308686e-03,1.00230925e-01,-6.28573075e-02,9.35570598e-02,
1.43476035e-02,4.28886078e-02,-6.98169917e-02,3.18652913e-02,3.28513347e-02,
-3.72264832e-02,-8.64231214e-03,-6.56220317e-02,-7.29411244e-02,1.52242482e-01,
-6.70397505e-02,-3.73862498e-02,7.84868468e-03,-4.07337509e-02,-2.42231060e-02,
-2.38614511e-02,1.03931472e-01,-5.42310141e-02,9.98275261e-03,9.73899942e-03,
1.21105559e-01,-1.14945590e-01,-8.35744143e-02,-3.22691612e-02,5.60063869e-02,
-8.23164475e-04,-1.22665271e-01,-5.15375379e-03,1.26871154e-01,-3.02414577e-02,
6.91175759e-02,5.99391758e-02,-3.51061858e-02,8.35395306e-02,8.08798298e-02,
-1.50495678e-01,-1.06697399e-02,1.30868122e-01,-9.98387039e-02,-1.56691983e-01,
5.45995571e-02,-1.13804184e-01,2.03704298e-03,2.78354343e-03,-1.99605972e-01,
-4.48003411e-02,-5.31277321e-02,1.47984371e-01,-3.64384912e-02,-2.13018674e-02,
-1.00925416e-01,-9.23819616e-02,4.98980172e-02,-5.64937368e-02,2.86038406e-02,
1.28414243e-01,2.82960050e-02,2.63839066e-02,1.26840547e-01,-2.38542985e-02,
-5.74469613e-03,2.01247144e-03,-6.73675537e-02,-4.42407206e-02,-2.08607614e-02,
-1.19324550e-02,9.05767921e-03,-2.26144027e-03,1.10754175e-02,-8.76189321e-02,
1.44778769e-02,2.00358167e-01,7.69979581e-02,4.74114567e-02,-3.91671546e-02,
3.40158562e-03,8.78530443e-02,5.99517077e-02,-8.02539736e-02,-4.53042388e-02,
7.68783465e-02,2.57573575e-02,-8.62650052e-02,9.32359472e-02,1.11892903e-02,
9.69406813e-02,8.34418926e-03,2.56568734e-02,6.48410842e-02,-2.54594963e-02,
-8.18424113e-03,3.05520371e-02,1.31855726e-01,7.46504888e-02,-5.40370978e-02,
3.46627943e-02,2.04682246e-01,-4.96689603e-02,-7.18519464e-03,1.11007094e-02,
1.09431334e-01,-4.62299287e-02,-1.44624524e-02,-2.11311523e-02,-1.39982998e-01,
9.19414833e-02,5.95591664e-02,-2.13180743e-02,-6.69236702e-04,7.00281113e-02,
-8.84308368e-02,1.02829985e-01,7.81633034e-02,3.45863216e-03,-6.18087426e-02,
-5.01710456e-03,3.59160192e-02,-3.01180761e-02,-3.60914916e-02,-1.31878436e-01,
-6.88294247e-02,-6.81082830e-02,-2.87465751e-02,1.91664487e-01,8.02010372e-02,
6.85945973e-02,-9.60436836e-02,-1.49678830e-02,-1.66296721e-01,-9.39409882e-02,
-3.29453754e-03,1.27734840e-01,1.09975180e-02,-4.57403176e-02,-9.88543779e-02,
5.91376536e-02,6.30067242e-03,7.44367912e-02,2.03624321e-03,-2.77923811e-02,
5.79763018e-03,4.29642722e-02,-2.27980246e-03,-1.33038387e-01,-1.06248990e-01,
8.28775167e-02,1.62790082e-02,5.72956242e-02,-6.30453080e-02,-2.92675663e-02,
-5.26243336e-02,-9.86274630e-02,9.42342430e-02,-1.28141269e-01,-1.22176401e-01,
9.93049443e-02,-5.74720018e-02,-5.38934469e-02,-5.44010550e-02,-3.52901630e-02,
-2.11891998e-02,-5.31155542e-02,6.81824563e-03,-2.83801798e-02,-7.73217231e-02,
4.90432233e-03,-1.10749397e-02,3.68526345e-03,6.48933500e-02,1.56753417e-02,
-7.47984573e-02,-1.09142698e-01,1.17632955e-01,-5.76605201e-02,-1.03272021e-01,
5.51306009e-02,5.04533201e-02,-8.53625964e-03,1.35993078e-01,1.03162304e-01,
6.47264868e-02,-3.92529070e-02,6.76340908e-02,9.03988853e-02,-4.18951139e-02,
2.04013251e-02,-1.41824083e-02,-4.03480381e-02,6.75371736e-02,-6.81995675e-02,
-1.02547184e-01,8.14135373e-02,-1.75384376e-02,1.40897939e-02,-1.78489331e-02,
-9.85228196e-02,6.00933656e-02,9.25792381e-02,-7.02840695e-03,-2.22270489e-02,
-1.28219053e-01,3.05863991e-02,-5.51586784e-02,-5.51031604e-02,6.67807087e-02,
1.19975097e-01,8.63145366e-02,-9.68626293e-04,4.71587852e-02,3.64073813e-02,
-8.68996978e-02,5.72743490e-02,4.01095971e-02,2.37999171e-01,9.06964112e-03,
-6.29667640e-02,-1.91580672e-02,6.50717467e-02,-6.45511672e-02,-6.10197596e-02,
-9.48203504e-02,3.61628011e-02,3.99548523e-02,-4.20303196e-02,-5.29382676e-02,
5.12774289e-02,-9.26563367e-02,-3.27668078e-02,1.06787995e-01,1.12413336e-03,
1.25041017e-02,2.41640545e-02,2.77038720e-02,1.81366056e-02,-7.50401169e-02,
-5.24441653e-04,-3.33554670e-02,1.38920307e-01,6.29275013e-03,9.03895944e-02,
-6.40127435e-02,-1.08764172e-01,7.31672943e-02,-6.59020469e-02,5.11763692e-02,
-2.80651581e-02,2.91871130e-02,5.45525923e-02,1.31221890e-01,1.59166043e-03,
1.27881899e-01,2.28329338e-02,9.55906659e-02,5.70750199e-02,2.52754483e-02,
-3.04800328e-02,1.57636143e-02,-9.63333175e-02,-1.80669837e-02,-3.02614905e-02,
-2.31202133e-02,9.38525945e-02,7.99321756e-02,-4.77754232e-03,1.07930653e-01,
-5.93299512e-03,1.23250894e-01,9.46893264e-03,3.83758917e-02,-1.01021796e-01,
-7.51343668e-02,5.60158230e-02,-4.72090766e-02,3.58706787e-02,3.88920680e-02,
1.28870979e-02,7.21750110e-02,-1.41118253e-02,1.97829921e-02,-6.35511875e-02,
-1.79546643e-02,1.54317722e-01,-5.52069768e-02,6.00124970e-02,5.43755591e-02,
-8.34748819e-02,2.68961210e-02,-5.80291934e-02,3.98009270e-02,-6.50155246e-02,
-1.08760754e-02,9.04790759e-02,-1.27930315e-02,1.01069570e-01,-9.10689756e-02,
-7.12133246e-03,-2.82697417e-02,3.65816690e-02,-1.12348884e-01,9.21809599e-02,
7.92002603e-02,-1.54007589e-02,4.32095565e-02,-3.23618352e-02,2.89285090e-02,
-6.11560009e-02,8.31367597e-02,-7.22950622e-02,6.71522468e-02,5.45211695e-02,
-7.03682303e-02,2.08396162e-03,-8.10115039e-02,6.45864084e-02,9.39128250e-02,
1.13236889e-01,1.31511688e-01,-5.00998981e-02,3.97241451e-02,-3.79015505e-02,
1.28030889e-02,-3.64817716e-02,1.90986898e-02,-1.64752677e-02,1.69454049e-02,
6.48216978e-02,-6.84027001e-02,4.99150716e-02,-7.56435245e-02,7.90972263e-02,
-1.42403552e-02,2.83777267e-02,7.66975954e-02,3.57329436e-02,6.76802769e-02,
4.13483158e-02,6.65947720e-02,-2.14616898e-02,-3.89982685e-02,9.98733491e-02,
-2.64486093e-02,9.73648354e-02,-5.08481674e-02,-5.28974971e-03,-9.51700881e-02,
-2.18024794e-02,4.66336124e-03,2.50543002e-02,-5.32446206e-02,-8.88557173e-03,
7.19735324e-02,-7.88652822e-02,-3.52931060e-02,-2.11042408e-02,-5.46161272e-02,
4.40406501e-02,-8.00745785e-02,1.55150499e-02,1.00218944e-01,-2.33094601e-04,
5.84190432e-03,-9.13062468e-02,-3.82440276e-02,1.62752233e-02,2.00560614e-02,
-3.00142355e-02,4.89199385e-02,1.52014215e-02,1.51903480e-01,2.66820639e-02,
9.09677446e-02,-1.09604383e-02,-4.03070226e-02,-1.36695215e-02,1.21560358e-01,
-7.57728517e-02,2.78116278e-02,-1.79714561e-02,7.74572119e-02,-1.73070151e-02,
1.52339898e-02,9.00050476e-02,-7.50849470e-02,2.81718317e-02,-1.77759286e-02,
1.10798143e-01,-6.77153654e-03,6.71576783e-02,-1.06586691e-03,-3.26278768e-02,
-4.46808040e-02,1.12859458e-02,1.04842030e-01,5.39025851e-02,6.33036569e-02,
-9.98996422e-02,-5.32200523e-02,-6.09910442e-03,7.18666287e-03,-8.15263167e-02,
4.18581180e-02,6.62928540e-03,-4.04581763e-02,5.70765371e-03,5.87610854e-03,
-6.37965351e-02,-7.39478916e-02,7.23784640e-02,-2.71882154e-02,-2.09059250e-02,
9.54653323e-03,-4.79633324e-02,-1.07152559e-01,8.66341293e-02,-4.90193069e-02,
-7.75425211e-02,1.16988160e-01,-6.42897747e-03,-1.85416325e-03,5.31515144e-02,
-7.48600736e-02,-9.29694902e-03,-1.12506710e-02,8.25288519e-02,-9.13540088e-03,
-1.07041001e-02,-9.61031616e-02,2.53478605e-02,6.82118163e-02,-3.98831256e-02,
7.90054053e-02,-5.74956462e-02,9.95838791e-02,-5.66777438e-02,5.00542223e-02,
-3.68545726e-02,9.23251510e-02,-4.02522758e-02,1.05566032e-01,-1.37673169e-01,
-1.61771942e-02,-1.22937206e-02,3.73206772e-02,6.06258512e-02,2.66030617e-02,
-4.40234020e-02,7.24683180e-02,2.51152869e-02,1.25795901e-01,4.31168303e-02,
2.42424384e-02,-4.36886884e-02,-2.16790676e-01,1.58571377e-01,-4.15263139e-02,
-4.90448177e-02,-8.27582181e-03,6.21616170e-02,2.61224061e-02,1.70990527e-02,
3.13810445e-02,1.11030139e-01,6.33831248e-02,-1.05174787e-01,-1.49751902e-01,
5.54144420e-02,1.33129470e-02,-6.83668181e-02,2.52415370e-02,-7.74377538e-03,
-9.55913588e-02,-1.20361321e-01,2.05130666e-03,-6.79285452e-02,-7.04592690e-02,
-1.01934858e-01,-6.37355372e-02,1.96316801e-02,-4.83796000e-02,-6.35304628e-03,
1.34537697e-01,-6.10125577e-03,-9.13521051e-02,1.12197407e-01,1.20871700e-01,
2.15420146e-02,-4.46953028e-02,-1.08845957e-01,-8.73702317e-02,4.36952151e-02,
7.68351778e-02,7.54343569e-02,-5.21808751e-02,-3.25176492e-02,-9.91722196e-02,
-2.28168014e-02,1.62837282e-03,6.41047657e-02,-6.91152066e-02,2.97471620e-02,
1.98209994e-02,4.64024581e-03,2.41298391e-03,-9.49028134e-03,-5.61332814e-02,
2.49584741e-03,3.26840617e-02,3.05700582e-02,7.37083629e-02,-1.27491936e-01,
-5.89982979e-03,1.28681958e-02,-6.04582112e-03,-9.60041955e-02,4.41225693e-02,
-5.35990745e-02,-1.28025506e-02,-1.25867510e-02,2.33943164e-02,-2.61899047e-02,
-3.31157073e-02,-7.55688921e-02,6.65807948e-02,6.47783726e-02,-2.92248428e-02,
1.78514048e-02,-3.64750624e-02,-3.34170014e-02,4.26910073e-02,-3.85306121e-05,
6.44808635e-03,6.39812201e-02,8.51772502e-02,1.67406090e-02,2.83931606e-02,
7.00980285e-03,9.99736041e-02,4.57835868e-02,1.07114419e-01,2.38285828e-02,
-1.23882286e-01,-4.62882929e-02,-5.75261749e-02,-4.95488197e-02,2.47014631e-02,
-2.23463215e-02,1.20160719e-02,1.26153305e-01,-6.67443722e-02,-9.96129960e-02,
1.70192197e-02,-5.61966049e-03,-1.54363597e-02,6.09211810e-02,-9.79981646e-02,
-4.64749373e-02,-8.11921954e-02,2.71301232e-02,-2.59755994e-03,-2.25048829e-02,
-1.42566577e-01,-6.62957206e-02,-2.77587436e-02,1.93972960e-02,9.46312211e-03,
-3.55513319e-02,1.12362161e-01,-2.96569094e-02,-8.19898248e-02,-5.28530590e-02,
2.25903075e-02,-3.31132412e-02,1.57919168e-01,-3.29892486e-02,-6.50951937e-02,
1.58669967e-02,-5.30328276e-03,2.13702805e-02,-7.97681361e-02,2.15766020e-02,
-4.19477150e-02,9.25480202e-02,1.94133669e-02,8.09494704e-02,-1.33723021e-02,
-7.08010271e-02,6.09454252e-02,5.51613793e-02,-7.39243766e-03,-1.02635890e-01,
-4.70046997e-02,2.26393063e-02,1.19083440e-02,-6.28421269e-03,1.11590773e-01,
-7.63429180e-02,-5.41521050e-02,-8.05076063e-02,-1.05595067e-02,4.65782173e-02,
6.00776747e-02,-6.50097504e-02,1.04657553e-01,2.39785928e-02,4.41570356e-02,
1.10615186e-01,1.40382918e-02,6.26618639e-02,5.76434545e-02,1.44267693e-01,
1.11571163e-01,-1.50618586e-03,-3.49329486e-02,-8.93838704e-02,1.06832437e-01,
-9.65485424e-02,1.32591659e-02,1.00048773e-01,3.00874724e-03,-1.14975562e-02,
3.89794335e-02,5.34490123e-02,1.02823041e-02,1.21726602e-01,9.27803814e-02,
5.46320900e-02,-9.01645347e-02,-3.48911509e-02,8.55042115e-02,1.27403826e-01,
-5.60348481e-02,9.77866948e-02,-6.42416179e-02,-8.12150985e-02,2.13673823e-02,
-4.54898216e-02,1.25249982e-01,-3.51894535e-02,7.16536790e-02,-1.19124278e-01,
2.38855034e-02,1.28920794e-01,-3.07229105e-02,7.55116045e-02,1.33604705e-01,
5.48335388e-02,-5.69242835e-02,-1.53199151e-01,-5.64475767e-02,-2.41383668e-02,
-2.61512143e-03,-1.06758192e-01,-1.01543553e-01,3.87589671e-02,1.76775700e-03,
6.93184659e-02,-2.35778298e-02,-2.21932102e-02,-2.27019913e-03,-8.49923193e-02,
-3.74456570e-02,-1.05644792e-01,-6.94151744e-02,3.12455231e-03,2.00918037e-02,
3.38249691e-02,5.57099357e-02,6.06463477e-02,-1.01203255e-01,-5.35401003e-03,
-2.38030851e-02,2.85160225e-02,-7.28149852e-03,-1.31103441e-01,1.47819883e-04,
3.79507765e-02,4.01256159e-02,1.38486132e-01,-4.50590625e-02,-1.01223607e-02,
7.85082504e-02,1.00022031e-03,5.87470420e-02,-2.36763805e-03,-1.57189481e-02,
-1.37495203e-02,-2.81740483e-02,-1.19692713e-01,-1.23387739e-01,1.42399436e-02,
8.62332731e-02,-4.33986969e-02,-8.34936202e-02,-2.03510001e-02,2.73152757e-02,
-9.98741612e-02,9.52687040e-02,1.50536597e-02,6.06428608e-02,9.19997413e-03,
1.28807826e-02,1.05304226e-01,2.95902509e-02,-6.53535053e-02,-2.06749644e-02,
8.24245624e-03,-5.15112914e-02,1.17003344e-01,2.37755384e-02,1.79614481e-02,
2.19138414e-02,-1.40629951e-02,7.85384029e-02,-7.62728080e-02,-3.48991640e-02,
7.89409205e-02,3.22086886e-02,-3.14960815e-02,-4.06658016e-02,9.18020383e-02,
-4.18969877e-02,-4.22531553e-02,-9.68477726e-02,2.74163056e-02,-3.31972539e-02,
-1.14858262e-01,9.74509120e-02,6.55324310e-02,4.50879373e-02,-8.22666567e-03,
6.48371801e-02,-5.44905141e-02,-1.76394675e-02,-1.95377953e-02,-8.79731029e-02,
-5.37485406e-02,-3.73050477e-03,2.44777035e-02,6.12863339e-02,-1.10029295e-01,
-7.94035122e-02,4.70965393e-02,6.26844540e-02,3.33524980e-02,-1.40222207e-01,
1.59396734e-02,1.39920488e-02,-9.18586031e-02,-3.88615951e-02,-8.57485458e-02,
6.44344511e-03,-9.55439657e-02,4.12568636e-02,-2.64834408e-02,6.62521422e-02,
-8.07038881e-03,7.53794834e-02,1.95534211e-02,-4.77828421e-02,1.51430210e-02,
-6.60823658e-02,6.60901293e-02,6.48216009e-02,8.20416138e-02,-9.38489363e-02,
7.54036382e-02,1.00794338e-01,3.06884069e-02,8.36230000e-04,3.45143974e-02,
-5.55162430e-02,-3.94675583e-02,-1.01873942e-01,-2.98371501e-02,5.11235325e-03,
8.04748163e-02,6.75856248e-02,9.87247080e-02,7.26446733e-02,-1.18986033e-01,
3.45156007e-02,-1.38103473e-03,1.11431539e-01,4.29965146e-02,4.51452695e-02,
-1.11516090e-02,7.67834783e-02,-3.55146974e-02,-9.23705474e-02,3.86721641e-02,
6.85735568e-02,-3.01657105e-03,7.53625333e-02,-1.92904228e-03,3.10807507e-02,
9.18526053e-02,-2.60955207e-02,7.86884129e-02,9.45446193e-02,-1.84915178e-02,
7.18182400e-02,4.24412265e-02,7.68412799e-02,1.18201658e-01,-1.21013381e-01,
-1.76190976e-02,-4.02121879e-02,5.03316633e-02,-7.02362731e-02,-4.09557000e-02,
-3.40433680e-02,-6.69669593e-03,7.25355372e-02,6.57098517e-02,2.80530509e-02,
5.49759604e-02,7.43920654e-02,4.42245267e-02,7.29319453e-02,1.78100169e-02,
8.21822695e-03,-3.65728736e-02,-1.10667245e-02,-6.69881850e-02,-6.04606196e-02,
-2.23335926e-03,-1.02611957e-02,1.06010390e-02,-4.14860295e-03,8.87550861e-02,
9.96099338e-02,3.65623459e-02,-1.84848495e-02,2.84120943e-02,-1.53295640e-02,
-6.68099523e-02,-3.78059298e-02,-2.73554008e-02,-8.28836393e-03,-5.76194115e-02,
1.07223587e-03,-3.42191234e-02,1.12903062e-02,-3.80224898e-03,2.49510314e-02,
-5.13522886e-03,7.54275173e-02,-9.42677036e-02,7.29572177e-02,5.43502346e-02,
3.22113931e-02,-3.81572545e-02,-3.78817022e-02,-6.27938807e-02,1.31524056e-02,
8.60722363e-02,-1.58543943e-03,3.08913682e-02,-5.62235247e-03,-1.48229152e-02,
1.36710713e-02,-1.53469602e-02,1.27260052e-02,1.25885516e-01,7.64713958e-02,
-4.85644564e-02,-8.25432464e-02,4.28734422e-02,-1.25952289e-01,1.12226225e-01,
-1.61698181e-02,1.92658603e-02,4.37559821e-02,-7.04981163e-02,6.06168807e-02,
8.32543185e-04,1.92596223e-02,-3.03109698e-02,4.90747616e-02,-2.11390574e-02,
7.57689774e-02,-8.05212036e-02,-4.14404795e-02,6.95982277e-02,3.32035050e-02,
1.97023936e-02,-1.45202531e-02,5.80529645e-02,4.16494459e-02,4.73096371e-02,
9.82892234e-03,-7.64829456e-04,2.98606437e-02,4.34747301e-02,-3.36736590e-02,
5.69762401e-02,4.74116914e-02,5.37155708e-03,3.02540697e-02,-3.88514549e-02,
-2.97709666e-02,7.47390315e-02,7.14456066e-02,-3.07133496e-02,-2.13682987e-02,
-1.12744898e-03,-1.56671666e-02,-7.88973197e-02,-2.93857791e-02,8.07383135e-02,
-7.27383867e-02,5.25248721e-02,-6.57899603e-02,-5.99325486e-02,-8.78389925e-03,
4.00066264e-02,2.97635561e-03,-6.62130788e-02,4.31406051e-02,4.51332554e-02,
5.13832830e-02,-7.95379281e-02,4.41043600e-02,-1.15787750e-02,-1.73840001e-02,
-3.19765811e-03,-3.67609225e-02,8.96263793e-02,-3.20611559e-02,-3.89795527e-02,
-9.88159701e-03,1.58820413e-02,-4.18958738e-02,3.67245288e-03,-7.59421587e-02,
-3.20921727e-02,3.66959386e-02,4.53117825e-02,-8.07285011e-02,-9.17788520e-02,
-9.13828388e-02,6.61141127e-02,6.79264292e-02,-2.01838911e-02,2.02460866e-03,
-4.33262773e-02,5.44416271e-02,8.51898734e-03,8.78016371e-03,9.17774811e-02,
2.72171814e-02,-5.19553348e-02,-4.32241112e-02,-4.56174910e-02,-1.02010198e-01,
-9.92515981e-02,8.44597667e-02,2.69910526e-02,5.61103784e-02,-7.12941765e-05,
-1.14362337e-01,1.07242428e-01,-2.91792322e-02,-1.51449060e-02,-8.18427801e-02,
5.30184396e-02,1.30704328e-01,-7.98113793e-02,4.97315116e-02,4.27549630e-02,
2.41766442e-02,-2.42751390e-02,-5.11297174e-02,2.67127790e-02,-7.51388744e-02,
7.64421076e-02,6.98817149e-02,-5.19273840e-02,-1.08409137e-01,1.00783959e-01,
-4.25167531e-02,4.77706268e-02,5.00019304e-02,5.86139821e-02,9.09126252e-02,
-1.89359169e-02,6.40433803e-02,-1.04809619e-01,5.02041802e-02,-5.57009988e-02,
3.35743241e-02,-3.71573791e-02,1.49133489e-01,2.21203063e-02,-7.32056722e-02,
4.45276797e-02,-5.67863844e-02,7.59515986e-02,-1.56114278e-02,1.27678141e-02,
-1.09594818e-02,-3.30250040e-02,2.21317541e-02,-4.44321744e-02,4.12862338e-02,
-1.07553788e-01,-1.49948569e-02,-7.49977976e-02,-1.55355884e-02,-1.06460536e-02,
-4.05169465e-02,-2.83095408e-02,6.80874707e-03,-7.88978338e-02,3.88804637e-02,
3.92789394e-02,5.92052713e-02,1.13778561e-03,-9.91226807e-02,-1.90030456e-01,
-3.61749232e-02,3.41816731e-02,-7.76349306e-02,-1.39137143e-02,8.71051569e-03,
4.98221479e-02,-1.03394471e-01,-1.22386925e-01,8.30436405e-03,7.14586675e-02,
4.83260192e-02,-3.74750160e-02,8.38709101e-02,-2.03052107e-02,1.74663626e-02,
-2.19591078e-03,6.28932863e-02,-1.01985678e-01,8.41456279e-02,6.76361397e-02,
-6.83274642e-02,-3.62458117e-02,9.26887430e-03,1.19542710e-01,1.54761709e-02,
-1.18580973e-03,2.98116961e-03,-3.10663506e-02,-3.89564186e-02,-4.73080911e-02,
9.76153612e-02,1.25780404e-01,1.01788314e-02,5.90691976e-02,-6.00209013e-02,
5.75196231e-03,5.85286617e-02,-1.61224362e-02,1.52553869e-02,3.08509380e-01,
6.95834160e-02,-3.91384214e-02,3.93555090e-02,1.01037957e-01,-4.34539281e-02,
3.52141522e-02,1.21614546e-01,5.38612306e-02,4.31082211e-02,-7.70517960e-02,
-7.78846396e-03,-2.05818955e-02,5.91474585e-02,7.91272521e-03,1.83594227e-01,
2.75628176e-02,3.34002934e-02,-1.06552215e-02,8.46698880e-02,8.91156644e-02,
-7.42206648e-02,-7.48672187e-02,-5.39347082e-02,1.06562674e-01,-3.92400846e-02,
1.29312560e-01,-4.30447012e-02,-5.99739105e-02,-1.01531811e-01,8.59560817e-02,
-3.69703607e-03,-3.14907171e-02,-7.49601945e-02,1.28489698e-03,4.48799618e-02,
4.33720946e-02,-6.03855960e-02,8.45751688e-02,-4.69659753e-02,-8.82039964e-02,
9.19067115e-03,-7.78105482e-02,6.58141896e-02,-1.03548005e-01,-1.14306614e-01,
6.27065524e-02,-1.59236938e-02,1.26236193e-02,4.60665002e-02,-3.91569957e-02,
-1.60221681e-02,5.33386134e-02,-1.25972712e-02,-1.14116453e-01,6.03562966e-02,
-1.08075529e-01,6.03415407e-02,9.84299034e-02,1.18395202e-02,9.08212438e-02,
2.81445496e-02,-5.92009351e-02,-7.94116557e-02,-1.37490854e-01,-1.09722942e-01,
-5.14488667e-02,1.96337495e-02,-3.85676250e-02,-1.51277393e-01,9.67207626e-02,
7.85618052e-02,-5.89916967e-02,3.00644357e-02,-6.55401684e-03,-7.24527389e-02,
6.02251142e-02,3.08058001e-02,-3.90901566e-02,-1.85139570e-02,9.78225768e-02,
-1.08650416e-01,4.39749695e-02,2.96278577e-02,-5.25441207e-02,-1.27741486e-01,
1.49930894e-01,-1.21338386e-02,1.90688055e-02,7.60277510e-02,4.21564840e-02,
-1.03743374e-02,5.56689091e-02,-3.16186137e-02,3.98534983e-02,-7.56175965e-02,
3.88011970e-02,-2.50649825e-02,2.16251053e-03,8.51934701e-02,8.26941133e-02,
-8.39808434e-02,-9.08161923e-02,-6.58194125e-02,1.57934222e-02,-7.79261664e-02,
-5.74975163e-02,1.02667570e-01,3.45766582e-02,5.18016284e-03,4.62042028e-03,
1.82584655e-02,5.03559597e-02,-3.39211524e-02,-8.46782923e-02,1.67761575e-02,
5.78514673e-03,-6.03317702e-03,4.23323810e-02,-8.48301724e-02,2.66355067e-03,
-8.00785571e-02,4.40497845e-02,1.35419339e-01,-1.04755126e-01,1.51329339e-01,
-2.08395757e-02,6.85782209e-02,-7.00449524e-03,-1.39968738e-01,5.74933365e-02,
-1.17192857e-01,1.06492728e-01,-1.14921983e-02,8.64522159e-02,-3.27292494e-02,
2.66363397e-02,-2.54978947e-02,-6.49932623e-02,1.16013870e-01,1.47037245e-02,
-1.13087744e-02,1.13770247e-01,5.95297441e-02,2.92650312e-02,7.46671706e-02,
2.44849194e-02,-9.19773355e-02,8.42480734e-02,-8.69897082e-02,1.37415305e-01,
-4.23675478e-02,-2.08080020e-02,2.63784938e-02,8.48092735e-02,-5.65136895e-02,
-1.36301190e-01,3.50539535e-02,1.02310039e-01,1.11973500e-02,-9.84077975e-02,
4.75728586e-02,1.09801842e-02,3.22291106e-02,-5.83367329e-03,3.38477865e-02,
5.31379879e-02,5.72816283e-02,9.92486253e-04,-3.87151241e-02,9.25278515e-02,
5.86289652e-02,-3.84037420e-02,-2.39869896e-02,-4.85210456e-02,4.27552052e-02,
-2.53446605e-02,-6.58805668e-02,7.13951886e-02,-6.27194941e-02,1.03625106e-02,
-5.98712675e-02,3.00577953e-02,-5.29287457e-02,7.02617913e-02,-4.06799354e-02,
1.01135904e-02,-9.74698961e-02,2.68067308e-02,-7.09410459e-02,-5.77997379e-02,
1.69176199e-02,-9.13917720e-02,-5.04654497e-02,-9.04785544e-02,-1.08855806e-01,
-8.19891915e-02,5.67159988e-02,-3.53929810e-02,-2.58949343e-02,1.03001349e-01,
4.15778682e-02,3.76018174e-02,3.26359160e-02,3.20378058e-02,1.02841452e-01,
-1.62900183e-02,-5.53223640e-02,-9.57365520e-03,-4.41104546e-02,-3.19598801e-02,
1.01490682e-02,-8.78911018e-02,-6.42169639e-02,7.56255835e-02,-8.37029540e-04,
3.25763859e-02,-7.42210774e-03,-2.35702191e-02,4.87229740e-03,5.48967114e-03,
8.33817795e-02,-8.53773355e-02,-2.93186121e-02,-3.31182703e-02,4.39425036e-02,
8.19594711e-02,-5.74010015e-02,-4.48611677e-02,-7.23572448e-02,-6.41284734e-02,
3.97626869e-02,4.87730727e-02,-2.40223873e-02,5.64382300e-02,1.04136087e-01,
6.95023909e-02,8.27178583e-02,-5.18872403e-02,6.30259588e-02,-7.48604676e-03,
-9.88467336e-02,-1.59430876e-02,-1.72083173e-02,1.08312964e-01,-4.26480956e-02,
4.14536521e-02,2.91516967e-02,8.65396783e-02,3.02887019e-02,-5.85377663e-02,
9.63547379e-02,-1.57670498e-01,1.54569941e-02,1.25690728e-01,-3.45092863e-02,
-3.23332242e-05,-6.02102503e-02,5.09987101e-02,-2.56497115e-02,-1.96191177e-04,
1.17465304e-02,4.72977683e-02,-2.52833590e-02,1.18046805e-01,-1.12188108e-01,
2.58448143e-02,9.63753983e-02,6.66700080e-02,5.15971333e-02,9.85820517e-02,
-3.16717066e-02,1.33911176e-02,-7.84218609e-02,6.65361062e-02,7.92451203e-02,
9.60962847e-02,-4.83475886e-02,1.72887389e-02,9.03194249e-02,8.18977058e-02,
-8.88034031e-02,6.81235939e-02,8.33578631e-02,7.36262277e-02,-1.05245173e-01,
9.54499766e-02,8.66616070e-02,1.32794213e-02,9.31915715e-02,5.15013598e-02,
3.17789838e-02,3.73202637e-02,-7.32652918e-02,2.86676325e-02,-1.30585700e-01,
-1.90746821e-02,5.57506904e-02,7.56832659e-02,7.79480534e-03,3.27539481e-02,
-3.92409079e-02,3.28987837e-02,6.58507422e-02,-4.10748608e-02,-5.91903168e-04,
-7.55711049e-02,9.45361406e-02,2.49399170e-02,7.39423633e-02,2.60068048e-02,
2.79748049e-02,-2.18875762e-02,4.47678380e-02,3.85763794e-02,8.40720981e-02,
-2.01954506e-02,6.90125674e-02,1.11025358e-02,4.24586870e-02,8.65777060e-02,
3.62060331e-02,3.84810865e-02,-1.02925189e-01,-1.05872065e-01,-9.43899751e-02,
5.76921068e-02,9.71406847e-02,-1.05095897e-02,3.56266089e-02,1.89362001e-02,
3.21983695e-02,-1.67411659e-02,-7.94149116e-02,-1.25438914e-01,1.20381810e-01,
9.30488110e-02,1.13492854e-01,-6.49892613e-02,-1.85992382e-02,-3.12245712e-02,
-5.25219599e-03,-4.85595651e-02,4.31543104e-02,-2.56234454e-03,-5.75697236e-03,
6.00528903e-03,8.54610279e-02,4.27364372e-03,6.46287501e-02,1.18664969e-02,
-1.22736663e-01,1.09960698e-01,-5.52815087e-02,-2.07614340e-02,-7.57605284e-02,
-2.02423031e-03,-8.26150328e-02,-3.48096453e-02,-1.39693737e-01,1.58275496e-02,
-1.45230964e-02,-1.12287745e-01,5.76968342e-02,-1.48554659e-02,-9.33273956e-02,
-3.90319154e-02,-1.03523016e-01,-7.29513094e-02,-6.67151585e-02,7.02296495e-02,
6.39978498e-02,-9.14521217e-02,7.20754713e-02,4.89731729e-02,1.29092084e-02,
1.12794742e-01,-8.14133510e-02,2.37160549e-02,1.36081371e-02,7.66601264e-02,
8.45485851e-02,7.12977722e-02,-6.29974902e-02,1.31796852e-01,9.41461176e-02,
3.21399420e-02,-2.22665574e-02,4.57434990e-02,8.17527696e-02,-9.25197303e-02,
1.07098050e-01,-7.59917870e-02,9.78856012e-02,1.16822623e-01,-4.15454060e-02,
4.87583503e-03,-6.63716272e-02,1.93585630e-03,2.42609922e-02,1.21542942e-02,
3.01523395e-02,-7.22341910e-02,4.05911319e-02,-1.95612442e-02,-1.26516923e-01,
-5.63245118e-02,1.28249869e-01,1.11530488e-02,-2.26529855e-02,1.26327515e-01,
-1.53462030e-03,1.67621002e-02,-1.51752993e-01,2.26937886e-02,-2.75748968e-02,
7.52956420e-02,-2.36699954e-02,-2.71276850e-02,-5.07509671e-02,3.06109171e-02,
-7.12516382e-02,4.02714014e-02,1.54527435e-02,-1.85743913e-01,5.33312559e-02,
6.06826320e-03,8.66946355e-02,1.38132544e-02,-9.37732831e-02,-4.81456518e-02,
8.40526447e-02,1.05451807e-01,-2.78524496e-02,-3.02668009e-02,-6.18920056e-03,
-9.27834958e-02,-1.06409810e-01,-2.11406555e-02,2.08256347e-03,-5.00810556e-02,
9.41843763e-02,5.24628572e-02,-6.34180903e-02,6.57305792e-02,2.81234197e-02,
3.90928239e-02,-6.73972145e-02,-5.58648631e-02,4.96128835e-02,9.51838121e-02,
-6.37522638e-02,7.42365643e-02,-5.81381284e-02,-2.01732162e-02,4.73610163e-02,
4.29523140e-02,-7.97696486e-02,-1.00738391e-01,-3.81411724e-02,3.17067020e-02,
-2.67716330e-02,-9.83331129e-02,-2.42605247e-02,-1.50421157e-01,-1.14318155e-01,
-5.97550571e-02,-4.68665101e-02,-9.58206356e-02,-2.75278240e-02,7.05732703e-02,
-2.98086610e-02,-6.60863146e-02,5.73565811e-02,-4.84356359e-02,-6.30423427e-02,
6.83694780e-02,-5.22221159e-03,2.32919957e-02,6.19408563e-02,-1.20863616e-02,
-3.43053564e-02,1.32880986e-01,-4.46041115e-02,-4.40408401e-02,5.19742556e-02,
1.96338873e-02,-1.06173061e-01,-8.98611248e-02,6.99302629e-02,2.95148399e-02,
-1.39362395e-01,-5.71494736e-02,-6.26604334e-02,1.04999892e-01,-1.00330114e-02,
-5.69996424e-02,-1.52471617e-01,-6.07331060e-02,-6.71942085e-02,1.72963645e-02,
5.73912859e-02,1.27826273e-01,-8.27893987e-02,1.77844474e-03,6.47485852e-02,
4.34968732e-02,4.04906049e-02,2.05452088e-02,4.02570702e-02,4.52414947e-03,
5.98028069e-03,-3.41782160e-02,-1.25367850e-01,-3.70887481e-02,-1.11890128e-02,
-1.15428872e-01,1.98672116e-02,-3.29722390e-02,1.20770760e-01,-5.43164127e-02,
5.28263263e-02,1.54597750e-02,-4.38226908e-02,-5.82229160e-02,5.45603223e-02,
4.07325551e-02,1.27833635e-01,6.34738058e-02,8.91866609e-02,5.74357882e-02,
7.98535049e-02,-5.99120595e-02,-4.23502848e-02,-3.76304388e-02,-6.15904927e-02,
-1.23486947e-02,-1.18516153e-02,-3.80675048e-02,-7.45338798e-02,9.94676277e-02,
-2.63878983e-02,1.17822692e-01,4.01828885e-02,-8.36388543e-02,-1.16762094e-01,
1.40608670e-02,5.76034486e-02,8.57151598e-02,6.66310787e-02,7.04825073e-02,
-7.24194199e-02,-3.52037027e-02,-3.31704840e-02,-4.40986231e-02,1.23383887e-01,
-3.33942883e-02,-6.69036200e-03,-2.64429749e-04,-1.46061266e-02,6.09633289e-02,
6.54326826e-02,-1.35523036e-01,6.57940805e-02,-1.63512342e-02,6.89518601e-02,
-8.99928361e-02,5.09577105e-03,1.41302869e-01,6.03352822e-02,1.22955136e-01,
1.77528206e-02,6.09692708e-02,1.09439388e-01,-8.52707401e-03,-1.57165620e-02,
-6.30383566e-02,5.63597567e-02,6.16820762e-03,-1.65324770e-02,4.63391356e-02,
7.73953721e-02,-1.48816155e-02,-1.23727582e-02,5.94056472e-02,-7.63843879e-02,
5.60572632e-02,-1.40733020e-02,-3.49652469e-02,-3.51142772e-02,5.75836301e-02,
-5.67803532e-02,2.02817004e-02,-1.20711029e-01,1.26436399e-03,-4.75056209e-02,
6.61107153e-02,7.97275230e-02,-1.01067699e-01,7.15300515e-02,-4.43392812e-04,
-7.40843685e-03,-3.19710486e-02,7.35099316e-02,1.41797915e-01,6.46088496e-02,
2.47414690e-02,7.10952207e-02,-6.55573905e-02,2.02426091e-02,-2.43708938e-02,
-4.42556143e-02,1.42690307e-02,2.66869739e-02,-2.94021871e-02,-4.65912633e-02,
-6.72524273e-02,-1.56695228e-02,7.43322298e-02,4.16510403e-02,1.91993322e-02,
3.12197302e-02,-1.65857449e-02,7.70922378e-02,6.50518835e-02,-1.13610481e-03,
-6.41844645e-02,-4.70705777e-02,5.68749793e-02,7.50224739e-02,-3.64488065e-02,
-4.87349965e-02,2.86817718e-02,-1.12102395e-02,7.61304945e-02,3.22254412e-02,
7.57292435e-02,4.72963676e-02,3.43393907e-02,-6.48743585e-02,-2.72209682e-02,
-9.44237858e-02,-6.81155622e-02,-1.54327139e-01,1.01217635e-01,3.37926745e-02,
-9.86755565e-02,-7.90593214e-03,5.79356551e-02,-1.00364573e-01,-7.90329427e-02,
1.41324345e-02,6.52703196e-02,-4.22807261e-02,8.85791555e-02,-4.36389148e-02,
-9.18015540e-02,-2.74308287e-02,8.62678736e-02,1.64030567e-02,1.08614728e-01,
3.42124179e-02,9.01078898e-03,-1.30136525e-02,1.41955409e-02,-5.01333959e-02,
-7.44964927e-02,1.05661221e-01,-1.10733286e-01,-3.44320759e-02,6.34244159e-02,
2.02121735e-02,-5.75819984e-02,1.67855397e-02,2.46170368e-02,-5.69727756e-02,
5.30385301e-02,8.06911513e-02,6.82812035e-02,1.56685412e-02,-9.59463418e-02,
-5.75747304e-02,2.70367414e-02,1.58370472e-02,9.02836490e-03,9.71452296e-02,
4.70530428e-02,-3.07223089e-02,-5.83418645e-02,2.08662413e-02,-1.08697884e-01,
-2.26414576e-02,4.10092063e-02,3.17519456e-02,-1.81604419e-02,-1.35795409e-02,
-8.41860622e-02,4.06777039e-02,-7.08482787e-02,1.34377396e-02,-5.95839880e-02,
9.63535011e-02,-1.15873991e-02,-5.82622364e-02,-4.53121997e-02,1.07151540e-02,
-7.13428780e-02,-3.55752883e-03,1.67685039e-02,3.78375016e-02,-4.02235948e-02,
-6.36397302e-02,-7.99377933e-02,-2.99199969e-02,-4.36529927e-02,-1.15002850e-02,
-6.39036745e-02,4.58570421e-02,6.68084472e-02,7.30407387e-02,-2.14912766e-03,
6.89690281e-03,-4.18835096e-02,-7.98626617e-02,1.93176419e-02,-1.97325107e-02,
-1.40498737e-02,-4.90938127e-02,-2.54276060e-02,1.14170806e-02,7.20151290e-02,
-7.48555437e-02,-1.92133349e-03,2.15969700e-02,2.34819017e-02,-2.42179222e-02,
-4.41078730e-02,1.25800848e-01,-3.56302783e-02,-1.26932387e-03,-7.91688934e-02,
-2.73854379e-03,-4.36765701e-02,-6.35986850e-02,1.13157863e-02,-8.85567740e-02,
4.51700576e-02,4.25817557e-02,-4.46915030e-02,9.99771506e-02,2.71429177e-02,
2.29446329e-02,1.99036319e-02,-1.06644765e-01,1.02831513e-01,-9.17111561e-02,
-1.37619879e-02,3.75069790e-02,-7.27576166e-02,-3.18899006e-02,6.69073313e-02,
2.70360634e-02,1.91227105e-02,6.30361065e-02,-2.42894515e-02,1.03355505e-01,
-3.10026053e-02,4.32530418e-02,6.35580495e-02,5.39516993e-02,-5.17946295e-02,
-7.85097759e-03,1.92347411e-02,1.01125114e-01,7.17930123e-02,5.43976128e-02,
5.50917052e-02,-9.18431878e-02,-6.60875961e-02,-8.51511061e-02,-8.88421908e-02,
8.17463025e-02,3.25218104e-02,1.04652435e-01,-2.53608674e-02,9.44744200e-02,
-7.91680962e-02,-4.40481231e-02,4.58455235e-02,-7.42125697e-03,7.39763454e-02,
-1.84411893e-03,3.39057930e-02,1.07518286e-02,5.99583425e-02,-3.42744701e-02,
-6.54870458e-03,-5.05031720e-02,3.03736161e-02,-3.82008813e-02,-1.06701076e-01,
-4.22506221e-02,1.07435197e-01,-8.16880539e-02,-1.78626515e-02,-7.25899786e-02,
3.77773307e-02,1.20215125e-01,2.82137506e-02,4.71232720e-02,-2.03837287e-02,
5.98603301e-02,1.91926714e-02,-6.76100105e-02,3.53041738e-02,4.74243201e-02,
-9.91174132e-02,4.19996073e-03,-5.70825562e-02,1.06849486e-03,4.74339798e-02,
7.59609044e-02,4.60037328e-02,-1.38669349e-02,-8.25109258e-02,-8.11921358e-02,
5.98632405e-03,9.83487070e-02,3.60918082e-02,1.18255228e-01,-6.54110983e-02,
4.23029624e-02,-5.03746495e-02,-8.92795920e-02,5.18540926e-02,-6.21544272e-02,
-5.63849788e-03,-8.26919526e-02,-3.92009020e-02,-5.16586378e-02,-1.02110177e-01,
-9.45412517e-02,4.81511988e-02,5.11710197e-02,-2.12581530e-02,-1.16000033e-03,
-8.85270759e-02,1.38956234e-02,1.87708403e-03,-1.13553658e-01,-4.94421981e-02,
-7.99119845e-03,-5.23410663e-02,8.88488069e-02,-5.08438461e-02,-2.37399992e-02,
-4.16408032e-02,-3.38047370e-02,1.23859271e-02,-3.70240919e-02,2.11944785e-02,
2.57258527e-02,-2.57443357e-02,-5.70270382e-02,-5.46513982e-02,-2.36173179e-02,
-6.47653118e-02,1.09246811e-02,-7.00856894e-02,-2.49163155e-02,2.74932925e-02,
6.33981824e-02,3.10085341e-02,-7.76341334e-02,-6.58048019e-02,7.75291920e-02,
2.56756004e-02,5.91611080e-02,-4.39983755e-02,2.12382413e-02,1.12926356e-01,
5.98698743e-02,-6.28963634e-02,-8.17601681e-02,5.13937324e-02,4.12409678e-02,
1.34161394e-02,-3.11792064e-02,-3.44200991e-02,-3.95336077e-02,7.78717846e-02,
-7.58929411e-03,-3.75747238e-03,-5.70830777e-02,4.21205573e-02,5.97178750e-02,
1.82184130e-01,-9.40032303e-02,8.58748052e-03,-4.58904617e-02,-7.04975128e-02,
3.90797518e-02,-1.41613465e-03,9.23439115e-02,-9.33746845e-02,-7.73603050e-03,
-2.13489980e-02,-2.12270692e-02,4.82194535e-02,2.96023637e-02,-3.97717729e-02,
2.43869111e-01,-8.37934688e-02,-1.32925138e-02,6.69503734e-02,7.10046068e-02,
-1.24179302e-02,1.36725426e-01,8.51881355e-02,1.35780443e-02,4.60507348e-02,
-4.56727929e-02,-4.36945679e-03,-7.64608905e-02,-3.65767851e-02,-5.62422387e-02,
-5.32910489e-02,6.74884245e-02,2.86858995e-03,-1.05859889e-02,1.02306224e-01,
-1.36821568e-01,8.96196961e-02,9.12308469e-02,-8.25617239e-02,8.83492976e-02,
-4.32350449e-02,-5.68633229e-02,3.42546999e-02,6.98971972e-02,2.92437226e-02,
-2.14207526e-02,-8.71278495e-02,-9.99623165e-02,-3.41988802e-02,8.77316594e-02,
3.71432118e-02,2.87697576e-02,3.41622680e-02,-6.05028421e-02,-7.37872943e-02,
-7.78050050e-02,-5.28999418e-02,-1.12615235e-01,7.99997672e-02,7.81648699e-03,
4.21448909e-02,-1.36626633e-02,6.01875745e-02,-4.91385274e-02,-9.98904090e-03,
-9.30401459e-02,-7.69291399e-03,1.05960265e-01,-3.48196439e-02,-5.81419580e-02,
4.54743132e-02,1.16922744e-01,-1.10479869e-01,1.92559466e-01,-8.47446620e-02,
-2.07579564e-02,5.01056947e-02,-1.31674064e-02,-6.01677336e-02,6.82701021e-02,
-3.76068801e-02,-2.31533032e-02,-1.47978440e-02,5.11853434e-02,-7.72556961e-02,
6.58675423e-03,-2.04809979e-02,1.05405651e-01,2.24236143e-03,5.98196313e-02,
1.15721412e-02,-9.15985480e-02,-4.51922007e-02,-5.42958453e-02,6.42852709e-02,
2.10099444e-02,4.92436998e-02,2.94115418e-03,-9.95180849e-03,-3.59139517e-02,
-1.02202259e-02,-1.29770771e-01,-8.93630832e-02,-2.42214147e-02,5.66829741e-02,
-1.33491963e-01,-7.86476955e-02,-4.36696410e-03,-7.03518540e-02,-4.24701627e-03,
3.44144716e-03,-1.27019152e-01,-1.64551169e-01,-1.45484626e-01,-5.03755696e-02,
2.59989756e-03,-6.83675557e-02,3.77751179e-02,4.41395752e-02,-1.15002496e-02,
-2.32110023e-02,-1.13531118e-02,3.34647596e-02,6.70449156e-03,2.88024545e-02,
6.50380328e-02,7.25385547e-03,1.96637083e-02,-2.79297102e-02,-3.84365544e-02,
-8.63973200e-02,1.65262461e-01,-7.77736977e-02,-2.85798106e-02,6.65571243e-02,
-9.64869931e-03,-1.99406043e-01,-1.91880744e-02,2.77738813e-02,-6.16005212e-02,
-1.22465789e-01,3.12702395e-02,1.10886201e-01,-3.90631817e-02,-1.16743244e-01,
-3.81235778e-02,-4.78950143e-02,-2.62141556e-01,-6.86848462e-02,1.24564068e-02,
-4.56162170e-02,1.70208551e-02,2.14811489e-02,1.25401363e-01,4.46507037e-02,
-3.71475816e-02,2.02725641e-03,-3.66093740e-02,4.03653979e-02,1.81996748e-02,
1.06066234e-01,-6.70735240e-02,-1.27032110e-02,1.19581610e-01,4.51812744e-02,
-9.62049328e-03,-6.81560338e-02,4.79612201e-02,-1.15135141e-01,-5.26496731e-02,
8.27435851e-02,-7.95981139e-02,-2.02830471e-02,6.77121384e-03,5.15494905e-02,
-1.28366604e-01,-1.30386176e-02,-8.42530001e-03,-5.89993894e-02,2.59348769e-02,
-5.55767901e-02,-1.19063422e-01,-8.91683772e-02,2.50153244e-02,-6.59142658e-02,
7.64690116e-02,7.10272714e-02,-1.22209694e-02,-8.62413868e-02,1.16308264e-01,
1.07386492e-01,2.18266360e-02,-7.52050653e-02,6.94695348e-03,3.08237001e-02,
-6.99801557e-03,-4.92634997e-02,-9.80178863e-02,-9.48141739e-02,1.07658338e-02,
-3.52240726e-03,4.90530357e-02,5.09525351e-02,-1.24947742e-01,-9.75847840e-02,
9.61421728e-02,-3.86600606e-02,-1.06851339e-01,8.95000249e-02,5.00989556e-02,
6.36827871e-02,-3.45065631e-02,-3.34861502e-02,-5.35799302e-02,2.54729837e-02,
-1.05006717e-01,-1.26079209e-02,7.24985227e-02,6.31012991e-02,6.47422597e-02,
-2.06907000e-02,-1.63874686e-01,3.52404155e-02,1.20750748e-01,2.46030148e-02,
-5.96891604e-02,8.46631750e-02,-5.57291880e-02,-1.27037494e-02,-8.53375867e-02,
2.73493435e-02,1.24484412e-01,-6.49553388e-02,-8.89409930e-02,-9.45931673e-03,
2.75246836e-02,-6.73230216e-02,7.80088305e-02,-1.03519984e-01,-2.42393054e-02,
-3.21644917e-02,2.86877379e-02,-3.52484211e-02,-7.92055726e-02,-8.84552374e-02,
7.66351586e-03,1.87185630e-02,3.77913192e-02,2.68018804e-02,-7.81838298e-02,
-6.26200512e-02,-1.89235457e-03,-8.41593593e-02,1.09128378e-01,-1.35215893e-02,
-8.03829804e-02,1.92753840e-02,-3.22427414e-03,-1.10183388e-01,1.00909755e-01,
-4.57003973e-02,-4.46891971e-02,1.74420208e-01,-1.77143514e-02,1.68909170e-02,
5.48156770e-03,-8.57537910e-02,-7.62526095e-02,-1.29231364e-01,1.51141454e-02,
-2.67972946e-02,8.65495577e-02,2.67724786e-02,-1.72483370e-01,-4.67654876e-03,
-7.20024481e-02,2.04515029e-02,-2.66918819e-02,-3.59862372e-02,-6.78825974e-02,
-4.80216220e-02,-2.16724277e-02,-1.72419089e-03,7.92328045e-02,4.56436761e-02,
-9.60441772e-03,-3.32635269e-02,7.84424394e-02,2.17530876e-02,-2.42161117e-02,
-1.23728327e-01,6.60206452e-02,-8.18868279e-02,-9.10571143e-02,-5.11254258e-02,
1.41543910e-01,-1.95798408e-02,-5.07289581e-02,-3.05047110e-02,7.18918666e-02,
-6.09653890e-02,3.39145996e-02,-8.05189908e-02,6.22433573e-02,2.56791376e-02,
6.49315938e-02,5.94707131e-02,-1.09234333e-01,3.07690855e-02,-2.46812403e-02,
-1.98982004e-02,-9.69313681e-02,-3.50220650e-02,-3.52817066e-02,8.79711588e-04,
-8.86639506e-02,-5.82634024e-02,-1.77800804e-02,-6.98898570e-04,-6.10728636e-02,
-1.50134098e-02,-1.46505218e-02,-2.51565892e-02,-1.01394996e-01,8.87717605e-02,
-5.51098101e-02,-4.32162769e-02,-8.19376335e-02,-2.02699024e-02,-2.79973522e-02,
3.88591252e-02,-1.27983749e-01,1.59418713e-02,2.25090305e-03,-3.35117429e-02,
-4.19107825e-02,-4.34553921e-02,5.25334738e-02,7.23772347e-02,-1.41784877e-01,
-1.32392189e-02,-1.60235949e-02,-6.19510412e-02,1.07946328e-03,1.20373249e-01,
9.39708482e-03,2.98964791e-02,-9.89570655e-03,4.79569845e-02,4.66578454e-03,
-8.96066129e-02,-8.93357843e-02,-1.08384192e-01,9.69536379e-02,6.76571876e-02,
-8.27790424e-03,3.61654013e-02,7.80604035e-02,9.15491953e-02,9.02394056e-02,
4.58036996e-02,4.19391617e-02,3.88372913e-02,-1.00619616e-02,-5.91639206e-02,
-9.41433311e-02,6.49947822e-02,5.29927127e-02,-4.97687086e-02,7.62813091e-02,
6.46458715e-02,-1.10819884e-01,-6.14950433e-02,4.11173515e-02,5.75263277e-02,
-6.66627511e-02,-8.03404227e-02,9.43923183e-03,-8.42543840e-02,-1.36020686e-02,
3.40703912e-02,3.03472709e-02,1.38427451e-01,-2.86457054e-02,-1.38069186e-02,
-3.15174414e-03,2.41286941e-02,4.78386581e-02,-8.44024867e-02,2.75956164e-03,
2.21021865e-02,9.97897051e-03,3.94899733e-02,-7.43742362e-02,7.98833296e-02,
-1.10027432e-01,-3.73595324e-03,-3.21438648e-02,3.41871418e-02,7.93391317e-02,
-5.14520779e-02,8.63398463e-02,2.25048661e-02,-8.96025971e-02,3.84303667e-02,
-6.58670068e-02,7.08778054e-02,1.46280631e-01,2.39632931e-02,4.36452888e-02,
6.35763556e-02,-1.27358302e-01,1.18189899e-04,-1.44351227e-02,-6.16751313e-02,
-5.72602414e-02,4.56238650e-02,-4.21517752e-02,-3.83645445e-02,-8.13652668e-03,
6.36313483e-02,-1.97137706e-02,-3.33006382e-02,-1.99853797e-02,-4.73377593e-02,
1.54870711e-02,-6.30653352e-02,-4.59216982e-02,-5.16481362e-02,1.49154752e-01,
-7.82152340e-02,-1.62757505e-02,-5.20953052e-02,6.15642779e-02,-2.93138716e-02,
1.17523903e-02,-4.15640771e-02,1.31523916e-02,-6.82686567e-02,-3.04254852e-02,
-8.03819746e-02,-9.65530798e-02,-6.36201948e-02,-4.78802109e-03,-1.36616468e-01,
-9.60645154e-02,1.11451805e-01,-2.22635604e-02,-7.74472803e-02,3.19436528e-02,
-8.32498521e-02,3.57215153e-03,-2.40654349e-02,-9.47095230e-02,-1.24057449e-01,
-6.83685392e-02,5.78729548e-02,4.32416648e-02,2.99070422e-02,2.62405835e-02,
-1.63737461e-02,-1.04004011e-01,5.40855117e-02,3.35005075e-02,5.99443652e-02,
5.32012694e-02,1.25200232e-03,-3.48419845e-02,-2.79997177e-02,1.03936687e-01,
-1.90833956e-02,-8.07935447e-02,-5.12597784e-02,6.66281059e-02,-4.42172475e-02,
-7.59786740e-02,6.00254908e-02,-7.66739845e-02,-9.25476030e-02,-9.58716646e-02,
-2.33678930e-02,-1.54295489e-02,-2.84976549e-02,6.56401366e-02,1.10371165e-01,
-5.84963970e-02,1.74955167e-02,1.02764033e-01,5.89850917e-02,5.46738552e-03,
3.12581658e-02,1.60428844e-02,-1.02473460e-01,-3.05414461e-02,-2.49580313e-02,
2.22263299e-02,5.39086796e-02,-9.12521407e-02,7.24523664e-02,-3.67223769e-02,
-8.26304108e-02,-3.80785018e-03,-3.97981778e-02,-1.33445218e-01,-1.01455860e-02,
7.70684108e-02,1.79332346e-02,-6.18767291e-02,-9.64848548e-02,-5.11115603e-02,
1.02394737e-01,-1.04245998e-01,-7.06060976e-02,6.17322288e-02,7.93388411e-02,
1.22734997e-02,-1.66820027e-02,-7.04905251e-03,1.14570759e-01,5.52694239e-02,
4.96578403e-02,6.45679832e-02,-1.75953228e-02,-4.71193045e-02,7.67130703e-02,
-9.79431868e-02,7.31151318e-03,2.78195310e-02,-1.43965073e-02,2.18253937e-02,
9.25442353e-02,-1.34568764e-02,4.47259471e-02,-1.02275506e-01,-2.06610910e-03,
8.03470388e-02,5.45016043e-02,-9.71923247e-02,-7.68457502e-02,-5.91297336e-02,
1.15135632e-01,-1.18811906e-03,3.47794890e-02,-3.06510646e-03,-9.08633843e-02,
1.88125321e-03,7.86199700e-03,-2.56127566e-02,-6.89312518e-02,6.73395693e-02,
-4.49703932e-02,9.53887925e-02,-9.24366619e-03,1.22787908e-01,1.39039382e-01,
-1.95808455e-01,6.76685572e-02,-3.87225784e-02,-6.59503266e-02,-6.97419941e-02,
1.36553466e-01,6.48898259e-02,-1.06991298e-01,-3.98789272e-02,-1.09483220e-01,
-8.01097229e-02,3.30261700e-02,3.56709994e-02,-3.63636538e-02,-7.80417249e-02,
-3.83573622e-02,6.90564662e-02,-5.21600954e-02,-1.18004382e-01,-6.76460415e-02,
-2.03345697e-02,-2.98290458e-02,-7.32549876e-02,3.48684341e-02,6.42470941e-02,
1.66527733e-01,2.90786941e-02,4.48229313e-02,4.16456573e-02,-1.09959058e-01,
-1.04008980e-01,-6.95133731e-02,-1.11214444e-02,-2.22608503e-02,-1.23502910e-01,
-4.73766923e-02,4.29214071e-03,1.51089549e-01,7.41333663e-02,6.00337125e-02,
4.62401062e-02,3.44450539e-03,-5.17849810e-03,2.63945870e-02,-1.49011448e-01,
6.57865331e-02,-4.31625731e-02,-2.82878559e-02,6.46665692e-02,-6.74753189e-02,
-4.17332128e-02,6.69728266e-03,-2.02926230e-02,-5.34750000e-02,-8.71276297e-03,
-9.67752375e-03,-1.44435633e-02,1.15764864e-01,2.42995899e-02,7.43012652e-02,
3.26095186e-02,5.19896075e-02,8.88899267e-02,-6.85562566e-02,-7.47862160e-02,
-1.75857469e-02,6.56015947e-02,7.09824190e-02,-1.26738861e-01,-3.85104194e-02,
1.56500906e-01,3.26231569e-02,-5.82905300e-02,-2.98177218e-03,-9.45672989e-02,
-4.94963303e-02,2.52075009e-02,-8.00501741e-03,-3.00531946e-02,7.91143626e-02,
-1.04564317e-02,7.99139612e-04,-1.28760412e-01,5.66844977e-02,-1.02086337e-02,
-6.78443760e-02,1.01121418e-01,-1.05891349e-02,3.13313515e-03,3.10240537e-02,
-4.54337820e-02,9.80204437e-03,-5.63904867e-02,-5.82479825e-03,1.84997395e-02,
-1.16113275e-01,1.58399958e-02,2.74362788e-02,6.40165210e-02,-6.21077679e-02,
-2.65639345e-03,-9.50147212e-02,-2.62358226e-04,-5.62563166e-02,-9.30278823e-02,
3.83427218e-02,-6.99938983e-02,4.83149067e-02,5.96114844e-02,-8.66765454e-02,
1.36104837e-01,-7.50804180e-03,-7.20298886e-02,-2.51320571e-01,-4.91857231e-02,
6.60928264e-02,-3.35298367e-02,1.23131849e-01,-5.72825298e-02,-2.45154090e-02,
9.74288732e-02,-1.06333368e-01,-1.14397690e-01,-4.43418697e-02,-4.12533544e-02,
-2.12846212e-02,-6.72652796e-02,-3.50436792e-02,5.97536378e-02,-3.08189746e-02,
8.98173172e-03,-1.30930141e-01,-8.44261050e-02,1.68992989e-02,6.07036054e-02,
3.20613720e-02,6.55478332e-03,3.43724452e-02,-4.54836451e-02,-1.00801513e-01,
-4.89115082e-02,4.63274904e-02,-2.21192345e-01,7.17953667e-02,-3.13208997e-02,
2.02841405e-02,5.36788218e-02,8.35837200e-02,1.07985344e-02,-1.06294483e-01,
2.82712206e-02,2.79571731e-02,-2.36405805e-01,-3.34140100e-02,7.76679218e-02,
7.75294378e-02,-8.22381210e-03,-1.18723139e-01,-8.55655447e-02,-4.51734252e-02,
-8.70559365e-02,-1.18267760e-01,9.32659730e-02,-8.29201192e-02,-1.41317584e-02,
-2.52924860e-03,-3.05800885e-02,-1.57683846e-02,-1.41030639e-01,-5.73850013e-02,
-9.08990726e-02,-7.48490244e-02,5.04329912e-02,7.79630467e-02,8.40858594e-02,
-8.44302028e-03,-2.19175611e-02,-1.21308759e-01,-8.08617473e-02,4.87874774e-03,
-7.90298283e-02,-1.29413512e-02,-6.20316528e-03,-6.40098527e-02,3.79326642e-02,
5.56361713e-02,-6.37582168e-02,-1.96574014e-02,-7.05698058e-02,-8.23711827e-02,
-9.16126370e-02,3.79604734e-02,1.27524316e-01,-1.41168177e-01,-6.29953519e-02,
5.32386974e-02,-1.02131359e-01,5.86284809e-02,9.80501249e-02,-1.45646147e-02,
7.96770453e-02,-9.39191058e-02,3.33045051e-02,1.06608957e-01,6.44118339e-02,
6.19888231e-02,-6.03100955e-02,-1.17973149e-01,9.06699896e-03,-9.38453823e-02,
-1.46725953e-01,1.73844501e-01,-1.12320684e-01,-2.94566434e-02,7.73110762e-02,
7.86167085e-02,-2.50044335e-02,-4.60571311e-02,-1.41804442e-02,4.24964949e-02,
-3.50089418e-03,5.80784120e-02,7.14380592e-02,2.06138436e-02,-1.06183980e-02,
-3.05581857e-02,-3.74891446e-04,-6.30428046e-02,4.60962839e-02,2.51313988e-02,
1.42648369e-02,6.03014082e-02,8.86356309e-02,3.23972963e-02,-4.27974947e-02,
7.35793486e-02,7.88538381e-02,5.33256270e-02,-4.23992351e-02,4.53916900e-02,
4.03342098e-02,-2.50077695e-01,9.10486877e-02,8.06955025e-02,1.24993213e-01,
-3.04905400e-02,-1.10440128e-01,-1.37034832e-02,-8.35050866e-02,-6.76193787e-03,
3.08410916e-02,-1.40680179e-01,9.59841721e-03,-7.21119940e-02,-7.78642520e-02,
-9.53493789e-02,-6.38892129e-02,-1.30667537e-01,-4.68621179e-02,-7.15736896e-02,
2.76271962e-02,6.01966456e-02,-7.99068958e-02,7.89058581e-02,-1.12820074e-01,
9.43963602e-02,-1.37130722e-01,9.74178500e-03,8.33279863e-02,-1.29406492e-03,
-1.01516843e-01,-1.15810637e-03,-2.17659455e-02,8.13152865e-02,-6.52503669e-02,
1.53461546e-01,3.42503488e-02,1.09879576e-01,-4.87502366e-02,-4.01988924e-02,
-1.59081742e-01,-9.89571437e-02,-5.15794344e-02,-2.65349559e-02,-7.99336433e-02,
4.79562543e-02,7.12412521e-02,1.26045302e-01,-6.64556026e-02,-1.97714493e-02,
-4.23258133e-02,-5.01654297e-02,-1.42360300e-01,4.34929915e-02,-2.51615117e-03,
5.29675037e-02,-1.19017713e-01,-1.29202921e-02,-9.58170071e-02,-3.70268971e-02,
-3.30278324e-03,1.00372970e-01,-2.13591196e-02,7.65535235e-02,1.71829443e-02,
-4.76573668e-02,1.95860509e-02,-1.01116240e-01,6.28675595e-02,-5.79622574e-02,
1.14799082e-01,-1.26704834e-02,-2.67773159e-02,1.71481475e-01,1.67036988e-02,
-4.62885238e-02,2.31897235e-02,-6.06248043e-02,3.10381912e-02,-1.22602349e-02,
-5.92801161e-02,4.59119156e-02,-2.49543078e-02,-1.85119696e-02,-6.27576411e-02,
9.68893319e-02,-5.32506853e-02,-2.78949607e-02,-7.28593394e-02,6.88036904e-04,
-4.09503328e-03,7.21475482e-02,-9.24398564e-03,-4.47309949e-02,-1.56333163e-01,
-6.91326261e-02,8.57923366e-03,-6.05647117e-02,-1.39054596e-01,1.80917487e-01,
-4.79331687e-02,-6.96213469e-02,-7.17359558e-02,8.80727638e-03,-3.68374512e-02,
-2.80536506e-02,-1.14088953e-01,3.24619859e-02,6.79790229e-02,-4.22986634e-02,
1.53144924e-02,-6.33005705e-03,5.31717464e-02,-1.47379667e-03,1.51407514e-02,
1.48478746e-02,1.36381611e-01,-1.05168007e-01,-3.21137495e-02,-1.11472294e-01,
1.06191434e-01,3.17037292e-02,-8.59048888e-02,3.09768785e-02,-7.52327591e-02,
6.24244586e-02,1.56923924e-02,6.16911892e-03,-3.23831395e-04,7.76022822e-02,
6.04891516e-02,-1.57607384e-02,-5.95776476e-02,1.32764727e-01,-2.33099490e-01,
-9.10188705e-02,1.33790314e-01,-1.05074188e-03,8.18413720e-02,-1.45044262e-02,
6.40747473e-02,-4.26516086e-02,-7.52759911e-03,-9.25933346e-02,-1.08703166e-01,
-1.17409058e-01,8.34427923e-02,-2.26694122e-02,1.52483275e-02,-8.14741030e-02,
-3.38480459e-04,-1.13628566e-01,-1.15328513e-01,-1.53842956e-01,1.38043180e-01,
5.58489040e-02,-5.97367957e-02,-1.24822021e-01,1.32045699e-02,-5.50542697e-02,
-2.75547393e-02,-6.45729378e-02,9.58292466e-03,-1.11429375e-02,-4.37005237e-03,
-3.07290331e-02,-2.30664369e-02,-1.30566001e-01,2.72609685e-02,-7.09306374e-02,
-1.14691876e-01,7.28171021e-02,-3.63796833e-04,7.41157234e-02,1.99910421e-02,
-1.19551690e-03,6.74215779e-02,-8.11376497e-02,-2.58852057e-02,-4.26107794e-02,
9.71657261e-02,9.48892534e-03,-1.69417828e-01,-8.64921585e-02,-1.05564453e-01,
-2.74065826e-02,-6.39915317e-02,3.13552655e-02,-4.24271524e-02,-1.68110449e-02,
7.64728000e-04,-9.36986804e-02,-1.04001530e-01,-1.72617912e-01,-1.93190854e-02,
-1.21406786e-01,1.19663971e-02,-5.38407415e-02,-1.91668756e-02,-5.25995605e-02,
-7.71018714e-02,1.41285777e-01,4.29823846e-02,5.28434329e-02,-7.18794763e-02,
-1.49918720e-02,5.83381504e-02,-6.62166923e-02,1.03296958e-01,5.25301136e-02,
1.05072640e-01,-5.71661070e-02,-9.63114798e-02,-9.10586212e-03,1.37174670e-02,
6.17702678e-03,-5.64244241e-02,-1.07681349e-01,-5.32751307e-02,7.08656386e-02,
2.84773745e-02,-6.43003657e-02,5.94333149e-02,-5.46271876e-02,3.86265106e-02,
-1.09723499e-02,-1.35027498e-01,1.01936178e-03,-1.41389042e-01,8.61492530e-02,
-1.16141392e-02,-1.20483814e-02,-4.48298417e-02,-6.97373301e-02,8.54966938e-02,
1.54799730e-01,-5.74794924e-03,1.21904559e-01,-8.80768225e-02,-9.66504440e-02,
8.77380744e-02,9.70203131e-02,-2.37642825e-02,-3.41479443e-02,-9.39947441e-02,
1.49043649e-02,-1.10644959e-02,-4.73485701e-02,-4.81266342e-02,4.44460437e-02,
7.10323825e-02,4.87224497e-02,3.81677374e-02,8.50648507e-02,1.18935838e-01,
-8.62766206e-02,-9.69649758e-03,-1.00169420e-01,-2.90548727e-02,-3.00532095e-02,
6.37956411e-02,1.03688888e-01,-2.86271516e-02,-3.97198275e-02,1.83600541e-02,
-9.59223881e-02,5.74952178e-02,-2.70849038e-02,9.09454525e-02,-4.69145775e-02,
1.41021356e-01,-4.40868884e-02,-1.10602537e-02,6.62558302e-02,-7.58881941e-02,
-4.56192456e-02,7.55677074e-02,-4.50975820e-02,7.87949264e-02,5.95361739e-02,
-1.05695598e-01,-1.46430850e-01,6.80598319e-02,9.40020308e-02,-5.12338430e-02,
5.85901327e-02,-1.04837306e-01,8.99842829e-02,-4.06055078e-02,9.96478018e-04,
-8.23962167e-02,1.27070006e-02,-3.99793573e-02,-6.93227071e-03,6.87453821e-02,
-4.64768484e-02,-1.58024412e-02,9.08414498e-02,5.14323413e-02,-9.35980678e-03,
2.44257264e-02,2.38029361e-02,-9.09214914e-02,7.62003707e-03,1.94292739e-02,
-7.04522356e-02,-7.88802579e-02,-7.16053471e-02,-5.51608317e-02,7.44375288e-02,
2.71032285e-03,1.63609236e-01,-8.51386338e-02,-4.30251062e-02,1.14800811e-01,
3.10469735e-02,-1.19125403e-01,2.51726918e-02,4.61064950e-02,-9.15731117e-02,
-2.79367287e-02,4.07158807e-02,-2.16232166e-02,-1.01995736e-01,-1.86961815e-02,
4.18982022e-02,-2.69375183e-02,-2.28321515e-02,1.03576533e-01,1.23054959e-01,
-9.42660719e-02,8.94128159e-02,1.60195585e-02,2.34686080e-02,-6.22533672e-02,
-8.41536969e-02,9.94017646e-02,-4.33945097e-02,1.37322173e-01,4.96154875e-02,
-7.02827051e-02,-7.11336359e-02,1.21878251e-01,-9.82609019e-02,-7.01917931e-02,
6.44505918e-02,1.05115976e-02,-2.53638923e-02,-1.89078644e-01,-5.34010082e-02,
-4.74316292e-02,1.30774844e-02,-6.99494928e-02,9.40586627e-03,-5.83120696e-02,
3.24471109e-02,1.47189930e-01,-3.41126397e-02,-1.87624544e-02,2.04913784e-02,
-1.36862537e-02,-1.02930807e-01,4.40320335e-02,-1.70800269e-01,-8.24257433e-02,
3.37121673e-02,-2.10024863e-01,1.28353368e-02,3.31387185e-02,4.95576859e-02,
-7.67828822e-02,-3.92002985e-02,9.66701731e-02,-9.08247009e-02,7.73091987e-02,
-5.01741804e-02,-3.79159302e-02,6.91820085e-02,7.96300843e-02,5.82499020e-02,
-5.06384261e-02,3.63735370e-02,-4.37442921e-02,1.26427785e-03,-7.58350194e-02,
-7.10119633e-03,-4.59174765e-03,-7.55461231e-02,1.14956334e-01,3.06270290e-02,
-2.84427200e-02,2.11958196e-02,1.26875900e-02,1.80605764e-03,8.47140327e-02,
-1.15500361e-01,-8.79461095e-02,-1.57328639e-02,1.01185150e-01,-3.12852561e-02,
9.19096991e-02,-1.74767561e-02,-2.33349986e-02,-2.63898820e-02,-9.17029660e-03,
5.40093817e-02,3.80580314e-02,-1.19238019e-01,5.53418845e-02,4.47244830e-02,
5.98499067e-02,-3.11510004e-02,-2.97789555e-02,-1.56219736e-01,-5.31782284e-02,
-8.10835883e-03,7.57978261e-02,-7.64504522e-02,-8.78478587e-03,2.82999594e-02,
-1.16266638e-01,6.13728426e-02,-1.06201299e-01,-8.20519105e-02,-4.60600257e-02,
-5.23922332e-02,-9.04755145e-02,-2.97147948e-02,-2.00369838e-03,-1.10424154e-01,
5.58229908e-02,6.19365908e-02,8.60051252e-03,6.15680106e-02,6.56025782e-02,
-4.80616540e-02,-4.78012562e-02,1.30151734e-01,-3.19059677e-02,-5.27352951e-02,
-1.80207461e-03,-6.96657375e-02,6.58111870e-02,-5.98065183e-02,-3.89416106e-02,
1.18100494e-01,-3.69487656e-03,9.20536444e-02,8.34154263e-02,3.73498946e-02,
-1.82752252e-01,-4.98816259e-02,5.80686182e-02,-3.68537940e-02,-4.47503217e-02,
1.10081574e-02,4.11957651e-02,7.09307939e-02,-1.01547353e-01,-4.59330976e-02,
-1.04042836e-01,-2.87806764e-02,8.88309721e-03,1.10746451e-01,-3.17782313e-02,
7.03847557e-02,5.87894320e-02,2.19608489e-02,-4.05113697e-02,4.17134650e-02,
-1.01711705e-01,-9.48643759e-02,-7.87697583e-02,-1.02461457e-01,8.30259845e-02,
-1.15702584e-01,5.32117896e-02,3.16903032e-02,-7.52696916e-02,-6.63933009e-02,
-3.87717634e-02,8.43235254e-02,4.77047227e-02,-1.14052817e-01,-8.50162283e-03,
2.39259116e-02,-7.21878558e-02,-1.08132124e-01,1.34218186e-02,-3.75855491e-02,
1.08191982e-01,2.91342102e-02,-4.30207886e-02,-6.52929321e-02,2.31805593e-02,
-5.81197105e-02,-7.33371228e-02,-2.17118673e-02,-1.36351213e-01,-3.88562791e-02,
-3.21912766e-02,7.78571190e-03,-3.57356519e-02,-9.55799073e-02,-5.76204322e-02,
-1.50950283e-01,-5.54711670e-02,-2.24893801e-02,5.66688478e-02,9.43848342e-02,
1.03734352e-01,7.73823261e-02,3.93346883e-02,-7.58917630e-02,-2.89667640e-02,
-1.88510418e-02,-6.07131533e-02,-5.91230392e-02,4.60533313e-02,-3.46095636e-02,
3.02073881e-02,5.60756214e-02,-4.25009876e-02,9.83351935e-03,4.12155539e-02,
3.16417105e-02,7.34338246e-04,-5.13392799e-02,8.47762749e-02,6.13779463e-02,
-2.98336643e-04,1.11913458e-01,-5.00346385e-02,-7.55305926e-04,-1.40224807e-02,
1.21645732e-02,-6.86789081e-02,3.29563878e-02,6.38011470e-02,-3.41083296e-02,
-9.32089053e-03,-1.04127914e-01,-2.50422284e-02,1.11833103e-01,7.65492991e-02,
4.04951572e-02,-2.81711388e-02,-2.64097825e-02,-1.00765787e-01,-7.43523464e-02,
2.94745937e-02,7.01885521e-02,-1.23324051e-01,4.55878712e-02,-9.31523070e-02,
5.84981544e-03,-6.80175647e-02,8.80504400e-02,1.14682075e-02,7.76681378e-02,
-6.74506500e-02,-1.41100690e-03,6.25126958e-02,8.42170268e-02,-9.28104296e-03,
1.33712023e-01,3.59731773e-03,5.34214750e-02,-8.87044445e-02,6.14758469e-02,
-4.86774668e-02,-1.44632149e-03,3.91658396e-02,2.14819014e-02,-1.91639662e-02,
-1.17568627e-01,-1.35524874e-03,2.96819885e-03,1.70611516e-02,-2.58187559e-02,
7.78705329e-02,-5.85924415e-03,-5.12862811e-03,1.00537486e-01,-6.37649670e-02,
-4.90738219e-03,-5.21658026e-02,1.37874678e-01,4.55343500e-02,4.54633124e-02,
2.29198672e-02,-1.50298122e-02,8.14305246e-02,-7.61844888e-02,3.96429338e-02,
3.45731191e-02,-9.21332184e-03,-1.11900792e-01,-2.90927235e-02,-9.88927484e-02,
-5.98366894e-02,-8.52876678e-02,-7.81401321e-02,1.15885012e-01,2.02001613e-02,
-1.47462338e-01,-1.33749694e-01,3.39355320e-02,7.86142573e-02,8.65774602e-03,
2.66438276e-02,-7.33566135e-02,-1.04335733e-01,-6.51829466e-02,3.64652723e-02,
1.42169800e-02,6.74226657e-02,-1.54450044e-01,-1.01138495e-01,1.06031589e-01,
-7.82378763e-02,2.43258756e-02,2.08688676e-02,8.35591480e-02,-1.34422123e-01,
2.91149206e-02,-1.39957011e-01,7.71628171e-02,2.86733583e-02,-1.92033440e-01,
5.18789254e-02,8.13015178e-02,1.33562669e-01,7.86033273e-02,2.84772012e-02,
-6.66728020e-02,9.38072056e-02,5.51042706e-02,9.13383290e-02,-8.12620893e-02,
2.99806911e-02,4.27821018e-02,-5.72411343e-02,-9.79615934e-03,7.00513348e-02,
7.05589801e-02,6.74155075e-03,3.49500924e-02,1.28987223e-01,-2.21323385e-03,
-3.84216085e-02,-1.14871189e-02,7.97993019e-02,1.28995739e-02,3.20858508e-02,
1.26491217e-02,3.42091592e-03,1.76471323e-02,8.59094188e-02,-8.04717168e-02,
-2.66511808e-03,-6.00113198e-02,-9.84136239e-02,6.87919557e-02,-3.55033800e-02,
-1.07431933e-01,-1.43701330e-01,-5.28722964e-02,8.42162296e-02,6.46155998e-02,
-1.00776963e-01,5.58109283e-02,-9.62480158e-02,-1.37169808e-01,-5.93209057e-04,
3.93179990e-02,-1.74124371e-02,4.92339171e-02,6.99195340e-02,-1.17797501e-01,
3.02831028e-02,-3.39710265e-02,-1.05112731e-01,-7.39662051e-02,-7.96938613e-02,
2.36816448e-03,-3.53072248e-02,-3.41131762e-02,-8.90012011e-02,1.78693999e-02,
-1.13193437e-01,-6.71010837e-02,-9.39859524e-02,-5.96713088e-02,1.06693573e-01,
1.32776257e-02,5.46524823e-02,-4.38327491e-02,-5.02576977e-02,-3.17274109e-02,
-9.14067682e-03,-3.68487388e-02,2.38605775e-02,6.51053712e-02,4.91328724e-02,
3.49104963e-02,5.67837097e-02,1.86526697e-04,2.63702683e-02,-2.62808483e-02,
5.42537645e-02,6.92810789e-02,-6.74603460e-03,1.28019214e-01,-6.84524477e-02,
4.81117368e-02,9.40789804e-02,2.90827267e-02,-2.84114238e-02,-2.56879274e-02,
-3.83819416e-02,2.24294025e-03,1.29349418e-02,5.92475608e-02,6.74053133e-02,
1.32419318e-02,-3.24903727e-02,-3.06317713e-02,6.08439595e-02,-1.26492260e-02,
-9.71449539e-02,2.94738766e-02,-1.59758478e-02,-8.59404802e-02,-5.86542636e-02,
1.43604260e-02,-2.61272397e-02,-6.98407926e-03,-6.38574660e-02,7.21372515e-02,
-2.21080985e-02,-2.94122919e-02,-2.42423825e-02,4.66774181e-02,6.15625642e-02,
7.11943507e-02,-8.92102495e-02,3.78946625e-02,-2.76800692e-02,3.32650393e-02,
-9.11729187e-02,-8.22652578e-02,1.67516582e-02,2.11874489e-02,-3.70897464e-02,
-3.16023044e-02,7.00597391e-02,-3.58495861e-02,-1.42422281e-02,1.16810212e-02,
-7.02566281e-02,3.37223113e-02,-3.13619003e-02,-4.68550511e-02,4.14598249e-02,
4.72783484e-02,-1.23997077e-01,1.44075662e-01,-3.33654098e-02,-1.62916277e-02,
4.92883883e-02,4.16942015e-02,2.75866385e-03,-3.54072340e-02,1.67003740e-02,
-1.43743018e-02,-8.19638297e-02,8.15716013e-02,-7.15635493e-02,-1.17409520e-01,
2.47898027e-02,1.11512043e-01,5.29274270e-02,-3.37202474e-02,1.05903819e-01,
-2.38344707e-02,-8.81333202e-02,-1.93183459e-02,3.63197783e-03,-7.35626891e-02,
-6.04344532e-02,7.49337748e-02,-9.94667858e-02,-9.26230252e-02,-1.81360558e-01,
-7.47810826e-02,3.33874263e-02,-1.10943288e-01,3.13428603e-02,5.00157624e-02,
5.41584042e-04,5.25059700e-02,1.18486531e-01,-3.34021524e-02,-4.00371067e-02,
-1.05205223e-01,5.28627411e-02,9.72965639e-03,5.04644513e-02,-1.48250693e-02,
-6.38215803e-03,5.24005368e-02,-9.79235768e-02,-2.60137413e-02,-5.06612323e-02,
6.74771443e-02,-3.26095261e-02,-1.05709143e-01,-1.79206487e-02,5.77877797e-02,
2.20103581e-02,-2.86895502e-02,-8.06169584e-02,-4.80991900e-02,-1.03672430e-01,
1.03186771e-01,-9.88688245e-02,-1.45415664e-01,-5.40069863e-02,-4.13261726e-02,
-1.92264132e-02,-6.70837015e-02,2.15313621e-02,-1.65860191e-01,-1.33959204e-01,
3.07049081e-02,1.12401433e-01,1.62286870e-02,-2.13330965e-02,-4.25623506e-02,
9.48982611e-02,1.29852854e-02,-4.45926338e-02,3.57000455e-02,-7.06823403e-03,
-4.67412136e-02,-2.01355480e-02,-3.98106687e-02,-5.77510446e-02,-7.42409751e-02,
-2.29346789e-02,4.96820956e-02,1.90847907e-02,2.64522955e-02,7.12705553e-02,
-1.05844431e-01,5.86947240e-02,-8.06918293e-02,5.44207655e-02,4.59221974e-02,
2.68524792e-02,-1.24254674e-02,-2.43515056e-02,-5.27373478e-02,6.20620959e-02,
-2.69126117e-01,-8.99671949e-03,1.71151087e-02,7.75731355e-03,1.39857292e-01,
2.35545281e-02,1.01606749e-01,1.02472693e-01,7.92947114e-02,5.34017123e-02,
-2.78319977e-02,4.95759360e-02,2.52964366e-02,-8.46345872e-02,-4.56266291e-02,
-4.01399024e-02,-2.35438403e-02,-3.23717948e-03,3.80354971e-02,8.40529799e-02,
-1.99841801e-03,-5.04135489e-02,1.18957549e-01,-4.82906140e-02,}; 
k2c_tensor lstm_1_kernel = {&lstm_1_kernel_array[0],2,6144,{ 48,128,  1,  1,  1}}; 
float lstm_1_recurrent_kernel_array[65536] = {
-1.46146882e-02,-2.15288643e-02,1.95929185e-01,-2.55833976e-02,8.44093133e-03,
-8.26242268e-02,7.16048060e-03,-6.24749670e-03,-6.78058937e-02,5.33322059e-02,
1.15070641e-01,1.97878871e-02,7.96836615e-02,3.89547832e-03,-5.54761067e-02,
3.03815100e-02,9.52105373e-02,2.54279077e-02,-2.71260962e-02,-9.97384712e-02,
-5.95799014e-02,-1.95589736e-02,-6.17703460e-02,1.65749174e-02,-5.02221612e-03,
3.88854034e-02,-1.00613711e-02,5.24964780e-02,2.77388934e-02,2.26037987e-02,
-1.13192856e-01,-5.16040660e-02,-5.71178980e-02,7.02020712e-04,-6.59510866e-02,
-1.34579567e-02,5.60975671e-02,-2.30392674e-03,-1.63066551e-01,8.31663236e-02,
-7.69010338e-04,-7.24180713e-02,3.76061276e-02,-7.50139654e-02,6.40657842e-02,
2.16208454e-02,9.05720815e-02,-8.87771323e-02,-8.71776864e-02,-1.70017824e-01,
8.81665349e-02,6.35554940e-02,-2.39404924e-02,4.70546484e-02,6.47296980e-02,
-2.23597344e-02,-4.39719670e-02,8.40176716e-02,5.93755282e-02,1.02967188e-01,
-9.66137722e-02,2.65323352e-02,3.34355272e-02,-1.13639921e-01,-2.73652468e-02,
-1.35988459e-01,-6.27728505e-03,4.86069173e-02,9.10867080e-02,-6.35906309e-02,
6.32611010e-03,-1.20178670e-01,-3.93258221e-02,-1.82860009e-02,6.09078221e-02,
5.81865758e-02,1.10964991e-01,-7.95826837e-02,4.12683077e-02,3.90237197e-02,
-6.48456886e-02,-4.11408246e-02,-5.31239770e-02,2.94185504e-02,7.38381147e-02,
-7.04497695e-02,4.69787754e-02,-3.61014083e-02,1.10866666e-01,1.64642669e-02,
1.43818140e-01,-7.35690072e-02,5.99514432e-02,1.20012630e-02,-1.01793017e-02,
7.53628537e-02,-6.93005845e-02,7.94975180e-03,8.42161700e-02,5.65317348e-02,
7.09253624e-02,9.78861675e-02,1.24623612e-01,-3.76774855e-02,1.77100897e-02,
-1.00732081e-01,-1.53675690e-01,-2.62997188e-02,-3.05697527e-02,-8.33032951e-02,
4.63733040e-02,8.11120272e-02,2.38588452e-02,-6.30806163e-02,-4.45854105e-03,
-1.32336486e-02,-7.71210119e-02,-5.62290028e-02,-1.25183120e-01,-5.89212775e-02,
5.78615926e-02,-1.09781891e-01,4.54635359e-02,-7.96628296e-02,-1.15821846e-01,
-8.33031982e-02,-8.59345961e-03,1.91128142e-02,-4.57760952e-02,3.60741019e-02,
2.89472323e-02,-1.51654959e-01,-4.84556742e-02,-3.88638489e-02,7.94802830e-02,
-1.66445673e-02,1.96951628e-01,7.66464882e-03,1.59469675e-02,8.54822323e-02,
-1.15614057e-01,6.49101958e-02,-1.22025516e-02,6.21104538e-02,1.12813972e-01,
1.30996615e-01,3.47958431e-02,7.05436617e-02,8.56430153e-04,-3.68850008e-02,
2.70709973e-02,1.23203203e-01,-4.22692820e-02,-2.62731628e-04,1.27210468e-01,
1.21998694e-02,-6.49873987e-02,-3.66018824e-02,2.97774188e-02,-5.97981811e-02,
-3.92350256e-02,3.44946645e-02,7.73714483e-02,-2.61161830e-02,-2.16186978e-02,
