#include <math.h> 
 #include <string.h> 
#include "./include/k2c_include.h" 
#include "./include/k2c_tensor_include.h" 

 
static struct FRNN_0D_12channels_mar6_10_static_vars 
{ 
float lstm_1_state[128]; 
} FRNN_0D_12channels_mar6_10_states; 


void FRNN_0D_12channels_mar6_10(k2c_tensor* input_1_input, k2c_tensor* dense_1_output) { 

float lstm_1_output_array[64] = {0}; 
k2c_tensor lstm_1_output = {&lstm_1_output_array[0],1,64,{64, 1, 1, 1, 1}}; 
float lstm_1_fwork[512] = {0}; 
int lstm_1_go_backwards = 0;
int lstm_1_return_sequences = 0;
float * lstm_1_state = FRNN_0D_12channels_mar6_10_states.lstm_1_state; 
float lstm_1_kernel_array[3072] = {
1.00774966e-01,-1.87845662e-01,1.32995218e-01,1.20569713e-01,3.94354537e-02,
6.07153848e-02,2.16645598e-02,2.11990774e-02,-1.92319483e-01,1.16925374e-01,
1.35058314e-01,-1.52816236e-01,1.62104964e-01,2.95413956e-02,1.25898004e-01,
1.43163847e-02,1.24977961e-01,-4.91378922e-03,5.03732488e-02,2.54352093e-02,
7.90250301e-02,-8.03886354e-02,2.27052113e-03,6.38211668e-02,-5.37724420e-02,
-1.94511220e-01,7.69326985e-02,-1.79258153e-01,-1.59209654e-01,1.14708781e-01,
-1.45064756e-01,8.95957947e-02,-9.75276995e-03,-6.65000305e-02,5.63757531e-02,
-9.83855799e-02,-5.92893735e-02,-7.35082328e-02,-1.68695867e-01,-5.05364351e-02,
-6.77521527e-02,1.09407008e-01,-1.44827086e-03,-1.45879656e-01,1.49855211e-01,
-3.92425917e-02,-9.42467228e-02,-8.41992944e-02,-9.05273296e-03,8.46872404e-02,
-1.66797955e-02,1.05145380e-01,-9.79814827e-02,-9.13051367e-02,4.71895859e-02,
-1.52814299e-01,5.81882410e-02,-5.23262620e-02,1.03377782e-01,-1.55886725e-01,
-1.15397409e-01,-1.74269434e-02,2.94087790e-02,1.59478802e-02,-1.14622422e-01,
-7.41621703e-02,-6.98464364e-02,5.03680483e-02,-7.20813274e-02,1.49692297e-01,
-1.07091732e-01,-1.65177777e-01,7.14222714e-03,8.23129714e-02,-1.76054277e-02,
-1.52869552e-01,8.29871837e-03,-8.16861615e-02,1.67001069e-01,-2.67640259e-02,
1.37334347e-01,7.58159254e-03,-4.65635508e-02,8.79942179e-02,8.47655982e-02,
-7.35980086e-03,-1.24230050e-01,-1.05494149e-01,-8.27475786e-02,-5.73838651e-02,
-4.11688015e-02,1.29426375e-01,-1.65624022e-01,-1.57362625e-01,-1.33500576e-01,
6.55151159e-02,5.94031103e-02,9.09504145e-02,-8.85323882e-02,1.38359174e-01,
6.72488809e-02,2.58721374e-02,1.17706820e-01,-2.03538407e-02,6.16390221e-02,
4.50119339e-02,1.03982098e-01,9.15811360e-02,-7.56799127e-04,-6.15360625e-02,
-1.48065493e-01,1.26238510e-01,-2.20836401e-01,-2.55139172e-02,1.63715541e-01,
-7.16530308e-02,-8.30712554e-04,1.34367287e-01,3.72017175e-02,6.81886673e-02,
1.79428354e-01,8.78803954e-02,6.22174926e-02,-1.31644458e-01,-1.35235349e-02,
1.04794390e-01,1.83732361e-01,-1.73073158e-01,5.75555898e-02,8.34982097e-02,
-7.84159228e-02,1.25669494e-01,1.95507824e-01,1.61776796e-01,1.69744074e-01,
7.87423328e-02,1.24018252e-01,-1.50063440e-01,-5.72783500e-02,-7.33446479e-02,
1.49301216e-01,1.49628967e-01,9.06033739e-02,1.90667838e-01,1.40346020e-01,
-1.03232034e-01,-9.31694806e-02,-4.19771485e-02,3.73732224e-02,5.57323843e-02,
-4.25184332e-02,8.82242173e-02,-1.36686146e-01,-9.91945416e-02,-1.89711899e-01,
5.31836711e-02,-9.38079059e-02,-1.18406415e-01,2.21271977e-01,-6.12435415e-02,
1.36675596e-01,-8.92740116e-02,-1.94865867e-01,-1.08705066e-01,8.76004547e-02,
4.33744676e-02,-9.50342566e-02,2.39403863e-02,-4.81961221e-02,1.15132362e-01,
-1.79382339e-01,-7.39217475e-02,-7.74310306e-02,-1.78754732e-01,-1.28538474e-01,
-1.83656394e-01,3.05493213e-02,2.48380564e-02,2.59616431e-02,-2.30049640e-02,
3.31763811e-02,1.60476699e-01,-1.40734434e-01,9.40756574e-02,-2.24239960e-01,
4.77796867e-02,-8.87747202e-03,-6.28390089e-02,7.90333748e-03,1.72999278e-01,
-7.79218897e-02,-1.28861710e-01,-1.71552271e-01,1.57142386e-01,3.47404070e-02,
2.46949539e-01,-1.25355534e-02,1.17595054e-01,1.05431892e-01,-2.22472511e-02,
-1.70935199e-01,3.37195508e-02,-8.47898237e-03,-8.11946243e-02,1.05121657e-01,
3.01754698e-02,1.80335976e-02,9.68926698e-02,-5.80600575e-02,1.27356812e-01,
-1.35991961e-01,1.35109916e-01,1.91256225e-01,1.29013956e-02,-8.83615538e-02,
6.00800477e-02,8.55941474e-02,-5.48706129e-02,-2.78964955e-02,-1.04179889e-01,
3.38222384e-02,-8.18625540e-02,-1.13645606e-01,1.60226807e-01,4.45316546e-02,
1.54033646e-01,-4.88429628e-02,1.08088821e-01,-4.83063459e-02,-2.64313873e-02,
-1.94634087e-02,-8.23243931e-02,-1.31700307e-01,-4.64560054e-02,8.27233493e-02,
4.68933694e-02,-1.24229863e-01,-3.77895194e-03,6.60083145e-02,1.22713767e-01,
-3.96543257e-02,-1.33702144e-01,-3.96604724e-02,-2.78731193e-02,-1.18121028e-01,
6.37504980e-02,-1.54090270e-01,-1.54356929e-02,-1.66398004e-01,-3.99632044e-02,
-9.44596156e-03,9.54382494e-02,1.17397206e-02,1.31021544e-01,3.77128944e-02,
-1.77744269e-01,-5.11504337e-02,2.41947290e-03,-8.64741281e-02,1.90513596e-01,
-2.18096077e-01,-8.38389397e-02,-7.21735731e-02,3.07539832e-02,-2.76858285e-02,
-1.30312398e-01,1.10814765e-01,-1.84854880e-01,2.09753603e-01,3.02471425e-02,
9.74946618e-02,-3.96834910e-02,-1.11158147e-01,1.61657445e-02,3.51991020e-02,
-1.96237862e-01,-7.76047111e-02,-1.32412508e-01,-1.08425580e-01,1.66914165e-02,
1.06090494e-01,-1.35342836e-01,-7.56211579e-02,-1.38566429e-02,1.92887127e-01,
-1.99763864e-01,1.05125330e-01,-7.82479122e-02,-8.38085264e-02,-1.29136756e-01,
9.70227346e-02,-1.19596291e-02,-1.78885102e-01,-2.20380694e-01,-1.78116769e-01,
-1.34502321e-01,-1.17421031e-01,2.50763632e-02,-1.29240200e-01,1.83539987e-02,
-1.28040731e-01,-1.65362835e-01,-3.92838195e-02,-1.89239308e-01,4.31152582e-02,
-1.09545462e-01,2.28866041e-01,3.00769024e-02,-1.22938178e-01,-7.57762417e-02,
4.34802249e-02,7.99867958e-02,1.41178146e-01,2.77004428e-02,-2.88204551e-02,
-9.09181461e-02,-5.30175725e-03,6.43887743e-02,1.58038631e-01,1.77912097e-02,
-1.43730298e-01,-8.78559202e-02,-5.91491796e-02,2.87942700e-02,-8.69686157e-02,
1.73805058e-02,1.03803799e-01,1.62961468e-01,-3.40285413e-02,3.13027878e-03,
3.58378477e-02,-2.28905622e-02,1.57262776e-02,-5.48892953e-02,-7.51378154e-03,
-1.64529309e-02,-6.32480308e-02,-2.49990206e-02,-2.99048889e-02,1.87235195e-02,
1.44142639e-02,1.38217369e-02,-4.82684709e-02,1.33345678e-01,-1.41959935e-01,
1.02523165e-02,6.10915497e-02,-1.40275145e-02,-5.04709606e-04,-1.60004064e-01,
2.43582800e-02,-2.49240547e-03,1.02101386e-01,-1.88254546e-02,7.80490562e-02,
-1.72949973e-02,-1.03443660e-01,-1.76129505e-01,-6.66426867e-02,6.64706379e-02,
1.46939054e-01,4.63736318e-02,-1.20536938e-01,-1.27435088e-01,7.09237456e-02,
-2.14437380e-01,1.70062751e-01,-1.67371616e-01,-4.70598345e-04,8.60120654e-02,
-8.53327587e-02,1.12017028e-01,2.09223684e-02,1.73323769e-02,-3.40765379e-02,
1.10155977e-01,-3.89603376e-02,3.04114819e-02,-1.19472302e-01,-1.16726287e-01,
1.41443029e-01,-6.77241432e-03,1.16871834e-01,-2.64805816e-02,2.36282237e-02,
-5.82462810e-02,-1.75016493e-01,-3.29987369e-02,1.39969900e-01,1.12422435e-02,
4.63990755e-02,-5.44185825e-02,6.76919743e-02,9.56485048e-02,4.63162400e-02,
-3.19562480e-02,2.38076419e-01,2.86110546e-02,-1.41482010e-01,6.40060380e-02,
9.84303430e-02,-7.41116181e-02,2.16624513e-02,7.63667598e-02,-1.76074356e-01,
-1.43229261e-01,1.49671026e-02,-5.80867566e-02,-1.18188404e-01,-1.54021103e-02,
1.70617118e-01,-6.66520894e-02,1.04983114e-01,6.15656450e-02,7.38252187e-03,
3.80535536e-02,7.00494200e-02,2.94307023e-02,1.08891368e-01,-6.33551776e-02,
1.65836979e-02,7.58300498e-02,-6.92214593e-02,-1.22697845e-01,-1.73309356e-01,
1.59853950e-01,-5.68206236e-02,-2.29489043e-01,-8.33740234e-02,-9.19087511e-03,
7.83304572e-02,-2.03000102e-02,9.58609488e-03,3.01533360e-02,1.62921429e-01,
4.34258729e-02,-1.73758820e-01,-3.89519557e-02,-4.44313046e-03,-1.22963913e-01,
2.71702465e-02,-1.24122232e-01,-1.88162521e-01,-1.65334851e-01,1.05020605e-01,
-1.55980945e-01,7.22452775e-02,-1.73440441e-01,-1.22186773e-01,-4.56382800e-03,
-1.15057770e-02,-7.85235316e-02,-1.45329371e-01,1.11400872e-01,-3.96645665e-02,
-1.34163629e-02,-1.70289110e-02,-2.07353592e-01,1.81582674e-01,-1.32631391e-01,
5.27471043e-02,-1.91247106e-01,5.48692532e-02,2.05590382e-01,-7.21819550e-02,
1.67582676e-01,8.72195885e-02,9.21185836e-02,-6.65487051e-02,-6.13889433e-02,
-1.69541035e-02,-2.35451590e-02,1.33665800e-01,1.28475606e-01,-9.64367017e-02,
-1.07822232e-01,4.88577001e-02,-2.14931548e-01,7.68965408e-02,8.42849985e-02,
1.01201348e-01,4.24489100e-03,-8.92322436e-02,9.66615453e-02,-1.26717180e-01,
5.46550490e-02,-1.43071845e-01,1.08928578e-02,-1.20024778e-01,9.37443227e-02,
9.71309561e-03,-9.46209431e-02,-9.89361200e-03,-5.67295626e-02,2.41109923e-01,
-1.21806063e-01,4.16354537e-02,-6.09246753e-02,8.47901255e-02,2.81171240e-02,
-7.04695731e-02,2.74039470e-02,-1.56138510e-01,1.81135554e-02,-1.65487662e-01,
-1.37815684e-01,-1.16507590e-01,-1.45357311e-01,-1.00213006e-01,-7.78895989e-02,
-1.59135535e-01,-2.72561219e-02,2.95877084e-02,4.86071296e-02,3.44197601e-02,
8.37109110e-04,-9.11983475e-02,-6.41219039e-03,1.29942179e-01,-9.90100577e-02,
-1.64189890e-01,-1.33879289e-01,-1.00409150e-01,1.56570226e-01,2.02345867e-02,
5.01508862e-02,-6.31220564e-02,3.38675044e-02,1.67855397e-01,5.53131439e-02,
2.51285046e-01,1.77628428e-01,-5.06216176e-02,-2.12755948e-02,1.34562731e-01,
-4.03038524e-02,-5.61218522e-02,-3.04333982e-03,-1.75716698e-01,-3.19417752e-02,
-1.45830825e-01,-9.15033445e-02,9.23057422e-02,-1.19509526e-01,4.03633825e-02,
-9.37380344e-02,-2.02500205e-02,-1.19274013e-01,-1.35218799e-02,-6.49796501e-02,
-1.34052988e-02,-4.85608019e-02,-1.93309598e-02,-1.19960800e-01,-1.95755064e-01,
-6.63368255e-02,-4.55280906e-03,9.80629250e-02,-7.71553814e-02,6.96777180e-03,
8.63669589e-02,-1.90154180e-01,1.11206003e-01,-1.95329040e-01,-6.04648776e-02,
1.36585021e-03,-2.33066194e-02,3.60143036e-02,1.91969927e-02,-6.71980456e-02,
-2.17404552e-02,-3.20018008e-02,7.38399699e-02,-2.00112492e-01,-2.62024943e-02,
-1.79289822e-02,6.09601289e-02,-9.04714093e-02,-1.59918293e-01,1.44902254e-02,
1.29440933e-01,-2.99938656e-02,2.34528080e-01,-1.52474612e-01,6.43242057e-03,
-1.07579499e-01,3.00063957e-02,4.62602004e-02,7.18459720e-03,-1.05866216e-01,
-6.11126348e-02,1.74972087e-01,1.15391098e-01,-1.10337377e-01,1.29664615e-01,
-1.89042129e-02,-1.59295529e-01,-6.06159642e-02,-8.05272311e-02,6.84627891e-02,
-2.31126815e-01,-1.44640625e-01,3.14936899e-02,-3.96338142e-02,-6.52273074e-02,
3.46325710e-02,-5.95589094e-02,4.99931537e-02,5.60432039e-02,-2.09511779e-02,
-1.60624519e-01,7.47585520e-02,-1.25433579e-01,7.36301532e-03,6.12658672e-02,
9.25287977e-02,7.78536052e-02,-2.90673506e-02,-1.66061446e-01,-1.99775502e-01,
-1.33984193e-01,-1.54694930e-01,-6.44308329e-02,1.79504473e-02,-8.20749551e-02,
-1.33080751e-01,1.61818728e-01,-1.86424311e-02,-1.67356610e-01,1.28584713e-01,
-6.50038570e-03,-5.33275865e-02,1.58934891e-02,2.38116216e-02,-9.24332216e-02,
-6.14646673e-02,1.64103284e-01,-6.86192065e-02,6.72600269e-02,-2.01885458e-02,
-1.16072595e-01,2.54604220e-02,3.04856971e-02,6.04210868e-02,-3.52760851e-02,
2.18952936e-03,-2.21554730e-02,-2.17082515e-01,3.66687849e-02,-1.39330234e-02,
7.63703287e-02,-1.48721546e-01,1.67376190e-01,-7.75613040e-02,4.92903851e-02,
-1.19516194e-01,9.95138958e-02,-5.31378575e-03,6.48144633e-02,-1.14074863e-01,
-1.26234427e-01,-4.40232195e-02,-1.32915318e-01,1.01805680e-01,1.35194855e-02,
7.49674514e-02,-1.36938989e-01,-1.37997478e-01,-3.80949192e-02,-1.15422323e-01,
-6.25687614e-02,-1.91303641e-02,-9.86606926e-02,3.27055342e-02,-1.38625324e-01,
-8.06825534e-02,-5.40247075e-02,-1.51740253e-01,-1.08477948e-02,1.99493840e-02,
-8.12085867e-02,1.30759338e-02,3.07509210e-03,-6.00214265e-02,-1.48506284e-01,
-8.65850076e-02,9.42380279e-02,-1.42153025e-01,5.82748000e-03,-1.34023383e-01,
1.53553754e-01,-9.27506313e-02,7.38950148e-02,-7.35143721e-02,-1.39467418e-01,
1.41685620e-01,-1.21414468e-01,-1.59741059e-01,-1.06121875e-01,3.80588621e-02,
1.53013453e-01,-1.94156229e-01,6.98381662e-02,-3.36110108e-02,-5.71910851e-02,
-1.06532834e-01,8.70729834e-02,-1.02106616e-01,-5.62926903e-02,-1.55318290e-01,
-6.50716126e-02,-2.28850916e-01,-2.18600020e-01,-1.35710105e-01,1.29907429e-02,
6.33427650e-02,-2.14644805e-01,1.10593639e-01,6.90593645e-02,-3.17030847e-02,
2.33426150e-02,-3.04559562e-02,5.88492937e-02,5.93723729e-02,2.60919537e-02,
-1.42414957e-01,1.40982375e-01,4.46624272e-02,-1.31256714e-01,1.95591599e-02,
-4.61841188e-02,3.79841216e-02,-1.35717601e-01,-7.14771450e-02,9.19522047e-02,
-1.69951037e-01,-1.15016565e-01,-1.59890264e-01,1.01032682e-01,-5.54216392e-02,
1.00738287e-01,5.38877491e-03,-7.94987604e-02,-1.07004464e-01,1.84476465e-01,
-1.69436485e-01,-1.26543522e-01,1.14561729e-01,-1.39500434e-02,-1.88222483e-01,
-1.18448190e-01,-2.76531596e-02,-1.53436095e-01,5.32462001e-02,-7.22472221e-02,
5.41172214e-02,1.60616487e-02,6.64953217e-02,1.30751180e-02,9.20295268e-02,
-4.87204380e-02,1.00744389e-01,6.94881901e-02,-2.46827900e-02,-1.33596640e-02,
-5.30059785e-02,-2.23778009e-01,-6.02290733e-03,9.81512293e-02,-1.01193115e-01,
2.80364789e-02,-6.57013878e-02,1.24025233e-01,1.04955964e-01,1.33045748e-01,
-6.06513233e-04,-1.19424956e-02,-7.35483458e-03,-9.27631781e-02,1.27674803e-01,
1.67170957e-01,-1.02032833e-01,1.48799405e-01,-9.51603800e-03,9.28377733e-02,
1.00256078e-01,-3.18723917e-02,1.20132491e-01,1.04538977e-01,3.51179042e-03,
6.70998618e-02,-1.34552240e-01,5.10863885e-02,-1.14525683e-01,1.03645392e-01,
-1.39342874e-01,9.38375369e-02,-1.41874272e-02,-7.62261376e-02,4.74397130e-02,
-1.41207397e-01,2.44344454e-02,8.43012109e-02,-7.10351616e-02,5.94637394e-02,
4.78657288e-03,-2.79334653e-02,1.77554652e-01,1.09861106e-01,-1.07121527e-01,
2.89000925e-02,1.83556136e-02,-7.41332024e-02,-7.61452541e-02,5.86394481e-02,
-8.85748491e-02,-6.04539365e-02,-4.29079495e-02,-6.37880713e-02,1.91040009e-01,
-1.94179956e-02,5.35775349e-02,2.14534134e-01,-1.01193920e-01,-1.04754873e-01,
8.86562541e-02,1.19895905e-01,-6.73026368e-02,-5.27201518e-02,-1.18223034e-01,
-1.20312320e-02,-3.51108983e-02,7.68575668e-02,-4.79681380e-02,-1.09461911e-01,
-3.25058494e-03,-1.31577614e-03,1.50762916e-01,-1.08806032e-03,1.17934890e-01,
-7.77343363e-02,1.33028328e-01,1.15782924e-01,1.02631142e-02,1.20909698e-01,
1.68479756e-01,1.21769570e-01,-3.14991064e-02,-1.16318300e-01,-4.05944511e-02,
4.04697796e-03,4.11704853e-02,-1.48668364e-01,-1.06588803e-01,1.13251761e-01,
-5.59832156e-02,1.89622849e-01,-1.69781744e-02,-1.54108778e-02,1.93265174e-02,
-9.41782817e-02,1.60448235e-02,-9.75872055e-02,-3.86234447e-02,5.24636284e-02,
-1.25931082e-02,2.04649679e-02,9.57836062e-02,9.65427905e-02,-1.19496755e-01,
8.82270485e-02,-2.91939229e-02,9.49933529e-02,-5.16479835e-02,-8.32071006e-02,
7.29607865e-02,-1.06584132e-01,1.37350038e-01,1.50287911e-01,6.20439909e-02,
-4.92546819e-02,2.02420697e-01,3.37579735e-02,1.28180906e-01,9.95021090e-02,
1.80791952e-02,-5.47693931e-02,-9.15324613e-02,-6.40982389e-02,-9.91379470e-02,
-1.84498020e-02,1.55508325e-01,-5.20100109e-02,-1.06482825e-03,-9.08363238e-03,
1.37981065e-02,7.68280104e-02,-4.34823819e-02,3.17041203e-02,-8.15433487e-02,
6.55343533e-02,-1.14415213e-01,1.07902676e-01,-1.52895764e-01,8.79788212e-03,
3.04588266e-02,4.79256697e-02,2.04836801e-02,-1.12171881e-01,8.03876296e-02,
-5.79915531e-02,2.57557491e-03,-4.69403826e-02,-3.50918248e-02,-3.69629785e-02,
-5.44401482e-02,-1.07262768e-01,9.22722146e-02,1.01801142e-01,-5.72469682e-02,
1.11231551e-01,1.41885420e-02,2.57645827e-02,4.43857871e-02,1.55685559e-01,
1.41375527e-01,1.67614028e-01,-1.10313177e-01,-1.09914705e-01,-2.59175687e-03,
1.09578378e-01,6.40374273e-02,-1.19937435e-01,-3.51345539e-02,-2.22936943e-02,
-2.91159202e-04,1.02408327e-01,-1.34668529e-01,1.32436186e-01,-4.03226130e-02,
-4.80962470e-02,-3.44368443e-02,6.15042485e-02,1.30217774e-02,1.64357387e-02,
-3.41076180e-02,2.87958384e-02,-1.16382368e-01,1.63560838e-01,-1.07227132e-01,
1.69945601e-02,-1.14450179e-01,-6.83425367e-02,1.03311494e-01,-1.19740941e-01,
1.17127240e-01,-1.20048158e-01,-9.11904220e-03,1.36953250e-01,7.09081143e-02,
-2.06835344e-02,-8.97891223e-02,1.15705110e-01,-1.69903133e-02,4.91035171e-02,
-1.68757379e-01,1.74139380e-01,1.44554347e-01,6.23546019e-02,6.27443269e-02,
4.30127494e-02,-1.18742995e-01,-2.47015804e-03,-1.64503813e-01,-4.49879048e-03,
1.45544976e-01,7.27303000e-03,1.13948166e-01,1.10887274e-01,9.02969465e-02,
-5.08795679e-02,8.37839469e-02,3.69585268e-02,1.13154724e-01,1.30317673e-01,
1.08953230e-01,1.96779892e-03,1.53109238e-01,5.11078052e-02,-6.02813363e-02,
1.01861320e-01,8.99297446e-02,1.16516910e-02,-1.59521997e-02,4.41898182e-02,
2.61477754e-02,2.14098811e-01,-6.14789501e-03,5.33010662e-02,6.71926811e-02,
1.00110844e-02,8.47311616e-02,2.15354741e-01,4.57907207e-02,6.68957606e-02,
-5.78843430e-02,-8.69445689e-03,-3.91047038e-02,4.16181469e-03,-4.90167476e-02,
8.57669953e-03,-3.05321589e-02,2.12083757e-02,2.09642425e-01,3.49645652e-02,
-1.45453692e-03,1.80747107e-01,4.93627563e-02,6.55856580e-02,8.42639506e-02,
5.57671115e-03,9.04982686e-02,-1.17517516e-01,-4.84467782e-02,-1.24611214e-01,
-9.32610333e-02,8.74864087e-02,1.71675339e-01,4.08461578e-02,3.49279307e-02,
9.75613073e-02,9.44055617e-02,-8.69717747e-02,1.16305957e-02,5.57007603e-02,
-2.99831890e-02,5.49693331e-02,6.96749166e-02,3.94435264e-02,4.09018174e-02,
-5.04112840e-02,-8.32761079e-02,-7.96049088e-02,5.33756204e-02,1.70423061e-01,
-1.22230751e-02,1.06561072e-01,-2.11084709e-02,1.77252397e-01,7.61583075e-02,
-1.85291991e-01,-1.24172680e-01,-8.47118255e-03,-5.70744798e-02,-5.48715293e-02,
4.67556454e-02,2.07576491e-02,3.74942012e-02,-3.77117544e-02,7.13602407e-03,
1.35369495e-01,-3.18439901e-02,1.17162496e-01,-1.24620304e-01,-7.80810639e-02,
-1.12134904e-01,1.39718903e-02,-1.38092581e-02,8.58743265e-02,-1.05171949e-01,
1.01592824e-01,-3.88891213e-02,3.81345190e-02,-5.07928580e-02,-3.97053175e-02,
1.62335098e-01,-3.31541486e-02,8.92986134e-02,2.85311714e-02,4.30695713e-02,
7.86239952e-02,-6.85739517e-02,3.62551324e-02,-1.59290638e-02,1.67270452e-01,
1.08778670e-01,-9.58549902e-02,1.55430473e-02,8.21429417e-02,5.65605015e-02,
1.05658382e-01,4.86433618e-02,-5.90176508e-02,1.01003468e-01,1.18034817e-01,
-2.50431802e-03,1.10361516e-01,1.98000655e-01,-4.94063320e-03,5.45929894e-02,
-7.92542398e-02,-8.05691481e-02,1.19721070e-01,1.27188221e-01,-9.86824110e-02,
-6.02151221e-03,6.23844974e-02,-6.29915446e-02,-7.60057718e-02,-7.40528479e-02,
1.41781777e-01,-1.03922568e-01,1.80132478e-01,-1.31713018e-01,-1.06924132e-01,
-3.61256599e-02,1.14207901e-01,7.12644383e-02,-8.40876400e-02,1.59996655e-03,
1.21549450e-01,8.23911354e-02,-8.78354162e-02,4.29061204e-02,-1.41728204e-02,
-1.73870459e-01,9.36223101e-03,-2.65683066e-02,1.67657062e-01,-1.47058353e-01,
-8.37037265e-02,-3.58316079e-02,-1.78430416e-02,-4.50126082e-02,2.92424932e-02,
-1.53730914e-01,-6.66707754e-02,3.55992913e-02,1.97499301e-02,-2.03712694e-02,
-1.49671346e-01,-1.15835108e-01,1.11640520e-01,1.11759700e-01,-5.38261533e-02,
-2.73468811e-03,-6.55224398e-02,6.25588819e-02,2.68617030e-02,-4.31401506e-02,
1.71948016e-01,1.28779262e-01,9.81422514e-02,1.65890545e-01,2.03089486e-03,
-9.14411247e-02,1.11103468e-01,-1.02220595e-01,2.89445937e-01,6.15640096e-02,
9.06801000e-02,-7.90220425e-02,-4.96443035e-03,-3.78341787e-02,-1.51904479e-01,
-8.97319242e-03,-2.11465005e-02,1.58157811e-01,-8.40163082e-02,-7.04259574e-02,
7.40614757e-02,6.26695678e-02,-5.20256720e-03,5.41627780e-02,8.30614343e-02,
-7.93297589e-02,1.63090587e-01,4.60927933e-02,9.29296091e-02,1.05715379e-01,
1.23746268e-01,2.50560530e-02,4.98393513e-02,-5.35476990e-02,-6.47274479e-02,
-4.18888479e-02,6.59730434e-02,-2.08947365e-03,9.47448146e-03,2.12680653e-01,
3.23840068e-03,6.10944256e-02,-2.74032988e-02,5.69164716e-02,1.92140713e-02,
-5.93512692e-02,-2.34239176e-02,1.51037812e-01,1.66977927e-01,1.37184218e-01,
1.89065352e-01,-1.03325740e-01,5.03055342e-02,1.79563627e-01,-9.64886136e-03,
-4.62450385e-02,-1.32245809e-01,5.47993071e-02,1.06931545e-01,1.73423052e-01,
2.96641178e-02,-1.04745522e-01,1.35845646e-01,-1.74423546e-01,3.94017734e-02,
6.45555556e-02,7.00507760e-02,3.81307565e-02,1.58850461e-01,-1.13025278e-01,
-5.82670886e-03,-2.02013981e-02,8.30196738e-02,-1.33057788e-01,6.12256676e-02,
-6.83176145e-02,5.68680689e-02,-5.97837158e-02,-7.57607296e-02,-6.27668351e-02,
1.17744334e-01,9.69297439e-02,-1.44571841e-01,1.33514702e-01,-5.59978932e-02,
4.04227898e-02,8.94538779e-03,1.20146714e-01,-1.33522347e-01,3.77418771e-02,
1.50151387e-01,8.84421263e-03,-1.73980996e-01,9.88006033e-03,2.26852536e-01,
4.82024550e-02,6.80878386e-02,2.15795338e-02,7.05242977e-02,-9.00384858e-02,
-3.92712206e-02,1.27990738e-01,1.03095211e-01,-4.06245049e-03,7.97830969e-02,
-9.83391851e-02,4.68159430e-02,9.20025259e-02,4.99464609e-02,7.78789148e-02,
1.11388132e-01,3.72875370e-02,5.53460270e-02,4.56674909e-03,1.69209093e-01,
-1.06121443e-01,1.60306189e-02,1.81180567e-01,1.07670717e-01,1.07783489e-01,
-1.32246360e-01,-2.83046858e-03,-7.86341503e-02,3.23803164e-02,-4.71800566e-02,
1.42349094e-01,-5.58411283e-03,8.06312859e-02,2.80566569e-02,1.47156537e-01,
-1.36497214e-01,4.30723839e-02,1.27185866e-01,4.34791781e-02,-1.22480039e-02,
6.99263960e-02,1.36618122e-01,4.29642424e-02,-5.82167804e-02,-1.09220386e-01,
-6.70765489e-02,1.28916562e-01,-5.29149584e-02,-6.01969883e-02,1.04784362e-01,
1.28026113e-01,9.31214914e-03,-2.98020728e-02,9.37330201e-02,1.17449455e-01,
1.32460415e-01,9.47376788e-02,6.79887831e-02,-1.92636326e-02,2.30228454e-02,
4.00009453e-02,-2.37884641e-01,-1.28225014e-01,4.50240411e-02,-5.82391806e-02,
-1.31511549e-02,7.29307756e-02,7.44552463e-02,4.12852317e-02,2.93589309e-02,
-4.73911427e-02,-5.22433780e-03,-3.61287408e-02,4.78670903e-04,1.54316947e-01,
-8.30254257e-02,-1.86050355e-01,6.62215287e-03,1.76701382e-01,9.66335610e-02,
-1.89926345e-02,-5.67978844e-02,5.73838577e-02,-9.36212484e-03,-1.33093879e-01,
4.84553874e-02,-1.04261376e-01,1.52503535e-01,1.51869491e-01,4.72041853e-02,
-9.33295041e-02,-1.22328214e-01,8.81207921e-03,1.43225864e-01,1.27542764e-01,
1.51524737e-01,-2.82087028e-02,1.60403326e-01,-7.86066502e-02,-7.87163973e-02,
-1.40990198e-01,1.23144478e-01,4.15775776e-02,-1.48936016e-02,1.08127147e-01,
1.45373449e-01,-1.10260427e-01,-2.96492386e-03,-3.39984410e-02,-4.25137696e-04,
-7.31789097e-02,9.29843336e-02,-4.98974063e-02,-2.96030827e-02,1.14609540e-01,
8.93263444e-02,-6.54812381e-02,-1.38632476e-01,-3.78508978e-02,1.67364087e-02,
-1.01480886e-01,-3.98002677e-02,1.17235243e-01,6.01982884e-03,-1.16202440e-02,
8.28566216e-03,4.24818695e-02,1.24938339e-01,-2.36125459e-04,-5.85473031e-02,
5.45093678e-02,-4.06063348e-02,-4.63633165e-02,7.02049509e-02,-1.17974147e-01,
8.40983912e-03,-8.51061195e-02,7.83645362e-02,1.60617858e-01,-3.59339975e-02,
7.82518014e-02,1.96832069e-03,9.13199708e-02,-7.54607022e-02,-9.41651836e-02,
9.74339917e-02,-1.22835897e-01,1.23267949e-01,-4.88947071e-02,8.63990262e-02,
-6.77034035e-02,6.64641410e-02,3.76721122e-03,-6.01195879e-02,6.09921925e-02,
7.78023005e-02,-5.19664362e-02,1.37277037e-01,1.07050300e-01,7.01176971e-02,
1.36337727e-01,1.02739083e-02,-1.20324939e-01,1.32404529e-02,2.20502894e-02,
-1.80181749e-02,6.17667474e-02,1.57230139e-01,-9.94245484e-02,2.26651784e-02,
-9.19425115e-02,-2.92487871e-02,-3.39614749e-02,1.41197667e-01,1.16576739e-01,
1.41404748e-01,9.02477838e-03,-1.17825270e-01,5.21939769e-02,-1.32331431e-01,
1.13200046e-01,1.43984362e-01,-6.25346974e-02,1.55157521e-01,1.28947720e-02,
-2.06033345e-02,1.34103671e-01,-3.22648548e-02,6.80556595e-02,4.00471650e-02,
9.48358029e-02,-2.77133342e-02,2.33122006e-01,-7.46354014e-02,1.45936266e-01,
-5.93644716e-02,4.70242612e-02,-8.82432461e-02,9.17259976e-02,1.19789205e-01,
-1.09517246e-01,8.30267742e-02,1.59828633e-01,-1.12781115e-01,-5.94522618e-02,
-5.77885890e-03,-7.93262869e-02,-1.92867503e-01,1.24121994e-01,-8.39397237e-02,
1.64759219e-01,1.02898469e-02,-6.19538911e-02,4.94131930e-02,7.61927068e-02,
3.83226611e-02,-9.99157876e-02,1.05740473e-01,-1.44127220e-01,3.96800339e-02,
4.69362885e-02,5.01320399e-02,8.85166079e-02,-7.88383558e-02,1.43235186e-02,
9.65718776e-02,7.97150433e-02,1.32854795e-02,-5.95013313e-02,-8.75520147e-03,
3.50457169e-02,1.21861368e-01,-3.71773690e-02,-9.78684351e-02,-5.52676283e-02,
-2.43789144e-02,1.11589380e-01,-2.26687714e-01,-4.26278375e-02,-9.10342336e-02,
-5.04295295e-03,1.04886137e-01,-6.74309507e-02,-1.66250870e-01,-1.28350243e-01,
-1.82385772e-01,7.61440843e-02,-1.54545764e-02,-1.51358545e-02,2.27051899e-01,
8.43152776e-02,8.21113586e-02,1.04962438e-02,-1.65943861e-01,5.25090378e-03,
-1.15089461e-01,-9.43793356e-02,-4.60099615e-02,2.79997122e-02,1.88892275e-01,
-1.01200357e-01,5.27040772e-02,3.67237851e-02,3.64803411e-02,-1.18352875e-01,
-5.90171032e-02,1.04699314e-01,-1.06084034e-01,-6.64178431e-02,1.61792800e-01,
-7.36177042e-02,-1.96453165e-02,3.23889069e-02,1.30715594e-01,-1.25538558e-01,
-1.02476262e-01,4.07433603e-03,6.20865226e-02,3.92985810e-03,1.20443836e-01,
-1.74530432e-01,2.49855425e-02,3.34739424e-02,7.80427232e-02,1.44283837e-02,
2.21620530e-01,-9.76851135e-02,-7.91980773e-02,-2.20564201e-01,2.21592739e-01,
1.53503016e-01,-3.85562293e-02,-1.28404841e-01,1.20174393e-01,7.83061534e-02,
1.63310230e-01,-1.43718213e-01,4.18347009e-02,4.81969910e-03,-2.22174674e-02,
2.35532839e-02,-7.86249787e-02,5.36660068e-02,3.01156733e-02,1.28229067e-01,
-1.07860483e-01,-5.75641058e-02,4.76431176e-02,1.78697824e-01,-1.35985881e-01,
-6.74826279e-02,1.11544542e-01,3.16115171e-02,-1.18563347e-01,-1.27958283e-01,
3.15601230e-02,5.49779311e-02,-4.50314879e-02,7.75004551e-02,1.04657836e-01,
-6.27613887e-02,-9.83192325e-02,1.74341694e-01,-3.50349545e-02,-6.31105015e-03,
-1.20089687e-01,1.38383973e-02,7.84531236e-02,-3.60785574e-02,-1.25096411e-01,
1.10630378e-01,-9.53527726e-03,-1.14095032e-01,1.97174568e-02,-1.33832963e-02,
-1.13612644e-01,-1.71641586e-04,-1.48798972e-02,-6.56091943e-02,7.80660957e-02,
1.16784818e-01,-2.48653769e-01,-2.38459874e-02,-5.60659729e-03,-8.73271823e-02,
1.05471045e-01,1.33541107e-01,6.36759326e-02,-2.64706444e-02,-1.05976716e-01,
1.46605715e-01,8.75286013e-02,-5.87971136e-02,-4.50833291e-02,-1.20845601e-01,
1.87761243e-02,-3.66731756e-03,-1.11947678e-01,5.13265468e-02,-1.09575475e-02,
1.33821934e-01,5.92725389e-02,7.77870696e-03,-9.32842027e-03,-5.66539541e-02,
9.07584801e-02,-8.77270848e-03,1.09370843e-01,-3.06308307e-02,2.77466830e-02,
1.37571871e-01,8.05640817e-02,-6.28482401e-02,-5.81457578e-02,-1.28044237e-04,
-1.77594230e-01,-7.97416791e-02,6.44832626e-02,-1.12791725e-01,-1.08702011e-01,
7.01654181e-02,9.86514464e-02,-1.52667329e-01,2.81061158e-02,8.98971036e-03,
-7.76096359e-02,4.11205105e-02,-5.51506225e-03,-1.75809264e-01,-8.62585828e-02,
7.01936260e-02,-8.98767915e-03,1.37620628e-01,8.32777396e-02,-1.02737574e-02,
-9.72826108e-02,1.27996624e-01,8.03696066e-02,8.01358894e-02,-1.35362417e-01,
-4.65214811e-02,3.20956148e-02,4.10547666e-02,-9.17671621e-02,-1.26129642e-01,
-2.59198179e-03,2.36342307e-02,-1.49654644e-02,4.17834930e-02,8.78908709e-02,
-1.02858156e-01,-1.15974009e-01,1.27276361e-01,-6.86617717e-02,-1.54214278e-01,
1.09181687e-01,1.34788062e-02,1.72543854e-01,2.10504327e-02,6.00991771e-02,
9.18983966e-02,-8.93958732e-02,-8.16340446e-02,-9.48689952e-02,4.40975502e-02,
-3.80305685e-02,-8.65780376e-03,-1.13000214e-01,-9.30470414e-03,-9.37432423e-02,
-6.37833700e-02,-1.02286063e-01,-8.73995945e-02,-9.85534787e-02,8.58355314e-02,
1.39228016e-01,-7.28394603e-03,-1.54626340e-01,5.85439913e-02,3.84524427e-02,
1.34270504e-01,1.46497441e-02,-8.08480904e-02,4.38863710e-02,3.90409306e-02,
-6.53966591e-02,-6.74390718e-02,-2.89508514e-03,7.76084438e-02,1.24708176e-01,
-4.32617143e-02,1.44283604e-02,-1.01463310e-01,-2.66180970e-02,-6.35568574e-02,
4.97234240e-02,-4.68334071e-02,-1.01733044e-01,-4.77108359e-02,6.36765212e-02,
1.47593275e-01,-6.74283728e-02,-9.65639129e-02,-1.35220990e-01,3.73897105e-02,
3.45135592e-02,-6.93708286e-02,4.45510373e-02,-1.35743156e-01,-1.28427390e-02,
-9.76968631e-02,-4.97422032e-02,5.41418828e-02,-7.11539835e-02,-6.56842217e-02,
6.45246431e-02,6.69368878e-02,-2.96949651e-02,6.09549135e-02,-1.73064601e-02,
9.12850127e-02,-1.16954101e-02,-1.85334925e-02,1.14002906e-01,-8.74768849e-03,
-3.23418789e-02,-1.10345505e-01,-6.73909262e-02,-1.35468751e-01,7.65035227e-02,
1.23249188e-01,2.02546224e-01,3.15040052e-02,2.80034095e-02,1.26071006e-01,
3.27409178e-01,1.96580142e-02,-8.88850763e-02,2.12974604e-02,-9.00428072e-02,
-7.36985803e-02,-2.98587587e-02,1.26269251e-01,-2.10098177e-02,-6.89318776e-02,
-9.76285785e-02,1.43369257e-01,-9.26840901e-02,-4.07422371e-02,-5.24605513e-02,
1.31277800e-01,6.61814585e-02,8.46465901e-02,1.16951078e-01,-4.07846346e-02,
1.22971937e-01,7.78457033e-04,-8.28556567e-02,-1.11323804e-01,-1.47577077e-01,
1.41600259e-02,-5.66943660e-02,-5.27784936e-02,-1.96913630e-02,-7.74848880e-03,
-3.77457738e-02,8.03779869e-04,-2.34831981e-02,1.15958387e-02,-4.93473634e-02,
-9.97267738e-02,1.50089622e-01,-6.87937140e-02,-2.12281812e-02,-1.17835172e-01,
6.05968060e-03,-5.92350177e-02,1.61236063e-01,-1.26435056e-01,2.40445510e-02,
3.70558724e-02,1.54711716e-02,-6.80878684e-02,-2.21802175e-01,-3.41416672e-02,
5.28329201e-02,-1.84536740e-01,-9.30131674e-02,8.98380484e-03,-4.67223674e-02,
2.30412245e-01,-1.42808720e-01,-1.26411706e-01,-4.00232151e-02,1.82247572e-02,
-9.77058858e-02,-8.84710401e-02,-7.03676641e-02,-1.26886308e-01,-1.59353092e-02,
8.54527131e-02,3.38900425e-02,-1.03572430e-02,7.12369457e-02,-9.60848927e-02,
1.18332222e-01,-1.23441838e-01,-1.43487845e-02,-7.07571059e-02,1.06481388e-01,
8.50430280e-02,-9.88543630e-02,1.37771547e-01,1.55013859e-01,5.51500507e-02,
1.12219721e-01,1.31496444e-01,1.62657127e-01,5.86144738e-02,-7.62055963e-02,
6.69948012e-02,6.15606569e-02,-8.95524845e-02,-3.13745178e-02,-7.97547847e-02,
-2.04415210e-02,-1.11217611e-01,-6.05529547e-02,-2.12273505e-02,1.17066406e-01,
-3.29755545e-02,-7.23278075e-02,-1.17488258e-01,2.46616080e-02,1.85858667e-01,
1.82065278e-01,-3.02152950e-02,1.28274858e-02,4.82741892e-02,9.52302814e-02,
8.20461065e-02,1.12557912e-03,9.26817358e-02,-1.12999834e-01,-1.34521062e-02,
1.05212048e-01,7.97539875e-02,1.17882572e-01,-9.38072335e-03,1.44499600e-01,
9.71349850e-02,1.06577583e-01,-7.47874081e-02,1.55019671e-01,1.90058693e-01,
-6.45975992e-02,-5.02422862e-02,1.00751966e-01,-8.34761336e-02,1.29874218e-02,
-2.12434679e-02,-6.53063133e-02,-3.90464291e-02,5.89277633e-02,-2.37546954e-02,
-6.15010187e-02,-9.60252807e-02,1.66367501e-01,4.50541684e-03,-4.23272476e-02,
-1.20908394e-01,-1.06603637e-01,-1.09028053e-02,-1.17499463e-01,-5.18621616e-02,
-6.21100981e-03,1.74514443e-01,-7.86537081e-02,4.03467454e-02,-2.85462849e-02,
5.50015494e-02,3.40031311e-02,4.93293777e-02,2.24835761e-02,-4.18335572e-02,
-1.27520844e-01,-6.01701327e-02,-6.63059428e-02,-1.79598838e-01,-1.28376856e-01,
1.68037005e-02,-1.79364651e-01,-1.58754751e-01,1.10327981e-01,-8.46226588e-02,
-1.51703626e-01,7.25315232e-03,-1.36579856e-01,1.21016964e-01,2.41702273e-02,
-1.86217502e-01,-4.60584126e-02,-1.35422081e-01,1.16057239e-01,4.59679738e-02,
4.39988188e-02,4.45670113e-02,-3.25341821e-02,-1.56376556e-01,1.19013838e-01,
1.00846693e-01,6.44172281e-02,1.05982393e-01,2.02314137e-03,1.90907922e-02,
-4.05853912e-02,9.79706645e-02,-2.71412879e-02,2.58494206e-02,-8.31781104e-02,
9.52455774e-02,1.14529736e-01,-4.41530682e-02,-4.48129475e-02,1.86502203e-01,
-8.07533488e-02,-1.07738957e-01,7.91887492e-02,-5.04751178e-03,4.96260216e-03,
5.89527860e-02,2.06575431e-02,-9.18541029e-02,1.16992988e-01,-1.34454191e-01,
1.35926396e-01,-8.16264078e-02,-1.61542539e-02,-1.18368313e-01,-1.30802840e-01,
-1.18998110e-01,-1.45288154e-01,6.69113733e-03,-1.29535317e-01,-1.53728038e-01,
1.17336653e-01,9.33101177e-02,-7.37029836e-02,-1.61468834e-01,1.12969214e-02,
1.18350657e-02,-6.22497611e-02,1.28632024e-01,7.66213462e-02,-2.78953910e-02,
-7.25312531e-02,8.35970491e-02,-1.26258343e-01,7.14973137e-02,4.50149691e-03,
1.10097349e-01,-1.55773818e-01,-4.47471999e-02,-9.07267351e-03,-7.34305829e-02,
-1.88259594e-02,1.65933043e-01,1.07669756e-01,1.09184600e-01,9.43698809e-02,
4.47768196e-02,-1.08487122e-01,-5.56214489e-02,7.16676377e-03,5.56544736e-02,
-9.28757414e-02,7.44244531e-02,3.85087245e-04,1.45095840e-01,5.12186736e-02,
-1.16862126e-01,-4.56217453e-02,-1.57857403e-01,1.36196613e-01,-1.55401543e-01,
-9.04837325e-02,4.73050252e-02,1.28798380e-01,-6.97889701e-02,1.98570788e-01,
-5.37003055e-02,2.84210388e-02,6.18643016e-02,2.64594872e-02,-1.11015877e-02,
-9.38011110e-02,5.33430874e-02,-1.47685975e-01,1.17131136e-02,5.62707484e-02,
6.79869875e-02,1.45412847e-01,-1.09210424e-01,7.11860955e-02,-1.29142299e-01,
-9.34453383e-02,-1.14846222e-01,-1.86735857e-02,7.76839480e-02,-1.45486474e-01,
-2.01192917e-03,-1.17538676e-01,-1.38836682e-01,-1.86923519e-01,6.32782802e-02,
-3.54425013e-02,-3.44331376e-02,-1.12799332e-01,5.44615649e-02,-1.07094415e-01,
-1.30791739e-01,-1.76215857e-01,-3.38968523e-02,-5.62696904e-02,-9.29084420e-03,
3.97308283e-02,-6.02069637e-03,1.70796663e-01,4.34952118e-02,9.01386589e-02,
5.69160581e-02,-7.75921270e-02,-1.40542448e-01,-1.48813263e-01,-4.44673263e-02,
-8.24790522e-02,-8.48616362e-02,-1.01302695e-02,6.01103716e-02,8.42229649e-02,
4.05364409e-02,1.52177766e-01,1.94083482e-01,-3.90775315e-03,7.07690492e-02,
1.66086063e-01,-9.12760943e-03,-3.83981727e-02,1.29961949e-02,1.82717174e-01,
-2.35527381e-02,1.70894459e-01,1.20701313e-01,-1.16697244e-01,7.44448975e-02,
3.84166352e-02,-1.08098745e-01,8.87708440e-02,7.13385344e-02,-6.66456204e-03,
1.48727512e-02,-4.80071828e-02,1.34561153e-03,-2.43026242e-02,-4.87853624e-02,
2.44347695e-02,2.82502212e-02,8.08233619e-02,-6.71207532e-02,-8.14861357e-02,
-1.19692802e-01,-5.38326576e-02,-4.58285771e-02,-1.11370087e-01,-1.50647731e-02,
-4.39926945e-02,1.84117500e-02,-3.13782059e-02,1.56557962e-01,-5.92273474e-03,
8.86902586e-02,-1.02191158e-02,1.30466014e-01,1.20900571e-01,-4.13751230e-02,
-5.46991192e-02,-2.09780291e-01,-7.67141581e-02,-1.58055440e-01,-2.02134158e-02,
7.34004453e-02,9.61448327e-02,4.24850248e-02,-8.10738932e-03,-1.65330879e-02,
3.83691378e-02,1.63802758e-01,-8.80129710e-02,6.65923506e-02,-6.58817366e-02,
-1.14070155e-01,3.64530683e-02,-4.30491641e-02,-1.36806488e-01,5.30294282e-03,
3.08140647e-02,1.52540237e-01,6.79228231e-02,-1.17824629e-01,4.36959527e-02,
6.81959540e-02,-8.79186913e-02,7.98948482e-02,1.02262288e-01,1.68344472e-02,
-9.62123871e-02,-8.35816264e-02,8.75865817e-02,8.36410560e-04,1.24723025e-01,
8.35867003e-02,-8.07649493e-02,4.48552594e-02,-9.06611905e-02,-9.74948779e-02,
-6.19988218e-02,-1.11816481e-01,-4.42855954e-02,-7.48906732e-02,-5.73221929e-02,
7.40254670e-02,-8.05254057e-02,5.39270379e-02,-1.42410681e-01,-7.98243582e-02,
8.02620575e-02,1.26594082e-01,8.70777145e-02,1.62215963e-01,4.67316769e-02,
-3.31258103e-02,-1.33244619e-01,-6.45680651e-02,9.16527361e-02,-1.20828018e-01,
7.41936713e-02,1.19545637e-02,9.02740844e-03,5.86056821e-02,3.63500118e-02,
7.04529360e-02,-1.45593181e-01,1.91414896e-02,4.98336777e-02,-9.67853293e-02,
-4.65766974e-02,7.98620358e-02,8.82290751e-02,-2.12933924e-02,-1.37506902e-01,
-9.70899686e-02,-7.15371966e-02,-2.73470934e-02,-9.81392413e-02,1.91742301e-01,
-1.05175741e-01,1.15968231e-02,-1.24031797e-01,-1.46403119e-01,5.53505495e-02,
-1.11674242e-01,9.29499045e-02,7.03387409e-02,1.47759393e-02,1.29431292e-01,
4.25037555e-02,-3.40732746e-02,4.62432168e-02,4.51064222e-02,-6.48498014e-02,
-7.60454386e-02,-7.36079291e-02,9.25626010e-02,-4.55417763e-03,-7.22767711e-02,
7.42343720e-03,-7.57206082e-02,1.17851377e-01,-4.77751903e-02,-3.62852626e-02,
-6.01055473e-02,9.29611623e-02,1.30841687e-01,-6.20185323e-02,9.39336866e-02,
1.34544581e-01,-1.51561618e-01,-2.06618421e-02,-5.20150475e-02,-1.99209228e-02,
-6.07629716e-02,-1.09310195e-01,-1.01922303e-01,1.41955495e-01,-1.83260202e-01,
8.81886929e-02,-1.36219501e-01,-2.73533296e-02,2.06078286e-03,-5.70429154e-02,
-1.03578512e-02,3.50797996e-02,9.89868864e-02,9.42908973e-02,-4.73195082e-03,
-2.85848603e-02,-6.34282595e-03,-9.21403393e-02,6.12414479e-02,-5.77887893e-02,
-4.58597131e-02,-2.31466312e-02,5.76135069e-02,7.23379105e-02,-8.15528184e-02,
1.03640348e-01,8.41251239e-02,6.18623085e-02,6.13280572e-02,1.49049103e-01,
-1.45496219e-01,-5.37370145e-02,-6.18889108e-02,-4.60313410e-02,-3.12282182e-02,
1.27627805e-01,-7.71915633e-03,5.16028702e-03,1.38101503e-02,6.90150633e-02,
-1.41266316e-01,6.29326701e-02,2.47298568e-01,-1.09403603e-01,4.34337109e-02,
1.33659810e-01,8.30358863e-02,-5.89562319e-02,-5.96106462e-02,-3.42851281e-02,
-1.37469724e-01,-7.57932710e-03,1.15748875e-01,-1.06695794e-01,-3.83744687e-02,
-6.55308291e-02,-1.46654859e-01,-1.75662920e-01,-1.26108006e-01,-1.50152266e-01,
-7.12144300e-02,-3.21602598e-02,4.95125465e-02,1.84101850e-01,-5.79061806e-02,
1.80407986e-01,-2.89888903e-02,1.24973938e-01,-9.55342501e-02,-1.84934795e-01,
9.39705446e-02,6.72907531e-02,4.23819609e-02,-1.64628346e-02,-6.96835853e-03,
1.74200788e-01,-1.52265415e-01,7.68469572e-02,5.39794751e-02,1.07877262e-01,
-3.56884860e-02,-1.43619021e-02,-3.49710360e-02,-7.12938458e-02,-2.55156346e-02,
7.50859603e-02,-1.30178213e-01,7.56689161e-02,1.09096579e-02,-4.00687754e-03,
-1.19559392e-01,-3.62973064e-02,1.46127946e-03,-9.82674137e-02,-1.03942573e-01,
3.18201892e-02,5.54702953e-02,9.87897962e-02,-1.30951732e-01,-2.41427384e-02,
4.29748036e-02,8.68853852e-02,1.49573818e-01,5.70008392e-03,7.13770464e-02,
1.84456944e-01,2.06071325e-02,5.77309392e-02,2.25547869e-02,-8.39612335e-02,
-3.13235410e-02,7.17932209e-02,9.21174660e-02,-6.10995805e-03,9.45586152e-03,
-3.55237834e-02,5.26799001e-02,2.67123152e-02,-1.27799809e-01,-6.50172904e-02,
1.67072099e-02,-2.20609326e-02,-8.66501499e-03,1.93349198e-02,-8.28432739e-02,
1.33269489e-01,-4.97766510e-02,-9.12150070e-02,-5.77153489e-02,1.24459848e-01,
-8.82655755e-02,-1.16379797e-01,-5.25610708e-03,-1.81392998e-01,-9.64588672e-02,
4.67100926e-03,4.55051810e-02,-1.66288808e-01,-6.15470819e-02,1.27553195e-01,
5.61384074e-02,-3.52892056e-02,-6.48299651e-03,-5.90256241e-04,-1.82849169e-02,
-4.58585359e-02,5.44221373e-03,1.74136087e-02,5.39903641e-02,2.47872192e-02,
2.12604236e-02,9.20159370e-02,1.89170107e-01,1.23735949e-01,7.89468884e-02,
-1.90360233e-01,-4.15851064e-02,-8.46996754e-02,1.14891537e-01,8.94807465e-03,
-2.09574178e-01,-1.34748772e-01,-5.12464792e-02,-7.70626739e-02,-1.03033021e-01,
7.39331320e-02,-1.08526163e-01,-5.63135780e-02,8.49313512e-02,4.65170853e-03,
4.69902344e-02,1.15584005e-02,-4.01604511e-02,6.34463355e-02,1.27727866e-01,
4.53893617e-02,-2.08202377e-02,1.17434472e-01,-1.53717265e-01,-7.89363310e-02,
2.71423589e-02,-1.25505298e-01,5.13583086e-02,-7.05572069e-02,-1.10143133e-01,
1.39760124e-02,1.54340584e-02,5.71129732e-02,1.65034935e-01,-1.55345932e-01,
-6.15902990e-02,3.59227099e-02,-2.35465690e-02,4.93624955e-02,-1.21450543e-01,
-9.87748727e-02,-6.70859739e-02,-1.52556617e-02,4.03165035e-02,3.79191265e-02,
-2.49804687e-02,6.87014591e-03,-2.72959694e-02,-3.09376270e-02,-1.50021771e-02,
-4.47316803e-02,-7.83809125e-02,-4.49938923e-02,5.46019189e-02,-1.40401170e-01,
1.35986164e-01,-3.71922664e-02,-7.33815227e-03,1.46293730e-01,5.83740361e-02,
1.15897074e-01,1.67986706e-01,-1.27910599e-02,-1.27686009e-01,-7.39217401e-02,
4.63158302e-02,-9.86857638e-02,1.79928005e-01,1.85173213e-01,-1.40392482e-01,
-3.78398574e-04,-1.66989818e-01,-1.00589342e-01,-3.45216990e-02,1.48995593e-01,
-4.89297621e-02,8.80378559e-02,-8.81692674e-03,-1.23495251e-01,5.12812054e-03,
-4.17653434e-02,-8.21507275e-02,6.63084984e-02,-5.07992841e-02,6.94765449e-02,
1.92237366e-02,1.02457337e-01,-9.48978886e-02,-5.32385670e-02,-1.29794190e-02,
5.84130213e-02,-3.83584667e-03,-5.71480431e-02,-5.51149510e-02,-6.42376079e-04,
2.44697835e-02,-5.36193550e-02,6.46888316e-02,-1.34768248e-01,-3.88371870e-02,
1.06770247e-01,-7.13144317e-02,-2.36153975e-02,-1.87835097e-01,-6.56209439e-02,
8.32371339e-02,-3.98539454e-02,8.45999271e-02,5.58436625e-02,-6.35657310e-02,
8.48200321e-02,-9.12670866e-02,1.32195251e-02,8.63865018e-02,6.17663190e-02,
1.65195569e-01,6.50996119e-02,9.17248130e-02,8.22632238e-02,-4.85341139e-02,
-8.10906366e-02,-1.56985253e-01,8.88852775e-02,-1.35667965e-01,-2.32075788e-02,
-6.07192814e-02,-1.01612851e-01,1.61423851e-02,1.09303683e-01,1.27588391e-01,
1.01170726e-01,8.27207603e-03,3.02043464e-02,-7.76740462e-02,-1.50726393e-01,
1.01752967e-01,-4.27629650e-02,-1.00170501e-01,5.76402545e-02,6.77400231e-02,
5.35569601e-02,7.65650533e-03,1.18323274e-01,1.89799815e-02,1.14757881e-01,
1.10890768e-01,-1.64723948e-01,-1.82209194e-01,-1.45516217e-01,6.13655522e-02,
1.10055313e-01,-3.64655890e-02,-7.48568922e-02,1.86047152e-01,1.38507569e-02,
-1.67004336e-02,1.58346996e-01,1.52046859e-01,1.26848429e-01,-2.62927562e-02,
-7.63924867e-02,1.04297157e-02,2.41077289e-01,1.77955061e-01,5.45328446e-02,
1.80114836e-01,2.47022569e-01,-1.17896385e-01,-1.18933171e-01,6.52015805e-02,
-4.60326301e-05,-1.04681239e-01,-1.27293199e-01,7.27322847e-02,-3.96197066e-02,
-3.60529348e-02,1.83652550e-01,-8.44846293e-02,2.92973872e-02,-3.63398455e-02,
-7.37077370e-02,1.15041152e-01,-6.14275457e-04,1.27481639e-01,-9.55649987e-02,
1.04111247e-01,-5.44122569e-02,1.55829296e-01,2.07453296e-02,-3.34717669e-02,
4.09745649e-02,-7.52592385e-02,-6.33083209e-02,4.03634692e-03,4.56973054e-02,
1.57762170e-01,-3.83958593e-02,2.10134655e-01,4.23251353e-02,-1.44752324e-01,
-9.78682563e-02,5.04335016e-03,9.46895704e-02,-9.11885276e-02,-1.01139538e-01,
6.03764243e-02,-8.69462416e-02,4.16340977e-02,-7.06625730e-02,6.01336211e-02,
5.18933423e-02,-5.99301653e-03,-5.45827746e-02,-1.72695726e-01,-9.83136669e-02,
1.43492629e-03,-7.50717595e-02,5.29090464e-02,-1.84509963e-01,1.28722275e-02,
-1.47930952e-03,9.40176025e-02,5.27965426e-02,1.16744153e-01,9.70958965e-04,
-7.41573125e-02,-1.42392114e-01,-1.39083356e-01,6.92381561e-02,-8.07783827e-02,
-2.60147545e-02,1.11761928e-01,-8.26567113e-02,-1.01872593e-01,-9.83719230e-02,
-8.11211392e-03,-5.38785867e-02,-1.64987490e-01,-9.55089852e-02,-2.22676322e-02,
1.45253226e-01,4.08849828e-02,1.65985361e-01,-1.24307744e-01,1.30868569e-01,
-2.86262363e-01,-1.19922221e-01,-5.80513515e-02,-1.38416156e-01,9.33403745e-02,
-4.09684330e-02,8.34415779e-02,-7.63828084e-02,-1.29291285e-02,-4.46475931e-02,
-1.16616793e-01,3.51370163e-02,1.04253404e-01,-5.96796498e-02,2.79622316e-01,
-1.28430367e-01,9.01872143e-02,-7.96614140e-02,9.74491835e-02,-3.38851735e-02,
1.41414285e-01,-1.11030042e-02,-1.18302062e-01,-2.29787782e-01,1.05006739e-01,
1.88234709e-02,-6.17142767e-02,8.46402124e-02,4.73519713e-02,-1.34710863e-01,
-1.68322280e-01,1.88212898e-02,-8.68610200e-03,-5.38288057e-02,2.23847851e-02,
7.52251595e-02,-8.67918432e-02,-1.01829365e-01,7.81615898e-02,1.64632902e-01,
5.96256442e-02,8.19813758e-02,1.21667306e-03,-1.09748371e-01,-1.57745957e-01,
-1.13401540e-01,5.05755134e-02,1.27091452e-01,-1.53847367e-01,1.22169033e-01,
-6.78533316e-02,-1.46334067e-01,-5.86380064e-02,-1.25298187e-01,-1.88226223e-01,
-1.75006110e-02,-3.60683426e-02,4.81451526e-02,-1.14312001e-01,5.25191240e-02,
-1.34827971e-01,1.51326150e-01,-1.94975719e-01,-1.28437057e-01,-1.82041693e-02,
1.09847106e-01,1.87486056e-02,-4.81337644e-02,3.32408957e-02,5.69838099e-03,
1.84448421e-01,1.61211163e-01,1.36923566e-01,-3.46475393e-02,-6.77879527e-02,
1.00064754e-01,-5.71260229e-02,7.29965419e-02,1.86408937e-01,1.22616999e-01,
2.43796296e-02,1.31269738e-01,-3.46958153e-02,5.03036268e-02,1.65807903e-01,
-8.74054059e-03,5.50060719e-02,-1.47767201e-01,2.10577101e-02,1.22629255e-01,
9.75182131e-02,7.08939880e-02,-2.88381074e-02,-1.33854419e-01,-1.37768462e-02,
6.41332418e-02,-1.04095720e-01,4.32951929e-04,1.10031798e-01,-3.72158438e-02,
-8.77745897e-02,-7.33721033e-02,-6.42027333e-02,4.87833191e-03,-2.74814218e-02,
-1.55572742e-01,1.05412841e-01,1.41334251e-01,8.71027913e-03,3.69212590e-02,
-6.32238239e-02,1.97282642e-01,-5.10733575e-02,8.99609104e-02,1.00405164e-01,
1.83222577e-01,9.78209078e-02,9.44730546e-03,-1.30316019e-01,1.29374772e-01,
-1.01757525e-02,-1.74107686e-01,2.59739589e-02,1.73445076e-01,-4.82226722e-02,
-5.39568514e-02,-1.56145804e-02,8.75165239e-02,-2.78534032e-02,9.71840974e-03,
5.35315610e-02,1.35638192e-01,6.24542609e-02,-1.41975865e-01,9.47885029e-03,
-9.30722654e-02,-1.25110954e-01,-1.86162186e-03,1.10838324e-01,1.61953270e-01,
9.82638448e-02,1.04677111e-01,1.45814925e-01,7.69487470e-02,-5.09755760e-02,
4.66541909e-02,-6.12615645e-02,8.00469667e-02,-3.05884238e-02,9.19040218e-02,
-9.52170789e-02,9.28860977e-02,-7.29173645e-02,-9.19425189e-02,8.94144699e-02,
-3.39396484e-02,-7.08408430e-02,5.90927154e-03,-8.30371678e-02,-4.13295021e-03,
-8.47788975e-02,6.72975730e-04,-1.05260730e-01,-3.02042216e-02,1.15581416e-01,
2.33454127e-02,-5.33023523e-03,3.69164534e-02,1.51521727e-01,-1.32202879e-01,
-1.10552765e-01,-5.65353706e-02,1.15089893e-01,-4.00495380e-02,-1.11955911e-01,
1.04178496e-01,1.53595239e-01,1.67829588e-01,-1.03884742e-01,1.06127989e-02,
-2.07128972e-01,-1.54878810e-01,4.04484756e-03,-1.00286067e-01,2.55084243e-02,
7.54275396e-02,1.60764530e-02,5.15109114e-02,-1.80664882e-01,1.59648750e-02,
3.67841497e-03,-1.13500714e-01,-6.34223514e-04,-1.54866772e-02,-3.48786637e-02,
3.15879881e-02,-3.76019478e-02,4.08006459e-02,-2.14502215e-02,6.31735623e-02,
1.73092261e-02,-9.91857350e-02,6.21843673e-02,1.72322560e-02,8.72007534e-02,
-1.03101000e-01,2.33973656e-02,-1.36642933e-01,-1.05177406e-02,-9.82751548e-02,
-9.92443413e-02,5.48381880e-02,1.52936697e-01,-2.22254068e-01,-4.87278327e-02,
-1.31258667e-01,-1.04537599e-01,6.73758388e-02,-3.09924874e-03,-2.11372711e-02,
2.04162523e-01,1.80580653e-02,1.32726356e-01,5.41762263e-02,-9.92656965e-03,
3.07721384e-02,-6.14976175e-02,-1.17492072e-01,-3.31411064e-02,-1.59724414e-01,
8.62753987e-02,-1.07953183e-01,-3.16265151e-02,7.97719508e-02,1.08328179e-01,
-1.62860692e-01,-1.66921571e-01,-3.60575542e-02,-1.56027721e-02,1.45164892e-01,
-8.31608698e-02,1.66063249e-01,-3.96623798e-02,2.94016525e-02,-1.11112380e-02,
5.42013627e-03,-6.64230809e-02,-1.42737776e-01,-1.30819619e-01,8.01959261e-02,
-1.16786398e-01,8.43847468e-02,-1.41224280e-01,-1.58850864e-01,2.01294109e-01,
-3.57606523e-02,-8.35142732e-02,-1.32931769e-01,1.04173943e-01,-1.03341766e-01,
1.00710630e-01,-6.02366775e-02,1.95021302e-01,-5.16234078e-02,8.14243853e-02,
-7.51146898e-02,4.62900959e-02,-1.51443213e-01,8.25918019e-02,1.55406311e-01,
-3.41162942e-02,-1.39600426e-01,6.99453577e-02,1.20494291e-01,-2.24614758e-02,
-1.28265515e-01,-1.31086498e-01,-4.62450236e-02,1.23383082e-01,2.13792678e-02,
5.53513989e-02,2.79609784e-02,-1.69933792e-02,-1.16427615e-01,-8.02688673e-02,
-8.83198343e-03,-1.17400609e-01,-4.88718972e-03,-7.80164972e-02,-7.21992403e-02,
-2.26067156e-02,-3.39605249e-02,-4.51954156e-02,-9.29763168e-02,-1.50062799e-01,
-8.39612484e-02,-8.69302079e-02,4.10764329e-02,1.04629993e-01,-1.87038779e-01,
1.13302551e-01,7.12456405e-02,-1.44298673e-01,1.01482324e-01,1.49810299e-01,
1.05272949e-01,6.84802234e-02,-1.36627704e-01,-1.97284436e-03,2.23455075e-02,
1.06814303e-01,1.14921525e-01,-4.65527810e-02,-1.36204064e-01,4.55672257e-02,
3.42570129e-03,-9.93383750e-02,1.39261723e-01,-9.41128284e-02,-8.14114511e-02,
1.19260445e-01,1.13762364e-01,-9.19172466e-02,-8.73311311e-02,3.22002196e-03,
-5.74113950e-02,7.18305111e-02,1.19351320e-01,1.38152942e-01,9.76585001e-02,
-1.89450532e-02,-1.03896163e-01,-1.57797746e-02,-4.82183956e-02,6.74797148e-02,
8.50365609e-02,6.69439286e-02,1.18680306e-01,5.64956926e-02,-1.05185978e-01,
-1.04811199e-01,-2.09216438e-02,-7.95005560e-02,-1.08002543e-01,3.77423242e-02,
3.78739275e-02,8.53154808e-02,-1.22442029e-01,1.60376564e-01,7.89009035e-02,
-8.98489431e-02,-1.04167521e-01,1.51732951e-01,-8.46171230e-02,-1.65898830e-01,
1.19265966e-01,3.97713408e-02,-1.08566463e-01,-8.63881856e-02,3.97379994e-02,
-2.70607565e-02,-9.00139511e-02,-5.79182096e-02,-6.08821362e-02,-1.02789208e-01,
9.98432115e-02,-4.47923243e-02,-1.17242992e-01,-1.51724413e-01,1.42803043e-01,
-1.41905516e-01,2.43614800e-02,6.26434386e-02,-1.23562455e-01,1.26554361e-02,
-3.32442150e-02,9.95929018e-02,4.05300148e-02,2.25469214e-03,9.05090794e-02,
-3.05371992e-02,1.66058272e-01,6.32052943e-02,1.21128350e-01,7.06385523e-02,
-1.32699355e-01,-3.88457142e-02,-1.17011383e-01,8.26312788e-03,1.22200616e-01,
-9.82207730e-02,2.03495905e-01,-9.95570049e-03,-4.37175594e-02,-1.53031386e-02,
5.57974428e-02,-1.20693482e-01,-1.47680700e-01,-1.34509793e-02,-3.38301659e-02,
1.13888316e-01,1.08012035e-01,5.17224260e-02,1.60180628e-02,-2.38126218e-01,
-8.19859505e-02,-5.31443097e-02,4.81162220e-02,-2.26628214e-01,1.13352835e-01,
1.10671939e-02,-6.65904135e-02,4.52380963e-02,-3.11170798e-02,7.73634911e-02,
-3.67475636e-02,2.19836589e-02,-2.53515933e-02,-8.82824790e-03,1.08682923e-01,
2.25904640e-02,-1.71607330e-01,-6.08392134e-02,-8.52402076e-02,3.03022079e-02,
-2.91589703e-02,-2.54782766e-01,1.64843217e-01,6.15573861e-03,-7.68002793e-02,
-1.07328303e-01,3.18582579e-02,-1.26737162e-01,-9.94962081e-03,1.66651160e-02,
1.78968702e-02,-2.69512776e-02,3.27339843e-02,3.84775847e-02,-1.61092326e-01,
-1.76936597e-01,-2.35556550e-02,3.61930542e-02,-9.18617938e-03,6.41120691e-03,
1.68819264e-01,6.17159121e-02,-5.29798940e-02,-2.33392626e-01,-2.30804533e-02,
-5.62236868e-02,-1.58526152e-01,-1.82455376e-01,-9.12383869e-02,1.34913132e-01,
-6.61510602e-02,-1.75053459e-02,1.43360257e-01,1.22073427e-01,-1.35214835e-01,
7.87596479e-02,6.16571587e-03,1.52735204e-01,-2.19920039e-01,-1.36133153e-02,
-1.68921098e-01,5.00298813e-02,}; 
k2c_tensor lstm_1_kernel = {&lstm_1_kernel_array[0],2,3072,{48,64, 1, 1, 1}}; 
float lstm_1_recurrent_kernel_array[16384] = {
6.58386350e-02,-1.94820091e-02,-7.56096691e-02,1.30236834e-01,-1.25402674e-01,
-1.44270092e-01,-2.57644594e-01,-7.50993192e-02,-1.57401994e-01,-9.97736230e-02,
1.84642826e-03,4.71044658e-03,1.08621754e-01,-6.89156679e-03,1.86703466e-02,
7.05925375e-02,-1.93814896e-02,-4.65859845e-02,-3.48804370e-02,-1.08764470e-01,
-1.65634662e-01,5.32478318e-02,-7.52959996e-02,-1.10441528e-01,-1.35181487e-01,
-1.39918476e-02,-3.05415168e-02,2.11646289e-01,-2.31297184e-02,3.67547311e-02,
-1.24179453e-01,6.51783869e-02,-2.71217562e-02,1.08925300e-02,6.91523403e-03,
3.91896639e-04,1.77643076e-01,-1.86150357e-01,-1.05744094e-01,-1.00803457e-01,
7.64782354e-02,-9.55740958e-02,-6.12856401e-03,-2.93561369e-02,-1.99530441e-02,
-1.17469266e-01,6.66423887e-02,-1.22904249e-01,8.61252099e-03,-8.43242258e-02,
3.18174452e-01,-9.57081169e-02,-1.27736434e-01,9.56639796e-02,-2.16738451e-02,
-2.26949677e-02,-2.61122555e-01,-8.75276402e-02,-1.79160506e-01,4.10824418e-02,
6.30653324e-03,2.31432058e-02,1.97449431e-01,-1.51946291e-01,2.16445029e-01,
1.41671509e-01,-1.04542509e-01,2.26230063e-02,1.82999089e-01,8.90424401e-02,
1.83827523e-02,2.02626154e-01,5.20545710e-03,3.06623336e-02,2.11179536e-02,
5.68066761e-02,1.03274761e-02,-5.57571948e-02,5.83194643e-02,1.11468762e-01,
1.08376384e-01,-3.17667658e-03,3.74093875e-02,1.37680992e-01,-7.85403252e-02,
-8.85515288e-03,5.03965318e-02,9.98946056e-02,3.58766727e-02,1.22391321e-01,
-2.19432209e-02,-1.27392425e-03,1.03978090e-01,1.42586395e-01,1.05071135e-01,
7.84897134e-02,1.44258440e-01,9.43220258e-02,-9.61005241e-02,-7.08556771e-02,
1.28069654e-01,-8.31225663e-02,-7.50509948e-02,-3.25652286e-02,-3.21127400e-02,
1.32959351e-01,-1.40926689e-01,-3.43590714e-02,-8.38141367e-02,1.12810701e-01,
-1.17998108e-01,-8.92028436e-02,3.40173729e-02,-3.11999787e-02,1.39615133e-01,
1.89628229e-01,1.34290587e-02,3.90902236e-02,1.50299938e-02,-1.00327685e-01,
4.37825769e-02,1.05990551e-01,-4.36027680e-04,-4.84773666e-02,7.58235306e-02,
2.81659849e-02,1.62234187e-01,1.33028671e-01,3.24663743e-02,2.22981088e-02,
-1.52965421e-02,-9.20670331e-02,-1.06717564e-01,-1.31080328e-02,-6.67258026e-03,
4.22842428e-03,-1.31110445e-01,-4.68130670e-02,-2.80638784e-02,-2.95225624e-02,
-3.60660329e-02,-1.28465101e-01,1.34853765e-01,-1.47523448e-01,-5.61863510e-03,
-2.97288690e-03,-1.43728048e-01,5.46168210e-03,2.13830382e-01,-1.32855415e-01,
4.77074347e-02,9.46435705e-02,-6.79944307e-02,-1.16872201e-02,4.68041003e-03,
-3.10281944e-02,3.51342075e-02,1.38922464e-02,-6.15092032e-02,-3.35233718e-01,
-8.92041251e-02,-3.23576224e-03,1.04686625e-01,-7.02756569e-02,-5.14340810e-02,
-6.29212186e-02,-9.25758556e-02,4.42813300e-02,-2.20230296e-01,-2.23213565e-02,
-4.76746187e-02,1.32737294e-01,-4.23599370e-02,3.59805338e-02,5.14570735e-02,
-5.77895157e-02,-8.06959271e-02,1.50004337e-02,2.42899340e-02,5.09920530e-02,
-1.04923598e-01,-1.76047415e-01,6.54004887e-02,9.70925018e-02,-1.02890702e-02,
-8.06320086e-02,6.47405833e-02,2.41662245e-02,-2.61478186e-01,9.21181124e-03,
-9.26834792e-02,1.98671028e-01,-7.62355104e-02,-7.27634802e-02,-9.19514820e-02,
9.74513888e-02,-1.27886966e-01,1.07996106e-01,-1.39206037e-01,-5.42943142e-02,
-1.47032989e-02,-6.40621968e-03,-1.05249077e-01,4.13311571e-02,8.42727050e-02,
-3.67896701e-03,-1.41154841e-01,-3.25301141e-02,-1.01977877e-01,-2.01841176e-01,
1.11269325e-01,-7.43522495e-02,4.30647209e-02,-1.57540768e-01,-5.07863760e-02,
1.65456608e-02,-1.09741516e-01,1.00270938e-02,-1.60058588e-01,-1.47869170e-01,
-3.93304117e-02,-5.43338731e-02,-3.91565859e-02,1.94503888e-02,-2.64289565e-02,
9.09880996e-02,5.67260124e-02,-3.55008617e-02,4.28771824e-02,-7.79120177e-02,
3.06944121e-02,-9.97337326e-02,6.46925811e-03,1.09306239e-01,-6.07869634e-03,
-5.87605201e-02,-2.94456538e-03,-9.10644699e-03,-5.41762635e-02,4.07706387e-02,
-1.23085203e-02,4.50319573e-02,5.14076799e-02,1.15801254e-02,-1.41786367e-01,
-7.61058629e-02,2.00381994e-01,-5.36775263e-03,-3.24987099e-02,9.00212899e-02,
4.07826155e-02,-7.63037130e-02,-9.31402761e-03,-1.99521286e-03,1.20094240e-01,
-9.27950069e-02,1.03350513e-01,8.16234853e-03,-6.71841949e-02,1.11503616e-01,
-2.40440182e-02,4.16694097e-02,-8.58242735e-02,5.55142090e-02,-1.08860321e-02,
-2.06852760e-02,-9.47620273e-02,-9.17205885e-02,-6.69973567e-02,-1.26642764e-01,
-1.15128897e-01,-1.03578225e-01,1.92089099e-02,1.09061357e-02,3.12550142e-02,
-3.70857827e-02,3.02838273e-02,-2.31013566e-01,-3.41033190e-02,-9.41765904e-02,
-1.10704854e-01,-1.32977515e-01,5.22509851e-02,-7.46182799e-02,-1.47710010e-01,
5.92782274e-02,-6.35285825e-02,-4.63171043e-02,-1.94048360e-02,1.10856034e-01,
-7.70407394e-02,4.89753895e-02,-1.14541493e-01,3.20083983e-02,-1.32488742e-01,
-1.37336999e-02,1.21448331e-01,1.34999946e-01,1.04674429e-01,-1.17456257e-01,
8.11493322e-02,-6.10922128e-02,-5.83218262e-02,-1.53078474e-02,4.32034507e-02,
4.84883487e-02,8.28391537e-02,5.43025322e-02,-1.07352532e-01,-9.34681520e-02,
-1.70300752e-02,-8.84588361e-02,2.40569506e-02,-1.03332289e-01,-2.91826595e-02,
-5.74332215e-02,-1.49788722e-01,-1.36434093e-01,-1.23278618e-01,-2.71857213e-02,
7.78483525e-02,-2.70242821e-02,1.19333491e-01,2.37365421e-02,1.55017942e-01,
1.34616718e-01,1.00098036e-01,4.45269886e-03,1.12308934e-01,8.04520920e-02,
-9.74855945e-03,-9.45889950e-03,7.47247115e-02,-1.50181903e-02,1.04910865e-01,
1.53123200e-01,1.02236398e-01,2.23632567e-02,7.45362714e-02,6.03189766e-02,
-1.46058604e-01,1.82137981e-01,5.85436970e-02,-7.08092600e-02,-1.72842324e-01,
-1.57211199e-02,3.65449563e-02,-1.11462893e-02,1.66074578e-02,-9.08327773e-02,
5.57296770e-03,1.23758800e-01,-4.31443825e-02,-1.45013511e-01,7.92463422e-02,
2.19935309e-02,1.05944509e-02,6.77070990e-02,4.05756645e-02,8.61495659e-02,
-1.47760525e-01,1.65501982e-02,8.40213746e-02,-3.85095540e-04,1.57545321e-02,
2.29830831e-01,1.20739780e-01,4.14722897e-02,1.45595491e-01,5.69614489e-03,
-7.01146498e-02,2.53183283e-02,-2.41451450e-02,4.69089337e-02,-2.13324577e-02,
6.01755194e-02,1.14005610e-01,1.10593580e-01,6.67221695e-02,3.11222021e-02,
1.26206324e-01,2.39046365e-02,3.37253809e-02,8.81312191e-02,5.33210579e-03,
-1.20819956e-01,-8.52401257e-02,1.08160317e-01,6.82347268e-02,3.23019326e-02,
-3.96698937e-02,-1.45700676e-02,-1.42220318e-01,1.40840665e-03,7.88775831e-02,
3.55227739e-02,9.91881192e-02,-4.26920764e-02,-4.12379541e-02,-6.53690696e-02,
6.74396157e-02,-4.42211702e-02,-6.84038596e-03,5.01218550e-02,-4.43971418e-02,
-8.64082798e-02,4.58246991e-02,-3.73341818e-03,-7.49700218e-02,-2.85171885e-02,
-6.17112219e-02,3.27625573e-02,5.51883616e-02,4.81730923e-02,-1.18945457e-01,
6.56267479e-02,-9.74024609e-02,8.62827674e-02,1.13162555e-01,2.30244342e-02,
1.55571280e-02,-2.41356026e-02,5.81487268e-02,-3.51365991e-02,-1.87215880e-02,
-4.09393273e-02,2.18821988e-02,-1.32876504e-02,-5.30260568e-03,3.58488671e-02,
-2.26680860e-02,-1.29986806e-02,1.02694249e-02,3.28629985e-02,4.08835262e-02,
-1.46102965e-01,-8.36556852e-02,-1.85418944e-03,3.72845083e-02,-3.65721658e-02,
-8.91228914e-02,-1.15803070e-01,4.45563495e-02,-1.52618717e-02,-4.67676558e-02,
-8.06849673e-02,-1.15798384e-01,6.61069825e-02,-8.25046673e-02,-6.90874225e-03,
2.69840378e-02,1.82116346e-03,-1.28564471e-02,-6.93549812e-02,9.70469136e-03,
-1.35254981e-02,-2.06239134e-01,-1.48330599e-01,-3.81337889e-02,-7.96068832e-02,
-8.15989077e-02,-6.53695315e-02,-1.87663198e-01,-1.02591366e-01,-6.12227209e-02,
-6.48145154e-02,2.36904789e-02,-4.68675531e-02,1.53891109e-02,2.39970446e-01,
1.18359551e-01,4.19590138e-02,2.93296408e-02,-6.27678856e-02,3.99962924e-02,
7.48605281e-02,-5.54730929e-02,-2.54846271e-02,-5.75330891e-02,5.03399409e-02,
-2.78126691e-02,1.59514233e-01,-2.00249422e-02,4.83677760e-02,1.18947230e-01,
-2.28995234e-01,2.30803564e-02,-6.51613101e-02,7.44464919e-02,7.63255171e-03,
1.91995159e-01,-1.32066786e-01,-7.52521232e-02,-1.99425146e-01,-1.70753449e-02,
1.11085050e-01,-7.12983534e-02,6.45326152e-02,1.76547557e-01,5.31055406e-02,
-2.23990187e-01,4.27470878e-02,-1.37314096e-01,-4.64607924e-02,-7.98948109e-02,
-1.40061393e-01,-4.59872894e-02,5.34476973e-02,-3.09564415e-02,-5.59020191e-02,
-6.11630976e-02,-2.85824358e-01,6.91446960e-02,-1.29909059e-02,1.90093175e-01,
1.15045555e-01,-1.46336872e-02,-1.15523981e-02,-5.68534881e-02,-8.66925120e-02,
1.09332711e-01,1.02789529e-01,1.84558183e-02,1.32550513e-02,-7.49738961e-02,
-5.55952489e-02,9.04091075e-02,4.38563861e-02,2.30142586e-02,1.46993816e-01,
7.71468729e-02,3.69268246e-02,9.38136950e-02,1.33106470e-01,-8.18514228e-02,
-7.54781291e-02,1.30446881e-01,2.56297775e-02,6.38301075e-02,2.53478885e-02,
3.61255519e-02,2.50396822e-02,-1.25294939e-01,5.03562316e-02,1.26497775e-01,
-1.25233755e-02,4.17032391e-02,5.36897965e-02,-1.64728833e-03,8.70807171e-02,
4.27518263e-02,-4.41164598e-02,-4.95912246e-02,1.13224182e-02,1.33150872e-02,
1.84674375e-02,-3.99442054e-02,1.59647077e-01,6.56649098e-02,-4.56097014e-02,
9.48964432e-02,4.03760932e-02,-1.82383865e-01,3.22118439e-02,1.13375604e-01,
9.57331955e-02,5.68096712e-02,-2.02244353e-02,3.26350182e-01,9.80246663e-02,
-6.26607910e-02,-4.30322587e-02,-6.65154010e-02,-6.13371022e-02,-3.76919173e-02,
-4.90112677e-02,8.03642720e-02,-1.82151064e-01,-1.37428761e-01,2.54745334e-02,
1.46477863e-01,-2.21136734e-02,1.66119143e-01,5.61204627e-02,-1.06481053e-01,
-1.83608308e-01,-2.40660593e-01,4.50784862e-02,-1.73144504e-01,-1.49788372e-02,
1.42010208e-02,2.48457734e-02,-2.59548482e-02,-1.97825745e-01,-1.35423571e-01,
4.42908704e-02,4.23753401e-03,-1.23571962e-01,3.88927311e-02,7.38811120e-02,
6.02841116e-02,-7.60426968e-02,-1.58410773e-01,-1.34345278e-01,6.40439093e-02,
-1.93422344e-02,7.61848241e-02,-4.10698615e-02,1.03278331e-01,8.06796029e-02,
1.18483610e-01,4.71950397e-02,-7.54075646e-02,-1.05889596e-01,-2.16486618e-01,
-8.20278227e-02,-9.21175331e-02,4.81023565e-02,1.51572721e-02,-9.83214602e-02,
4.66637872e-02,2.36077055e-01,1.85445338e-01,-1.19412020e-02,1.75036099e-02,
-3.72446962e-02,-1.32427618e-01,1.52432486e-01,1.21444471e-01,-4.98923622e-02,
-5.70102297e-02,-6.32062778e-02,-5.09706102e-02,3.27413529e-02,1.76265597e-01,
1.32904083e-01,-2.04438880e-01,-2.77919807e-02,3.26436497e-02,-3.39392126e-02,
-2.02463474e-02,1.64073277e-02,-7.90941790e-02,-4.87588719e-02,3.08670327e-02,
-6.87656030e-02,-6.70378730e-02,1.44371465e-01,1.16392158e-01,1.33293524e-01,
-1.00980632e-01,2.46993620e-02,-2.43161798e-01,9.46856812e-02,6.88844696e-02,
8.69732723e-02,1.12137357e-02,1.32256001e-01,-1.06372811e-01,-4.73567694e-02,
1.25862747e-01,1.22100443e-01,4.64551747e-02,7.86368847e-02,4.63917553e-02,
1.53290918e-02,2.00717732e-01,-5.11928834e-02,1.58717893e-02,8.92657116e-02,
1.66824320e-03,-2.99272034e-02,1.21554077e-01,-3.49481963e-03,1.07231699e-01,
-5.02382368e-02,4.21371162e-02,1.75218597e-01,2.64302325e-02,1.08317941e-01,
-2.62900796e-02,5.04669559e-04,4.41639423e-02,-2.92343018e-03,7.79603422e-02,
-3.01594604e-02,-2.11857595e-02,-5.74952960e-02,7.75498599e-02,3.71224321e-02,
4.16852273e-02,2.34687537e-01,9.44780186e-02,-4.77988869e-02,7.49733895e-02,
1.39046190e-02,-1.09539337e-01,4.97935563e-02,1.18399009e-01,2.11225096e-02,
2.15626564e-02,1.00492969e-01,-1.88646182e-01,-8.76020454e-03,-1.16378084e-01,
-7.82487839e-02,7.22528398e-02,-2.51832115e-03,1.28980473e-01,1.30853295e-01,
-6.20263964e-02,-2.84482539e-01,-4.19585258e-02,-1.29290462e-01,-5.94375096e-02,
8.45726430e-02,-2.09064454e-01,7.02819750e-02,-3.51527601e-01,6.28781272e-03,
-3.68234999e-02,-2.54130840e-01,-9.58615765e-02,-6.57843426e-03,1.34802982e-01,
-1.59434259e-01,-4.97786365e-02,1.06530286e-01,-4.77286242e-02,-1.63199946e-01,
-1.00970622e-02,5.29938675e-02,-7.35368356e-02,-5.96490353e-02,-2.10916430e-01,
-1.61700584e-02,-2.07976252e-01,2.28949755e-01,1.16950646e-01,3.69039066e-02,
-3.36224176e-02,-1.14137433e-01,-2.43777484e-02,-1.17361674e-03,3.00066248e-02,
8.85387957e-02,1.94731757e-01,1.18521072e-01,-5.95060512e-02,-1.87628657e-01,
-1.23964116e-01,1.79384589e-01,8.63342062e-02,-1.00184269e-01,3.26011814e-02,
-3.98240276e-02,3.42421383e-02,-3.69073674e-02,4.48384695e-02,1.17625864e-02,
-1.61128081e-02,-3.78605053e-02,8.53585228e-02,-1.57450512e-02,4.21834402e-02,
-5.58215640e-02,3.45844850e-02,7.30504319e-02,-3.20100039e-02,-1.64837718e-01,
3.77210639e-02,7.41948262e-02,-6.83212280e-02,-9.60357264e-02,-5.10635599e-03,
-4.77828421e-02,2.76764762e-02,-6.89167902e-02,-2.07427982e-02,-2.72155274e-02,
4.82212659e-03,-4.41686474e-02,1.93725470e-02,-1.14619240e-01,8.70679766e-02,
-6.54147789e-02,-2.74592103e-03,9.68366936e-02,-5.34826443e-02,-3.87796909e-02,
-1.77025869e-02,-6.33742474e-03,5.15181348e-02,-7.19627540e-04,-7.09178895e-02,
7.85465166e-02,4.79099005e-02,-3.28299664e-02,-5.69437910e-03,4.69796471e-02,
7.77847916e-02,4.37619872e-02,8.01920965e-02,8.84926841e-02,-3.35342111e-03,
-3.56917605e-02,4.99099903e-02,-9.36934426e-02,4.36692387e-02,6.90563302e-03,
-1.21509567e-01,-2.68060684e-01,6.40739352e-02,-4.02463414e-03,9.49281231e-02,
-1.29790222e-02,-8.62182397e-03,-6.66492805e-02,6.03381619e-02,-6.56767115e-02,
-2.43758392e-02,-2.87493765e-02,-4.58170921e-02,-8.82921889e-02,1.32972952e-02,
1.09646626e-01,-5.69043234e-02,-3.11603453e-02,2.07132772e-02,4.25418047e-03,
9.80985630e-03,-7.00551942e-02,7.73117021e-02,5.52918538e-02,1.66490734e-01,
5.75534329e-02,-9.30888578e-02,-5.54163158e-02,-6.32321462e-02,6.64225891e-02,
-1.34841964e-01,-9.25577059e-02,-2.92428676e-02,-1.05500072e-01,-1.77943587e-01,
-9.79928374e-02,-1.77828018e-02,-2.48691246e-01,-2.45281477e-02,-2.64713410e-02,
2.77325474e-02,9.92117673e-02,2.62282919e-02,7.36375749e-02,-1.67602170e-02,
7.96663389e-02,-1.15934581e-01,1.45911872e-01,-5.31053403e-04,9.94456187e-02,
7.83642381e-02,8.59752744e-02,-1.21516794e-01,-2.42849514e-02,-2.01005831e-01,
1.04789257e-01,-5.26807234e-02,-1.18975393e-01,-3.59835401e-02,7.72702396e-02,
-4.46043685e-02,-8.91710818e-02,-5.82193285e-02,1.65515542e-02,2.95033455e-02,
-1.57034129e-01,1.40427668e-02,-1.17490023e-01,-8.74980092e-02,7.90234730e-02,
3.95909548e-02,1.25582889e-01,-1.65366694e-01,5.45395762e-02,4.19100970e-02,
-1.10616773e-01,1.24558404e-01,6.13544844e-02,1.60018265e-01,-4.21769135e-02,
6.57232106e-02,-5.68803921e-02,1.24322139e-02,-2.18185946e-01,-7.44870976e-02,
-1.36257902e-01,-4.62387837e-02,-2.63635162e-02,3.72179672e-02,-3.09259165e-02,
-5.86273223e-02,7.62282684e-02,-9.14371535e-02,9.26236901e-03,1.65219735e-02,
-1.81306049e-01,1.10887513e-01,1.04331873e-01,-8.23410451e-02,2.18182802e-02,
4.88257818e-02,1.04642749e-01,-6.61896840e-02,5.39586917e-02,-4.59627546e-02,
9.80070420e-03,4.45422828e-02,1.19821765e-01,-2.93898731e-02,1.23299554e-03,
1.08390190e-01,4.09361795e-02,-5.34797236e-02,-8.86318535e-02,-1.24097727e-01,
1.63032144e-01,-6.57729432e-02,-6.48802426e-03,5.10969386e-02,-2.53627729e-02,
-7.79447407e-02,-1.39463022e-01,-5.89060485e-02,2.64515221e-01,1.65360998e-02,
-1.53841794e-01,9.39012989e-02,4.93890531e-02,1.92355979e-02,2.66279839e-03,
1.70368895e-01,4.40595523e-02,5.12035489e-02,7.77909607e-02,1.48849592e-01,
-5.08334041e-02,-8.57540816e-02,4.43748608e-02,4.94364835e-02,4.03453447e-02,
-1.76760238e-02,4.29975688e-02,2.00079232e-02,2.57919747e-02,1.81659088e-01,
6.69156909e-02,-2.14770399e-02,7.54591301e-02,1.08418196e-01,3.88784707e-02,
9.61974263e-02,-1.22307271e-01,-1.31661981e-01,7.22045898e-02,-2.95824762e-02,
3.94842103e-02,-4.37650010e-02,-1.80932149e-01,2.01253518e-01,7.34453928e-03,
9.16555226e-02,-1.66546941e-01,9.58874375e-02,-8.05719271e-02,-3.53054889e-02,
4.03053872e-02,-7.30495676e-02,8.60398561e-02,-5.17588034e-02,-2.14802772e-02,
1.87378982e-03,-1.26308799e-01,-2.67365221e-02,4.93330732e-02,7.26796314e-02,
2.24767942e-02,-1.55195231e-02,7.64144734e-02,7.92984441e-02,8.07067230e-02,
1.07582305e-02,2.02769488e-01,1.13345638e-01,3.17355059e-02,6.44515902e-02,
3.61290202e-02,-7.84767941e-02,1.22085117e-01,1.13225579e-01,9.35236216e-02,
-7.43585080e-02,7.36728758e-02,-4.78859171e-02,-1.03367731e-01,1.01129673e-02,
-7.02071050e-03,-9.65754390e-02,-8.83027678e-04,2.39018332e-02,2.30499148e-01,
5.79070784e-02,-7.81955272e-02,8.78518522e-02,7.29205310e-02,-4.45897318e-03,
5.65146394e-02,-6.50517419e-02,-7.28796795e-02,1.91429462e-02,2.47649327e-02,
1.81055143e-01,1.57760799e-01,3.40679176e-02,-9.75228250e-02,9.82415956e-03,
-8.36715624e-02,-9.93307158e-02,1.54031832e-02,-7.15749785e-02,9.25441459e-02,
5.88770248e-02,-2.02340573e-01,-7.43043870e-02,-5.19414358e-02,-2.05002073e-02,
-8.01360905e-02,-9.07280296e-02,-4.89439145e-02,-7.10928217e-02,-1.23863451e-01,
9.69828144e-02,-9.86192282e-03,-1.27914157e-02,3.49763930e-02,-7.13468194e-02,
-2.17498150e-02,5.63722849e-02,-2.94965878e-02,-1.22334197e-01,2.94110551e-02,
-1.44450620e-01,-1.04251308e-02,2.91950926e-02,-6.17022999e-02,6.91534653e-02,
2.04824656e-02,-1.25618055e-01,-2.52074916e-02,-2.33776178e-02,5.47418259e-02,
6.44560484e-03,-1.33707941e-01,-3.12875398e-02,-9.57718119e-02,1.71877909e-02,
-2.16247514e-02,-5.18900231e-02,-4.97507304e-02,-8.68920982e-02,-6.69084536e-03,
-1.50118664e-01,-2.63822302e-02,-1.19787846e-02,4.33171839e-02,7.11881816e-02,
-1.93215862e-01,-2.62715481e-02,-1.72927007e-02,5.70332557e-02,-1.00376261e-02,
-1.23493589e-01,-1.32454857e-01,-7.31564220e-03,-1.65067330e-01,-3.15394327e-02,
-1.54101163e-01,7.98710510e-02,9.89723578e-03,5.07162884e-02,6.71475977e-02,
-7.94374496e-02,-7.21368715e-02,2.10865662e-01,-4.84305583e-02,-2.65488010e-02,
2.50477176e-02,-1.58472538e-01,-1.82341352e-01,-1.26802593e-01,6.28148615e-02,
-5.95169291e-02,2.05229651e-02,-1.56980246e-01,-5.71325868e-02,-2.42596883e-02,
-1.32186800e-01,8.35476220e-02,-3.99054177e-02,1.41986668e-01,-6.99078366e-02,
6.02875240e-02,-1.24019735e-01,2.66093928e-02,-1.02725871e-01,1.11513190e-01,
9.57847631e-04,1.43924817e-01,8.42099637e-02,-1.17081888e-01,-3.97523791e-02,
-6.87956586e-02,1.31149456e-01,1.17433824e-01,1.51575968e-01,1.36542350e-01,
-5.81435077e-02,-8.44421908e-02,1.64320081e-01,-5.29474728e-02,-1.26223341e-01,
-7.17140883e-02,-4.16315719e-02,-1.85890608e-02,-1.44488707e-01,-4.89806011e-02,
7.53653273e-02,1.79990847e-02,-5.35647944e-02,6.80115446e-02,4.90006581e-02,
-5.54069295e-04,-1.21745318e-01,-4.68879640e-02,-2.87989527e-03,-1.58830807e-01,
1.03671309e-02,-3.06807756e-02,1.44125834e-01,-1.42382219e-01,-1.22175992e-01,
-9.23550650e-02,8.10208693e-02,-1.37174070e-01,-5.68840932e-03,-6.26639947e-02,
4.60715368e-02,8.39511007e-02,-4.64095660e-02,4.87261871e-03,-1.95155153e-03,
-1.62448213e-02,2.46512592e-02,1.00422926e-01,-6.77799359e-02,-5.04553504e-02,
-4.35445569e-02,-1.47015657e-02,2.04106092e-01,1.52018126e-02,2.78142318e-02,
-6.44592121e-02,-1.26110554e-01,2.54969671e-02,3.47382203e-02,-2.30577192e-03,
-9.32474434e-03,1.31198734e-01,-1.23571388e-01,7.38816932e-02,-1.38740838e-02,
-5.05319610e-02,6.06983528e-02,6.12654015e-02,7.26516545e-02,9.69351009e-02,
1.63289029e-02,-2.20668484e-02,2.32087113e-02,1.32277999e-02,2.19608352e-01,
2.63882130e-02,-4.67577316e-02,5.41926697e-02,7.50620365e-02,7.54335821e-02,
5.32076620e-02,-8.55232701e-02,2.64364947e-02,1.38123631e-01,-4.24707681e-02,
4.67739478e-02,-4.80283350e-02,7.27669820e-02,2.06185743e-01,-2.45952588e-02,
3.73131633e-02,4.41320390e-02,6.22218028e-02,6.40893504e-02,3.94175434e-03,
-9.31736082e-02,5.85004278e-02,-3.54805700e-02,7.86888599e-02,-4.91561815e-02,
-4.24535014e-02,1.06647447e-01,2.08704118e-02,3.08892485e-02,-7.73894340e-02,
1.77449420e-01,1.14783913e-01,-3.49161960e-02,3.98454554e-02,1.57132655e-01,
1.38159424e-01,5.00073209e-02,5.50755709e-02,-7.53852502e-02,-6.24899566e-02,
8.63064826e-02,1.13448046e-01,-7.16103241e-02,-5.12091666e-02,-1.25136673e-01,
1.71545614e-02,3.56527120e-02,9.68976766e-02,6.41886890e-02,8.38401318e-02,
2.42202789e-01,1.76494792e-02,-2.42788959e-02,1.40409783e-01,-6.55254275e-02,
2.82490291e-02,8.73823166e-02,-9.33448821e-02,5.14709055e-02,-1.31201127e-03,
4.62240614e-02,1.25758378e-02,2.21610423e-02,7.54794627e-02,-3.19876187e-02,
7.97676966e-02,-1.91353150e-02,-1.11437917e-01,1.39827013e-01,1.53705105e-01,
8.06372520e-03,7.22953305e-02,8.35644603e-02,1.27750576e-01,-8.01220089e-02,
1.03186093e-01,-6.96042776e-02,8.26718956e-02,1.04598381e-01,2.58406322e-03,
-8.57191309e-02,-5.31476699e-02,-6.18525073e-02,-3.39828134e-02,1.77143499e-01,
1.51777893e-01,-6.62523434e-02,2.20792610e-02,-1.26237394e-02,2.25241836e-02,
7.98295587e-02,-1.72378823e-01,8.03162977e-02,2.38859337e-02,9.64678675e-02,
5.86406514e-02,3.56786512e-02,-5.81163391e-02,2.21873706e-04,-1.53813690e-01,
-4.17085476e-02,-2.80679390e-02,1.15072571e-01,1.55272424e-01,-7.66652226e-02,
8.96185753e-04,6.05541207e-02,-3.91087420e-02,9.42380205e-02,-6.76181371e-05,
1.05561828e-02,-5.13912030e-02,1.09933935e-01,1.34834656e-02,1.21286929e-01,
6.59545884e-02,4.68461327e-02,7.38977641e-02,7.33380318e-02,-1.12982303e-01,
-5.23445494e-02,-1.82649270e-01,1.19476922e-01,-1.96585223e-01,2.27127094e-02,
-1.84556320e-02,-1.70204371e-01,-9.92193632e-03,-2.63476968e-02,-2.78913621e-02,
-6.66573867e-02,8.61075297e-02,3.79658863e-02,3.37923621e-03,-5.40973991e-02,
3.45798656e-02,-2.12615784e-02,-1.50451083e-02,4.53812778e-02,4.45275800e-03,
-3.81412618e-02,-8.79780576e-02,4.96741291e-03,-9.24330018e-03,-6.58047274e-02,
1.78385619e-02,-9.49869305e-02,-7.53321126e-02,-1.50341233e-02,1.55917676e-02,
-1.32481754e-01,-1.36548802e-01,-1.21198203e-02,3.40091884e-02,-1.24699706e-02,
-1.17499426e-01,2.56148204e-02,-2.55447589e-02,1.36107296e-01,-1.23822995e-01,
2.10137069e-02,-9.02747214e-02,8.79086256e-02,4.66698334e-02,1.26692072e-01,
-5.55124134e-02,7.91319534e-02,4.37947959e-02,2.58352491e-03,-2.22267061e-02,
1.05045930e-01,-1.14048764e-01,1.59136400e-01,8.36815983e-02,-6.48221225e-02,
-6.69966862e-02,-8.99039954e-02,7.92611390e-02,7.11220875e-02,5.56956902e-02,
-1.51291966e-01,5.55329062e-02,-2.67441850e-02,-6.93784729e-02,4.23698351e-02,
4.15349100e-03,1.91922076e-02,-4.84220609e-02,-4.48421451e-05,-3.34766433e-02,
1.00661695e-01,6.27443492e-02,-6.05563186e-02,-8.01527575e-02,-9.13540348e-02,
-7.46602267e-02,-8.43125731e-02,1.61685664e-02,2.78345589e-02,1.50624514e-02,
-4.60827723e-02,-1.25549793e-01,-1.14990115e-01,1.69210918e-02,-7.28509016e-03,
-1.58543184e-01,-1.23848982e-01,-6.69216141e-02,3.89573574e-02,1.57895744e-01,
2.73762625e-02,-1.65641055e-01,-1.06382675e-01,-7.21254051e-02,-1.30492985e-01,
1.07195079e-01,8.55642185e-02,3.30050997e-02,1.26831889e-01,1.19635597e-01,
7.82560371e-03,-1.50240073e-02,-5.11229448e-02,-8.21429938e-02,8.35960805e-02,
7.59904236e-02,1.59487113e-01,-9.59419087e-02,4.48430665e-02,6.89428896e-02,
-8.54290426e-02,-1.31454309e-02,5.08499742e-02,2.21803740e-01,8.48457441e-02,
1.74116306e-02,-4.66327788e-03,-3.96424392e-03,4.65427712e-02,1.30784705e-01,
-1.32505149e-02,1.12889102e-02,1.88663960e-01,6.39438853e-02,-4.52516973e-02,
-2.84446683e-02,-1.34808898e-01,1.98759418e-02,-2.19362900e-02,-1.09454915e-01,
7.78672770e-02,4.19093156e-03,6.10849485e-02,4.66385745e-02,-8.14650133e-02,
1.09159432e-01,-2.58353539e-02,-3.58809568e-02,8.93541276e-02,-3.66946420e-04,
-6.63152561e-02,1.10362679e-01,-2.67855935e-02,8.84068981e-02,7.67755285e-02,
-1.32314498e-02,2.82264836e-02,6.20549880e-02,4.65252390e-03,-2.56918240e-02,
2.17837632e-01,3.93508300e-02,5.19063994e-02,9.57591757e-02,1.41823858e-01,
-4.72717844e-02,2.77864058e-02,-2.90926658e-02,-1.58593953e-01,3.13642025e-02,
-4.17785794e-02,-5.52537590e-02,8.30424204e-02,-6.17579855e-02,-5.95141426e-02,
7.46520162e-02,5.15539609e-02,-1.28314972e-01,-1.14232667e-01,1.53980806e-01,
-1.23726659e-01,6.19375221e-02,-1.03211418e-01,8.00136924e-02,-1.03612229e-01,
6.09726049e-02,1.15817606e-01,-5.87264914e-03,1.29678205e-03,8.03414807e-02,
1.29829859e-02,-3.61205973e-02,2.54042242e-02,9.23596919e-02,-7.07676783e-02,
5.82776144e-02,1.68957308e-01,-9.62299947e-03,5.35052978e-02,3.68066579e-02,
-8.56982991e-02,1.17595680e-02,6.50957078e-02,-1.22633025e-01,-5.87912835e-02,
-9.81816351e-02,-5.01591014e-03,-5.06699793e-02,-5.16043529e-02,6.35339785e-03,
8.97740871e-02,-1.13930088e-02,6.23321049e-02,1.01800717e-01,1.20820649e-01,
1.38453722e-01,-6.72234297e-02,2.35234737e-01,1.02214189e-02,-5.67899048e-02,
-5.34208454e-02,3.20921317e-02,-1.67823881e-01,-1.03831373e-01,-3.69348936e-02,
-5.56378951e-03,-1.81644280e-02,-1.08527169e-02,4.95720021e-02,2.21591983e-02,
1.13562256e-01,7.31026828e-02,9.01804268e-02,-5.40046692e-02,-6.81722835e-02,
9.99109261e-03,4.89235036e-02,-1.15759606e-02,5.80079667e-02,1.27850443e-01,
-2.74724960e-02,8.80791694e-02,1.00799106e-01,7.06942007e-02,2.08730474e-02,
-1.14487544e-01,7.06616566e-02,1.19214974e-01,-1.12246186e-01,2.89939493e-02,
6.82710856e-02,9.83045623e-02,6.90318365e-03,-1.96283273e-02,1.12641670e-01,
-2.49406304e-02,4.91574407e-02,-7.83177018e-02,7.41906762e-02,-1.02345347e-01,
-1.96129084e-01,6.44868761e-02,-8.08097795e-02,4.83657643e-02,8.22801236e-03,
7.40701184e-02,-1.06862918e-01,2.51791030e-02,-1.09031223e-01,1.46574110e-01,
-2.06200987e-01,-1.72036979e-02,3.79036739e-02,-2.56816559e-02,8.93015862e-02,
9.26286653e-02,8.55002552e-02,-3.85860056e-02,-1.07257500e-01,-1.92160159e-01,
1.03578977e-02,-1.11574896e-01,-3.77908275e-02,2.01963969e-02,9.02740210e-02,
-4.30857055e-02,-1.93664879e-02,5.86643629e-02,-1.58654645e-01,-1.39375508e-01,
5.80631867e-02,-9.35045853e-02,-1.25400126e-02,-1.62192330e-01,-1.01638034e-01,
-8.11400041e-02,-7.02221096e-02,1.81353129e-02,1.86455548e-01,-1.77855361e-02,
1.70951281e-02,8.41733292e-02,-9.39738229e-02,1.26843944e-01,-7.01132938e-02,
9.97226033e-03,8.49794596e-02,2.56570935e-01,-1.62798434e-01,1.34485632e-01,
-1.13374777e-01,6.91889375e-02,3.12941298e-02,9.60067958e-02,1.56922117e-01,
-8.52827430e-02,-3.92581560e-02,-1.41020387e-01,-6.94955513e-02,-1.87203679e-02,
6.46055713e-02,3.03584542e-02,1.66782066e-02,-7.15729967e-02,-4.26801257e-02,
-6.92025125e-02,9.25381184e-02,-2.36773235e-03,1.20327100e-01,5.43225668e-02,
7.88795128e-02,1.33027434e-02,-3.59110497e-02,-5.01369359e-04,2.02188138e-02,
-9.82974097e-02,-1.72099054e-01,-2.67303716e-02,-1.30462321e-03,3.65155637e-02,
-3.60022038e-02,-1.10186704e-01,-2.89545208e-02,1.54269040e-01,7.89733306e-02,
-1.28401294e-02,1.77747216e-02,-1.18456796e-01,-1.60588950e-01,8.17275569e-02,
-1.51022434e-01,7.29901418e-02,3.12924534e-02,-2.74807550e-02,8.75066072e-02,
1.84964035e-02,5.45501523e-02,6.79608360e-02,1.79228678e-01,-8.83644670e-02,
-4.25939523e-02,1.33624522e-03,-8.38179812e-02,2.52302587e-01,-1.25278914e-02,
1.49131089e-01,2.00124364e-02,-1.84878390e-02,-1.83969676e-01,-2.73928493e-02,
-8.10216963e-02,1.64716560e-02,-6.60758466e-02,1.68020558e-02,-6.71086600e-03,
8.64212960e-02,-1.27347857e-01,2.77269725e-02,-8.69693793e-03,-1.97322473e-01,
-3.03738229e-02,-5.07803634e-02,-2.57643722e-02,-2.52792329e-01,5.79261445e-02,
1.01790875e-01,-1.57878604e-02,5.51863853e-03,-8.13112408e-02,1.39251482e-02,
-7.61365844e-03,2.55729482e-02,7.87772909e-02,-1.13476841e-02,-3.35774422e-02,
-4.65157703e-02,4.54904921e-02,2.11993009e-02,1.26022294e-01,1.13878042e-01,
-2.09073573e-01,9.56156477e-02,1.84480578e-01,8.24159198e-03,1.82349309e-01,
3.49137858e-02,5.94693981e-02,1.79652289e-01,-6.89755008e-02,-7.53962100e-02,
-1.69815309e-02,6.18707389e-02,-7.52074644e-02,7.98531696e-02,-5.32717211e-03,
1.18162550e-01,-8.25145543e-02,8.49697366e-02,-7.05004781e-02,1.23573663e-02,
4.44089249e-02,9.61338207e-02,-1.15629227e-03,-7.37099349e-03,1.38063282e-01,
5.71481101e-02,-4.93604364e-03,1.15939848e-01,7.04252645e-02,-2.78319288e-02,
2.55771223e-02,6.37374744e-02,2.38502603e-02,1.31998770e-03,1.96233138e-01,
2.64667094e-01,-3.97258885e-02,2.47053131e-02,-8.89841001e-03,8.31112415e-02,
-1.93818584e-01,-6.61271736e-02,4.94282134e-02,-4.02735919e-02,-1.02271117e-01,
8.07000399e-02,-1.18588887e-01,-5.99383414e-02,-7.02797854e-03,1.19936906e-01,
4.58026156e-02,-2.95518339e-01,7.95176774e-02,-7.59625956e-02,8.77299234e-02,
-4.19762768e-02,5.68697713e-02,2.01718714e-02,-4.52279896e-02,-8.19213614e-02,
3.18160325e-01,1.55747430e-02,4.62351553e-02,3.68938386e-03,-8.96096304e-02,
1.08912885e-01,-1.74913943e-01,2.58003990e-03,-1.08092586e-02,-4.12103906e-02,
2.34503392e-02,2.26614699e-02,7.45565817e-02,6.79870620e-02,9.89725068e-03,
8.61481205e-02,2.30585448e-02,-7.38550425e-02,-1.38936102e-01,1.80640697e-01,
7.96158761e-02,-1.22402474e-01,-8.59383680e-03,3.46246101e-02,2.45861799e-01,
-3.56816649e-02,1.30675212e-01,2.74271276e-02,-4.33806479e-02,-8.95677432e-02,
-7.18337856e-03,-5.10960929e-02,1.96015052e-02,1.40439004e-01,5.57581149e-02,
2.08713576e-01,-6.30284399e-02,-1.05615705e-01,-1.66803245e-02,1.09429970e-01,
-6.63025156e-02,1.00568637e-01,-4.47498336e-02,-7.16546252e-02,1.89631745e-01,
-6.32372871e-02,1.59328461e-01,-2.03155980e-01,-1.62449852e-02,-8.32865164e-02,
-7.94399157e-02,9.65551734e-02,-2.77030319e-02,-3.89845558e-02,3.61561999e-02,
-2.05454752e-02,-1.54244781e-01,-3.50938112e-01,-6.53609037e-02,4.49914522e-02,
5.50983399e-02,-1.71101987e-01,6.21075602e-03,-1.02145284e-01,-8.19245353e-02,
-8.63936767e-02,-6.48915991e-02,1.46475853e-02,-9.42397490e-02,-5.10968175e-03,
-2.50766695e-01,-1.58402368e-01,5.98731004e-02,-3.50255780e-02,4.55292378e-04,
-1.91305690e-02,-3.57038565e-02,-9.29505751e-02,-1.57872379e-01,6.56463951e-02,
8.78094062e-02,1.21614121e-01,1.71116948e-01,2.10691735e-01,-3.86242270e-02,
2.19282538e-01,1.02402680e-01,3.16367298e-02,6.03844188e-02,-9.77145880e-02,
7.62247741e-02,-4.53089438e-02,-3.62382941e-02,-6.67422786e-02,-7.11354613e-02,
-8.91187508e-03,2.94725113e-02,1.67469364e-02,1.41738206e-01,5.55479564e-02,
3.43052410e-02,1.51276281e-02,4.74168025e-02,4.11921516e-02,-1.29645094e-01,
1.72657996e-01,-7.99260009e-03,-2.75369752e-02,9.36512202e-02,2.07795858e-01,
1.32359296e-01,1.59004450e-01,-7.09327087e-02,2.11414918e-02,1.87836140e-02,
-7.66741261e-02,1.50035739e-01,7.30424002e-02,4.09979634e-02,-1.04550488e-01,
1.33782566e-01,2.69681420e-02,-3.15813310e-02,-2.76628509e-02,-1.97253134e-02,
-7.86380023e-02,4.50297333e-02,-3.15347351e-02,9.13140625e-02,-1.49407759e-01,
1.20101050e-01,2.13862807e-02,-1.09402917e-01,3.49222459e-02,-3.29424851e-02,
7.26909488e-02,3.33782993e-02,-4.72237915e-02,3.62340175e-02,-1.05530150e-01,
-3.50918025e-02,-1.71571031e-01,2.37469435e-01,7.02549368e-02,-3.12449094e-02,
5.31072766e-02,-1.90087244e-01,7.70245716e-02,2.27541119e-01,5.41005889e-03,
2.54984181e-02,-1.26140669e-01,1.64039046e-01,6.51239827e-02,5.44497259e-02,
1.11488998e-03,-3.88075933e-02,4.26427536e-02,3.34850773e-02,1.44214211e-02,
-1.20528147e-01,-1.62344098e-01,-7.87619967e-04,-3.40692848e-02,5.06244078e-02,
1.40526161e-01,-8.85528624e-02,8.83256346e-02,-7.71096582e-03,1.97872072e-02,
-1.69657364e-01,4.88283671e-02,-4.84071970e-02,6.43174350e-02,-1.04700439e-01,
1.75646946e-01,-1.78690881e-01,-1.86636467e-02,-2.05334742e-03,-1.24577455e-01,
2.13658735e-02,-1.33794412e-01,1.99583825e-02,6.63532838e-02,-5.77008212e-03,
-1.03528639e-02,1.23240449e-01,-1.28642082e-01,1.72290638e-01,1.29566297e-01,
-4.97644208e-02,9.33871046e-02,1.98581610e-02,-6.93359524e-02,1.61804169e-01,
1.37504384e-01,8.46575052e-02,-1.21956408e-01,-1.16215795e-01,-1.00511843e-02,
-1.53151393e-01,7.00926706e-02,1.99493077e-02,6.51648343e-02,-7.72658139e-02,
7.51844570e-02,6.97532967e-02,-7.77941570e-02,1.45716220e-01,1.16894506e-01,
-6.89786524e-02,1.81621596e-01,7.74983913e-02,1.75986186e-01,7.23294243e-02,
4.23343666e-03,-3.57537232e-02,5.91792576e-02,1.82244644e-01,-6.38864413e-02,
3.22669037e-02,1.87221795e-01,-1.17100820e-01,-3.24957445e-02,-1.66110799e-01,
-1.86948311e-02,5.84025979e-02,-1.01451993e-01,-3.16658206e-02,-1.06702492e-01,
-4.95221429e-02,-5.68969734e-02,1.46209560e-02,-1.49349734e-01,7.54125044e-02,
-6.39235079e-02,4.79168892e-02,1.11622229e-01,-9.09584090e-02,-4.08537388e-02,
-6.08361438e-02,-6.94401562e-02,-7.28431493e-02,6.97668502e-03,1.85625982e-02,
9.81749669e-02,9.03467536e-02,1.54727951e-01,-6.79299906e-02,1.27419904e-01,
-1.32483080e-01,4.97967601e-02,7.46672750e-02,-3.31932232e-02,-1.67579949e-01,
-1.03291042e-01,-9.62883011e-02,8.39713439e-02,1.19396508e-01,-1.67727675e-02,
-2.05459088e-01,4.40516621e-02,-6.78872969e-03,-9.08253640e-02,6.89605018e-04,
3.48073952e-02,-4.75229621e-02,-6.89151287e-02,4.49859016e-02,1.65729240e-01,
-1.08860791e-01,1.77158862e-01,4.31534760e-02,-1.15076967e-01,1.26208842e-01,
-1.62716568e-01,1.48421124e-01,1.49566084e-02,1.21720903e-01,-2.28581056e-02,
-1.48142753e-02,6.78362921e-02,2.59159575e-03,8.82861093e-02,2.25962341e-01,
-2.89421398e-02,-2.16522738e-02,-1.25509188e-01,2.91393232e-02,-9.79600400e-02,
-9.04149711e-02,5.27459197e-02,9.45450962e-02,-1.42880961e-01,-7.77780637e-02,
-7.41487294e-02,-1.45692259e-01,1.25766098e-01,-1.16001152e-01,-1.48882819e-02,
-1.32080927e-01,2.17071082e-02,-2.89428402e-02,4.38590953e-03,-3.11366320e-02,
-1.30633667e-01,-3.30216587e-02,-7.86591768e-02,-7.03329267e-03,1.92010356e-03,
-1.73857599e-03,6.91519007e-02,-8.36995393e-02,-4.53374237e-02,9.29755792e-02,
4.79693636e-02,-1.02048606e-01,-2.44636331e-02,9.23367739e-02,-1.45346439e-02,
-6.28004000e-02,1.19309276e-01,-5.12212627e-02,1.14302978e-01,1.27967387e-01,
-1.35968318e-02,-7.81562105e-02,1.28047973e-01,4.38019484e-02,-2.21785009e-02,
2.69817431e-02,1.55054882e-01,-3.60639654e-02,8.71130899e-02,1.84356770e-03,
2.62186141e-03,-5.65630198e-02,9.58477054e-03,-8.39428157e-02,-3.55992764e-02,
-3.04388367e-02,2.46070504e-01,-2.74028927e-02,-8.57514441e-02,-1.83475971e-01,
-8.95168185e-02,1.81755304e-01,5.95960282e-02,-2.24304840e-01,5.55243306e-02,
-2.46715784e-01,3.72896977e-02,8.61437619e-02,7.47999698e-02,7.25664869e-02,
1.26882466e-02,-6.28783256e-02,-5.89217171e-02,-7.08951578e-02,2.71256398e-02,
-1.30317479e-01,1.47242844e-02,6.49141073e-02,6.44380972e-02,-3.14192241e-03,
6.97288066e-02,3.61087359e-02,-5.35949394e-02,-3.12394239e-02,7.08320588e-02,
-2.30362676e-02,-8.28448012e-02,1.06100932e-01,7.13222772e-02,-7.11593404e-02,
1.24462694e-01,1.18961141e-01,-3.73447612e-02,9.68354270e-02,7.82411471e-02,
-1.05455264e-01,-7.30828848e-03,6.49848804e-02,1.00374632e-02,1.10219792e-01,
-2.02080444e-03,9.67020839e-02,-9.56502557e-02,-6.05179146e-02,1.31176233e-01,
-3.05985827e-02,-8.75929743e-02,-6.69128448e-02,4.69246171e-02,8.73682797e-02,
-4.08330932e-02,3.84011157e-02,6.55187294e-02,1.92124948e-01,3.26174460e-02,
1.23304315e-01,5.27693406e-02,-2.50281602e-01,1.53689906e-01,3.00349630e-02,
-3.89987938e-02,4.13218513e-03,1.01377144e-01,1.17476746e-01,6.23876825e-02,
3.34565586e-04,5.76459989e-02,-3.26801091e-02,4.16622721e-02,-5.26919253e-02,
3.64408679e-02,1.24938883e-01,-1.21558815e-01,2.33764321e-01,-7.00902753e-03,
5.53185306e-02,1.38784538e-03,-4.63525541e-02,3.57371420e-02,-5.67558631e-02,
1.06872477e-01,1.10189710e-02,3.61526161e-02,9.07770321e-02,3.57028693e-02,
1.59370214e-01,-3.33173536e-02,-8.39478523e-02,4.87147421e-02,-1.26682550e-01,
-7.63445124e-02,9.57952291e-02,1.34414777e-01,4.35811654e-02,-2.59661358e-02,
4.58345972e-02,-8.41262713e-02,-1.57050770e-02,7.15959147e-02,1.23251550e-01,
-3.05147190e-02,-1.66468043e-02,-7.07462355e-02,1.26932919e-01,-8.17518085e-02,
-1.25216439e-01,-9.25141200e-03,-2.33962953e-01,3.10125928e-02,2.04393804e-01,
9.20416489e-02,6.48462102e-02,7.43236095e-02,-7.33747408e-02,1.21482611e-01,
1.23147741e-01,8.02727882e-03,7.83022866e-02,-2.12227181e-02,-1.73165798e-02,
6.06278107e-02,-1.18579485e-01,-1.37533128e-01,-1.78452414e-02,-9.29701515e-03,
2.09853455e-01,1.61248678e-03,7.80722350e-02,-1.16023973e-01,7.22159222e-02,
-4.94821742e-02,-5.69053777e-02,1.00438051e-01,1.62442103e-01,6.96532875e-02,
-5.79448119e-02,-1.20928967e-02,1.68964434e-02,-5.90566359e-02,-5.25737405e-02,
-1.53847667e-03,4.96134348e-02,2.38251090e-01,-1.28894404e-01,1.89538207e-02,
-1.44994214e-01,-1.91538613e-02,-1.87665746e-01,1.31007256e-02,1.39052793e-01,
8.62715989e-02,-2.68720500e-02,1.32973433e-01,-2.73623853e-03,-1.61965966e-01,
8.26346800e-02,-6.37003332e-02,6.26428425e-02,-4.39856760e-02,-3.74956615e-02,
-4.39314917e-02,-5.48316836e-02,-8.86320882e-03,3.20735611e-02,9.10999179e-02,
-5.68561405e-02,-6.99536353e-02,-1.29053533e-01,4.41834666e-02,4.95172031e-02,
6.78125711e-04,-1.12480946e-01,2.41489574e-01,-1.07371164e-02,2.44970217e-01,
4.07167003e-02,-8.49006251e-02,-3.36355641e-02,8.02041739e-02,1.03447195e-02,
1.28239453e-01,6.23945929e-02,9.84881297e-02,-1.06400266e-01,3.77457142e-02,
8.26733559e-02,2.16155350e-01,4.44867741e-03,3.48096192e-02,-3.67434695e-02,
7.23497644e-02,6.26115920e-03,5.30384108e-02,6.49056211e-02,1.80703215e-02,
1.05595747e-02,-1.91386938e-02,-1.23527199e-02,-1.93976406e-02,1.70063879e-02,
-1.43408068e-02,6.55702129e-02,3.23496317e-03,1.12774268e-01,3.51060927e-02,
1.21414714e-01,-6.10612258e-02,2.75105648e-02,-1.68136373e-01,-7.14933872e-02,
-7.31007382e-02,-3.74335633e-03,3.66642736e-02,-5.14258519e-02,-4.90784347e-02,
-1.47290796e-01,2.35434389e-03,-1.42882571e-01,-3.86932790e-02,1.05196208e-01,
2.17428487e-02,1.24902576e-02,5.10372259e-02,-1.66483205e-02,-8.36253725e-03,
8.95358697e-02,-8.73551704e-03,-4.75910231e-02,1.06406972e-01,1.36727681e-02,
-7.67430961e-02,9.64928046e-03,2.08616350e-02,1.13298511e-02,-1.92026899e-03,
7.33140558e-02,2.03018356e-02,3.98803540e-02,-7.90423676e-02,1.49702802e-01,
-1.13658823e-01,-1.42108649e-01,1.11389957e-01,2.25017350e-02,-1.72036693e-01,
-4.18108664e-02,4.78994884e-02,-3.70965898e-02,8.61161724e-02,-3.45184356e-02,
3.49451378e-02,3.41086648e-02,-2.17579026e-02,-2.11756602e-02,1.33088669e-02,
1.06842950e-01,9.29053351e-02,5.71530126e-02,2.28022020e-02,1.40826777e-01,
1.01051815e-01,-1.01621950e-03,-2.23408081e-02,-8.07719529e-02,-4.39846963e-02,
1.46212289e-03,-1.00004546e-01,7.05223456e-02,1.68643519e-01,-4.45718616e-02,
8.22723433e-02,-2.90303212e-02,2.63094306e-02,2.58371402e-02,8.55832733e-03,
9.10027176e-02,-6.32081851e-02,-8.67974013e-02,-5.66609763e-02,8.74371156e-02,
3.72152999e-02,-6.99971840e-02,-1.40099349e-02,-1.40863955e-01,-4.03082976e-03,
-6.17276542e-02,1.86233595e-01,-6.65229931e-02,-2.94570029e-02,-5.03815822e-02,
2.19844639e-01,7.22627416e-02,-4.43787947e-02,-7.25260973e-02,2.09674016e-02,
1.60164550e-01,5.11912294e-02,5.41168265e-02,3.85251071e-04,4.27590720e-02,
3.87905613e-02,-1.29742369e-01,2.25353912e-02,-3.01499311e-02,2.22876549e-01,
-2.16257069e-02,-1.05527882e-02,-1.30079105e-01,1.00586906e-01,-1.08046994e-01,
2.05747843e-01,-4.54162359e-02,7.12088645e-02,1.78429410e-01,8.65734518e-02,
-2.21475139e-01,-1.04576431e-01,-1.02949820e-01,-2.17903983e-02,-1.85447201e-01,
5.76281436e-02,-9.52143222e-02,1.01647437e-01,8.81451648e-03,3.05731203e-02,
-7.87657425e-02,-8.04353878e-03,-2.53819674e-02,2.67038085e-02,-2.25746743e-02,
-2.11907830e-02,1.20933484e-02,-3.27019114e-03,1.94119915e-01,2.44108707e-01,
7.36801103e-02,-7.13081211e-02,-2.62662652e-03,-3.98640931e-02,1.27209589e-01,
3.35960053e-02,3.57239740e-04,-1.36530861e-01,4.37173210e-02,8.65652487e-02,
-4.47539277e-02,-9.93522350e-03,5.03951497e-02,8.47001448e-02,8.08204636e-02,
-2.90338910e-04,1.12424932e-01,3.09522133e-02,9.20317248e-02,3.30105461e-02,
-2.86726095e-02,6.01373687e-02,-1.27815247e-01,4.89344262e-02,2.46482491e-02,
8.68833140e-02,1.09692387e-01,-6.84697032e-02,-1.08270675e-01,8.66484046e-02,
2.05453951e-03,1.08181812e-01,-5.17610759e-02,1.95927434e-02,5.43966293e-02,
1.12318031e-01,-1.28670717e-02,1.50600031e-01,9.69648734e-02,1.78759083e-01,
2.67415792e-02,-2.19438467e-02,-4.26824987e-02,9.64400917e-02,7.51572894e-03,
7.86847472e-02,1.26013029e-02,-2.83624604e-02,9.70003530e-02,8.81264061e-02,
1.30013093e-01,8.54759291e-03,9.83215794e-02,4.77880910e-02,-1.02961481e-01,
1.95822902e-02,1.59008205e-02,-8.35512131e-02,4.61125635e-02,1.30433021e-02,
2.72209588e-02,8.15773197e-03,6.15667040e-03,4.79772426e-02,-1.68753505e-01,
-7.16054738e-02,-4.69508991e-02,-2.41907127e-02,1.16750628e-01,-7.90273130e-04,
-9.01522636e-02,-2.42191385e-02,2.70814393e-02,4.19537351e-02,-1.17723104e-02,
-3.96024473e-02,-8.68032426e-02,-3.75146642e-02,1.11378923e-01,9.74665731e-02,
-1.40229687e-01,-1.20809283e-02,1.15388986e-02,8.52124318e-02,-1.39842734e-01,
3.74425612e-02,-1.75401330e-01,-9.04815793e-02,-5.15656434e-02,-1.85667630e-02,
3.69963869e-02,-4.76191938e-02,-7.25255534e-02,-8.25339630e-02,-2.48897672e-02,
-8.19809735e-02,-8.45285133e-02,5.98997734e-02,3.37025076e-02,-9.70496088e-02,
-6.42540678e-03,-9.65450555e-02,-2.12446023e-02,3.04129012e-02,-4.31328453e-02,
-1.69827089e-01,1.24594055e-01,-1.32528380e-01,4.05982994e-02,-3.65655906e-02,
-2.03552116e-02,-6.31702468e-02,-1.89498570e-02,-6.46958873e-02,-1.05317898e-01,
-8.09799805e-02,-6.87755495e-02,-1.58467278e-01,-2.87479982e-02,2.34901533e-02,
1.46202147e-01,-2.06716433e-01,-7.27216974e-02,-2.39098221e-02,8.22253078e-02,
-4.38578315e-02,-7.11177215e-02,7.14725554e-02,4.89804242e-03,-3.01889777e-02,
-6.34294823e-02,1.74211375e-02,-7.91728124e-02,6.59370655e-03,-7.58283362e-02,
2.65694372e-02,-1.05246052e-01,-9.30142105e-02,2.88803801e-02,-4.57926355e-02,
-1.24543950e-01,-4.27840315e-02,7.85576645e-03,-1.32685199e-01,-2.83194594e-02,
-4.99748923e-02,3.62361707e-02,3.04978583e-02,6.95620105e-03,2.27846056e-01,
4.41274829e-02,-9.55123678e-02,-1.79964751e-02,1.62598878e-01,-8.46324563e-02,
-2.73441616e-02,-9.50516015e-02,-7.74496123e-02,1.43628847e-02,8.82682204e-02,
7.61071593e-02,-1.13756228e-02,-6.80623353e-02,5.94553426e-02,4.14459221e-02,
-1.84696298e-02,-1.07391015e-01,-5.24956919e-02,-1.34879455e-01,2.76781134e-02,
-2.83521637e-02,8.71544480e-02,4.97650839e-02,4.22301516e-02,6.96641952e-02,
-1.57618662e-03,-1.44884005e-01,2.42266636e-02,6.59257174e-02,-3.05423122e-02,
-2.40137473e-01,8.16779211e-02,-1.63076855e-02,-8.39520693e-02,-4.83625010e-02,
-5.24951853e-02,1.15225976e-02,-3.67891230e-02,5.57395443e-02,-1.76928975e-02,
2.38963708e-01,-2.18833521e-01,8.06971826e-03,2.76288744e-02,6.94360062e-02,
5.62047074e-03,7.04323500e-02,1.64436474e-01,3.51161025e-02,-3.57957184e-02,
4.65939082e-02,-1.73080370e-01,2.49487311e-02,-4.26696539e-02,-2.62003969e-02,
7.48901302e-03,5.91579676e-02,-4.63579334e-02,-4.39611189e-02,-4.96493205e-02,
1.24925445e-03,-7.84048066e-02,1.33772060e-01,-9.93983522e-02,9.66642704e-03,
1.02108531e-01,-1.00693509e-01,9.58908722e-02,-1.47952989e-01,-8.77547711e-02,
-1.68225631e-01,-2.46986300e-01,1.11623779e-01,-9.60380435e-02,7.40372688e-02,
6.87139705e-02,-1.00370839e-01,-1.42957985e-01,-9.16672200e-02,-1.24824392e-02,
-3.26090232e-02,1.21067040e-01,-5.29435240e-02,5.35654537e-02,8.70636851e-02,
-1.79969117e-01,-1.07973464e-01,7.80361444e-02,9.82670393e-03,2.15855595e-02,
-6.18150085e-02,-3.60238180e-02,1.30335391e-02,-4.47159782e-02,2.17894353e-02,
1.18271895e-01,1.50899375e-02,-9.00880098e-02,3.02191870e-03,-9.02421698e-02,
-1.06959239e-01,1.95915759e-01,7.54688457e-02,5.98142408e-02,-1.37803182e-01,
-1.69162247e-02,-8.74731988e-02,-1.18612997e-01,-4.53787670e-02,-5.39282225e-02,
9.44596156e-02,3.08736768e-02,-1.27372760e-02,-7.79774319e-03,1.96041316e-02,
1.23103216e-01,1.60312518e-01,-1.08205304e-01,-2.55139582e-02,8.71552825e-02,
5.13190106e-02,-1.00886934e-01,-6.47637099e-02,1.15580663e-01,4.23218086e-02,
-9.62668210e-02,8.58695060e-02,-9.71619189e-02,-9.65060219e-02,6.41807467e-02,
-2.37098664e-01,-3.52070592e-02,-1.00541219e-01,3.65141481e-02,9.55261588e-02,
-9.01840180e-02,-9.92526636e-02,-1.09109171e-01,2.99146414e-01,-9.98088419e-02,
-8.50718096e-02,1.74608886e-01,8.03042725e-02,-1.49127617e-01,3.45793087e-04,
-1.25890225e-01,-2.51854151e-01,3.36591788e-02,-1.10154316e-01,-6.98207989e-02,
-1.36319250e-01,1.34241646e-02,1.51678622e-01,-1.07902430e-01,-6.16445951e-03,
-8.70234519e-02,-1.36532098e-01,-3.72695550e-02,1.22632727e-01,-2.02232469e-02,
1.44086257e-02,-1.30174309e-02,-1.77271515e-02,1.92226488e-02,-1.63063869e-01,
1.08920060e-01,2.22206220e-01,-3.29205543e-02,-1.22295417e-01,-5.88546470e-02,
-1.44176647e-01,-3.31872813e-02,-5.21027930e-02,5.59488349e-02,-1.61427334e-01,
-1.49627075e-01,2.64179497e-03,-5.67100644e-02,1.50259631e-03,1.17726892e-01,
-5.28539456e-02,7.43933469e-02,-1.54619515e-01,9.25675482e-02,-1.23418733e-01,
-1.13693373e-02,-1.58083379e-01,-1.20963149e-01,1.57957021e-02,-1.25725735e-02,
2.45821457e-02,-1.02125324e-01,2.96738744e-02,-1.46629915e-01,-1.01248421e-01,
6.99856430e-02,9.34069380e-02,-1.11022130e-01,-5.53014241e-02,-5.38677163e-02,
-6.66458905e-02,-5.63148875e-03,9.88344401e-02,1.51895806e-01,-7.40330517e-02,
-4.57286239e-02,-1.95015315e-02,1.09105110e-01,1.13025546e-01,-1.27379045e-01,
3.37151103e-02,-1.62161104e-02,8.75493065e-02,2.16095820e-01,-3.06372829e-02,
7.24167377e-02,-5.05709611e-02,-9.96608362e-02,-9.68852192e-02,-6.59423843e-02,
7.54329488e-02,4.02688570e-02,-5.43499887e-02,-1.71375871e-01,1.05954230e-01,
-6.57517314e-02,-3.05657368e-02,3.94277796e-02,4.99413209e-03,-5.90555556e-02,
4.57485653e-02,-1.00678997e-02,-6.78722784e-02,-1.45974919e-01,7.39571974e-02,
2.20698658e-02,5.27732670e-02,1.04884252e-01,-1.63078561e-01,7.95916915e-02,
-3.03550381e-02,1.03281051e-01,-2.55244393e-02,7.08219707e-02,-9.95505080e-02,
-6.69506565e-02,-5.31667843e-02,1.12115957e-01,-5.79278134e-02,-1.27297612e-02,
1.11250654e-02,7.04244375e-02,1.94771923e-02,-1.38784111e-01,9.65950936e-02,
-2.54790466e-02,3.19365449e-02,1.11916577e-02,3.39122862e-02,9.97526646e-02,
2.83867195e-02,-7.99548179e-02,8.12072083e-02,-2.54616030e-02,4.01043333e-02,
1.63437694e-01,3.40669975e-02,-5.18503133e-03,1.47434205e-01,9.40063968e-02,
7.35742822e-02,-3.65024172e-02,8.20443965e-03,-8.91978890e-02,5.36593981e-02,
-3.44789922e-02,2.31311154e-02,3.18555564e-01,-6.50066137e-03,-1.09636327e-02,
-1.02857515e-01,-5.30680940e-02,1.15126818e-01,-6.64272457e-02,9.76501256e-02,
2.56631505e-02,-1.89226046e-02,5.70767708e-02,-7.44759589e-02,2.92039793e-02,
1.72549188e-01,2.58315168e-02,1.32592902e-01,4.56178049e-03,1.38171822e-01,
-8.23461413e-02,1.86605498e-01,1.98810417e-02,3.89301665e-02,1.22745238e-01,
-9.57967937e-02,-6.54195994e-02,3.04907948e-01,1.17219463e-01,1.71892360e-01,
1.03185616e-01,1.77954152e-01,3.45218997e-03,5.30221127e-02,1.37524113e-01,
8.49410892e-02,-4.50380743e-02,1.24917485e-01,2.26856358e-02,5.07175401e-02,
-1.09846845e-01,9.09523945e-03,-7.71182030e-02,-1.05742753e-01,1.49999242e-02,
-3.29572633e-02,7.64930770e-02,1.51373431e-01,1.36472106e-01,1.53847098e-01,
7.26473257e-02,-9.92837623e-02,8.25136304e-02,-2.74639782e-02,1.65082738e-01,
-4.34478149e-02,7.88579807e-02,6.55386746e-02,-1.47622619e-02,-2.21017413e-02,
5.68842627e-02,7.32038021e-02,1.22976524e-03,4.52741981e-02,1.50931597e-01,
1.78244058e-03,-4.55290265e-02,-2.54252069e-02,-2.01110914e-01,1.06538258e-01,
3.21558081e-02,1.19100571e-01,1.21981889e-01,-3.21690030e-02,5.53985462e-02,
-1.27155498e-01,-7.57574430e-03,8.14847574e-02,-1.86822340e-01,-1.04853502e-02,
3.46803069e-02,-3.20820659e-02,-3.82540859e-02,4.97440509e-02,-1.22531034e-01,
1.94502011e-01,6.49127737e-02,1.93290692e-02,2.24108249e-02,8.40174854e-02,
1.09119445e-01,-4.92824521e-03,1.09016383e-02,9.80948806e-02,1.86806306e-01,
9.01569426e-03,7.93743879e-02,1.77391954e-02,2.11498048e-02,6.92114085e-02,
-1.74262468e-02,7.40340576e-02,-1.40983108e-02,-3.14412527e-02,1.40596163e-02,
-8.94056261e-03,-2.97260433e-02,9.69538242e-02,3.87479179e-02,2.59034033e-03,
5.74797567e-04,8.53813216e-02,-1.22307435e-01,1.13081545e-01,-9.26648602e-02,
2.10935399e-02,1.41606882e-01,-2.32443959e-02,8.12640190e-02,-6.07065558e-02,
-5.84914535e-02,8.46614838e-02,1.03106961e-01,5.28101297e-03,1.37195112e-02,
-1.15305856e-02,6.11556927e-03,1.39951020e-01,2.80535463e-02,-5.86850345e-02,
2.10895672e-01,1.10054947e-01,-1.21738672e-01,9.06351283e-02,9.97078419e-02,
4.91061136e-02,7.82189295e-02,5.39157987e-02,-3.05989920e-03,-1.38885528e-02,
7.68116862e-03,-2.12460887e-02,-6.78653046e-02,2.60135997e-03,1.57053694e-01,
2.83985846e-02,-9.79042202e-02,-1.53385639e-01,1.20559424e-01,-2.90733371e-02,
-1.32140011e-01,2.51914114e-02,-3.80605081e-04,1.03580356e-01,1.36874076e-02,
1.44913867e-01,1.55044189e-02,1.89159985e-03,-4.84592654e-02,-3.84415314e-02,
-1.01322636e-01,7.64152184e-02,6.42158315e-02,8.70334581e-02,-1.34153619e-01,
-8.61488953e-02,-3.97790857e-02,-2.88782362e-02,3.45979556e-02,2.12642737e-02,
-7.02969953e-02,1.55782327e-02,-1.33066028e-02,-8.96534547e-02,-1.99561715e-01,
4.09351364e-02,8.84070620e-02,1.00391574e-01,-7.65130371e-02,-1.42331555e-01,
-4.81216796e-02,1.10557422e-01,1.23039342e-03,-8.28403682e-02,2.44582891e-02,
-1.59742102e-01,8.52785185e-02,-4.50972468e-02,5.81199042e-02,8.95446818e-03,
-8.31777155e-02,6.61385357e-02,-3.34268153e-01,5.67622446e-02,-2.75497269e-02,
-6.08474342e-03,2.48312838e-02,-3.70181203e-02,8.55339170e-02,1.30745312e-02,
1.76865179e-02,-1.25727862e-01,-4.75071222e-02,1.42958924e-01,-1.11051612e-01,
2.62977947e-02,1.31209135e-01,9.94010866e-02,2.38147634e-03,6.46611527e-02,
2.81162094e-02,-3.85812372e-02,3.45814563e-02,-5.70056401e-03,-1.71162948e-01,
-2.60286927e-02,-5.26348725e-02,1.23491965e-01,7.40627870e-02,1.36076719e-01,
5.50625660e-02,1.29710332e-01,-7.31604397e-02,-6.51137680e-02,1.75392702e-02,
2.28856672e-02,1.00744806e-01,2.86159590e-02,-6.46073893e-02,3.36387977e-02,
3.92150180e-03,-1.07045725e-01,1.00204855e-01,3.09921708e-02,-2.20934805e-02,
4.39101644e-03,1.83247030e-02,-9.13861394e-02,-7.96036646e-02,8.87591466e-02,
-5.61974980e-02,6.29267320e-02,-1.57453436e-02,-1.07592806e-01,-1.26909260e-02,
-5.02118580e-02,5.72167896e-02,-5.87791651e-02,-7.94121325e-02,4.13652597e-04,
2.82347258e-02,-2.06213612e-02,3.14986184e-02,-4.90772314e-02,1.09730531e-02,
1.28399715e-01,-6.57356903e-03,1.35977957e-02,-1.86654314e-01,1.40440658e-01,
-2.91524157e-02,-3.95830721e-04,8.91750865e-03,3.78011540e-02,8.57738107e-02,
-1.33658662e-01,-7.01901764e-02,-1.21941745e-01,1.95654463e-02,3.82391624e-02,
-3.57350782e-02,-3.77440006e-02,1.04581699e-01,2.08116770e-02,-6.06548116e-02,
-3.82903107e-02,1.34091759e-02,-1.21819273e-01,5.02717048e-02,-6.34338036e-02,
-5.78736179e-02,1.97880998e-01,-1.12577062e-02,-1.11636713e-01,-1.55112848e-01,
7.95015022e-02,-2.38692239e-01,1.21541440e-01,-5.73712587e-02,1.00904927e-01,
-5.38757220e-02,6.70590028e-02,9.54819322e-02,4.83841822e-02,2.96494868e-02,
1.93389803e-01,-1.03851072e-01,5.23590371e-02,1.97221875e-01,-1.61629170e-01,
-5.13982959e-02,-4.79058474e-02,-5.63603379e-02,4.72484641e-02,7.10865036e-02,
4.23514619e-02,-4.75958139e-02,1.68251768e-01,2.17151955e-01,3.66906114e-02,
1.19126268e-01,-7.74916485e-02,9.87403765e-02,-6.40844032e-02,-7.10596293e-02,
-3.37327905e-02,3.79508846e-02,-1.47383343e-02,1.24577448e-01,-3.50634642e-02,
-3.07138637e-03,-1.21082868e-02,-1.48680294e-02,-1.18589932e-02,-6.81899814e-03,
-1.21778205e-01,1.18259722e-02,6.40029758e-02,1.01732150e-01,1.34295389e-01,
-1.12503339e-02,-1.00607254e-01,-2.18322985e-02,-6.82752654e-02,9.73744318e-02,
1.04606934e-01,-6.72505796e-02,1.37078619e-04,2.74824332e-02,-4.44891676e-02,
-1.04533255e-01,2.65039783e-02,1.21140756e-01,-6.41333461e-02,-6.70338497e-02,
5.51248938e-02,3.29158418e-02,-4.25141975e-02,6.15652688e-02,-3.46706510e-02,
-2.18419544e-02,7.89141934e-03,8.44654739e-02,-6.89255493e-03,8.58377367e-02,
4.46831398e-02,1.35882959e-01,1.93753894e-02,-4.06694300e-02,1.73876315e-01,
-1.90027046e-03,-5.38725443e-02,-9.23320204e-02,-2.17353087e-02,8.91706273e-02,
7.81010017e-02,8.14227480e-03,1.80252884e-02,-9.60466042e-02,5.56972623e-02,
-4.04237828e-04,-9.90965962e-03,1.25932187e-01,-9.71181020e-02,-5.71663938e-02,
-5.00922613e-02,1.15935758e-01,-3.82269323e-02,6.89636692e-02,9.18387175e-02,
