#include <math.h> 
 #include <string.h> 
#include "./include/k2c_include.h" 
#include "./include/k2c_tensor_include.h" 

 
static struct FRNN1D_small_static_vars 
{ 
float lstm_1_state[400]; 
} FRNN1D_small_states; 


void FRNN1D_small(k2c_tensor* input_1_input, k2c_tensor* dense_3_output) { 

float permute_1_output_array[142] = {0}; 
k2c_tensor permute_1_output = {&permute_1_output_array[0],2,142,{142,  1,  1,  1,  1}}; 
size_t permute_1_permute[2] = {1,0}; 


float cropping1d_1_output_array[128] = {0}; 
k2c_tensor cropping1d_1_output = {&cropping1d_1_output_array[0],2,128,{128,  1,  1,  1,  1}}; 
size_t cropping1d_1_crop[2] = {14,0}; 


float permute_2_output_array[128] = {0}; 
k2c_tensor permute_2_output = {&permute_2_output_array[0],2,128,{  1,128,  1,  1,  1}}; 
size_t permute_2_permute[2] = {1,0}; 


float reshape_1_output_array[128] = {0}; 
k2c_tensor reshape_1_output = {&reshape_1_output_array[0],3,128,{ 1, 2,64, 1, 1}}; 
size_t reshape_1_newndim = 3; 
size_t reshape_1_newshp[K2C_MAX_NDIM] = { 1, 2,64, 1, 1}; 


float permute_4_output_array[128] = {0}; 
k2c_tensor permute_4_output = {&permute_4_output_array[0],3,128,{ 1,64, 2, 1, 1}}; 
size_t permute_4_permute[3] = {0,2,1}; 


float reshape_2_output_array[128] = {0}; 
k2c_tensor reshape_2_output = {&reshape_2_output_array[0],2,128,{64, 2, 1, 1, 1}}; 
size_t reshape_2_newndim = 2; 
size_t reshape_2_newshp[K2C_MAX_NDIM] = {64, 2, 1, 1, 1}; 


size_t conv1d_1_stride = 1; 
size_t conv1d_1_dilation = 1; 
float conv1d_1_output_array[310] = {0}; 
k2c_tensor conv1d_1_output = {&conv1d_1_output_array[0],2,310,{62, 5, 1, 1, 1}}; 
float conv1d_1_kernel_array[30] = {
-2.15294182e-01,-2.81362206e-01,-2.95655072e-01,1.20380022e-01,2.31998518e-01,
1.38212487e-01,-1.54991478e-01,2.59196281e-01,1.32704496e-01,-3.36282760e-01,
1.39665633e-01,1.64238527e-01,1.87807098e-01,2.63895094e-01,1.96868137e-01,
2.37425297e-01,-4.60142642e-03,2.99965948e-01,-5.18228784e-02,-1.41961589e-01,
3.48920077e-01,7.55196586e-02,-1.50793999e-01,4.03285086e-01,-1.12296306e-01,
-2.05279127e-01,7.22869299e-03,1.56074211e-01,9.28324275e-03,-1.71675503e-01,
}; 
k2c_tensor conv1d_1_kernel = {&conv1d_1_kernel_array[0],3,30,{3,2,5,1,1}}; 
float conv1d_1_bias_array[5] = {
4.59931269e-02,-3.64477634e-02,-3.45176980e-02,3.91513929e-02,2.17360165e-02,
}; 
k2c_tensor conv1d_1_bias = {&conv1d_1_bias_array[0],1,5,{5,1,1,1,1}}; 

 
size_t max_pooling1d_1_stride = 2; 
size_t max_pooling1d_1_pool_size = 2; 
float max_pooling1d_1_output_array[155] = {0}; 
k2c_tensor max_pooling1d_1_output = {&max_pooling1d_1_output_array[0],2,155,{31, 5, 1, 1, 1}}; 


size_t conv1d_2_stride = 1; 
size_t conv1d_2_dilation = 1; 
float conv1d_2_output_array[145] = {0}; 
k2c_tensor conv1d_2_output = {&conv1d_2_output_array[0],2,145,{29, 5, 1, 1, 1}}; 
float conv1d_2_kernel_array[75] = {
-2.08678588e-01,-1.17900871e-01,-1.46689236e-01,-1.05196685e-01,-5.35364337e-02,
1.59667343e-01,1.24650262e-01,-1.53350234e-01,-8.44001323e-02,-7.82891363e-02,
-1.36763435e-02,1.22903809e-01,4.37795557e-02,-8.31144527e-02,-1.24873921e-01,
-1.94013119e-01,-8.83043706e-02,-8.44680518e-02,-1.82742134e-01,2.39582844e-02,
-6.70936927e-02,3.55694406e-02,1.01420589e-01,1.51275784e-01,-1.33428589e-01,
9.60647911e-02,-1.07485592e-01,-2.31832676e-02,8.66962895e-02,-1.63781360e-01,
5.31975701e-02,8.28116015e-03,6.88249758e-03,-7.04236925e-02,1.47842154e-01,
-1.63828641e-01,-5.80317192e-02,-1.70922548e-01,9.19859558e-02,-1.19358208e-02,
5.88468723e-02,-2.33965352e-01,1.80151865e-01,-4.18212898e-02,5.59307747e-02,
1.46074593e-01,-3.80507000e-02,-1.91843092e-01,1.46449402e-01,-5.09950221e-02,
1.95198646e-03,1.32210746e-01,-9.17830765e-02,1.47719994e-01,1.34870797e-01,
8.21669027e-02,-1.46845803e-01,1.73555806e-01,-1.27735555e-01,1.68928504e-01,
1.87381804e-01,4.45257537e-02,5.67999147e-02,-2.19666779e-01,-1.83908373e-01,
1.10964090e-01,-4.09359206e-03,1.26005318e-02,-1.92640260e-01,-6.14858903e-02,
-7.69192949e-02,-6.06540404e-03,-1.42388135e-01,-1.66938931e-01,1.56787723e-01,
}; 
k2c_tensor conv1d_2_kernel = {&conv1d_2_kernel_array[0],3,75,{3,5,5,1,1}}; 
float conv1d_2_bias_array[5] = {
-1.28016407e-02,-3.76252532e-02,-1.44085949e-02,-3.80725935e-02,-1.39418561e-02,
}; 
k2c_tensor conv1d_2_bias = {&conv1d_2_bias_array[0],1,5,{5,1,1,1,1}}; 

 
size_t max_pooling1d_2_stride = 2; 
size_t max_pooling1d_2_pool_size = 2; 
float max_pooling1d_2_output_array[70] = {0}; 
k2c_tensor max_pooling1d_2_output = {&max_pooling1d_2_output_array[0],2,70,{14, 5, 1, 1, 1}}; 


float flatten_1_output_array[70] = {0}; 
k2c_tensor flatten_1_output = {&flatten_1_output_array[0],1,70,{70, 1, 1, 1, 1}}; 
float dense_1_output_array[20] = {0}; 
k2c_tensor dense_1_output = {&dense_1_output_array[0],1,20,{20, 1, 1, 1, 1}}; 
float dense_1_kernel_array[1400] = {
-8.44917297e-02,9.11727548e-02,1.71521842e-01,9.23578292e-02,2.06907094e-01,
2.40593567e-03,1.78725362e-01,1.91493973e-01,1.43923938e-01,6.32697204e-03,
-2.34116670e-02,-3.02837454e-02,-9.36643220e-03,1.29810974e-01,1.20062649e-01,
7.97679871e-02,-1.39921173e-01,-6.84491766e-04,-1.86689883e-01,-1.91373557e-01,
-6.33789226e-02,1.59775645e-01,-2.13252202e-01,4.11475487e-02,-1.75321281e-01,
-3.30004767e-02,-1.40908524e-01,-5.57077155e-02,5.98756298e-02,9.41752922e-03,
-1.26622438e-01,1.33525044e-01,-7.34369829e-02,-2.75734328e-02,1.73716769e-01,
-2.51206160e-01,3.23918532e-03,3.93016413e-02,1.61859632e-01,-1.98150426e-01,
-6.18197098e-02,3.62934954e-02,-1.17297426e-01,-4.35798652e-02,1.02856256e-01,
1.36830196e-01,-2.02372417e-01,1.98309585e-01,-1.22832522e-01,1.06503114e-01,
2.91163176e-02,1.62433177e-01,1.32733928e-02,-1.94354370e-01,1.25965923e-01,
1.94551140e-01,4.89948094e-02,-1.36130497e-01,-7.43524879e-02,-7.42514506e-02,
-3.49259600e-02,-1.22570343e-01,-7.27744997e-02,-8.06998312e-02,-5.46090538e-03,
-5.09360619e-02,-1.62324205e-01,-1.09499134e-01,-1.33103326e-01,-3.48115601e-02,
9.87148061e-02,2.98447791e-04,5.27806766e-02,6.85034506e-03,-6.63581491e-02,
-1.86981365e-01,-9.24601220e-04,1.99264707e-03,-1.24744579e-01,-1.56619077e-04,
-1.10931121e-01,2.37775706e-02,-1.90176398e-01,-4.60792854e-02,-8.39506369e-03,
-1.82363585e-01,4.64367913e-04,-1.23762824e-01,3.85639220e-02,-3.48626673e-02,
-9.19978395e-02,-5.62619492e-02,3.38520738e-04,-3.63584235e-02,-7.93012530e-02,
1.60425082e-01,-1.64857178e-04,9.74935740e-02,-1.50882145e-02,2.20682509e-02,
1.73942428e-02,-1.13394409e-01,-1.88102230e-01,-9.18307379e-02,-3.99691649e-02,
1.02622084e-01,4.81508896e-02,-6.09036759e-02,-1.06003851e-01,-1.84431106e-01,
1.93691254e-01,-8.52177739e-02,-1.13366783e-01,1.98182985e-01,6.00523464e-02,
1.35068521e-01,7.80030265e-02,-5.11884876e-02,1.31379649e-01,-1.79926008e-01,
-2.07562283e-01,-1.29486442e-01,-7.37508237e-02,-6.95652291e-02,9.00779665e-02,
-1.20534465e-01,1.92109644e-01,4.60369103e-02,-6.19392991e-02,5.33061661e-02,
-2.05278307e-01,-2.35456675e-01,-1.39201209e-01,-3.73314358e-02,2.07488239e-01,
1.51128039e-01,1.06204659e-01,9.66621190e-02,-8.87270942e-02,-5.27487174e-02,
1.20633051e-01,1.11219488e-01,-2.40296056e-03,1.80659935e-01,1.88739806e-01,
-8.99298489e-02,-9.13899764e-02,5.54261319e-02,-1.49612412e-01,-3.47569212e-02,
-1.12416014e-01,1.42915845e-01,-1.75832972e-01,-9.51804444e-02,-7.20505789e-02,
-1.40650541e-01,-2.15091377e-01,-7.36430883e-02,4.72253002e-02,1.18352272e-01,
-4.69474588e-04,-4.50562462e-02,-5.87235801e-02,-1.27326846e-01,4.41779196e-02,
-1.11544527e-01,1.70204174e-02,-1.71108115e-02,5.21465445e-05,-1.91101685e-01,
7.17758015e-02,1.75289318e-01,1.83138520e-01,1.13450743e-01,-6.54249126e-03,
-9.64338891e-03,-7.85651442e-04,9.23394039e-02,2.52389145e-05,7.67274126e-02,
-5.03512397e-02,-4.85302098e-02,1.41252905e-01,4.18099947e-03,7.80794248e-02,
-8.72925892e-02,1.17809974e-01,1.67407230e-01,-1.20782375e-01,-4.43300009e-02,
9.45102349e-02,1.64690077e-01,1.20471135e-01,4.58622500e-02,-4.24143225e-02,
-1.74181119e-01,1.48049846e-01,6.95754206e-05,-6.23879678e-05,4.55030194e-03,
1.61940515e-01,-8.79626721e-02,-2.18870509e-02,9.01306197e-02,-4.24023010e-02,
-3.11665218e-02,-1.78772628e-01,-7.26071149e-02,1.51594698e-01,-1.52459070e-01,
7.62485042e-02,-1.89508572e-01,7.88486749e-03,1.37305394e-01,-5.58369386e-04,
2.00361107e-02,1.35676265e-01,9.18736458e-02,-5.01791947e-02,1.44754693e-01,
1.05854981e-01,-1.74998492e-01,-1.27994120e-01,-1.82857260e-01,-1.93407640e-01,
1.75496161e-01,-1.14148818e-01,1.13377795e-01,-7.28241578e-02,-5.41622601e-02,
2.49230325e-01,-1.82742074e-01,1.54127881e-01,4.86720055e-02,-1.43509775e-01,
-1.15324147e-01,1.41698062e-01,-2.69960146e-02,-1.21811844e-01,-2.53934786e-02,
-6.28115311e-02,-6.16738498e-02,1.90685809e-01,1.07499711e-01,6.79310709e-02,
2.09531095e-02,6.52688518e-02,-1.58600733e-01,1.31318159e-02,-5.21577895e-02,
5.31887189e-02,-1.06352732e-01,-2.74579925e-03,-3.81655395e-02,1.87442467e-01,
-7.59685487e-02,3.29277292e-02,4.76583131e-02,-1.07147917e-01,1.44287810e-01,
3.75957377e-02,-7.23690018e-02,1.43748030e-01,-1.01353750e-02,1.65216476e-01,
-6.80919215e-02,-6.17634505e-05,-1.14390533e-02,7.13116974e-02,2.25101341e-03,
8.40362161e-02,-4.86764796e-02,-9.80709121e-02,4.91329618e-02,-1.93922713e-01,
-1.15046024e-01,1.10917203e-01,1.48879349e-01,1.14658713e-01,-1.30918607e-01,
5.18572005e-03,-1.24962658e-01,-8.11618083e-05,-1.81927115e-01,1.33917376e-01,
-1.21212035e-01,1.72572047e-01,-2.60930788e-02,1.23315319e-01,1.51353061e-01,
-1.52206281e-04,-3.20049985e-05,2.07875278e-02,1.98079631e-01,1.47003472e-01,
1.45705134e-01,-4.84095030e-02,3.64832543e-02,-4.42678866e-04,-1.93037435e-01,
1.21159859e-01,-1.43784031e-01,-1.06318146e-01,2.03218773e-01,7.14363903e-02,
1.87124908e-01,1.21085420e-01,-8.89159564e-04,1.85207278e-01,6.26530405e-03,
-1.48464277e-01,-1.21142648e-01,1.13272011e-01,1.37568623e-01,-5.24471998e-02,
-3.19781229e-02,-6.38274178e-02,-2.25863699e-02,-3.20379846e-02,8.57894644e-02,
-4.63376604e-02,8.66755769e-02,1.95924208e-01,1.84575401e-04,4.53426428e-02,
1.40827540e-02,1.16341999e-02,1.61382258e-02,-3.85382362e-02,-2.10044220e-01,
5.05460612e-02,6.85199872e-02,2.09472790e-01,2.10678011e-01,-1.32928282e-01,
-4.25330251e-02,1.09253071e-01,-1.75411642e-01,-6.70537278e-02,5.45549951e-02,
9.42171514e-02,-1.23407684e-01,9.93889496e-02,-4.34390604e-02,-2.28362739e-01,
-2.03394130e-01,-1.89435892e-02,-1.57111183e-01,1.55537426e-01,5.65082878e-02,
2.15618778e-03,-1.77301005e-01,1.47536322e-01,-2.48541813e-02,-2.06711739e-01,
-3.39130498e-02,1.36261478e-01,-1.43361151e-01,7.02641308e-02,4.92866933e-02,
1.90704450e-05,-2.86404835e-03,8.02989751e-02,-1.08597451e-03,-8.05696880e-04,
-5.33701964e-02,-5.66186756e-02,-2.09554099e-04,1.03570014e-01,1.39087200e-01,
-1.90901935e-01,1.29310280e-01,1.00649342e-01,-3.99355106e-02,-1.79653957e-01,
1.82179585e-01,-9.87947686e-04,-1.49324223e-01,1.01430602e-01,-1.09140448e-01,
-1.11295749e-02,-1.05317691e-02,1.60996467e-01,2.93248086e-05,-1.57972351e-01,
1.48478553e-01,-9.36788023e-02,1.85026348e-01,-1.93641067e-01,8.31681755e-05,
6.25579730e-02,-1.91597909e-01,1.89740777e-01,-5.79480156e-02,-1.02139786e-01,
-1.23785707e-04,-1.51346251e-01,2.00245351e-01,7.96352793e-03,-1.79996830e-03,
1.91161662e-01,-7.00633377e-02,1.15756936e-01,-7.13303611e-02,1.29600689e-01,
-1.55923720e-02,1.94975033e-01,9.61256272e-04,1.49849385e-01,2.44245045e-02,
-7.71111995e-02,-8.03586915e-02,-3.73514332e-02,-1.74752787e-01,9.33342353e-02,
-1.03823543e-01,-2.15740114e-01,3.40955369e-02,-1.94763020e-01,-5.75637147e-02,
-2.00426325e-01,-1.92033187e-01,9.44450945e-02,-8.71014595e-02,2.03999549e-01,
2.08640859e-01,-9.33443531e-02,1.75930977e-01,-3.38704288e-02,2.12794453e-01,
4.73545082e-02,9.91027877e-02,1.39456525e-01,-1.91474363e-01,-1.20753668e-01,
1.36888534e-01,1.81566447e-01,-6.97370023e-02,7.19065741e-02,-2.43263673e-02,
5.82159758e-02,-3.57975289e-02,-6.17468078e-03,-1.74081489e-01,1.17450401e-01,
4.73969318e-02,1.22509971e-01,9.61648226e-02,3.39261591e-02,-3.78413759e-02,
-1.10657886e-01,-4.45601232e-02,-5.15445247e-02,-2.94433590e-02,1.21219277e-01,
-1.95779592e-01,1.31586224e-01,-1.54973373e-01,1.58970460e-01,-1.90823600e-02,
-8.67404118e-02,1.22092868e-04,1.33536220e-01,-9.17682648e-02,-4.11612503e-02,
1.69753835e-01,-3.65515516e-05,3.79915722e-02,1.97599366e-01,2.19040141e-02,
-7.98166220e-05,-1.74846768e-01,-6.72042742e-02,-3.27933492e-04,4.20707464e-02,
-3.40489149e-02,-2.04662923e-02,1.67587101e-01,-1.27501234e-01,5.53034320e-02,
-8.07669759e-02,9.07988548e-02,-1.22664064e-01,1.49493499e-05,-1.22015241e-04,
-1.73805486e-02,3.71358218e-03,-1.78888932e-01,-3.64512354e-02,1.02071993e-01,
1.01948087e-03,-1.27807129e-02,-1.46884352e-01,8.25004801e-02,1.35153770e-01,
8.87636468e-02,5.27617289e-03,-1.77848118e-03,7.65390620e-02,5.58918901e-02,
1.51798621e-01,-1.38998061e-01,-1.29900090e-02,1.34041801e-01,4.57339846e-02,
8.54023453e-03,-1.32165737e-02,1.10255413e-01,1.06024370e-01,8.32878649e-02,
4.43359278e-02,2.58085132e-03,-8.12854618e-02,4.88176271e-02,2.50356761e-03,
4.64888103e-02,-1.00788824e-01,1.96378708e-01,-9.07056406e-02,7.84508791e-03,
1.47974193e-01,-6.91709071e-02,-1.51542589e-01,-1.49661124e-01,2.17345171e-02,
5.21685369e-02,9.67407450e-02,-1.44188881e-01,1.66290790e-01,-9.43489224e-02,
-1.04238637e-01,2.32927561e-01,-4.67553586e-02,-8.39372650e-02,-2.04427809e-01,
-2.48034135e-01,-1.87980294e-01,1.43357709e-01,-1.46724433e-01,1.40859708e-01,
7.37341344e-02,-2.66506430e-02,1.27146900e-01,-4.86778514e-03,2.02103890e-02,
1.66050196e-02,-2.13275626e-02,-7.81515539e-02,5.76372782e-04,-6.72425106e-02,
-2.48679984e-02,-2.53023989e-02,1.86346084e-01,1.54268190e-01,-4.32498828e-02,
1.86982647e-01,1.66504905e-02,-1.65962297e-02,-1.35221660e-01,-2.91118380e-02,
3.16450768e-03,-4.32478637e-02,7.70716667e-02,1.50973395e-01,8.70611370e-02,
3.94928381e-02,1.17184808e-02,1.72859877e-01,-1.34441540e-01,-4.27273888e-04,
-1.73909172e-01,1.07225101e-03,6.38719648e-02,9.17620510e-02,-1.55639427e-04,
9.44033116e-02,-1.35641173e-02,2.23966949e-02,3.33811593e-04,1.97600707e-01,
1.55650035e-01,5.05064345e-05,1.69885278e-01,5.02405241e-02,-1.24202557e-01,
-1.97123010e-02,8.50401339e-05,-1.71451226e-01,1.56055316e-01,1.63555905e-01,
1.86411262e-01,3.78954448e-02,-7.42900074e-02,-9.93591249e-02,1.37845725e-01,
1.85588881e-01,-6.61756992e-02,-9.25737404e-05,-8.62920955e-02,3.84224914e-02,
3.57593559e-02,9.46323574e-03,9.86341834e-02,-6.57349527e-02,1.62900195e-01,
8.21428001e-02,-6.31020740e-02,-2.24394128e-02,-1.59074873e-01,2.86990162e-02,
2.50632968e-02,-1.47883698e-01,-6.56886771e-03,-1.28514126e-01,3.57769690e-02,
-1.87877249e-02,-8.59771892e-02,-1.86702475e-01,-8.21528435e-02,1.53242901e-01,
2.55745232e-01,1.82929739e-01,2.01556355e-01,1.19286872e-01,1.85030550e-01,
1.07575938e-01,-5.53021990e-02,6.40248805e-02,1.41268417e-01,7.05490187e-02,
8.68296027e-02,7.96907395e-02,2.10128859e-01,-1.47237897e-01,7.19142780e-02,
1.00033343e-01,-2.89647821e-02,-8.92059430e-02,-6.90678060e-02,-3.03106871e-03,
1.99371994e-01,1.08518168e-01,7.92197660e-02,1.28988549e-02,3.34489755e-02,
-4.64230925e-02,-1.31217003e-01,-9.52823982e-02,1.25956303e-02,8.32173377e-02,
-1.25548974e-01,1.93546116e-01,-1.67475326e-03,4.10114489e-02,-1.32772416e-01,
1.68693677e-01,-1.03781251e-02,2.23794430e-01,-1.98407382e-01,-1.13219991e-01,
-2.50688139e-02,-5.66201168e-04,9.58100781e-02,-5.21330982e-02,1.01982377e-01,
1.25548890e-04,2.84766156e-05,-4.94370088e-02,-2.69878918e-04,-1.56942129e-01,
7.79855414e-04,1.03662543e-01,-1.82054043e-01,1.22630499e-01,-1.81854174e-01,
1.65948644e-02,-9.00431797e-02,3.76262031e-02,4.98887443e-04,2.48909183e-02,
-8.73745531e-02,-2.18910985e-02,9.03010666e-02,1.92633818e-03,-7.08404183e-02,
1.23800084e-04,-8.99198279e-02,-1.72005892e-01,-7.68852624e-05,-5.31642921e-02,
1.27676383e-01,5.38998209e-02,1.49553329e-01,7.20507130e-02,-1.10990711e-01,
1.25141293e-01,1.67362075e-02,-1.53877251e-02,5.07428274e-02,-7.93080702e-02,
2.05083698e-01,2.17586786e-01,-8.69785771e-02,8.51299167e-02,-2.01162711e-01,
-3.39020342e-02,1.01975478e-01,1.24944791e-01,1.66132569e-01,9.56539288e-02,
-7.49522224e-02,8.34961887e-04,-8.12422018e-03,-1.72845677e-01,1.98955700e-01,
4.94902767e-02,-1.98564917e-01,-4.76134766e-04,1.49291873e-01,1.05041638e-01,
-2.96675880e-02,2.09574401e-03,8.91191065e-02,-1.20023109e-01,1.61871910e-01,
-2.68043540e-02,2.30466500e-01,-2.37641960e-01,-2.68025864e-02,1.38479516e-01,
1.30797133e-01,2.13717520e-02,-2.07186744e-01,7.84596130e-02,-1.92731187e-01,
1.21723525e-01,-1.02136932e-01,1.77288160e-03,8.21800381e-02,1.42710552e-01,
-6.21481650e-02,-1.29873052e-01,-3.98243330e-02,-1.76450461e-01,4.83113993e-03,
-2.61290725e-02,1.31575361e-01,-4.68116291e-02,2.15308135e-03,1.01489425e-01,
8.44290182e-02,1.85947567e-01,6.09198175e-02,1.75318748e-01,1.08421065e-01,
1.08767254e-02,-1.67500433e-02,-1.95747167e-01,3.27604897e-02,-1.30410820e-01,
-1.14342541e-01,-2.21845880e-02,-1.03380939e-03,-1.00939237e-01,-9.37776789e-02,
-4.77264730e-05,1.07305184e-01,1.70229431e-02,-8.06880184e-03,9.21364427e-02,
-7.68770871e-04,5.34370095e-02,-1.69193089e-01,4.18247771e-04,2.37557906e-04,
-1.37871936e-01,7.54698589e-02,-1.57251060e-01,1.52326614e-01,7.82157469e-04,
1.93900287e-01,1.04512453e-01,2.45195925e-02,1.22429028e-01,-1.39118627e-01,
5.79349808e-02,1.25282284e-04,-1.06217489e-01,-3.56591716e-02,4.45543155e-02,
3.65643682e-05,-9.65776145e-02,4.80092429e-02,1.15423873e-02,1.67177156e-01,
-1.11974768e-01,9.09088925e-02,1.20620556e-01,1.95815012e-01,-8.05923156e-03,
-1.27843887e-01,-9.00575966e-02,-4.50868048e-02,-6.87861741e-02,5.01925424e-02,
-5.14966324e-02,1.18708618e-01,-4.64438684e-02,-1.10941201e-01,2.24401057e-02,
-8.27156603e-02,-4.55262326e-02,-1.65712923e-01,2.54553203e-02,-1.70003925e-03,
3.45123671e-02,-3.18183750e-02,-1.11787364e-01,6.67472091e-03,-1.91466048e-01,
2.04267845e-01,2.64691096e-02,1.67532146e-01,2.47049764e-01,7.64222369e-02,
2.29093343e-01,-8.64354745e-02,-1.95686609e-01,-2.46076524e-01,1.93537250e-01,
-5.33660203e-02,-3.78192402e-02,2.39853933e-01,1.71673104e-01,1.66702151e-01,
5.88819059e-03,-5.35882637e-02,-1.53818801e-01,-2.63043381e-02,-8.16380680e-02,
-1.21596165e-01,2.58044602e-04,-6.07803985e-02,-6.63148835e-02,-1.18093169e-03,
7.17134550e-02,-1.42056927e-01,1.65474236e-01,1.04423590e-01,1.95972607e-01,
-1.42777681e-01,-7.52664730e-03,6.38258737e-03,-1.70408899e-03,-1.89145505e-01,
1.34810284e-02,1.56913191e-01,-1.58743486e-01,9.54704359e-02,8.00499413e-03,
1.25924200e-01,-8.20970442e-03,1.79295227e-01,1.74867228e-01,-6.78153113e-02,
1.23550288e-01,-6.31756193e-05,1.15483925e-01,-1.30486951e-04,-6.58947183e-03,
-5.44234142e-02,-1.04163722e-04,-1.21211246e-01,5.97254075e-02,-1.77450016e-01,
-5.41393869e-02,3.77708202e-04,-1.42957136e-01,-1.99976154e-02,1.24427035e-01,
-1.71997510e-02,-3.07154586e-03,4.11948375e-02,1.92926824e-01,-1.47028327e-01,
2.21391296e-04,-1.39643341e-01,-5.83799258e-02,-4.68365964e-04,-6.91519603e-02,
-1.62635788e-01,-1.01048499e-01,-1.42993689e-01,3.81641366e-05,-9.80202481e-02,
3.87659371e-02,9.83119011e-04,-1.01194630e-04,-5.91085181e-02,-1.20877162e-01,
-1.81459546e-01,2.01964840e-01,1.69389680e-01,-6.01302423e-02,-7.07018152e-02,
-1.66780964e-01,7.94633105e-02,9.95992124e-02,-3.23272939e-03,1.59723863e-01,
-3.24819125e-02,3.78103089e-03,-3.34607059e-04,-1.68779135e-01,1.01054251e-01,
-9.35730785e-02,-1.21182455e-02,1.35705508e-02,1.99791521e-01,-9.30631831e-02,
3.20459194e-02,-1.31204620e-01,2.23941594e-01,-4.86177802e-02,-1.04754575e-01,
-1.36089310e-01,5.94437914e-03,1.65772676e-01,9.26710889e-02,-1.58069149e-01,
-8.43120590e-02,1.86511707e-02,6.59441426e-02,8.23116750e-02,-6.32254481e-02,
-4.34435718e-02,3.55441868e-02,1.44984797e-01,6.18066750e-02,1.00346774e-01,
-1.62734136e-01,8.41843560e-02,-1.29611611e-01,1.77579433e-01,1.26670435e-01,
-2.00375840e-01,-1.16361002e-03,1.61270410e-01,4.75195535e-02,-1.13020442e-01,
4.57299902e-04,4.00768667e-02,-1.98683336e-01,3.67543846e-03,1.52541950e-01,
-4.10801657e-02,5.80460355e-02,-7.51812160e-02,9.62281898e-02,-1.78628594e-01,
-8.80103186e-03,1.98864564e-02,-7.57769272e-02,7.37082437e-02,4.21224907e-03,
1.21319540e-01,1.85280619e-03,-1.93445114e-04,-8.05900898e-04,-7.27616325e-02,
7.56023393e-04,-6.30188792e-04,1.02477528e-01,-4.12286099e-05,5.48533276e-02,
-1.65064394e-01,-7.69343227e-04,1.14733890e-01,-5.80106154e-02,-1.09972283e-01,
1.23137128e-04,5.34994288e-05,-1.78533141e-02,3.63762341e-02,3.94065268e-02,
9.35385376e-03,4.38188985e-02,-4.92524887e-05,5.08922227e-02,1.24077626e-01,
1.20017864e-01,-1.05209544e-03,-4.18355092e-02,-1.10168559e-02,9.42633301e-02,
7.44482577e-02,1.74060203e-02,8.03621635e-02,-1.39638990e-01,8.46950635e-02,
-5.65611832e-02,-1.13839537e-01,-3.56221609e-02,-1.57639280e-01,-1.80633470e-01,
9.05699059e-02,1.29128039e-01,1.31782830e-01,-7.58050159e-02,-7.49584213e-02,
1.86713506e-02,1.28295198e-01,1.71914145e-01,1.73534259e-01,1.41619816e-01,
8.88799354e-02,-6.47108257e-02,-2.71116523e-03,-1.41033009e-01,-2.96835639e-02,
1.22906171e-01,-1.02059208e-01,-5.62425181e-02,-2.08818838e-01,-6.62828758e-02,
-2.56513227e-02,2.15932772e-01,-3.34699228e-02,1.17510304e-01,5.83834872e-02,
2.29646310e-01,-1.82553008e-01,-1.64471030e-01,-4.11429405e-02,9.80846584e-02,
1.44481808e-01,1.08969450e-01,2.51087621e-02,1.69015318e-01,4.71510701e-02,
-1.63170576e-01,1.70573115e-01,1.00417636e-01,-1.91344365e-01,-4.80992869e-02,
1.85947821e-01,1.91137835e-01,-3.32409553e-02,9.70126688e-02,1.49836451e-01,
-4.68798040e-04,1.09259617e-02,-1.09378569e-04,3.86325968e-03,7.59953335e-02,
1.16629109e-01,1.31871983e-01,-1.51493460e-01,-6.78953677e-02,-1.22297697e-05,
-3.83233167e-02,8.11658276e-04,-6.76017138e-04,-1.92413721e-02,1.46211692e-04,
-1.04618937e-01,1.67393059e-01,-9.83266234e-02,1.77807242e-01,-1.06369749e-01,
1.97443113e-01,1.95860863e-01,1.51541591e-01,1.89588889e-01,-5.51220924e-02,
-4.11855131e-02,-1.27154827e-01,1.83367491e-01,-1.09458573e-01,1.49629772e-01,
-1.45002268e-02,1.54761255e-01,2.56338175e-02,-5.46909396e-05,1.35637164e-01,
1.41883761e-01,-4.75131928e-05,-2.76557878e-02,1.10973984e-01,-2.33779265e-05,
1.43382937e-01,-3.88761424e-03,-1.14030726e-01,-9.40437168e-02,-1.14701144e-01,
-1.11586817e-01,9.88396459e-06,-2.96556931e-02,-5.12879575e-04,-4.17200848e-03,
-6.06223121e-02,1.89541087e-01,2.00191990e-01,5.00006042e-02,1.99549213e-01,
7.18438700e-02,9.01281908e-02,2.00974643e-01,-6.74623027e-02,1.85693264e-01,
-3.38293053e-02,-8.02681819e-02,1.04031458e-01,1.16797369e-02,-1.32804707e-01,
6.95742341e-03,1.05205007e-01,1.37278572e-01,1.22268215e-01,-4.55263443e-02,
2.30928257e-01,1.15813613e-01,-4.51155491e-02,8.02947804e-02,-1.48436919e-01,
1.12642676e-01,1.12497492e-03,1.19645998e-01,-1.41073704e-01,-1.01410896e-01,
-9.77315009e-02,-9.50681977e-03,-2.05198154e-01,1.37231335e-01,1.05763212e-01,
-1.08020931e-01,1.08289994e-01,1.98674500e-01,-9.27773640e-02,1.84642643e-01,
-9.52559188e-02,-2.53382977e-02,-5.89558445e-02,-6.04297295e-02,-7.26281777e-02,
-8.42992085e-06,-1.39136255e-01,6.50711581e-02,1.87122915e-02,-1.14901662e-01,
1.55629277e-01,-3.74018215e-02,-1.60286784e-01,-4.04738821e-02,-8.10282156e-02,
-2.56692525e-02,1.85996801e-01,-1.22673959e-01,-1.09786995e-01,-2.25941911e-02,
4.30416800e-02,1.47476673e-01,-5.41792077e-04,3.88282351e-03,3.21751941e-05,
5.29588386e-02,-1.40525177e-01,-1.17715538e-01,8.93012621e-04,1.36459753e-01,
9.45194915e-05,2.49739154e-04,5.01894800e-04,1.71658725e-01,-1.75858438e-01,
6.24721288e-05,9.39351171e-02,-6.25562156e-04,7.29584396e-02,-5.87829891e-05,
1.17556348e-01,1.35373310e-04,-1.19216658e-01,-6.27004355e-02,-1.12164111e-04,
1.07311033e-01,9.41469297e-02,1.85360640e-01,5.43909082e-05,1.24417312e-01,
-8.93132165e-02,-7.48429028e-03,-6.32467866e-02,-1.18905023e-01,3.78710739e-02,
5.41903079e-02,1.83342874e-01,1.90764830e-01,-1.62636936e-01,-1.73388690e-01,
3.29893176e-03,6.39370158e-02,-2.42125168e-02,-9.89192799e-02,5.30824438e-02,
9.91864428e-02,-8.01564306e-02,-6.37460053e-02,-1.13014244e-01,-1.54458240e-01,
-1.45702884e-01,-1.69521391e-01,7.65255280e-03,-3.19536999e-02,1.70114756e-01,
-6.23118952e-02,1.62585750e-01,1.85241997e-01,-8.65388736e-02,1.89894170e-01,
-1.57110021e-01,-1.47190504e-03,-1.89651683e-01,-1.79277182e-01,1.17851801e-01,
2.01359078e-01,-1.78374991e-01,1.65261049e-02,-1.75842836e-01,1.57126471e-01,
1.28593251e-01,5.69040254e-02,1.02057494e-01,1.91880941e-01,-6.64004013e-02,
-4.21814770e-02,-2.40921393e-01,-3.37754004e-02,-8.92093331e-02,-1.86194241e-01,
-8.88089910e-02,-1.24633320e-01,-1.50069565e-01,1.97211444e-01,-4.17457856e-02,
-5.92888027e-05,1.97446823e-01,2.37843804e-02,9.71029475e-02,-4.20452543e-02,
-1.58266276e-01,-1.31054521e-01,4.50284258e-02,1.68109596e-01,-5.95344976e-02,
1.21444045e-02,1.26263709e-03,-1.71336252e-02,-1.00374473e-02,-7.17710052e-03,
-6.87526092e-02,-6.33556829e-06,4.16653813e-04,-5.94875067e-02,1.72110662e-01,
-1.53442100e-01,5.67299202e-02,8.70178789e-02,-6.23636832e-03,-1.05256960e-01,
-5.01415506e-03,-3.82885151e-02,-1.28582101e-02,-1.13681681e-01,-1.98315427e-01,
-1.93559781e-01,-1.37728408e-01,4.45768062e-04,2.40527489e-03,-1.07299872e-01,
3.63875106e-02,1.03634840e-03,9.70158130e-02,-2.92339188e-04,-1.20585377e-04,
-1.91040501e-01,4.72501665e-02,-3.97352269e-04,4.88548067e-05,1.02198809e-01,
-8.38118717e-02,1.36407430e-03,-4.91456187e-04,2.35552405e-04,-1.47054359e-01,
3.96099500e-02,1.58071756e-01,2.61576753e-03,7.75807798e-02,-4.72016484e-02,
-1.51100442e-01,-1.15464851e-01,1.87242553e-01,9.71632823e-02,-8.58608484e-02,
-4.66182679e-02,2.11206287e-01,-7.12518161e-03,-2.12603256e-01,-7.93314576e-02,
1.74698621e-01,1.73725933e-01,-1.16086960e-01,-2.11279541e-01,1.14194848e-01,
1.45487815e-01,3.77516299e-02,-4.50922027e-02,-1.80444904e-02,-1.90016218e-02,
-2.02313170e-01,-1.20380431e-01,-2.31272392e-02,1.20890431e-01,-2.41576079e-02,
-1.06221877e-01,-3.44114639e-02,-9.35678333e-02,1.85908243e-01,-1.76656649e-01,
-2.04161569e-01,6.34548068e-02,-1.92670077e-01,-2.56746173e-01,-1.04026971e-02,
2.17178345e-01,1.69441447e-01,-1.42545223e-01,6.93699792e-02,-2.18538996e-02,
1.01021267e-02,1.03184879e-01,-1.59580991e-01,5.11924885e-02,-1.80820823e-01,
1.28763914e-01,8.38421211e-02,1.45747751e-01,-1.48210034e-01,-1.77342579e-01,
1.04863040e-01,8.52008238e-02,-8.77127275e-02,1.65719822e-01,1.74286425e-01,
-1.34879230e-02,-7.24270269e-02,-9.83678550e-02,1.63546920e-01,-5.38240969e-02,
1.83288053e-01,-7.92716742e-02,1.24026388e-01,-1.52108312e-01,-1.30934238e-01,
1.00817189e-01,-1.33705616e-01,-2.19675989e-04,1.17887616e-01,5.57247433e-04,
6.21813932e-04,1.96886659e-01,-1.48926914e-01,-7.81805138e-04,-1.87305287e-02,
-1.56973287e-01,-1.21186279e-01,9.83580132e-04,7.89753869e-02,2.49032620e-02,
1.52457878e-01,-6.76022755e-05,-5.64480722e-02,1.22102968e-01,-1.20070912e-01,
1.00785770e-01,-1.19285911e-01,-1.84480324e-01,-1.03869744e-01,-6.38494119e-02,
1.16263896e-01,-1.24427147e-01,1.10124700e-01,-9.39217862e-04,-1.18345837e-03,
8.75464678e-02,9.93818939e-02,-4.39735595e-05,-2.41035104e-05,-8.53485108e-05,
}; 
k2c_tensor dense_1_kernel = {&dense_1_kernel_array[0],2,1400,{70,20, 1, 1, 1}}; 
float dense_1_bias_array[20] = {
-5.71221695e-04,1.23829290e-04,1.33051502e-03,3.42193060e-04,-9.47307271e-04,
4.02529142e-04,6.59923709e-04,-4.54009205e-05,-3.28562426e-04,8.51567951e-04,
-8.45953589e-04,3.79179575e-04,-6.83329301e-04,-2.99884356e-04,-2.29828031e-04,
-5.39463770e-04,-2.79505708e-04,-2.21677692e-04,1.64226498e-04,-9.15415876e-04,
}; 
k2c_tensor dense_1_bias = {&dense_1_bias_array[0],1,20,{20, 1, 1, 1, 1}}; 
float dense_1_fwork[1470] = {0}; 

 
float dense_2_output_array[5] = {0}; 
k2c_tensor dense_2_output = {&dense_2_output_array[0],1,5,{5,1,1,1,1}}; 
float dense_2_kernel_array[100] = {
4.20700073e-01,-3.34592521e-01,-2.52574552e-02,5.67444749e-02,3.31583232e-01,
1.57458082e-01,3.81074488e-01,-4.43277121e-01,-1.55352622e-01,-1.84384108e-01,
-3.32709886e-02,3.68403465e-01,-9.33350027e-02,1.19098455e-01,-3.08909625e-01,
-3.70344341e-01,2.10024044e-01,-4.82532457e-02,-1.39651597e-01,-1.29647657e-01,
2.49253184e-01,-1.05391212e-01,1.65989548e-01,1.15347065e-01,3.64428133e-01,
-2.94454426e-01,4.29740660e-02,7.96321258e-02,3.38278472e-01,5.18889353e-03,
-4.40812618e-01,6.21170476e-02,5.39383758e-03,3.95399751e-03,-6.25700280e-02,
1.59282714e-01,2.17207536e-01,2.92907774e-01,2.53499091e-01,2.16221750e-01,
-2.64235407e-01,2.09341869e-01,2.41058663e-01,7.72124855e-03,3.77088606e-01,
-2.90337533e-01,1.94651872e-01,3.23067546e-01,-2.02340260e-01,1.31043300e-01,
3.39591235e-01,4.18178678e-01,-2.83346504e-01,3.46891493e-01,2.71751493e-01,
-4.08803076e-01,-3.51543754e-01,-9.18262601e-02,-3.70729297e-01,-4.37219322e-01,
-2.57143259e-01,1.52169511e-01,-4.40859795e-01,9.23585370e-02,3.28658670e-01,
-2.59594396e-02,4.46213484e-01,-3.89942557e-01,1.36558190e-01,-1.23321779e-01,
-4.18769211e-01,3.16646010e-01,-1.86823457e-01,-4.12143767e-01,1.50150910e-01,
2.52719074e-01,2.53845006e-01,8.35440680e-02,1.54055938e-01,-3.58502597e-01,
-2.77618468e-01,4.39471245e-01,4.05014843e-01,3.89904320e-01,-1.37860522e-01,
-3.44233066e-01,1.60702914e-01,2.75615722e-01,2.91515499e-01,3.00878823e-01,
9.85983759e-02,-1.80566180e-02,2.91203588e-01,-2.12169029e-02,4.57193255e-02,
1.91131487e-01,8.65398645e-02,-3.73341560e-01,-2.90005386e-01,-2.93483231e-02,
}; 
k2c_tensor dense_2_kernel = {&dense_2_kernel_array[0],2,100,{20, 5, 1, 1, 1}}; 
float dense_2_bias_array[5] = {
-5.01921983e-04,-4.92480991e-04,1.20382290e-04,-5.24418894e-04,-5.60178363e-04,
}; 
k2c_tensor dense_2_bias = {&dense_2_bias_array[0],1,5,{5,1,1,1,1}}; 
float dense_2_fwork[120] = {0}; 

 
float cropping1d_2_output_array[14] = {0}; 
k2c_tensor cropping1d_2_output = {&cropping1d_2_output_array[0],2,14,{14, 1, 1, 1, 1}}; 
size_t cropping1d_2_crop[2] = {0,128}; 


float permute_3_output_array[14] = {0}; 
k2c_tensor permute_3_output = {&permute_3_output_array[0],2,14,{ 1,14, 1, 1, 1}}; 
size_t permute_3_permute[2] = {1,0}; 


float reshape_3_output_array[5] = {0}; 
k2c_tensor reshape_3_output = {&reshape_3_output_array[0],2,5,{1,5,1,1,1}}; 
size_t reshape_3_newndim = 2; 
size_t reshape_3_newshp[K2C_MAX_NDIM] = { 1,-1, 1, 1, 1}; 


size_t concatenate_1_num_tensors0 = 2; 
size_t concatenate_1_axis = 1; 
float concatenate_1_output_array[19] = {0}; 
k2c_tensor concatenate_1_output = {&concatenate_1_output_array[0],2,19,{ 1,19, 1, 1, 1}}; 


float lstm_1_output_array[200] = {0}; 
k2c_tensor lstm_1_output = {&lstm_1_output_array[0],1,200,{200,  1,  1,  1,  1}}; 
float lstm_1_fwork[1600] = {0}; 
int lstm_1_go_backwards = 0;
int lstm_1_return_sequences = 0;
float * lstm_1_state = FRNN1D_small_states.lstm_1_state; 
float lstm_1_kernel_array[15200] = {
6.90649003e-02,-4.30969857e-02,-8.73978343e-03,9.84222977e-04,1.36422534e-02,
-2.77699884e-02,5.04793637e-02,-8.42035636e-02,3.49525772e-02,3.91376987e-02,
-2.82489453e-02,-8.25812891e-02,4.58716564e-02,4.15358767e-02,-8.30281228e-02,
1.40182292e-02,-1.46320341e-02,-6.64417967e-02,2.89061423e-02,2.10475270e-02,
4.29345341e-03,-3.36930044e-02,-3.31669711e-02,3.01934290e-03,1.31136319e-02,
5.58818765e-02,3.04422667e-03,3.97754926e-03,-3.93402204e-02,-7.10634515e-02,
-5.29674115e-03,-1.04574136e-01,-9.57102403e-02,-5.28479591e-02,-6.40882552e-02,
6.19065091e-02,4.43208106e-02,5.82468957e-02,-9.12423991e-03,1.79242697e-02,
4.30809669e-02,-5.82509339e-02,1.78112406e-02,5.93739077e-02,2.56685391e-02,
-2.87981727e-03,-7.58168697e-02,2.12063249e-02,-7.30716437e-02,-1.02121934e-01,
-1.09742776e-01,-4.81480882e-02,1.72117557e-02,2.73474045e-02,3.91420275e-02,
1.59574077e-02,5.16233407e-02,-7.00323582e-02,-8.90711099e-02,-1.08309118e-02,
2.53192894e-02,-2.53508631e-02,3.23159806e-02,-7.18160393e-03,2.93826107e-02,
1.20089976e-02,1.87140852e-02,-7.92775676e-02,-1.85249485e-02,-3.66124325e-02,
-3.94533575e-02,-6.25893846e-02,7.57044107e-02,1.23562599e-02,-8.23936388e-02,
4.26839590e-02,6.04565926e-02,-4.51497314e-03,1.27818761e-02,3.26492302e-02,
-7.08910003e-02,1.94390502e-03,6.46941662e-02,-2.70806942e-02,5.62105589e-02,
-7.29204342e-02,-6.84388354e-02,-9.44203436e-02,-5.29707223e-02,6.82412833e-02,
-5.39017143e-03,-5.60449772e-02,-4.04130481e-03,1.38759278e-02,-8.42071772e-02,
-8.15423876e-02,-9.18562040e-02,-7.59086087e-02,-5.79359308e-02,-2.72286721e-02,
2.06297293e-04,-6.67073950e-02,-3.90410386e-02,-4.27540131e-02,2.23812684e-02,
-4.16245125e-02,9.54609290e-02,-8.42542797e-02,-3.81122530e-02,-9.69343409e-02,
-9.45426291e-04,4.95006926e-02,-6.00269586e-02,-1.72489416e-02,-7.27263838e-02,
5.77507988e-02,-3.55086699e-02,1.13278376e-02,-7.13694915e-02,-6.32625520e-02,
-7.31145889e-02,1.18253496e-03,-4.05292809e-02,-3.07330079e-02,6.21835403e-02,
-8.69724229e-02,-6.88840896e-02,7.16742203e-02,-6.53674901e-02,3.04722507e-02,
3.50398459e-02,-6.32463694e-02,-5.50002605e-02,-8.38963240e-02,-7.21317902e-02,
1.38549577e-03,-5.09093627e-02,-4.03040200e-02,-9.34406072e-02,-7.69959912e-02,
2.94390377e-02,5.73268905e-02,-2.01323684e-02,-9.21888947e-02,-1.84709355e-02,
-5.00092804e-02,-2.08095089e-02,2.95842178e-02,-7.35771656e-02,-7.13025331e-02,
-1.96288601e-02,1.49040930e-02,2.15580259e-02,5.96744642e-02,-5.84018640e-02,
-3.46752964e-02,-9.06466246e-02,-7.63504431e-02,-6.19933866e-02,-2.35270560e-02,
-4.44571413e-02,7.79772550e-02,-5.45032658e-02,-4.59869206e-02,1.16575668e-02,
-1.02637567e-01,-4.19383794e-02,5.90841696e-02,8.83027259e-03,5.08455299e-02,
-4.15090658e-02,5.82342669e-02,-8.27408358e-02,-2.82294210e-02,1.66115053e-02,
-6.70466498e-02,-5.46753705e-02,-5.77458590e-02,-3.08810566e-02,-6.92883879e-03,
7.85627309e-03,-2.04012133e-02,2.07468607e-02,-2.29489934e-02,-2.89881509e-02,
6.96396455e-03,-1.78417470e-02,4.78007495e-02,-9.73829478e-02,7.62558877e-02,
3.00611313e-02,-4.76400219e-02,1.11398073e-02,-2.69875750e-02,8.08572676e-03,
3.53883319e-02,-4.57524285e-02,-1.01745939e-02,-1.08491354e-01,-1.04624696e-01,
-6.74007758e-02,-4.18788046e-02,-8.82230103e-02,-7.30170906e-02,7.45116100e-02,
-2.06372868e-02,-7.13118315e-02,7.89656341e-02,5.11714816e-02,-7.17350319e-02,
2.57689618e-02,-5.48942834e-02,-5.13766333e-02,4.41441834e-02,3.05506471e-03,
-1.76721048e-02,-5.08506736e-03,-6.36636242e-02,2.89871115e-02,-3.51427197e-02,
3.10177058e-02,1.26981763e-02,-3.55690196e-02,2.74492521e-02,-9.26648229e-02,
-8.60435069e-02,-7.86491409e-02,-6.19640388e-02,4.79021110e-02,-7.32732564e-02,
3.19332033e-02,1.43618258e-02,2.34995540e-02,2.51619685e-02,-2.95949262e-02,
-5.79331890e-02,4.08070385e-02,2.54144184e-02,4.04396728e-02,-7.98006281e-02,
-5.36950193e-02,-2.61405949e-02,-5.60291596e-02,3.98613885e-03,-2.88771559e-02,
1.21289929e-02,6.61942065e-02,8.05933550e-02,-1.07368767e-01,-9.48443636e-02,
-4.56248894e-02,-1.59159638e-02,-5.72223924e-02,-2.19484838e-03,4.82778251e-02,
4.49395850e-02,-1.97457820e-02,6.82698488e-02,-9.80015472e-02,1.91303920e-02,
1.79274175e-02,-7.68675879e-02,-5.45078069e-02,-2.26452970e-03,-4.98905815e-02,
-9.16212946e-02,4.35689315e-02,-3.10271885e-02,5.84776066e-02,5.27521484e-02,
7.47731626e-02,-8.30346867e-02,-1.48847457e-02,-2.54390691e-03,-6.32029697e-02,
6.00269437e-02,6.74691573e-02,-5.45222173e-03,1.11501450e-02,7.76508823e-02,
1.27317812e-02,5.84761873e-02,3.28022544e-03,2.50000302e-02,-8.41262415e-02,
-1.47151323e-02,5.28296418e-02,-6.45262301e-02,4.74683605e-02,5.57597391e-02,
-5.07694148e-02,-4.26612385e-02,-7.38829672e-02,8.50374699e-02,7.14430213e-02,
5.22205383e-02,-5.55828139e-02,-2.98306663e-02,4.04084697e-02,-5.30234948e-02,
-2.60021370e-02,-3.87915783e-02,3.72493267e-02,-2.11328343e-02,-1.05089776e-01,
3.74506749e-02,-3.13874558e-02,3.03695891e-02,2.86588841e-03,8.99008475e-03,
-7.05582323e-03,1.85693055e-02,-2.56018713e-03,5.51640391e-02,4.28769849e-02,
8.08531884e-03,-1.34355165e-02,-4.77053970e-02,-5.24495803e-02,-8.60531405e-02,
4.74601761e-02,-5.72176650e-03,-8.54652449e-02,6.00519367e-02,3.14491913e-02,
-7.56190345e-02,1.62318368e-02,1.36901755e-02,-8.19766372e-02,8.34286809e-02,
2.64345133e-03,-5.08290082e-02,-7.57787675e-02,-4.92833778e-02,-2.43481789e-02,
-6.61638826e-02,4.94625010e-02,-4.38736193e-02,1.97365358e-02,-4.91971849e-03,
5.85677102e-03,2.54306849e-02,1.81404334e-02,-9.90787968e-02,-8.92778859e-02,
1.56785063e-02,-6.27077743e-02,-1.13504874e-02,5.63952001e-03,5.31360880e-02,
5.03152497e-02,1.30646059e-03,-2.17746124e-02,-6.93823472e-02,-5.59319295e-02,
-1.59969106e-02,-5.19578271e-02,-3.62576321e-02,-9.38343480e-02,1.40407151e-02,
7.26450384e-02,7.57717267e-02,-1.02093844e-02,-9.11252275e-02,3.71381529e-02,
-9.99605209e-02,-9.64227244e-02,6.43748567e-02,5.72761707e-02,-6.90692365e-02,
5.01082428e-02,6.25061542e-02,-2.62515824e-02,-4.96007428e-02,-5.88654839e-02,
6.95520714e-02,-1.46035431e-02,-8.12484398e-02,-2.10423339e-02,-2.58951150e-02,
6.73326701e-02,4.98435088e-02,-2.83512473e-02,3.59251834e-02,3.85990515e-02,
-5.37227578e-02,-6.14680797e-02,-7.67208338e-02,-8.91686380e-02,-6.08865023e-02,
6.14023693e-02,2.91625559e-02,-2.67500617e-02,4.43279073e-02,-2.56965514e-02,
-3.98178883e-02,3.21576605e-03,8.19592848e-02,1.93061586e-02,-1.01167776e-01,
-3.12522948e-02,-5.25713377e-02,-3.91466357e-02,-3.78907248e-02,1.57824177e-02,
3.20880152e-02,-1.84866246e-02,-4.17323224e-02,-6.66452497e-02,-3.00463792e-02,
-3.24240364e-02,5.20226844e-02,4.27239835e-02,-2.47270390e-02,-4.66059707e-02,
-5.79431169e-02,5.03727645e-02,6.27131537e-02,2.07385756e-02,4.52412888e-02,
-4.10682969e-02,-5.16843162e-02,1.96701046e-02,-5.33303358e-02,3.81035507e-02,
-2.03648186e-03,-1.28517104e-02,-6.74076825e-02,-1.01732900e-02,6.59402087e-02,
6.20844476e-02,1.84874162e-02,1.67136416e-02,-8.49469751e-02,-1.19687142e-02,
2.29396634e-02,2.38571316e-02,2.67028995e-02,5.70700616e-02,-3.74814235e-02,
2.10305545e-02,-9.93684027e-03,4.53920849e-02,7.63725340e-02,-9.88363773e-02,
-3.13463435e-02,-3.39690633e-02,-4.85160016e-02,-5.45301242e-03,-8.34751353e-02,
6.07272983e-02,-9.97556001e-03,2.51713321e-02,3.11578289e-02,-1.40716443e-02,
4.83273119e-02,-2.54773255e-02,2.28071939e-02,1.40740564e-02,-3.03943586e-02,
5.00742719e-02,-1.55194188e-02,3.91638502e-02,-7.09895343e-02,-2.15009209e-02,
4.45776759e-03,7.09117251e-03,-6.81482702e-02,4.86837663e-02,-9.88907591e-02,
6.37452379e-02,4.43216972e-02,8.71325843e-04,6.47377223e-02,4.56529437e-03,
6.06770478e-02,4.22545336e-02,-3.55556719e-02,3.56943794e-02,-5.01373364e-03,
-3.31873931e-02,1.94202010e-02,-1.67383272e-02,4.90064025e-02,2.43624523e-02,
3.70636694e-02,5.79531454e-02,-6.66523576e-02,-5.37221096e-02,3.57757555e-03,
-3.96903940e-02,-8.99254605e-02,-6.54221401e-02,3.25642303e-02,1.66016389e-02,
-7.54366219e-02,5.80090545e-02,-4.71996255e-02,-5.84592931e-02,-6.24843277e-02,
-4.42827381e-02,6.69294745e-02,-1.54324612e-02,5.17688505e-02,5.24064340e-02,
-7.60390796e-03,1.71691552e-02,2.18397528e-02,-7.85188153e-02,7.46183172e-02,
2.88726445e-02,-8.66946429e-02,-3.32196318e-02,4.77910228e-02,5.84361590e-02,
-3.66569757e-02,-3.64170559e-02,8.13916698e-02,7.66309798e-02,1.63372532e-02,
-3.49999629e-02,3.14652957e-02,-8.03239346e-02,3.79064567e-02,2.15463825e-02,
9.67741851e-03,-6.54157177e-02,-4.30483893e-02,5.40291891e-02,-3.07019465e-02,
7.47748688e-02,-5.88947022e-03,-7.46360198e-02,5.58863431e-02,-5.00400029e-02,
-5.64469509e-02,5.45213856e-02,1.97274964e-02,-5.34402840e-02,4.21007542e-04,
3.00028939e-02,3.25046154e-03,4.89969701e-02,-1.97523125e-02,5.27800173e-02,
6.31246492e-02,5.79628870e-02,-3.18751559e-02,-4.23611216e-02,-2.70111728e-02,
-5.58481514e-02,-2.79508792e-02,-4.77021411e-02,-5.08442894e-02,1.98294297e-02,
-4.13665324e-02,-9.37948599e-02,2.47322489e-02,-2.86321379e-02,3.29255983e-02,
-2.61243396e-02,-8.44392180e-03,-5.62736541e-02,7.20956177e-02,6.20812140e-02,
4.94967401e-02,-5.96733131e-02,6.98045967e-03,-5.86778484e-02,-9.19963121e-02,
4.15589735e-02,5.14458753e-02,-2.01020157e-03,1.89789180e-02,4.12273966e-02,
-2.79832892e-02,5.33869900e-02,-7.83059224e-02,-9.54200774e-02,1.43846469e-02,
5.41450158e-02,5.24231866e-02,5.40368259e-02,-5.18428609e-02,-1.81030855e-02,
-2.36235261e-02,-7.53755048e-02,-8.58699605e-02,-2.62780637e-02,3.49175259e-02,
-4.87754792e-02,6.76160902e-02,-1.10092387e-03,9.65504628e-03,-3.76024283e-03,
5.43809682e-02,2.19821464e-02,5.86598776e-02,-3.92865576e-02,-9.70462486e-02,
-2.37246291e-04,8.48315749e-03,-7.71856308e-02,-3.33464928e-02,3.64047028e-02,
-3.75901721e-02,-7.41487816e-02,-4.97790538e-02,7.37607181e-02,-4.70192917e-02,
4.17014435e-02,4.19217683e-02,7.42380554e-03,-3.79460454e-02,-5.71131371e-02,
-8.04744810e-02,-6.08783886e-02,-9.41546038e-02,3.05838995e-02,-5.00368662e-02,
-2.26530228e-02,2.30246950e-02,-1.02444198e-02,1.69114638e-02,3.99532057e-02,
-5.01085781e-02,1.13010537e-02,-5.45013882e-02,2.43933164e-02,-6.95689321e-02,
-1.02021270e-01,5.34094125e-03,-3.83944847e-02,-2.36733332e-02,7.83871934e-02,
2.51648687e-02,2.54008528e-02,-2.57283961e-03,2.47760732e-02,-5.59107848e-02,
-6.19587116e-02,4.53010015e-02,-4.82778847e-02,7.33283535e-02,-7.26254284e-03,
7.90833533e-02,-9.77634788e-02,6.20970093e-02,-8.29327255e-02,-6.75855651e-02,
-5.52204251e-02,5.27913831e-02,1.67384744e-02,-4.49737124e-02,1.23375263e-02,
-1.45484321e-02,-4.45388742e-02,5.21926768e-02,6.74223080e-02,-5.32625765e-02,
3.56960692e-03,5.18413521e-02,1.67931318e-02,-1.21987179e-01,-9.12083909e-02,
5.36090955e-02,-9.98149067e-02,-7.39415959e-02,-8.72960910e-02,-6.06880300e-02,
7.18676075e-02,-9.49031562e-02,6.74131215e-02,4.30415459e-02,-8.89785960e-02,
-4.25546803e-02,3.45970020e-02,-2.00472586e-02,-4.26014438e-02,6.94448054e-02,
3.04671973e-02,8.25264007e-02,4.79494669e-02,-6.33706078e-02,5.31732701e-02,
7.55746430e-03,-3.89745273e-02,-3.57630886e-02,5.64410016e-02,-5.55940382e-02,
-1.00308128e-01,4.55113612e-02,6.21268265e-02,5.65318055e-02,-6.93817362e-02,
-3.71195711e-02,4.12660204e-02,6.67852908e-02,8.52932781e-02,3.25220637e-02,
-4.04414833e-02,-1.33612845e-02,-3.65722328e-02,-9.94081423e-02,-4.11106721e-02,
5.30972406e-02,-9.05224029e-03,-8.74608383e-02,1.47071052e-02,2.73388159e-02,
5.98391443e-02,2.33111568e-02,5.93001172e-02,3.07121016e-02,2.22688131e-02,
-5.82850985e-02,1.99051537e-02,-9.64720920e-02,5.69897518e-02,1.05460567e-04,
8.53887498e-02,-1.42962132e-02,3.55926454e-02,2.06623729e-02,-7.56812617e-02,
-5.65239899e-02,8.03741291e-02,2.77502909e-02,2.31115576e-02,3.53972218e-03,
4.70209755e-02,4.69761938e-02,1.94087401e-02,-8.81570484e-03,-7.74807408e-02,
2.01360718e-03,-2.16007885e-02,-9.68961418e-02,-1.60417985e-02,-8.40962306e-02,
-1.83476123e-03,7.14794993e-02,7.66477734e-03,-1.03910938e-01,-4.28426173e-03,
-3.95886302e-02,2.58429889e-02,-2.83647981e-02,5.33882901e-02,-1.55885722e-02,
5.61073087e-02,5.39494790e-02,-2.07795929e-02,-9.02935639e-02,5.55183999e-02,
-2.15772763e-02,-5.02641574e-02,-9.76098776e-02,-8.03967193e-02,-5.14582023e-02,
-3.76439095e-02,6.80400282e-02,-5.35827912e-02,5.05264737e-02,-8.32600594e-02,
8.40998590e-02,3.43612768e-02,7.57612661e-03,5.61672226e-02,-9.01370794e-02,
-7.70251825e-02,-4.66060862e-02,-1.01685189e-01,6.23205975e-02,-1.13857705e-02,
-5.07889166e-02,2.01573800e-02,3.27931158e-02,4.90411483e-02,2.90093441e-02,
-4.79995236e-02,-7.58214816e-02,-3.91460620e-02,-3.18283425e-03,-3.98137905e-02,
-1.28818527e-02,-6.84211627e-02,-3.52310911e-02,1.19428672e-02,-6.29565939e-02,
5.08914180e-02,-3.41756903e-02,1.81747917e-02,-4.41977903e-02,-2.91090459e-02,
-4.99985293e-02,-4.45792452e-02,4.28941622e-02,-9.99355689e-02,-4.46279421e-02,
-2.09326241e-02,3.74024399e-02,6.87930956e-02,-7.85455294e-03,2.93548107e-02,
-1.37165124e-02,6.26516640e-02,-6.83887005e-02,-5.86588010e-02,-6.55608326e-02,
-1.01218633e-01,-6.15702681e-02,-5.47807477e-02,5.33532202e-02,3.35628092e-02,
2.06818432e-02,-9.41717066e-03,-2.10543163e-03,-3.16479169e-02,-9.91552398e-02,
-5.09733297e-02,-2.33538274e-04,-1.60863660e-02,-3.06057297e-02,5.73341474e-02,
-2.93712728e-02,-4.29767035e-02,-7.92108551e-02,-4.95053232e-02,-2.57181060e-02,
-1.25941979e-02,-1.98822916e-02,-1.66183598e-02,-1.11368401e-02,-2.35992018e-03,
8.88570864e-03,-9.47916806e-02,-5.54416552e-02,4.75609377e-02,3.50750200e-02,
2.75693601e-03,-1.62170622e-02,-7.45235384e-02,-1.40065858e-02,-7.62194842e-02,
7.00340047e-02,6.31988794e-02,3.33787277e-02,3.11840847e-02,-8.97393525e-02,
-6.71526268e-02,1.37289707e-03,-7.46355429e-02,-8.20319429e-02,-1.82409547e-02,
-9.97487903e-02,-5.22736125e-02,6.20516483e-04,-5.23162149e-02,-1.44254521e-03,
-4.89444658e-02,-7.46907145e-02,8.66410136e-02,-1.57315414e-02,-2.63044555e-02,
-8.55312347e-02,-7.90259093e-02,-5.44723496e-02,-1.03423104e-01,2.51814220e-02,
-2.02070083e-02,-2.32388936e-02,4.63240370e-02,-2.13782699e-03,-2.24136952e-02,
5.82855381e-02,-4.27386127e-02,2.42452919e-02,-1.48320114e-02,2.03479733e-03,
7.71456435e-02,-3.81859653e-02,4.17747758e-02,-3.95114161e-02,-3.39444727e-02,
-4.57637422e-02,-7.96628371e-02,5.14673889e-02,-4.87916209e-02,5.86368032e-02,
-1.82866212e-02,-1.14911415e-01,-5.92159107e-02,3.61281335e-02,2.77275927e-02,
6.03521056e-03,-8.94615799e-03,5.35911806e-02,1.74996499e-02,1.51685067e-03,
-1.88074205e-02,-6.98000267e-02,3.94221134e-02,-5.08860359e-03,-9.98796895e-02,
-8.76198057e-03,6.44094869e-02,2.78485962e-03,2.33759321e-02,-9.69179645e-02,
3.44104916e-02,-6.68246597e-02,4.26524170e-02,-5.15694432e-02,-6.16618805e-02,
-5.84588908e-02,-1.73510890e-02,5.56917824e-02,2.93448381e-02,-2.91913617e-02,
-5.06158024e-02,-1.51563222e-02,-5.66694997e-02,5.23640700e-02,-8.36166367e-02,
-3.38354670e-02,4.75110412e-02,-6.11344632e-03,1.19833881e-02,8.24668184e-02,
5.92980124e-02,-8.82510096e-02,-4.87212278e-02,-8.33675638e-02,5.08963056e-02,
-4.98291105e-02,-8.64678398e-02,7.16459602e-02,6.51260912e-02,-9.31632221e-02,
-3.67817394e-02,-4.70558628e-02,5.80078661e-02,2.25395486e-02,-7.94803575e-02,
2.30005849e-02,-7.75398538e-02,-1.74754672e-02,3.77821922e-02,-4.50531207e-02,
-6.67516664e-02,-2.83086975e-03,-5.59913442e-02,-8.33409950e-02,-3.20805646e-02,
5.33678122e-02,7.47826472e-02,3.02374028e-02,-1.61606800e-02,9.27116275e-02,
3.92041728e-03,2.07627583e-02,-3.26415300e-02,-7.72938319e-03,-3.67813110e-02,
-5.60792908e-02,6.62907064e-02,4.14862782e-02,-8.66353512e-02,-4.58658338e-02,
7.00981217e-03,-1.37648592e-03,6.60526082e-02,-1.16801532e-02,-4.73439656e-02,
6.13832995e-02,5.59351891e-02,-3.73276919e-02,3.75719406e-02,3.21224891e-02,
-9.43001285e-02,-6.89958557e-02,4.92611192e-02,4.50455258e-03,6.72181994e-02,
-8.69850516e-02,-8.31017084e-03,-7.69906715e-02,-8.18636268e-02,-3.76786366e-02,
1.60860494e-02,6.26272187e-02,6.39577769e-03,3.78438085e-02,-6.63139597e-02,
2.93908920e-02,-4.04127687e-02,-3.92538570e-02,-7.08178207e-02,-5.67938276e-02,
-1.77927446e-02,4.74171937e-02,-3.06244083e-02,2.97511257e-02,1.79417953e-02,
3.15358005e-02,1.08543877e-02,-4.87049446e-02,2.84162536e-02,-4.45445720e-03,
-1.02683224e-01,-8.12133625e-02,6.17977306e-02,-2.53292695e-02,-3.82720046e-02,
-2.68314574e-02,-9.43331197e-02,6.07414618e-02,-5.62420040e-02,6.27772659e-02,
-1.06617631e-02,3.04223951e-02,-2.52510197e-02,3.87920812e-02,1.58929862e-02,
-7.47607499e-02,4.93889637e-02,4.36457060e-02,3.58828134e-03,3.66369300e-02,
3.77589092e-02,-1.03422269e-01,-2.34942976e-02,2.98590101e-02,1.18558167e-03,
5.27623445e-02,-4.79646362e-02,2.61409488e-02,-4.14121002e-02,-3.37741300e-02,
2.88815610e-02,4.22889553e-02,-4.49200794e-02,2.16899943e-02,1.90919302e-02,
4.27983664e-02,-2.29321867e-02,5.98458685e-02,-8.22026432e-02,3.74008529e-02,
1.33640217e-02,2.84817535e-02,-7.85351545e-03,7.47595504e-02,-1.59485955e-02,
-8.54201466e-02,3.97407748e-02,-5.96942101e-03,6.50993548e-03,-7.72505105e-02,
4.89664711e-02,-5.83052300e-02,5.22472523e-02,-1.00092471e-01,-9.32972878e-02,
-1.20524816e-01,-5.48337288e-02,2.18481626e-02,-3.86677794e-02,-7.72956312e-02,
1.83146074e-02,-1.10295929e-01,6.04223832e-02,-3.58935967e-02,-4.40906882e-02,
1.16855445e-04,7.24791661e-02,1.10394061e-02,-5.50716780e-02,4.54851463e-02,
-9.19905677e-02,3.58276218e-02,-6.69940785e-02,5.47226593e-02,-6.24012239e-02,
-6.40259907e-02,2.23556925e-02,3.49019580e-02,-4.45929058e-02,5.30287884e-02,
-9.34836939e-02,-3.02502569e-02,4.79702502e-02,-7.44994432e-02,6.88069984e-02,
-4.16819118e-02,-1.44894700e-02,-7.86062106e-02,6.15986958e-02,-4.38243896e-02,
1.15091000e-02,-3.94689180e-02,-6.59133866e-02,2.24352088e-02,-5.86502142e-02,
5.43378443e-02,1.37162721e-02,-7.03658164e-02,1.49227222e-02,-6.35119481e-03,
1.38798887e-02,3.93131189e-02,-2.46881992e-02,-6.69022799e-02,-8.86053219e-02,
5.29110478e-03,-8.16408824e-03,7.81568810e-02,-5.40964231e-02,-1.98980924e-02,
-1.40892928e-02,-9.66091156e-02,-8.38767290e-02,-2.00025756e-02,7.68083930e-02,
5.76511919e-02,-4.70894575e-02,3.70314308e-02,-4.74081598e-02,3.20726857e-02,
5.96862398e-02,-3.65780853e-02,-8.06717128e-02,3.30072045e-02,-6.81751817e-02,
-3.72071303e-02,-4.25937437e-02,5.74542694e-02,-9.80635881e-02,-8.23557451e-02,
7.31550902e-02,1.63978618e-02,-2.87334733e-02,-5.78582399e-02,-8.13143253e-02,
-4.84178774e-03,-1.08307153e-01,4.24623787e-02,-5.89216352e-02,5.96379004e-02,
-8.31710547e-02,-2.85423845e-02,-7.91798905e-02,1.52080487e-02,-1.46771967e-02,
5.10096289e-02,-1.98033471e-02,6.72437400e-02,-7.60956332e-02,6.41597956e-02,
-3.33810672e-02,8.29181895e-02,7.21884295e-02,-8.26387927e-02,-6.39719814e-02,
-4.56330702e-02,3.86495180e-02,6.09930344e-02,3.68897081e-03,-5.40569797e-02,
1.07306093e-02,1.59277339e-02,1.65880155e-02,6.68945909e-02,-1.29663609e-02,
-7.49746412e-02,3.40162497e-03,-3.06562223e-02,-8.08306783e-02,4.00540698e-03,
-5.42119928e-02,-6.06823750e-02,-1.61451567e-02,3.89361121e-02,7.84839243e-02,
7.85250813e-02,-6.49327263e-02,4.25001606e-02,-1.01021148e-01,7.41428286e-02,
1.21432880e-03,8.11006315e-03,-4.51383628e-02,-3.56703810e-02,-3.58892493e-02,
-7.24162832e-02,-6.19889349e-02,-2.92469729e-02,-2.54058857e-02,-6.27138689e-02,
-6.57831877e-02,3.92186157e-02,5.18768653e-02,-2.27462128e-02,3.51803601e-02,
4.18533050e-02,-1.14101702e-02,-9.03054178e-02,-3.18246968e-02,7.45861977e-02,
-1.08355343e-01,-1.73063222e-02,-6.04956597e-02,-4.00509015e-02,-3.33264433e-02,
4.55485396e-02,-7.79212117e-02,5.87348780e-03,4.32608277e-02,-2.04983689e-02,
5.09712584e-02,2.48464174e-03,-2.48848684e-02,-4.17537875e-02,-6.66226670e-02,
-8.00460875e-02,4.46430966e-02,5.54999225e-02,2.93641370e-02,-7.24247396e-02,
1.78798530e-02,3.58598754e-02,-1.31616481e-02,2.82849204e-02,4.91888598e-02,
-5.98263741e-02,6.82706311e-02,5.05031645e-02,4.91836108e-02,-7.55805895e-02,
-1.04413489e-02,-4.34243865e-02,-6.68550050e-03,-2.15640310e-02,-3.37041803e-02,
-5.75934947e-02,9.44543537e-03,-6.50689825e-02,-4.67806384e-02,3.50016244e-02,
-1.01342365e-01,-5.77306226e-02,-9.90215465e-02,4.83018160e-02,-3.89921181e-02,
-8.58035684e-02,-1.12922750e-01,-3.84312049e-02,2.19472907e-02,7.53033981e-02,
4.68508527e-02,3.47833335e-02,3.64827178e-02,-2.85113100e-02,3.43653411e-02,
4.74739298e-02,-5.44535480e-02,-3.35095003e-02,2.53232126e-03,-3.27488445e-02,
1.10748522e-02,-1.05308086e-01,4.03788611e-02,-2.69100685e-02,-7.14004338e-02,
9.86239174e-04,-4.07174416e-02,3.27481665e-02,-6.32259846e-02,-6.85637444e-02,
-4.08341922e-02,-1.57292839e-02,-6.16431311e-02,-5.18861525e-02,2.92194989e-02,
2.17642765e-02,-3.95001359e-02,2.27091857e-03,3.09459753e-02,-6.41665012e-02,
2.58013997e-02,-7.54605532e-02,-7.89426267e-03,-3.64237651e-03,-4.36519198e-02,
7.86175113e-03,-3.93916555e-02,-5.43701351e-02,5.25972098e-02,-4.13115323e-02,
6.62693679e-02,-8.35210234e-02,-2.80469302e-02,3.99480499e-02,1.11822020e-02,
5.35158254e-02,6.74609169e-02,-5.26111498e-02,-4.94124852e-02,-3.66859436e-02,
6.57428848e-03,1.10440236e-02,1.66370347e-02,-6.25662580e-02,-8.67387578e-02,
5.80583583e-04,-8.09708424e-03,5.97552583e-03,-1.62302852e-02,-7.24672079e-02,
-6.27205297e-02,-6.84677660e-02,-5.88094704e-02,-2.82504298e-02,2.33347584e-02,
6.28456697e-02,-3.66950817e-02,-5.77531494e-02,-1.36186797e-02,-1.67104583e-02,
-1.17334975e-02,3.60436477e-02,5.11519760e-02,-2.29606964e-02,-7.47465268e-02,
-8.48157406e-02,-2.15733293e-02,4.21840400e-02,-8.87934864e-02,-2.68714707e-02,
7.23897368e-02,-1.03437535e-01,-5.77698387e-02,-3.46608385e-02,-3.31236497e-02,
3.20491046e-02,5.12381494e-02,-6.48842975e-02,-8.50715768e-03,6.66668862e-02,
-8.35385770e-02,3.86000350e-02,3.17619964e-02,1.09335370e-02,3.47094424e-02,
-5.75469323e-02,-2.50671860e-02,-7.03773201e-02,-1.55641902e-02,-3.68909575e-02,
-4.89366846e-03,-3.99827585e-03,-4.09985594e-02,-7.49404132e-02,3.88321169e-02,
-5.00681251e-03,9.72266402e-03,1.47200776e-02,-7.00691901e-03,-3.04190372e-03,
4.17700335e-02,-4.11030324e-03,-5.02473712e-02,-6.26002848e-02,-3.28931399e-02,
-7.55472034e-02,2.84535456e-02,1.02399411e-02,-5.62963560e-02,-2.00733207e-02,
-7.98944756e-02,7.63172060e-02,6.03445433e-02,-5.08755520e-02,1.95604172e-02,
-2.41950247e-02,-9.32266638e-02,2.20285915e-03,2.96084601e-02,8.78752992e-02,
-2.37465333e-02,-3.38276960e-02,4.57482375e-02,1.04427040e-02,7.29463696e-02,
6.17997302e-03,-4.11629444e-03,-6.40599281e-02,-9.83644947e-02,-1.95495859e-02,
-7.29251429e-02,-2.73939613e-02,-8.86329561e-02,-2.31780354e-02,2.58186273e-02,
-7.03242570e-02,-6.87622726e-02,2.13347636e-02,-3.72783141e-03,-1.89707465e-02,
2.13367026e-02,3.34248878e-02,-6.39791135e-03,5.83668873e-02,5.46012372e-02,
-8.40091705e-02,-4.78527136e-02,-4.65086102e-02,2.54675765e-02,-6.23564608e-02,
2.85879094e-02,6.11886643e-02,-4.19053771e-02,2.44568996e-02,2.99314838e-02,
2.35771760e-02,3.13046761e-02,-6.58165812e-02,3.69250961e-02,5.59282601e-02,
-2.95432825e-02,3.82958017e-02,1.70279276e-02,-4.36616726e-02,-6.61121458e-02,
-1.57878790e-02,-1.67746749e-03,5.70633449e-03,1.65486801e-02,3.31500024e-02,
7.30249379e-03,-3.34815122e-02,-7.34464079e-02,-6.13198392e-02,1.18564153e-02,
-9.01789230e-04,-4.40430529e-02,-1.39997266e-02,-1.06094787e-02,-1.65329706e-02,
3.95301431e-02,-2.95438967e-03,-1.03546530e-01,-5.63678071e-02,-7.18097314e-02,
-1.05942106e-02,4.26689461e-02,1.65217239e-02,-2.66385432e-02,-4.96075675e-02,
-7.32474923e-02,1.00428360e-02,-6.48939833e-02,-1.05986875e-02,3.68725806e-02,
-1.16182946e-01,9.27401800e-03,2.24930104e-02,-6.15387857e-02,-7.43036494e-02,
4.42335801e-03,1.54933762e-02,6.03555813e-02,1.99069753e-02,-1.64709594e-02,
1.12822484e-02,5.36256917e-02,9.39474534e-03,-1.05852269e-01,7.76065737e-02,
-5.61998934e-02,7.08630309e-02,-7.38109052e-02,-4.14122529e-02,1.27003621e-02,
-6.23996146e-02,-7.43313599e-03,-7.54158497e-02,6.29341230e-02,5.72961457e-02,
-7.34697729e-02,4.26001176e-02,-1.73922665e-02,-1.55762583e-02,-3.59914973e-02,
-9.11520347e-02,6.14281930e-02,-6.64706975e-02,1.30468421e-02,-3.01574357e-02,
4.87396345e-02,2.54092440e-02,5.13559729e-02,-6.29184395e-03,4.48479615e-02,
5.27643673e-02,-3.70798372e-02,3.23717706e-02,-3.95536497e-02,-8.55331961e-03,
-7.85100982e-02,-3.07943113e-02,-3.20262499e-02,5.73271252e-02,-2.30477098e-02,
4.62877750e-02,-5.58988564e-02,3.97150181e-02,1.91527675e-03,-4.47091833e-02,
-2.34435536e-02,2.54010856e-02,-9.97202024e-02,3.54634076e-02,6.28564581e-02,
-8.26232508e-02,5.77922948e-02,8.21155589e-03,7.61681572e-02,-1.65389236e-02,
4.03332561e-02,7.11174756e-02,-1.37822982e-02,5.09089837e-03,-3.68624516e-02,
1.30138490e-02,-6.52598962e-02,8.18885267e-02,-6.49691895e-02,-4.85901050e-02,
-7.24628493e-02,3.95622291e-03,7.10450783e-02,3.01474594e-02,-2.19083205e-03,
-1.02948509e-02,-6.88112527e-02,5.37473671e-02,-3.05601209e-02,-2.88612489e-02,
5.26804626e-02,-1.31605202e-02,-4.56050113e-02,-7.12240413e-02,-4.81979176e-02,
4.60184142e-02,5.95024340e-02,-6.67895451e-02,-8.91398638e-02,5.19813038e-02,
4.63376716e-02,7.16291517e-02,-6.62496611e-02,6.16083629e-02,7.58585930e-02,
5.00938334e-02,6.13764906e-03,4.62540388e-02,4.76814248e-02,3.82979284e-03,
-7.07359016e-02,-2.51935143e-02,-4.00014371e-02,-2.65927315e-02,4.67117690e-02,
-5.31322211e-02,6.10163771e-02,4.31643575e-02,-6.70090765e-02,-8.53301287e-02,
-6.27912432e-02,6.42149970e-02,-3.59797701e-02,2.73200031e-02,6.06815703e-02,
-2.25791018e-02,1.46585386e-02,5.61073124e-02,3.76647338e-02,-4.85056154e-02,
5.31638376e-02,-3.62805650e-02,-1.02535509e-01,-2.07209215e-02,2.44351327e-02,
-7.49352500e-02,-1.04101235e-02,5.46869636e-02,6.63264468e-03,-1.05005264e-01,
-5.85997701e-02,9.73990485e-02,-4.08368111e-02,2.37421021e-02,8.49942565e-02,
-9.58754495e-02,7.09432736e-02,-8.33280198e-03,-3.84464338e-02,-9.55582596e-03,
-2.45243553e-02,3.15934904e-02,8.54768697e-03,-5.02704568e-02,-7.43362634e-03,
-2.47324593e-02,-9.05492678e-02,-3.49807478e-02,-8.73146728e-02,-5.76619692e-02,
-1.06784329e-02,7.09265620e-02,4.25018556e-02,-5.43369874e-02,-1.63190737e-02,
-2.28200275e-02,-2.53814925e-02,8.05706382e-02,-8.29575807e-02,-1.81432851e-02,
-2.74353442e-05,-1.78625248e-03,-6.85181022e-02,-3.42283361e-02,-3.72078530e-02,
3.68733779e-02,-4.06031311e-02,-2.72609238e-02,-4.08904105e-02,1.99198276e-02,
3.43588181e-02,6.97230920e-02,5.15140481e-02,-3.91053082e-03,-6.89384416e-02,
2.01249383e-02,-2.65942123e-02,8.00969079e-02,-5.17798774e-02,-1.21845976e-02,
-1.23240761e-02,-5.02375811e-02,-4.37444597e-02,-6.42349049e-02,-2.12072320e-02,
-4.82331961e-02,-2.09314916e-02,8.01075771e-02,6.73831776e-02,3.06439232e-02,
-3.85233248e-03,-2.16570888e-02,2.46768794e-03,-4.24354151e-02,-7.13994773e-03,
4.04673442e-03,1.12466095e-02,-7.42172748e-02,-4.90203649e-02,5.15016094e-02,
-1.89231094e-02,-7.18679354e-02,-1.50044281e-02,-2.67136097e-03,4.87123849e-03,
5.30401282e-02,-6.25385344e-02,-7.37441257e-02,-9.37860087e-02,-6.70549199e-02,
4.60291952e-02,3.88534777e-02,-4.84397300e-02,-6.49196934e-03,-6.02077544e-02,
1.01771029e-02,-7.14218616e-02,-9.11975503e-02,-4.22423589e-04,-6.21216968e-02,
4.57499996e-02,5.41386604e-02,5.25470264e-02,4.44008503e-03,3.71535756e-02,
-2.78675221e-02,-2.64087580e-02,2.06245892e-02,9.38124657e-02,-7.74216652e-02,
-4.24680896e-02,-1.84472441e-03,2.50516161e-02,-6.24479316e-02,3.95585820e-02,
-4.64307051e-03,-2.38684714e-02,-9.63159744e-03,-6.35658577e-02,2.30917577e-02,
3.11132427e-02,-2.45145559e-02,-4.61286940e-02,-7.22988741e-03,3.53716053e-02,
-6.09653555e-02,7.42842257e-02,-7.43379146e-02,1.04293218e-02,5.49190305e-03,
3.56375799e-02,-1.03425212e-01,-2.35552294e-03,-1.67594180e-02,-5.27299307e-02,
6.39266893e-02,-9.20934696e-03,3.04808351e-03,3.65617834e-02,-5.74652553e-02,
-4.03573662e-02,2.78114621e-03,6.24631457e-02,5.58723621e-02,-2.74956599e-02,
-7.81520158e-02,6.22067275e-03,2.27053091e-02,-4.92651127e-02,5.12480810e-02,
2.26613544e-02,-1.75704318e-03,2.01061387e-02,4.50422727e-02,-8.22451785e-02,
-3.69687974e-02,2.55523976e-02,3.27330753e-02,-8.13069846e-03,-2.12769173e-02,
3.64681929e-02,3.24637964e-02,-6.61463290e-02,5.44347763e-02,-4.67674807e-02,
-1.05138989e-02,-3.18579488e-02,-7.93917030e-02,-7.65863806e-02,-5.86957410e-02,
-5.21580502e-02,-3.85979749e-02,7.67121464e-02,6.60377517e-02,-4.09488752e-02,
-6.26827404e-02,-8.37527681e-03,6.74856678e-02,-1.52595462e-02,-2.70285960e-02,
6.02705069e-02,-7.91951194e-02,-2.49849074e-02,-2.62293518e-02,5.66411414e-04,
-6.53916795e-04,-5.25699817e-02,-5.60264736e-02,-5.33089601e-02,2.39349734e-02,
-7.85993934e-02,-6.49525300e-02,-9.85985994e-02,-5.09500876e-03,4.86694984e-02,
-8.12357590e-02,-8.82113874e-02,-1.58378668e-02,-5.48600517e-02,-5.81041723e-02,
-6.43828437e-02,4.44364874e-03,-9.15500000e-02,-7.37569630e-02,-4.74072285e-02,
-1.00730890e-02,-8.88520926e-02,1.48720769e-02,2.40895040e-02,-1.54493917e-02,
3.03180162e-02,-4.78883311e-02,5.97703904e-02,1.79601777e-02,4.43984456e-02,
-1.08525027e-02,5.10354750e-02,2.25048251e-02,-6.70641363e-02,-9.91266742e-02,
-9.06483680e-02,-7.93047845e-02,5.69614545e-02,4.83096503e-02,-8.83700922e-02,
6.72091469e-02,-8.23579505e-02,4.22413200e-02,-9.00701433e-02,-6.90950304e-02,
4.96715941e-02,6.14236593e-02,-6.77261800e-02,7.10781477e-03,7.00836778e-02,
-8.77511352e-02,-2.23240051e-02,-7.16980398e-02,-5.59116621e-03,-7.89708570e-02,
-1.13058969e-01,-3.35268341e-02,4.07376960e-02,-9.68827924e-04,8.39112513e-03,
4.38895971e-02,-3.83257261e-03,-7.09690973e-02,-2.45034881e-02,1.96173303e-02,
-3.19230482e-02,-7.06527978e-02,-5.34491166e-02,-1.74807739e-02,-9.35593024e-02,
7.52921179e-02,-4.98102270e-02,-7.16818944e-02,-4.08343412e-02,4.68083881e-02,
-1.38585018e-02,5.29670306e-02,-6.53220937e-02,-9.87800360e-02,5.46184331e-02,
-1.09034508e-01,1.03420662e-02,-2.21845717e-03,-7.26661161e-02,3.68681736e-02,
3.04749841e-03,-8.66988972e-02,6.52636215e-02,3.15546393e-02,5.31841181e-02,
-6.46525472e-02,2.73405481e-02,-6.00350276e-03,-1.93194468e-02,3.92184593e-02,
-1.09646335e-01,-2.20495798e-02,7.96479359e-02,-5.94485439e-02,-1.04687199e-01,
-4.50110901e-03,1.09139113e-02,-8.13123733e-02,3.26590351e-04,-1.10540893e-02,
5.05210981e-02,-6.39344230e-02,-1.88943278e-02,-6.14851806e-03,-2.63214819e-02,
3.73191275e-02,4.98741381e-02,6.34261146e-02,-7.94467051e-03,1.65009107e-02,
1.81627348e-02,-9.04843286e-02,-6.67163879e-02,-4.70096096e-02,-2.21957862e-02,
-2.99188904e-02,6.94170371e-02,-2.22068857e-02,-3.10956426e-02,8.89766589e-02,
-2.66485494e-02,-1.03366122e-01,3.71998362e-02,-7.50289634e-02,-4.62131426e-02,
1.14421435e-02,7.10089132e-02,-7.68880174e-02,5.78211658e-02,-2.72521824e-02,
6.83876202e-02,-8.66861176e-03,-8.68750736e-02,-1.32497577e-02,-1.96711775e-02,
6.36002794e-03,5.18466495e-02,-8.11226442e-02,-4.90054116e-02,-8.73827189e-02,
-8.21118057e-02,3.34691033e-02,-4.11681794e-02,-3.30653042e-02,-2.93450318e-02,
-3.17413993e-02,-6.85153902e-02,2.32393667e-02,-7.71046802e-02,2.19272613e-03,
5.39316088e-02,4.69721034e-02,7.24294633e-02,5.41422591e-02,-1.55104985e-02,
-3.63734849e-02,-7.40007460e-02,-8.17460939e-02,3.45583707e-02,-4.78003286e-02,
-3.16912960e-03,-4.11306918e-02,-5.71900792e-02,-6.45541539e-03,6.99933767e-02,
-1.64584965e-02,-5.09877428e-02,-2.02109329e-02,-2.22101528e-02,-3.25193927e-02,
6.55620545e-02,-1.03112860e-02,-4.91104946e-02,6.64118454e-02,-5.69196939e-02,
-1.55715458e-02,5.40354736e-02,-5.16234785e-02,-2.14713439e-03,4.52825502e-02,
2.52924412e-02,-1.42932637e-02,-2.20949948e-03,-7.53722340e-02,-6.37393743e-02,
-6.40261546e-02,-8.40051621e-02,5.28483652e-02,-6.74102381e-02,-1.07964106e-01,
5.99292740e-02,-6.32009581e-02,2.98159383e-02,-9.10352916e-02,2.83263866e-02,
-4.81556803e-02,-3.48437615e-02,-4.68379669e-02,1.08800977e-02,-3.53833474e-02,
-2.96928342e-02,-2.62220167e-02,2.33228318e-02,-8.97116587e-02,-5.51278032e-02,
-1.12781832e-02,-2.04123706e-02,-5.14299842e-03,-1.03651527e-02,-4.28905860e-02,
-2.86371429e-02,7.44950771e-02,-8.65462050e-02,4.42668088e-02,5.88888898e-02,
-2.39015836e-03,6.02099020e-03,7.27949589e-02,-7.31977355e-03,-7.83899352e-02,
3.96925546e-02,1.92031905e-03,-1.26022231e-02,4.39213030e-02,-6.99093342e-02,
-5.61344475e-02,-3.57507542e-02,-1.18220784e-02,-8.53244364e-02,1.05035948e-02,
-7.93965682e-02,-2.20190249e-02,-7.30803385e-02,1.30748721e-02,-9.04074162e-02,
2.49958355e-02,-8.58189166e-02,5.48529215e-02,-4.13744785e-02,4.67857309e-02,
5.58052491e-03,5.07321302e-03,-3.90400141e-02,-6.40149042e-02,2.39670631e-02,
-6.59638410e-03,-1.38889132e-02,1.99884437e-02,-3.25721875e-02,-2.56569311e-02,
1.18833371e-02,-9.85269248e-02,1.02142328e-02,-3.78960893e-02,-8.80959183e-02,
5.84900305e-02,-7.79403150e-02,-1.24323582e-02,-1.11398306e-02,4.02426086e-02,
-6.64153928e-03,-6.46838918e-02,5.44155948e-02,-2.59039029e-02,5.07027842e-02,
-4.96325679e-02,2.25372110e-02,-7.40332156e-02,-1.34006962e-02,-8.14439207e-02,
2.13036519e-02,-1.77327823e-02,-6.09920686e-03,3.12810205e-02,-1.61108794e-03,
1.20781213e-02,-5.09563535e-02,3.43238786e-02,4.77678180e-02,4.95514181e-03,
6.76077977e-02,-7.07053617e-02,-7.55797848e-02,-5.51094301e-03,-2.81066392e-02,
-4.22821790e-02,3.50529328e-03,-8.80341381e-02,-7.08792955e-02,5.51067963e-02,
-6.82942197e-02,8.93590134e-03,-6.27374426e-02,-3.68027091e-02,-3.24693210e-02,
-7.71104265e-03,-1.07162045e-02,1.32484548e-02,-1.49601530e-02,-4.20880094e-02,
6.16295589e-03,2.03571394e-02,3.53311896e-02,-7.79713178e-03,1.60457622e-02,
4.69614938e-03,6.41606301e-02,-9.58573073e-02,1.80278290e-02,5.06295562e-02,
-8.38117395e-03,2.65303310e-02,-6.05989434e-02,-6.60711452e-02,3.82830426e-02,
5.45929261e-02,-7.43752811e-04,6.90102428e-02,3.42377089e-02,9.25779194e-02,
5.67854615e-03,-1.15255184e-01,5.19125536e-02,5.05982600e-02,-2.59877443e-02,
-2.86293905e-02,-2.28849296e-02,7.98327997e-02,-4.24303561e-02,1.41325537e-02,
1.79411750e-02,2.46732663e-02,-2.01711077e-02,-1.33851692e-02,-9.20458511e-02,
-4.40599062e-02,-1.73849631e-02,-4.61193137e-02,1.41917430e-02,-8.96169022e-02,
1.10396715e-02,1.51663534e-02,-3.49327773e-02,-4.06764448e-02,2.11807974e-02,
-6.58356845e-02,-4.16064486e-02,-7.52556995e-02,8.63401517e-02,-2.29441375e-02,
-3.60627174e-02,-6.34440780e-02,5.65643609e-02,-8.35146457e-02,4.43840399e-03,
6.98150136e-03,-5.79169020e-02,-3.37452516e-02,-7.82296062e-02,2.10574903e-02,
-1.26365256e-02,-9.49915424e-02,-1.84910633e-02,-9.00709480e-02,1.94418803e-02,
4.45449091e-02,3.25793251e-02,-4.27477136e-02,8.02116748e-03,-9.47132856e-02,
5.42377234e-02,-3.95811461e-02,-4.02170606e-02,-5.36526591e-02,5.92361856e-03,
6.85149729e-02,-6.83519542e-02,1.37241865e-02,2.42010504e-02,8.36425647e-02,
1.77131146e-02,-7.74157792e-02,-8.35386440e-02,-9.82291475e-02,-1.34529369e-02,
-6.50987923e-02,2.69397572e-02,-1.59413181e-02,-4.41033486e-03,3.55725065e-02,
-9.13805217e-02,-7.32043851e-03,5.92611283e-02,2.33677495e-02,-4.81223613e-02,
5.51612340e-02,-2.07171459e-02,5.00710122e-02,-3.46459635e-02,-7.63031840e-02,
2.56701857e-02,-5.44204637e-02,4.27407213e-02,-1.95094179e-02,1.29492236e-02,
-4.75054644e-02,-5.61440960e-02,-1.19321318e-02,-7.19233826e-02,6.23343922e-02,
-8.59099999e-02,-2.96021695e-03,5.61788538e-03,2.44912840e-02,-1.03684954e-01,
-1.09371215e-01,-3.03304568e-02,8.91946033e-02,-4.88990359e-02,3.80323380e-02,
6.46604076e-02,-7.92674795e-02,3.43799107e-02,-8.81468058e-02,6.81319386e-02,
-7.87103623e-02,4.57008481e-02,-6.04437515e-02,-2.71116383e-02,2.85441186e-02,
-3.11211776e-02,-7.40402415e-02,3.42940576e-02,4.18516919e-02,-6.13597520e-02,
-9.43802595e-02,-3.58936004e-02,-1.56803057e-02,-5.55873336e-03,-9.61692557e-02,
-1.84482113e-02,-5.64811118e-02,-2.65405700e-02,-7.81862438e-03,-7.81546161e-02,
2.26858277e-02,1.02026749e-03,-8.11249092e-02,-4.12959494e-02,-1.57460794e-02,
-1.04909681e-01,4.57836967e-03,2.64521223e-02,4.14677709e-02,4.13973294e-02,
-5.63544631e-02,-1.53055647e-02,-5.68642877e-02,5.05245104e-02,-5.37026003e-02,
-4.91056554e-02,5.77187315e-02,-2.48810034e-02,-2.66356729e-02,6.52783737e-03,
-1.75083876e-02,5.38804270e-02,3.98624875e-03,-5.02511412e-02,3.38299982e-02,
1.51009255e-04,6.05536476e-02,-7.25708483e-03,-1.80312246e-02,-9.26586986e-02,
-9.76937786e-02,-1.00834146e-01,3.18247750e-02,-1.03072204e-01,-1.68942045e-02,
-3.36526893e-02,3.86177115e-02,1.97690707e-02,5.79851829e-02,2.73804227e-03,
-3.80079774e-03,5.89295104e-02,3.64080332e-02,9.95760225e-03,-1.02052927e-01,
7.15915188e-02,2.68991087e-02,1.80227663e-02,-1.02847315e-01,-3.78529467e-02,
2.89306156e-02,-7.80900288e-03,1.93994846e-02,-3.84836160e-02,1.40733495e-02,
6.82547539e-02,-1.68240571e-03,1.36972247e-02,4.34910171e-02,-4.88852710e-02,
2.69429702e-02,3.25406827e-02,-3.51216756e-02,-6.49304911e-02,4.39817458e-02,
-2.79709906e-03,-5.60742505e-02,7.86246210e-02,-1.30342832e-03,-8.18521678e-02,
-9.83442441e-02,-1.18700992e-02,7.30393082e-02,6.24865815e-02,2.60141655e-03,
5.25117926e-02,1.35819782e-02,-3.69921923e-02,2.12629456e-02,5.25499741e-03,
3.71697396e-02,-2.17739139e-02,2.14765389e-02,-4.82220352e-02,-3.86093520e-02,
-8.05838704e-02,7.54358480e-03,2.72899140e-02,2.11803447e-02,2.65878588e-02,
-1.17274728e-02,1.49452104e-03,6.58652484e-02,6.54580891e-02,6.47432450e-03,
5.01090102e-02,4.88223508e-02,-6.06362242e-03,5.74668683e-02,-5.39023653e-02,
2.82022655e-02,1.84333809e-02,-4.64820974e-02,-1.91893857e-02,-1.25428345e-02,
7.04766512e-02,-1.86935347e-02,-7.72826672e-02,-5.04440889e-02,-2.26833522e-02,
-4.94733825e-02,-6.11916445e-02,-2.66809557e-02,-5.37871243e-03,-7.81972259e-02,
-3.27657461e-02,6.71423003e-02,-3.68716232e-02,-8.99714231e-02,5.67985177e-02,
6.64650723e-02,-4.93738130e-02,-6.48493543e-02,1.18016154e-02,1.10803975e-03,
4.66527902e-02,7.16792196e-02,4.68652546e-02,6.35950565e-02,8.92984122e-02,
7.86350854e-03,1.93395130e-02,3.58731449e-02,6.19837791e-02,8.96144882e-02,
7.99310580e-02,-9.19436943e-03,3.17869708e-02,-5.11153154e-02,-5.01412824e-02,
-4.64247689e-02,2.67303619e-03,-6.31237999e-02,-9.90075320e-02,-9.92226750e-02,
-3.49270031e-02,-7.84980729e-02,-6.37080818e-02,3.11891548e-02,-3.29755768e-02,
5.42975850e-02,-4.45389263e-02,-6.58451542e-02,6.07444830e-02,4.48124968e-02,
-7.04131201e-02,-8.59374553e-02,7.44181406e-03,-2.79418542e-03,8.78401175e-02,
-3.42297927e-02,-7.12398887e-02,2.53661089e-02,3.52486484e-02,9.75912437e-02,
-4.61139791e-02,5.96547797e-02,-2.99050994e-02,-1.34436470e-02,4.38109413e-02,
4.87663113e-02,-1.57743990e-02,3.12199607e-03,-2.13107355e-02,-1.96540169e-02,
7.28908628e-02,6.71209916e-02,1.08243329e-02,2.25756839e-02,-4.61052209e-02,
-1.14102308e-02,5.22761457e-02,-7.77059197e-02,-6.66631982e-02,6.26200344e-03,
-5.76977991e-02,-6.82910606e-02,1.18741794e-02,-9.75049883e-02,2.06178650e-02,
-6.87330812e-02,-5.14799319e-02,-2.18348717e-03,5.05409911e-02,-3.06244306e-02,
-4.97363769e-02,3.46242008e-03,-1.11280330e-01,-4.57039587e-02,7.81275034e-02,
4.44693156e-02,-7.77743831e-02,-5.98192848e-02,-8.52142796e-02,-2.62380075e-02,
-1.12722561e-01,-3.76696978e-03,-9.07019526e-02,-1.71641205e-02,3.53658609e-02,
-2.53527481e-02,-6.05013184e-02,1.79674905e-02,-2.47943383e-02,-3.97910662e-02,
-4.44009751e-02,-1.73781551e-02,-1.17758866e-02,-1.38946008e-02,-9.47766304e-02,
-4.48294729e-02,-1.34340776e-02,-5.96326962e-02,-4.34302390e-02,-1.39569985e-02,
-4.34274711e-02,-3.59563418e-02,8.83381441e-03,7.83590227e-03,-3.64854187e-02,
-5.01339026e-02,-1.88279990e-02,6.36613369e-02,-8.17132965e-02,-6.46910444e-02,
1.95424296e-02,-4.96914871e-02,-3.25779524e-03,-6.34383559e-02,-6.46622032e-02,
-3.46943364e-02,7.50909299e-02,-9.88663137e-02,6.21647425e-02,7.83140585e-03,
2.88471412e-02,-7.31996670e-02,-2.68104468e-02,-8.36157277e-02,-2.92103533e-02,
2.51392890e-02,4.65901084e-02,-5.44865476e-03,-9.45920646e-02,2.15970930e-02,
5.29976152e-02,-1.74597912e-02,6.30085617e-02,-5.59330694e-02,3.21399085e-02,
3.33544090e-02,1.65817719e-02,1.36994589e-02,-8.49300250e-02,-6.59843208e-03,
-8.24659616e-02,-1.34246303e-02,-1.93974692e-02,-3.13625708e-02,-4.25642468e-02,
4.83492501e-02,2.34747771e-02,3.92341726e-02,2.90510133e-02,6.24099821e-02,
-6.91713467e-02,-4.45763133e-02,-4.00700867e-02,9.93790478e-03,-6.83274642e-02,
-6.13689721e-02,-3.98622938e-02,7.24745989e-02,-1.76389534e-02,-1.68401394e-02,
1.21377141e-03,-7.50536397e-02,-9.80323777e-02,2.22210381e-02,-4.68607657e-02,
5.73338829e-02,-6.91772671e-04,6.44534305e-02,4.55292575e-02,1.70958024e-02,
-3.15220766e-02,2.09818594e-02,3.41966636e-02,-5.80450743e-02,-6.35419562e-02,
5.38482890e-02,-3.40727866e-02,-3.72739020e-03,-2.20197048e-02,1.11055514e-02,
-7.09225312e-02,-2.95254774e-02,2.11416557e-02,3.48874927e-02,-6.03708066e-02,
2.22810768e-02,-7.46145993e-02,3.99785377e-02,5.20646609e-02,4.68106158e-02,
-1.74055379e-02,7.03106523e-02,-1.73276551e-02,-7.84361437e-02,-9.76839587e-02,
-6.96076229e-02,-1.02002330e-01,-3.21457312e-02,8.06098208e-02,1.54037690e-02,
-4.32888754e-02,-7.64034986e-02,-9.06349495e-02,4.00876924e-02,2.23323777e-02,
-2.75932495e-02,-1.03707453e-02,-8.60529095e-02,6.19552881e-02,3.57386060e-02,
-2.67298538e-02,6.91410080e-02,-1.33055579e-02,-9.12775099e-02,-8.45777467e-02,
-9.72581655e-02,1.53262662e-02,-7.38524124e-02,-2.39931010e-02,1.58388671e-02,
6.67013004e-02,3.97047140e-02,-8.76295343e-02,6.36716560e-02,2.38422584e-02,
-4.09895591e-02,-1.02649771e-01,5.02027338e-03,-1.63237303e-02,-1.18280709e-01,
1.14266798e-02,3.01489234e-03,-2.20235973e-03,-9.84476879e-02,8.96642208e-02,
7.17048869e-02,-6.00055084e-02,2.25405060e-02,-7.97693357e-02,-3.60386893e-02,
-9.04538184e-02,-2.88758483e-02,2.05171667e-02,3.71173248e-02,3.60204428e-02,
3.94622944e-02,-7.73355365e-02,3.20298299e-02,-3.17411385e-02,3.99764180e-02,
1.98967848e-02,-5.06848842e-02,1.25713861e-02,5.09994067e-02,7.87425041e-02,
-3.84645313e-02,-2.55721603e-02,-4.25829217e-02,7.14206174e-02,4.44686487e-02,
9.56906155e-02,9.64764208e-02,-6.21011853e-03,9.99588519e-03,-7.74557516e-02,
1.53001607e-03,-5.40265106e-02,-5.90502052e-03,9.88794193e-02,-6.51501445e-03,
7.10470304e-02,5.85984066e-02,-1.87529214e-02,-6.20743893e-02,5.91925532e-02,
2.98621622e-03,3.65326321e-03,-8.35950300e-02,-1.58404093e-03,6.13908805e-02,
2.21549459e-02,4.17569801e-02,-7.40301460e-02,5.15316427e-02,-4.47479635e-02,
2.44325434e-04,-2.55815871e-02,-3.21605126e-03,-4.35241088e-02,-4.76366878e-02,
8.53992030e-02,-4.74751554e-02,-4.07408215e-02,5.82677089e-02,-4.76361960e-02,
5.00455573e-02,7.19285086e-02,2.74716364e-03,6.66773170e-02,8.72385055e-02,
4.14220206e-02,-3.20273563e-02,7.77355209e-02,1.41795464e-02,3.56347747e-02,
-4.59773652e-02,-5.09699322e-02,-6.49200603e-02,3.49321216e-02,9.09770131e-02,
1.42559977e-02,2.45293230e-02,-3.30405170e-03,3.09046432e-02,-3.40926610e-02,
-3.96228209e-02,-1.03102379e-01,-5.54240234e-02,-3.77483778e-02,-3.20841223e-02,
3.51295173e-02,-3.87351289e-02,1.03818290e-02,-3.90601419e-02,4.26508039e-02,
-7.29987323e-02,2.94451904e-03,-9.05321017e-02,-4.35595512e-02,4.69755381e-02,
-4.15236428e-02,-2.02792082e-02,-2.77788173e-02,4.57040481e-02,-5.09879440e-02,
3.64565812e-02,9.59713850e-03,6.93248808e-02,7.38935964e-03,5.75161017e-02,
1.10875545e-02,6.90216124e-02,2.86329389e-02,-6.91593799e-04,7.16482997e-02,
-5.67541979e-02,-9.23020318e-02,-6.81681111e-02,1.68011636e-02,6.49365410e-02,
-7.14774281e-02,-3.27940062e-02,1.25104010e-01,7.20523000e-02,-4.11193743e-02,
2.37661358e-02,9.83894151e-03,-9.55329239e-02,-5.58812618e-02,4.44436856e-02,
6.53796420e-02,-6.16353080e-02,1.35859717e-02,-8.85413215e-02,5.49173392e-02,
8.86475667e-02,-3.33145261e-02,3.42609696e-02,1.55041320e-02,2.47166883e-02,
-6.59202412e-02,5.08049577e-02,-3.19457762e-02,-3.56560107e-03,-8.46857578e-02,
-7.07321316e-02,6.70979768e-02,-1.03262393e-02,-3.06766480e-03,1.73258223e-02,
-4.01943885e-02,-4.42766771e-02,-5.42158075e-02,-7.25394264e-02,-4.45838906e-02,
-2.62991581e-02,-7.76664019e-02,-7.76420757e-02,5.36963996e-03,-3.00959102e-03,
5.82604222e-02,3.47032957e-02,-2.06110440e-02,-7.85085484e-02,8.99511129e-02,
-9.96416342e-03,3.13463397e-02,7.78470635e-02,-5.43096513e-02,-1.71158519e-02,
3.18249017e-02,1.03725411e-03,-5.13601638e-02,-7.82723911e-03,1.75119508e-02,
-7.61399716e-02,-1.99176949e-02,1.21723954e-02,2.97365095e-02,7.61754513e-02,
-2.54398268e-02,-7.07872212e-02,-9.90230870e-03,6.20542616e-02,7.06739500e-02,
-2.92607229e-02,4.02991995e-02,5.89748472e-02,8.25493261e-02,6.26522079e-02,
8.56082663e-02,-6.86944574e-02,6.10597208e-02,-1.63009223e-02,-6.84035849e-03,
-2.30184123e-02,2.66582910e-02,-6.78385273e-02,-4.87462431e-02,4.17112373e-02,
6.58954084e-02,3.26862035e-04,-2.51304898e-02,-1.96657423e-03,7.29659423e-02,
-7.19395801e-02,-6.47710711e-02,8.46897289e-02,8.84420648e-02,3.18598635e-02,
2.71270145e-03,4.16125618e-02,-1.75824724e-02,1.53300706e-02,9.64445770e-02,
-3.86614352e-02,1.89531669e-02,4.67540845e-02,-1.69221442e-02,5.37857227e-02,
-5.63705415e-02,-3.23059559e-02,4.96907812e-03,6.13991767e-02,4.27006781e-02,
4.89894859e-03,6.21980801e-02,1.50362253e-02,3.77274863e-02,-1.68968011e-02,
-1.07270345e-01,1.78699400e-02,4.35487442e-02,-4.61218990e-02,-1.60814244e-02,
3.85711491e-02,-5.18410392e-02,-8.33197236e-02,-1.01660267e-01,-8.88977759e-03,
-3.36897187e-02,-5.39742447e-02,-1.07702315e-01,3.60992439e-02,2.80278474e-02,
-4.02350761e-02,-4.18705307e-03,9.81993508e-03,1.92501899e-02,-7.48419482e-03,
-5.93942255e-02,-9.73754525e-02,-6.23653345e-02,-2.67550759e-02,6.75756559e-02,
-1.23879481e-02,-4.03442830e-02,4.90179518e-03,5.11456020e-02,4.63660471e-02,
3.69175859e-02,-8.14764574e-02,6.03639036e-02,8.04605335e-02,-2.44408753e-02,
-1.70588046e-02,2.81417351e-02,-3.89658511e-02,-9.10004377e-02,-8.62321481e-02,
-1.87000893e-02,6.06186688e-02,-2.93493294e-03,1.45152342e-02,-9.73753855e-02,
-2.77914014e-02,3.63570265e-02,-9.93076190e-02,2.51547247e-02,-3.15008983e-02,
8.46562758e-02,-3.01918499e-02,-7.88916051e-02,6.69661611e-02,-7.09047094e-02,
5.90739772e-03,-6.63027167e-03,-1.86045989e-02,4.25744839e-02,-7.31052607e-02,
1.18345348e-02,1.29936151e-02,4.74578282e-03,1.27184661e-02,-1.60079505e-02,
2.98848972e-02,1.56605709e-02,-3.46297910e-03,-7.69285783e-02,8.00435618e-03,
4.27118354e-02,-2.45917235e-02,-6.31490052e-02,-6.57984763e-02,-6.59288019e-02,
-5.66598214e-02,-9.71305743e-02,-8.71764794e-02,-4.03216965e-02,-5.94167449e-02,
-3.81779931e-02,-1.49318967e-02,-6.16132356e-02,-5.16359210e-02,-4.75274585e-02,
1.66295376e-02,5.17430976e-02,5.07459417e-02,-7.02560022e-02,-4.84150983e-02,
6.72263876e-02,-2.25470606e-02,-7.67025128e-02,-4.12829332e-02,-3.11074709e-03,
-9.02466252e-02,-6.19702786e-02,5.24747707e-02,5.65773696e-02,1.48142101e-02,
2.18008924e-02,1.83898695e-02,-3.13473269e-02,-6.98880991e-03,-3.07367221e-02,
-3.85876708e-02,-3.53374262e-03,6.46908954e-02,1.67420600e-02,-2.38840301e-02,
-8.98051560e-02,-2.31046584e-02,6.62762001e-02,5.92529811e-02,5.99982813e-02,
-5.27412556e-02,1.75159723e-02,3.88635136e-02,-5.48947677e-02,-1.35311978e-02,
-4.10628989e-02,-8.89018923e-02,5.99618107e-02,-2.14699116e-02,-4.41428982e-02,
7.89448693e-02,-7.98664764e-02,-5.00052096e-03,3.29398848e-02,4.50556502e-02,
-5.98168932e-03,-7.55108222e-02,2.35832087e-03,-5.04663810e-02,5.03298864e-02,
-3.88742723e-02,-9.75853503e-02,-8.26641358e-03,-2.73206700e-02,6.93343356e-02,
-2.69400068e-02,5.87760955e-02,-7.02237710e-02,-2.88433433e-02,-7.45922998e-02,
1.86604224e-02,-4.46397774e-02,-3.77933867e-02,-8.50528926e-02,7.05256611e-02,
-4.67773825e-02,4.60879086e-03,-2.56408323e-02,3.94119136e-02,-1.56680159e-02,
-6.52360544e-02,7.63288885e-02,3.06578707e-02,8.09746608e-03,-6.34995475e-02,
-2.23710220e-02,-3.40215601e-02,-1.00415178e-01,-1.08917523e-02,-8.38603154e-02,
8.74337703e-02,4.31301706e-02,-9.24825147e-02,-2.21360810e-02,3.00631039e-02,
3.03884745e-02,6.95128217e-02,-9.89101455e-03,-1.56851634e-02,8.08639005e-02,
-6.39204308e-02,-1.16946804e-03,-4.00667824e-03,-5.67977456e-03,-5.92347346e-02,
-7.78683051e-02,-5.17626777e-02,-9.54719409e-02,-8.18960816e-02,2.13617831e-02,
1.25545403e-03,3.95611823e-02,5.21213450e-02,5.00730351e-02,4.88459729e-02,
-5.49841300e-02,5.60845435e-02,6.51474744e-02,-8.79584625e-02,6.36114180e-02,
-9.03297737e-02,-3.31216492e-02,-1.47805763e-02,-1.02280319e-01,3.59653346e-02,
-7.15407953e-02,1.07326657e-02,-8.85924976e-03,6.84597194e-02,-2.06934605e-02,
-6.02608919e-02,4.43157479e-02,1.91816185e-02,-1.40561964e-02,2.88263094e-02,
-2.19665281e-02,-2.08789688e-02,7.02057034e-02,-6.47089854e-02,1.24394838e-02,
-8.03627744e-02,5.86520992e-02,-2.35381033e-02,1.59900840e-02,4.11513038e-02,
-5.79350628e-02,4.24231216e-02,1.83826555e-02,7.77211040e-02,2.66398881e-02,
1.70619953e-02,-3.73809859e-02,-6.00399226e-02,-7.65755251e-02,-8.81663263e-02,
-4.12863381e-02,-1.11161023e-02,-7.85245672e-02,-9.30067748e-02,-7.98936784e-02,
-2.85811201e-02,1.95256732e-02,4.68320809e-02,-6.05855957e-02,-4.59506661e-02,
-3.93474661e-02,-1.06914438e-01,1.29271131e-02,3.64516005e-02,1.83943019e-03,
-7.87281524e-03,4.03089188e-02,2.87018940e-02,6.57571703e-02,3.84760601e-03,
4.47786739e-03,4.79927808e-02,-1.80807672e-02,-8.09508003e-03,2.13548485e-02,
1.62934568e-02,-7.44092837e-02,-6.23138957e-02,-1.04683153e-01,-6.22898526e-02,
-2.81585082e-02,-7.54869208e-02,6.91987500e-02,2.74403803e-02,-7.47639760e-02,
-6.60641640e-02,-3.62551101e-02,-7.90314842e-03,-6.18716851e-02,5.59732132e-02,
4.14168760e-02,-4.24153497e-03,-2.95969602e-02,-2.63297576e-02,-6.71658888e-02,
3.12594846e-02,3.60788852e-02,4.66452502e-02,-4.66327481e-02,2.54956782e-02,
-1.06886690e-02,5.95018379e-02,3.16079557e-02,-5.56342825e-02,-6.76738545e-02,
-5.98480999e-02,-1.55904088e-02,3.44988294e-02,-3.12216170e-02,-5.82791232e-02,
-7.17593580e-02,1.05277030e-02,-5.58389351e-02,2.89108697e-02,1.51497661e-03,
-3.19342650e-02,5.82510270e-02,-8.84242952e-02,1.64708365e-02,-5.85010101e-04,
-1.62570961e-02,5.53120598e-02,2.49673352e-02,5.04849218e-02,-6.66878000e-02,
4.63523008e-02,-3.87122706e-02,-4.84042205e-02,3.73895839e-02,6.15121275e-02,
-9.29277912e-02,7.49219880e-02,-7.75561109e-02,-2.70873727e-03,-1.00846477e-01,
4.39446568e-02,3.84361879e-03,-1.27632758e-02,-5.88487312e-02,2.65202913e-02,
6.19143322e-02,-5.26221320e-02,-7.08985925e-02,-5.09987921e-02,2.83996202e-02,
-3.22587322e-03,-1.53437071e-02,7.38506839e-02,-2.04031933e-02,3.81740816e-02,
-2.30674706e-02,3.63755003e-02,8.88984203e-02,-1.40096399e-03,-1.01446941e-01,
-4.27728146e-02,-4.78462577e-02,-6.39101118e-02,-3.28801647e-02,5.44341169e-02,
-8.02868456e-02,-5.57665229e-02,-8.48974939e-03,1.28417788e-02,4.00997549e-02,
-8.07343870e-02,4.87850197e-02,3.71465236e-02,-4.66843173e-02,4.89476174e-02,
-1.92094091e-02,9.12529901e-02,-5.14711887e-02,6.90547377e-02,3.17643979e-03,
-6.48427829e-02,-2.50492431e-02,-1.04241870e-01,-4.43596803e-02,-3.22330110e-02,
4.85123461e-03,-5.41688688e-02,-4.88253571e-02,-4.98649776e-02,1.58538949e-02,
-1.01963580e-01,2.18917616e-02,-4.93079573e-02,-9.51480791e-02,-5.57002686e-02,
6.29452523e-03,-1.32016307e-02,-4.48904708e-02,-6.65562302e-02,4.92617786e-02,
2.17053182e-02,-2.15622503e-02,-2.75851712e-02,3.41234729e-02,-5.42579554e-02,
-6.38627708e-02,5.39637990e-02,-5.68040228e-03,5.33373393e-02,5.58088087e-02,
-2.57968381e-02,-5.70676699e-02,9.31531936e-03,6.04949035e-02,3.10927629e-02,
5.39301336e-02,3.24496403e-02,-6.35558590e-02,3.43728364e-02,5.05598933e-02,
1.24253333e-02,5.56067154e-02,-1.04725458e-01,1.67432558e-02,-2.64485497e-02,
-2.64735967e-02,-1.84304193e-02,-3.07882000e-02,-6.98870048e-02,2.91304141e-02,
5.63546121e-02,6.04699319e-03,-5.30289896e-02,-8.65805522e-02,6.85751438e-02,
-7.15607479e-02,2.14753933e-02,-2.19574198e-02,-8.48678425e-02,5.97047731e-02,
2.72531081e-02,5.09242341e-02,1.64444521e-02,-7.15372711e-02,-1.62484199e-02,
-9.55707803e-02,-1.03663318e-02,-3.20821777e-02,-8.74425024e-02,4.80807051e-02,
-3.91912386e-02,-9.40758064e-02,-1.67968986e-03,-1.35382460e-02,6.75810426e-02,
-1.52324801e-02,-6.25600619e-03,4.52685580e-02,-3.52482647e-02,-8.35152343e-02,
2.72226445e-02,5.74707910e-02,-3.87335718e-02,7.73063377e-02,-3.23735550e-02,
-5.72205260e-02,5.90872206e-02,-3.75245512e-02,6.61629960e-02,4.69165295e-02,
-8.17191005e-02,-9.34703182e-03,6.21533580e-02,5.32772318e-02,-9.14155543e-02,
-6.60314187e-02,5.31893186e-02,-2.01658513e-02,4.66344878e-02,-6.02233596e-02,
-4.93471399e-02,-4.22921255e-02,1.48272486e-02,6.57345727e-02,-2.26222072e-02,
9.19603556e-03,4.25977586e-03,4.67763655e-02,-8.69725570e-02,-9.50238928e-02,
-6.92281546e-03,-1.88637897e-02,-4.66873348e-02,-6.51844603e-04,-2.23899540e-02,
8.18845108e-02,1.24646602e-02,-9.08790305e-02,7.11223558e-02,-3.84619944e-02,
4.60696779e-02,-4.72493693e-02,-4.20855358e-02,2.46431306e-02,-4.95664552e-02,
6.93812668e-02,-5.45132123e-02,4.70826365e-02,-6.05001710e-02,-6.67399615e-02,
6.20474517e-02,-8.19441900e-02,2.16389447e-03,-5.43185975e-03,7.55666345e-02,
8.08709711e-02,2.69441791e-02,-1.01733342e-01,4.92270738e-02,-1.51131698e-03,
4.14200388e-02,6.58178031e-02,4.65070531e-02,-4.91937548e-02,-2.07575131e-02,
1.84044987e-02,-2.25427989e-02,-2.07752679e-02,6.24373555e-03,3.06319278e-02,
4.14408334e-02,2.80347578e-02,-4.17517610e-02,5.95343709e-02,-5.99444360e-02,
3.88953164e-02,-8.83139968e-02,-6.59842268e-02,-3.39841694e-02,4.60911989e-02,
-7.45825246e-02,-6.42838851e-02,-1.23943612e-02,-6.36956394e-02,-1.86022054e-02,
2.87103131e-02,-3.64300013e-02,1.83294807e-02,2.43057515e-02,6.00247830e-03,
-2.55257804e-02,-4.50480618e-02,-2.51987600e-03,-3.80207114e-02,-3.49148139e-02,
3.05555165e-02,3.54305468e-02,-4.14070934e-02,-3.54848802e-02,3.63423526e-02,
9.43099707e-02,6.72221258e-02,-3.65280397e-02,4.67377976e-02,-3.37846391e-02,
-7.27847368e-02,-5.67188412e-02,-5.28877787e-02,-6.65489584e-02,4.37124744e-02,
4.52274568e-02,-1.26498993e-02,5.84202036e-02,-7.59731457e-02,-4.67308005e-03,
-9.15672556e-02,-6.52328432e-02,-2.36667786e-02,6.91423416e-02,4.68917228e-02,
7.46853501e-02,-6.07309304e-02,-4.90399785e-02,3.88402343e-02,6.31415322e-02,
-7.16521293e-02,1.59274023e-02,4.18317392e-02,-2.75008585e-02,-9.41766985e-03,
-1.37455203e-02,6.18065521e-02,5.45931309e-02,-2.72425544e-02,-1.81553781e-03,
-5.01593351e-02,-6.64314404e-02,-6.03622682e-02,2.92035490e-02,-5.05626947e-03,
2.74601616e-02,-5.77831417e-02,1.25611518e-02,-5.34182452e-02,-3.20090726e-02,
6.16727620e-02,7.68437535e-02,1.50556043e-02,-8.05131495e-02,-8.35869834e-02,
2.92397086e-02,-7.69326463e-02,-7.91952386e-03,-5.96914254e-02,-9.08750817e-02,
-6.76794797e-02,2.76029366e-03,-7.33169243e-02,3.92656960e-03,-7.82416686e-02,
-5.71255796e-02,-2.21135225e-02,-6.78987280e-02,-2.17005797e-02,-1.14517519e-02,
-3.98214124e-02,-2.09596697e-02,4.23492193e-02,1.19091831e-02,1.36915669e-02,
2.06865296e-02,5.47361411e-02,3.10989264e-02,1.92166977e-02,4.93487976e-02,
-6.57922402e-03,7.31586851e-03,2.15028021e-02,-8.71739015e-02,7.48759974e-03,
-9.10844281e-02,-6.16721362e-02,2.24113427e-02,-3.15531902e-02,5.10080419e-02,
-2.60694865e-02,-1.08656138e-02,-4.05511558e-02,7.98198879e-02,-4.46150266e-02,
6.30429983e-02,8.63178447e-02,8.04444104e-02,-2.19627190e-02,5.16212285e-02,
2.74677780e-02,3.92476693e-02,2.82752663e-02,-7.38727376e-02,-2.21327748e-02,
2.35519540e-02,-3.35640013e-02,-5.68262599e-02,7.09050223e-02,-7.81053305e-02,
3.94698931e-03,3.58841605e-02,-2.76500285e-02,-2.09638551e-02,8.72251466e-02,
6.66383952e-02,3.42576355e-02,8.95444229e-02,1.30954348e-02,-4.80243051e-03,
6.52425885e-02,3.22358683e-03,5.06416373e-02,2.99835410e-02,9.31722764e-03,
-5.98846823e-02,8.38315859e-03,7.16482103e-02,6.31997436e-02,-1.06418021e-01,
-4.12021726e-02,2.47301739e-02,6.63377792e-02,-7.82413930e-02,6.55617341e-02,
9.67438072e-02,-3.75900306e-02,-9.47088227e-02,-8.17241818e-02,3.24043892e-02,
-8.54577720e-02,-2.38150898e-02,2.64277235e-02,-3.23654599e-02,7.12873507e-03,
-5.79438582e-02,6.00156374e-02,-7.77554587e-02,2.00585723e-02,8.06482881e-02,
-1.08947130e-02,-6.68306872e-02,7.57365450e-02,6.31661862e-02,4.67778295e-02,
-3.18911001e-02,-1.21217193e-02,7.15094060e-02,3.90060693e-02,2.58933492e-02,
-8.16837624e-02,-4.84287832e-03,-3.43575329e-02,1.86530072e-02,-4.45545316e-02,
-4.69902940e-02,8.10684264e-02,1.73345357e-02,4.77582328e-02,-8.52505788e-02,
-3.88284475e-02,1.62189659e-02,-5.87565301e-04,-8.22755769e-02,-3.75777856e-02,
-4.95139956e-02,6.77139265e-04,-3.61744454e-03,-1.00880507e-02,-9.84014720e-02,
1.47792902e-02,-7.94858411e-02,6.92836009e-03,2.71402150e-02,-7.62396827e-02,
7.32152313e-02,-3.81819881e-03,-3.78763792e-03,1.40865371e-02,-2.69608740e-02,
4.78033908e-02,2.08491506e-03,-1.39332609e-02,5.76684400e-02,-4.53031845e-02,
-6.43728375e-02,4.58299816e-02,-3.76499407e-02,-6.05340898e-02,-3.15630692e-03,
6.99481070e-02,4.35344279e-02,-4.41683875e-03,-1.56136733e-02,-2.02761050e-02,
4.33311388e-02,-7.75753483e-02,-5.05320542e-02,9.07248259e-02,-4.91972379e-02,
3.86776663e-02,-4.98720072e-02,-7.55299330e-02,6.05538860e-02,9.27523300e-02,
7.68448710e-02,-5.17458096e-02,-1.84921958e-02,-4.38077487e-02,3.11783440e-02,
5.34003275e-03,2.68442463e-02,-5.25674820e-02,6.29439726e-02,1.88667737e-02,
-6.11434914e-02,5.22389710e-02,-7.51290321e-02,-1.09892741e-01,-1.12395165e-02,
4.39923145e-02,-3.91459614e-02,-3.26282568e-02,4.19206955e-02,4.12571542e-02,
1.79842561e-02,2.46535409e-02,-4.39984770e-03,4.69611809e-02,5.04673161e-02,
-2.96107829e-02,-5.50997630e-02,7.02532679e-02,2.84584127e-02,-2.52413843e-02,
-3.26394811e-02,3.55898850e-02,2.80208867e-02,-8.33939314e-02,6.52702674e-02,
-7.51999095e-02,-6.12301044e-02,8.27043131e-02,3.79493609e-02,-3.68862972e-02,
-5.17428666e-02,8.53851438e-02,7.82761574e-02,-2.60128491e-02,1.09609645e-02,
-2.73744017e-02,4.68741208e-02,4.48352769e-02,2.65748017e-02,2.27362681e-02,
6.67988881e-02,-1.01413406e-01,-2.63146143e-02,-4.42873798e-02,-2.91522983e-02,
-6.54500574e-02,-5.60120307e-02,7.85105005e-02,-7.66053796e-03,-4.15241607e-02,
-2.67641582e-02,-3.75774503e-02,3.98298874e-02,1.82138253e-02,-8.76929238e-02,
2.56337435e-03,-4.04692739e-02,-3.12912278e-02,-2.79131178e-02,-1.18659474e-02,
-1.09255411e-01,5.25914319e-02,-4.68995534e-02,-5.62513694e-02,7.81529304e-03,
-5.23214191e-02,-3.62113654e-03,3.71232741e-02,6.27513602e-02,9.12680551e-02,
-1.07431384e-02,7.30410963e-03,8.94648954e-02,2.79146191e-02,3.59920338e-02,
-5.04288869e-03,-8.66742283e-02,-4.27000709e-02,4.58360389e-02,-4.09087762e-02,
-2.86416244e-03,-2.62528062e-02,1.02898017e-01,-1.04984924e-01,1.13878874e-02,
2.63200421e-02,4.72371615e-02,-6.71480373e-02,2.81901620e-02,-7.83404484e-02,
-1.19186834e-01,-5.18036000e-02,8.78798738e-02,-8.22943226e-02,5.00053167e-02,
-7.82217309e-02,8.14308748e-02,6.84653148e-02,-3.12710665e-02,-8.96542817e-02,
-1.92409307e-02,-1.00932550e-02,3.92091786e-03,4.11447836e-04,-8.90890136e-02,
-2.91755684e-02,-6.97085112e-02,4.51513417e-02,-1.30144758e-02,-2.83234809e-02,
-1.05454680e-02,4.73233238e-02,-4.19653580e-03,-5.18091023e-02,-3.01340856e-02,
3.71337458e-02,-1.72121003e-02,4.28904966e-02,2.94839311e-03,2.44461726e-02,
9.41768512e-02,-2.82173809e-02,-3.91602144e-02,-1.87634919e-02,2.32896898e-02,
3.95279080e-02,2.51571164e-02,-8.35425034e-02,7.93213025e-02,-5.43375351e-02,
3.41568738e-02,-1.00886732e-01,-4.28320020e-02,3.86526994e-03,4.00361381e-02,
5.17723896e-02,-7.54437298e-02,2.25939285e-02,-2.17018183e-02,-2.45378148e-02,
-1.09536350e-01,-1.22254258e-02,3.42534366e-03,3.23902182e-02,8.50151386e-03,
-5.84001802e-02,1.03651686e-02,-5.27675152e-02,-4.29476798e-02,-1.04974210e-02,
2.14083809e-02,6.54590279e-02,9.30694863e-02,-8.20228979e-02,-4.56200428e-02,
-4.28688973e-02,-2.21343283e-02,-1.23120129e-01,3.85271274e-02,-6.15195632e-02,
-6.51934557e-03,2.74760518e-02,-2.81473845e-02,-2.43582688e-02,4.07997929e-02,
-4.51916978e-02,7.53244013e-02,-1.01451725e-01,-5.41321188e-02,-3.97679061e-02,
-6.13014288e-02,2.73514260e-02,-9.68749449e-03,1.10066617e-02,6.17089160e-02,
-6.72906488e-02,5.07026277e-02,5.76395281e-02,-8.60979632e-02,-2.52249278e-03,
3.54784206e-02,5.47748245e-02,-8.54975916e-03,2.73244251e-02,3.72838080e-02,
2.98599470e-02,5.81209436e-02,1.02955871e-03,-3.98952141e-03,-1.96941085e-02,
-7.84419551e-02,-3.34167592e-02,9.08053219e-02,1.59580279e-02,1.65799651e-02,
-7.57236220e-03,-3.08500906e-03,7.67334104e-02,3.91147137e-02,-6.35059327e-02,
-8.57885033e-02,-8.52317736e-02,-2.63076499e-02,-2.36440990e-02,-3.46975625e-02,
-8.12668204e-02,2.30231844e-02,-4.70031686e-02,8.35855603e-02,-6.89983815e-02,
4.33274172e-02,-9.20588598e-02,-4.83357795e-02,-4.37289514e-02,-5.01476265e-02,
-4.49389964e-02,7.61743411e-02,-3.64442058e-02,-6.44911500e-03,8.10137987e-02,
1.30393903e-03,-8.52339864e-02,-2.51874141e-02,-1.77694345e-03,-1.81573983e-02,
-1.20195128e-01,9.32918582e-03,-5.28160706e-02,-4.65480015e-02,2.85992562e-03,
-7.61409104e-02,2.63204565e-03,-4.24186699e-02,-1.06961094e-01,4.96444255e-02,
-3.22665721e-02,3.51905711e-02,-5.18901013e-02,-1.96483042e-02,4.74186838e-02,
-6.59600124e-02,-7.25275427e-02,-1.18936375e-02,6.97824508e-02,-6.71361282e-04,
-7.68373758e-02,-9.51212645e-02,-1.35205761e-02,5.99129386e-02,-5.19356430e-02,
4.72964011e-02,-4.69515994e-02,3.07559129e-02,-7.32784718e-02,-2.82974187e-02,
-6.77388220e-04,-7.58053437e-02,1.43202790e-03,-2.13911198e-02,-6.42457306e-02,
-4.89854254e-02,-7.84854740e-02,-5.42679243e-02,-7.82605484e-02,-3.39492671e-02,
-2.92051695e-02,3.92857902e-02,-3.15605402e-02,3.68045010e-02,-1.66054908e-02,
-7.55621642e-02,-4.24601026e-02,8.29007998e-02,-2.34549232e-02,4.68906052e-02,
-4.63544508e-04,-6.80402294e-02,-3.24430689e-02,-3.74694280e-02,3.04541774e-02,
8.75810161e-02,3.96405049e-02,1.43181216e-02,-4.02123630e-02,2.55365521e-02,
-6.58082124e-03,-5.74871153e-02,-5.34612834e-02,-7.55223557e-02,-1.82343367e-02,
2.11918470e-03,6.15893975e-02,-4.00357619e-02,-7.68211037e-02,8.91510323e-02,
6.26769960e-02,-6.31077513e-02,1.68329570e-02,-2.85879076e-02,-1.07409321e-01,
-9.33856890e-03,6.54563978e-02,-4.72535044e-02,-2.31967773e-02,-4.18026485e-02,
-4.57279347e-02,1.49933724e-02,6.27413988e-02,-1.07803680e-01,5.53870399e-04,
-5.11215404e-02,-4.00400860e-03,-1.77920070e-02,-5.89712663e-03,-7.86668360e-02,
-2.02508364e-02,4.94363829e-02,6.92350119e-02,-2.25142743e-02,-2.43427809e-02,
-8.53835978e-03,-7.27246925e-02,4.56525609e-02,-8.37727115e-02,-3.25078145e-02,
-9.35311094e-02,1.64857674e-02,-1.85984280e-02,-3.09116952e-02,5.93104251e-02,
1.56495813e-02,-5.34198172e-02,-3.27421203e-02,3.22109796e-02,7.97609016e-02,
5.60059659e-02,-7.32779130e-02,1.09759457e-02,-7.08369836e-02,5.76732419e-02,
5.08128740e-02,3.37883122e-02,5.37354536e-02,7.49113634e-02,-3.48363928e-02,
5.65121435e-02,-7.42542744e-02,2.18363721e-02,-1.70898717e-02,4.01211195e-02,
-4.74807918e-02,-9.33517292e-02,1.24263316e-02,-9.07590687e-02,-9.16500464e-02,
-9.57181677e-02,-1.37063628e-02,-1.04589641e-01,-7.59424642e-02,4.81880493e-02,
3.26591916e-02,3.67376357e-02,-3.36476192e-02,4.66663390e-02,-4.44922000e-02,
5.38651422e-02,-2.79685333e-02,5.14732637e-02,-9.21668187e-02,-8.28780606e-02,
-6.98113441e-02,4.82257083e-02,5.38346246e-02,-5.10394126e-02,-8.43592659e-02,
-7.73070604e-02,5.59251010e-02,-5.56597225e-02,2.87034363e-02,-9.87319089e-03,
5.15229590e-02,-9.03953835e-02,1.70842558e-02,2.69558225e-02,-5.71276248e-02,
-6.92328066e-02,2.18116418e-02,-1.63164251e-02,-3.31416912e-02,-3.15482877e-02,
4.46120910e-02,-1.53591642e-02,4.59333044e-03,-1.59542803e-02,1.07948966e-01,
1.28432084e-02,-2.64583677e-02,-6.91761822e-02,1.77047290e-02,-6.25759438e-02,
-9.44451764e-02,-4.49880697e-02,1.09369447e-02,-6.36508539e-02,-4.86709028e-02,
-7.42718428e-02,-1.34337256e-02,-6.31995574e-02,-7.72719011e-02,-1.00482240e-01,
-9.31587517e-02,-9.31143612e-02,-6.42167870e-03,1.19618028e-02,-2.29513366e-02,
-6.98742419e-02,-5.25296405e-02,-9.99492183e-02,-8.70306045e-02,3.77233922e-02,
-3.34779732e-02,6.68472052e-02,-7.16495141e-02,-9.78231952e-02,2.29593944e-02,
-2.62332167e-02,-7.86201581e-02,3.23555470e-02,6.38587996e-02,-5.71243726e-02,
-2.84490585e-02,6.11510687e-02,-3.66044953e-03,1.91281140e-02,-8.32524225e-02,
1.09386137e-02,3.21536958e-02,-5.82649037e-02,-8.91370550e-02,2.49923933e-02,
-9.89004299e-02,-5.61683215e-02,7.11874664e-02,5.84826060e-03,-2.47561969e-02,
-7.68573061e-02,-5.84748164e-02,-9.23863277e-02,-3.96528021e-02,-3.77216600e-02,
-1.04243889e-01,1.19757680e-02,2.18237173e-02,2.36729402e-02,-2.81786956e-02,
-4.36373986e-04,5.24340291e-03,3.97126637e-02,-6.19529597e-02,-4.85629663e-02,
-7.56352097e-02,4.83559780e-02,1.40941991e-02,-5.32115847e-02,2.09980961e-02,
9.63519700e-03,5.27947284e-02,-1.01278663e-01,-2.39330623e-02,-9.58018154e-02,
-5.60896732e-02,4.92971241e-02,1.35659147e-02,5.96053489e-02,-1.04212128e-01,
-5.27536757e-02,6.92863986e-02,-7.15187564e-02,5.45962946e-04,6.15351684e-02,
5.27955778e-03,5.15529960e-02,-3.26066301e-03,3.59206274e-02,5.78341447e-02,
-1.50574688e-02,-5.89156598e-02,-4.50047851e-02,6.18298128e-02,7.05483183e-02,
-8.24427381e-02,-9.40736569e-03,-7.25314245e-02,-3.27390879e-02,-6.09460026e-02,
3.33309397e-02,-1.48222670e-02,5.98308891e-02,-2.57203612e-03,-1.84444264e-02,
-7.47871846e-02,-5.84690878e-03,-4.39366661e-02,2.31327675e-02,-7.98964724e-02,
-4.72812690e-02,4.92512472e-02,7.59510919e-02,4.19702241e-03,-2.89569478e-02,
-1.41862314e-02,6.69375584e-02,4.32453193e-02,3.33356373e-02,2.35613640e-02,
-7.13906139e-02,-5.09331860e-02,-1.35840094e-02,-5.08078374e-02,-5.74186258e-02,
6.29764516e-03,2.01404449e-02,-1.02587149e-01,-3.39300931e-03,2.93947849e-02,
4.58754487e-02,1.11056315e-02,-7.63880610e-02,7.54947513e-02,-1.89472586e-02,
-1.85819045e-02,-4.37188596e-02,-8.58425871e-02,1.23888662e-04,-2.70185829e-03,
-3.07288649e-03,-3.77752185e-02,-7.46484399e-02,-9.16609839e-02,6.34221733e-02,
3.08131948e-02,5.75937703e-02,6.74639130e-03,5.18609136e-02,-2.37453599e-02,
-5.66211827e-02,-2.07566340e-02,5.05360961e-03,-2.94961836e-02,4.28895000e-03,
4.59535196e-02,-2.55918466e-02,4.99899238e-02,-6.99412152e-02,-3.68321203e-02,
-3.28500532e-02,7.20033646e-02,-1.05482176e-01,4.14341204e-02,-2.71458328e-02,
3.02956738e-02,7.43921623e-02,-4.45715971e-02,-4.67525683e-02,-2.57429034e-02,
-3.02968770e-02,4.23564203e-02,-7.92058632e-02,-4.94081490e-02,-4.37770076e-02,
-6.06874637e-02,-8.02738890e-02,-8.47012270e-03,-8.81631821e-02,6.20079674e-02,
-3.57489586e-02,-7.80229270e-02,-4.95496206e-02,2.91536432e-02,-3.62752937e-02,
-5.57647832e-02,9.18412302e-03,-8.27019811e-02,5.17401993e-02,9.63804685e-03,
-2.00192258e-02,2.31401268e-02,-9.24341939e-03,1.15473643e-02,6.32794276e-02,
-1.67666376e-02,2.76207589e-02,3.01184636e-02,-1.00035235e-01,8.87806416e-02,
-1.85250733e-02,-1.27868252e-02,5.69094457e-02,-9.76610929e-02,-6.06760457e-02,
1.90850087e-02,4.69416492e-02,-9.01507586e-03,5.50859421e-02,5.75315244e-02,
1.44945234e-02,-3.48160882e-03,-4.50747646e-02,4.15187851e-02,6.54704273e-02,
7.62428790e-02,2.65114885e-02,-9.55868140e-02,1.52122434e-02,-7.40974769e-02,
-2.39021331e-02,-5.87703399e-02,-7.11479923e-03,1.55092906e-02,1.12027206e-01,
3.02780559e-03,-1.29185598e-02,-1.02701131e-02,-8.31295364e-03,-3.81039977e-02,
2.23140307e-02,1.01388283e-02,-8.46983790e-02,-5.39162979e-02,6.22007698e-02,
-5.04096486e-02,6.16480187e-02,8.26583281e-02,-2.53471527e-02,-8.45798999e-02,
-8.60099867e-02,7.14176893e-02,5.62503599e-02,4.10630256e-02,3.70398222e-04,
2.11201049e-03,-2.24721455e-03,2.11383384e-02,-2.89488863e-02,4.35779570e-03,
-7.97873735e-02,4.52676639e-02,-6.88435435e-02,-7.11696297e-02,-5.82647957e-02,
1.37859052e-02,-1.14438832e-02,-8.19402412e-02,2.54036728e-02,-7.41441399e-02,
5.55069223e-02,7.58655965e-02,-6.51234463e-02,2.86962558e-02,6.73459619e-02,
7.52391964e-02,-5.89358397e-02,-7.80417621e-02,-4.34250534e-02,-1.46121802e-02,
1.54710403e-02,2.27139555e-02,1.99145284e-02,4.67319302e-02,8.02995190e-02,
5.36155812e-02,4.66256812e-02,-5.28396517e-02,-2.02386477e-03,-3.60032804e-02,
6.81655656e-04,-4.37124483e-02,4.13610712e-02,4.74762246e-02,3.33360694e-02,
1.09085195e-01,-3.78240868e-02,6.87097982e-02,7.62887578e-03,3.55455675e-03,
-1.90302059e-02,-5.55877164e-02,4.23314348e-02,-8.96284357e-02,-9.29207131e-02,
-1.02342747e-01,3.92818451e-02,-6.44889697e-02,3.46827619e-02,7.90557489e-02,
-2.22001113e-02,-8.04590657e-02,2.93218642e-02,-5.36147989e-02,2.79323738e-02,
3.77871096e-02,5.89539520e-02,-2.94137243e-02,-1.48630701e-03,5.93140572e-02,
-4.92173992e-02,-3.10093537e-02,4.37731221e-02,4.31101993e-02,4.46086340e-02,
-2.03928370e-02,4.19723727e-02,-8.47370848e-02,6.04089759e-02,-3.45766693e-02,
5.64096719e-02,-6.05111383e-02,-5.26108034e-02,-1.19466195e-02,-4.23674136e-02,
4.07606922e-02,-3.94584145e-03,3.59001197e-02,-1.79761052e-02,-5.77108264e-02,
-3.55212502e-02,-4.15215380e-02,6.84317620e-03,6.66274726e-02,1.95926428e-02,
-4.29920293e-02,-5.37547767e-02,-5.29362075e-03,1.47248071e-03,3.92072648e-02,
-2.48837620e-02,1.96002573e-02,-5.66763468e-02,-3.54072778e-03,-2.80819256e-02,
-5.23964427e-02,7.46397600e-02,3.59324925e-03,2.61585396e-02,-8.39916617e-02,
6.89179301e-02,-7.71996705e-03,-1.87892634e-02,2.85849534e-02,-8.43963102e-02,
-2.85581948e-04,3.66251506e-02,-2.56604087e-02,6.03030808e-02,-4.82801199e-02,
-1.32715283e-02,-7.52206743e-02,-5.01667149e-03,2.09089499e-02,-1.39715662e-03,
-7.09800748e-03,4.82535698e-02,-6.05118237e-02,3.60120982e-02,1.46868872e-03,
-5.38600311e-02,-1.03141233e-01,-2.68084602e-03,-9.71147045e-03,-2.07027514e-02,
1.71733648e-02,-3.14688347e-02,2.12701671e-02,-2.37758663e-02,-2.84483470e-02,
-8.66597220e-02,8.72245524e-03,-6.77199587e-02,3.88386510e-02,-1.03705414e-01,
-5.95328361e-02,-2.28334889e-02,-4.78799492e-02,-2.83159819e-02,-1.49445757e-02,
4.23791558e-02,-5.49588054e-02,-5.72084673e-02,6.54160604e-02,4.82939892e-02,
6.18739193e-03,1.58650242e-02,7.55046830e-02,4.59257774e-02,4.05601375e-02,
4.57717814e-02,-1.37217771e-02,-6.74069524e-02,8.02244712e-03,2.32209899e-02,
7.00380653e-02,-8.79197195e-02,-8.69327933e-02,4.77636643e-02,-4.78895456e-02,
7.24738613e-02,-2.71719433e-02,-6.93609789e-02,-4.34874371e-02,-1.25196511e-02,
-4.83466871e-02,-5.28230146e-02,-7.02316463e-02,-4.25710566e-02,-2.91398373e-02,
-8.13751221e-02,-1.75249893e-02,3.57532315e-02,-2.84460429e-02,5.86116500e-02,
-3.13208289e-02,6.54753149e-02,3.15215848e-02,-7.49114081e-02,7.10651428e-02,
1.71324071e-02,4.98408452e-02,-8.97612125e-02,-2.44245417e-02,-4.11783643e-02,
2.45328099e-02,2.12722309e-02,-1.67974550e-02,-8.99611264e-02,-5.92364818e-02,
1.49394274e-02,8.03576112e-02,3.13077830e-02,-9.77919064e-03,6.82432130e-02,
7.61048719e-02,-8.65594968e-02,-7.53120333e-02,-6.89274296e-02,3.34184468e-02,
