#include <math.h> 
 #include <string.h> 
#include "./include/k2c_include.h" 
#include "./include/k2c_tensor_include.h" 

 
static struct FRNN_0D_12channels_mar6_41_static_vars 
{ 
float lstm_1_state[128]; 
float lstm_2_state[128]; 
float lstm_3_state[128]; 
} FRNN_0D_12channels_mar6_41_states; 


void FRNN_0D_12channels_mar6_41(k2c_tensor* input_1_input, k2c_tensor* dense_1_output) { 

float lstm_1_output_array[64] = {0}; 
k2c_tensor lstm_1_output = {&lstm_1_output_array[0],1,64,{64, 1, 1, 1, 1}}; 
float lstm_1_fwork[512] = {0}; 
int lstm_1_go_backwards = 0;
int lstm_1_return_sequences = 0;
float * lstm_1_state = FRNN_0D_12channels_mar6_41_states.lstm_1_state; 
float lstm_1_kernel_array[3072] = {
6.08194582e-02,-6.91893920e-02,1.12728976e-01,1.81289017e-01,5.57143651e-02,
-3.74750122e-02,4.71746624e-02,2.99645532e-02,-1.61462829e-01,1.68904603e-01,
1.90970138e-01,-1.22301675e-01,1.23002663e-01,1.59113575e-02,-2.54195146e-02,
5.14965178e-03,9.70952958e-02,6.12748712e-02,1.37853608e-01,-6.14825636e-02,
5.13780788e-02,-3.42326835e-02,8.01190920e-03,1.15271449e-01,2.16357455e-01,
-1.85298368e-01,1.13844849e-01,-1.60517842e-01,-1.32540941e-01,1.55594990e-01,
-1.09110638e-01,8.83883089e-02,2.30118399e-03,2.32529715e-02,8.54207054e-02,
-1.09024204e-01,-6.61650524e-02,2.39705723e-02,-1.38576627e-01,-1.02144614e-01,
-2.51379237e-02,1.81317702e-01,1.28949121e-01,-1.71622694e-01,1.68820277e-01,
-1.18313581e-02,9.32979211e-03,-1.03464708e-01,1.21684819e-01,4.85414043e-02,
1.66966394e-01,5.73738068e-02,-5.47143258e-02,-1.38009205e-01,4.90001850e-02,
-8.66451859e-02,5.77183738e-02,-3.63769312e-03,1.33862913e-01,-1.07442342e-01,
-1.77046195e-01,9.99568403e-03,-4.21203822e-02,1.75678190e-02,-2.48385761e-02,
-6.68970942e-02,-1.65529437e-02,9.53742564e-02,-1.16362073e-01,1.22681417e-01,
-7.85385445e-02,-1.70363307e-01,7.10685775e-02,1.49461076e-01,-3.41174565e-02,
-1.17476016e-01,2.77929679e-02,-1.31722242e-01,1.43984437e-01,1.41042089e-02,
1.05104640e-01,-5.03652953e-02,-7.85396397e-02,1.76233072e-02,3.83746177e-02,
6.18366674e-02,-1.22130461e-01,-7.49652162e-02,7.55144656e-02,-1.98589079e-02,
5.45931980e-03,1.94769651e-01,-1.65265337e-01,-6.98175728e-02,-1.59607798e-01,
-6.63551316e-02,1.02590181e-01,1.04577415e-01,-9.70131010e-02,9.54111442e-02,
4.25910056e-02,1.12895355e-01,4.16217418e-03,1.84878439e-03,7.88584948e-02,
5.89401275e-02,1.29271775e-01,1.41582251e-01,-3.35665569e-02,-4.93599884e-02,
-5.43543212e-02,8.94069895e-02,-7.15414882e-02,1.11053422e-01,7.68426657e-02,
-1.33380353e-01,1.54622095e-02,1.15322933e-01,8.53649154e-03,9.67601016e-02,
5.89057207e-02,1.35905549e-01,1.53726250e-01,-1.20058268e-01,-7.10583478e-02,
1.26422182e-01,8.96626264e-02,-1.30462974e-01,6.74413964e-02,1.14041321e-01,
-7.88845718e-02,1.55556858e-01,1.27379864e-01,1.99132025e-01,1.54231161e-01,
1.09476857e-01,1.20941073e-01,-1.10024735e-01,-6.29284754e-02,-6.41523972e-02,
9.13909972e-02,1.55485004e-01,1.00779481e-01,2.30482087e-01,6.62512407e-02,
-1.48423955e-01,-1.12244651e-01,-9.52296555e-02,9.45273787e-02,1.19545490e-01,
-4.92632799e-02,1.32606477e-01,-1.03841551e-01,-9.64078829e-02,-1.95004329e-01,
3.02509144e-02,-1.45835489e-01,-8.11142027e-02,1.41920343e-01,-1.46299213e-01,
2.38330558e-01,-1.00516722e-01,-1.64205268e-01,-1.25088200e-01,3.08245923e-02,
2.31678486e-01,-2.61353496e-02,-5.14397807e-02,-6.07668981e-02,1.88216846e-02,
-1.47121042e-01,-3.75871174e-03,-8.56625885e-02,-1.27253696e-01,-6.16281331e-02,
-1.59675851e-01,1.05920143e-01,3.42616774e-02,3.16215307e-02,1.24578208e-01,
6.29839972e-02,1.41175732e-01,-1.68227166e-01,1.10998295e-01,-1.42799109e-01,
2.47895960e-02,7.41364658e-02,-8.56209099e-02,-1.14543978e-02,1.08550794e-01,
-9.42842588e-02,-9.54905450e-02,-3.75495814e-02,5.03365956e-02,7.10743219e-02,
2.06614375e-01,-1.90344136e-02,-2.82416139e-02,1.70102015e-01,9.71724913e-02,
-1.52933151e-01,3.45998593e-02,-8.80313590e-02,-4.47417200e-02,1.68830633e-01,
1.35423318e-02,-1.12523101e-01,1.03926979e-01,-2.64093792e-03,3.17031262e-03,
-7.29452521e-02,-4.21778634e-02,8.39932561e-02,8.38898420e-02,-7.83041418e-02,
-1.44798875e-01,2.40825832e-01,-6.58374652e-02,-2.15478204e-02,-1.48786262e-01,
4.89988513e-02,-2.90004537e-02,-1.35807231e-01,2.12408945e-01,6.12973759e-04,
3.30237925e-01,-2.14399695e-02,2.36881346e-01,-8.46029967e-02,6.22292683e-02,
-1.13614537e-01,-7.66968057e-02,-1.36691853e-01,-2.93422658e-02,5.11788838e-02,
1.59240160e-02,-1.39780343e-01,-1.17201455e-01,7.96836391e-02,1.04891323e-01,
4.22628410e-02,-6.02184758e-02,-3.74523662e-02,8.90061036e-02,-7.92504176e-02,
-7.47457892e-02,-1.14622444e-01,-1.13740452e-01,-9.24484134e-02,3.92740257e-02,
6.71921894e-02,1.24460854e-01,3.54945511e-02,1.45830154e-01,-2.11860202e-02,
-1.89034536e-01,7.28833377e-02,3.59960049e-02,-2.14077234e-02,1.77852884e-01,
-1.49669826e-01,-1.25126347e-01,-1.00922205e-01,1.21880576e-01,-1.54577475e-02,
-1.11430980e-01,8.89416561e-02,-1.84807763e-01,1.31574169e-01,1.88215952e-02,
1.43431634e-01,-2.12894697e-02,-1.44293323e-01,8.12188908e-02,-1.02580033e-01,
-8.26948583e-02,-9.95802358e-02,-4.14673612e-02,-5.72902150e-02,6.76845834e-02,
2.36605287e-01,-1.39708146e-01,4.67786985e-03,6.80119619e-02,1.03570126e-01,
-1.54101297e-01,6.50706887e-02,-1.47644281e-01,-4.00344562e-03,-7.04734847e-02,
8.47144648e-02,-3.18017416e-02,-7.43280053e-02,-1.00219011e-01,-2.04297870e-01,
-1.43757582e-01,-1.23553932e-01,3.43511850e-02,-2.46936366e-01,1.01190116e-02,
-1.14083380e-01,-4.78266217e-02,5.21468092e-03,-1.83165029e-01,3.48369852e-02,
-9.92748886e-02,1.06501035e-01,5.64873554e-02,-1.80195242e-01,-6.89333975e-02,
1.82586554e-02,3.79812010e-02,1.62196338e-01,1.52748540e-01,6.12969846e-02,
-8.32970366e-02,-4.63695899e-02,1.10530972e-01,1.42041832e-01,6.20582234e-03,
-7.19268024e-02,-4.47158851e-02,-1.29648179e-01,3.20388377e-02,-1.65800788e-02,
4.86555602e-03,7.90490061e-02,9.14539993e-02,-5.74262813e-02,-2.38879733e-02,
1.37842493e-02,-6.00557663e-02,-6.02975637e-02,-3.32669578e-02,4.40462232e-02,
-3.72548960e-02,-8.19700584e-02,1.41547974e-02,-1.22574605e-01,1.23464145e-01,
2.56045326e-03,1.14118151e-01,-3.33347879e-02,1.62323609e-01,-5.41457199e-02,
3.31345648e-02,1.20962709e-01,2.71820147e-02,-5.53167574e-02,-1.63660675e-01,
2.87374705e-02,-8.40260610e-02,1.59787476e-01,-2.85781734e-02,6.10004440e-02,
-3.34586725e-02,-4.36263867e-02,2.26690061e-02,-8.85520279e-02,6.45712614e-02,
1.25190035e-01,5.74279353e-02,-2.06167340e-01,-1.74953178e-01,5.50450794e-02,
-1.49001628e-01,2.89357394e-01,-9.56650600e-02,-2.36112177e-02,1.28446519e-01,
-7.80708715e-02,1.83640897e-01,-3.35597880e-02,-1.44877834e-02,-6.92712814e-02,
1.16194308e-01,-8.94403160e-02,1.50422648e-01,-3.32263336e-02,-1.03194743e-01,
9.30849612e-02,-6.08203886e-03,1.10868655e-01,-3.24208364e-02,-5.44787245e-03,
-1.01164296e-01,-1.47261783e-01,2.21740920e-02,1.10459246e-01,-1.45821050e-02,
2.35460717e-02,-1.21804081e-01,8.77961051e-03,1.72414005e-01,5.20070307e-02,
-4.22781184e-02,1.54603854e-01,4.47877459e-02,-1.49899617e-01,5.16370274e-02,
7.14682862e-02,-1.37707293e-01,-1.07185198e-02,1.12855606e-01,-1.94494709e-01,
-2.92148609e-02,7.44044483e-02,-3.00455708e-02,-6.52707890e-02,-5.80295920e-02,
1.47945955e-01,-8.22195113e-02,6.24694265e-02,-7.65968561e-02,-6.50180969e-03,
-7.10074008e-02,8.14179257e-02,-3.77898589e-02,7.06337243e-02,-1.01964891e-01,
-1.88081972e-02,1.00065932e-01,-2.78054681e-02,-1.46346629e-01,-1.56746700e-01,
1.53894812e-01,1.22141615e-02,-4.48590852e-02,-1.07638404e-01,-1.92873731e-01,
1.83427334e-01,-2.54954640e-02,-4.95678112e-02,7.00685084e-02,8.26262310e-02,
7.65047222e-02,-1.88243255e-01,-3.74081060e-02,-7.15726167e-02,-2.09625717e-02,
4.71395142e-02,-8.50954950e-02,-9.87548828e-02,-1.96322605e-01,7.56353810e-02,
-1.40986666e-01,4.93687242e-02,-1.19027935e-01,-4.68936749e-02,-1.96568388e-02,
-1.46079049e-01,5.34393899e-02,-1.50920600e-01,7.82145411e-02,-5.80252707e-02,
1.99086834e-02,-1.08404225e-03,-1.00313656e-01,1.16598375e-01,-8.49996507e-02,
8.30556825e-03,-1.76643848e-01,1.16271995e-01,1.06964439e-01,-1.41645327e-01,
7.64531419e-02,-2.21512560e-02,8.42552632e-03,-6.97476789e-02,-5.45324795e-02,
-5.53343678e-03,-2.65126843e-02,1.85337663e-01,1.67050332e-01,-7.37957880e-02,
-1.44599617e-01,1.06448829e-01,-4.25042175e-02,7.98234120e-02,-1.34786889e-02,
1.17970146e-01,1.85643323e-02,-1.62529632e-01,4.31144685e-02,-1.64099351e-01,
1.48682639e-01,-1.59555301e-01,9.02242213e-02,-1.49097279e-01,1.18165419e-01,
-3.73838209e-02,-1.59015939e-01,-3.55691463e-02,-1.02253065e-01,2.39100575e-01,
6.97632181e-03,5.40939346e-02,9.16234683e-03,-1.23827562e-01,1.04544200e-01,
-7.98803717e-02,3.93853895e-02,-1.30049065e-01,-2.93751657e-02,-2.03103378e-01,
-1.55999497e-01,-2.46095415e-02,-1.58158749e-01,-1.05564311e-01,-4.15631831e-02,
-2.97858030e-01,-3.32565755e-02,-1.25489729e-02,-1.58418879e-01,-4.90540788e-02,
8.55870694e-02,-1.27268985e-01,5.37877204e-03,1.96339861e-01,-1.81544572e-01,
-1.32861093e-01,-1.42445281e-01,-1.88898757e-01,2.09064543e-01,-1.10242873e-01,
2.00263560e-01,-4.39661257e-02,-2.05279693e-01,7.44128302e-02,1.40599191e-01,
2.14624584e-01,7.75807351e-02,-5.86002991e-02,-4.45355698e-02,1.76924318e-01,
4.25454751e-02,-2.19523106e-02,-2.45314464e-02,-1.26761913e-01,-6.57774583e-02,
-1.10934623e-01,-1.21740880e-03,2.50026640e-02,-9.77032185e-02,-1.10871950e-03,
-1.19626671e-01,-9.88214314e-02,-1.72396839e-01,3.75008024e-03,-6.95244819e-02,
-4.08957191e-02,-5.56476265e-02,8.28634296e-03,-8.49121287e-02,-9.93054435e-02,
-2.67838180e-01,-2.15630420e-03,-4.71261367e-02,-1.10517703e-01,2.94850245e-02,
-1.14185430e-01,-8.58178958e-02,1.01676442e-01,-1.51314000e-02,2.96389554e-02,
-9.09692273e-02,5.91242127e-02,9.59554315e-02,-3.94050516e-02,-1.48375958e-01,
1.41692478e-02,-1.31819202e-02,8.77503902e-02,-2.04920560e-01,-3.02351601e-02,
-6.37727827e-02,9.75069329e-02,-5.38370684e-02,-1.13098271e-01,-9.17367544e-03,
6.08805418e-02,1.56804845e-02,2.08066314e-01,-4.60111089e-02,-1.98774273e-03,
-7.67310336e-02,6.28391653e-02,1.98359974e-02,2.35924721e-02,-6.53055087e-02,
-1.11005150e-01,2.07046211e-01,3.98209207e-02,-1.41602814e-01,1.22960061e-01,
-9.62123871e-02,-7.40318522e-02,3.69674377e-02,-8.63686875e-02,1.39570817e-01,
-6.75939098e-02,-1.15445629e-01,5.87335825e-02,-1.44209098e-02,-1.51484087e-01,
6.39976785e-02,-1.37124896e-01,-3.25882435e-02,1.45326972e-01,4.79049720e-02,
-1.33748382e-01,3.42308134e-02,-1.85760081e-01,1.81075975e-01,1.22228548e-01,
-4.96506551e-03,7.68760666e-02,-8.74175206e-02,-1.30934343e-01,-1.56746238e-01,
-1.37201041e-01,-1.24161817e-01,-1.77246518e-02,6.08071731e-03,1.21830739e-02,
-1.40535265e-01,1.99985370e-01,8.46862644e-02,-1.33175716e-01,8.71633813e-02,
-4.40885611e-02,-5.57370372e-02,1.21561684e-01,4.71395142e-02,-7.83786643e-03,
-3.84402312e-02,1.23737007e-01,-1.18131623e-01,4.14693691e-02,-8.00839532e-03,
-8.20439085e-02,8.75916556e-02,-3.68120484e-02,8.01039487e-02,-3.86203974e-02,
-8.26062784e-02,-3.10343169e-02,-1.80906415e-01,2.97823623e-02,2.85297632e-02,
8.83009359e-02,-1.56065956e-01,-1.56025216e-02,-8.73744115e-02,4.19360436e-02,
-1.54411137e-01,9.02252868e-02,-2.01483406e-02,3.01579852e-02,-1.73132837e-01,
-1.40994102e-01,9.60786119e-02,-1.38734847e-01,9.05006379e-02,2.17092976e-01,
7.28843138e-02,-1.51218131e-01,-1.11862004e-01,-6.18121177e-02,-5.09746857e-02,
-4.10134457e-02,-9.04042125e-02,-7.74177536e-02,3.10759023e-02,-1.08247131e-01,
-9.99046937e-02,-7.47929811e-02,-4.60683033e-02,-9.80322063e-02,5.30906282e-02,
-8.02516416e-02,5.58063900e-03,3.21127400e-02,-1.33906426e-02,-1.57808349e-01,
-7.31239393e-02,1.71462342e-01,-1.40474364e-01,2.21830271e-02,-2.56676022e-02,
9.52146500e-02,6.03079982e-02,3.96589972e-02,-1.03525080e-01,-1.65602326e-01,
1.65468499e-01,-7.95626119e-02,-3.71165276e-02,-1.89620687e-03,2.98892539e-02,
1.28064781e-01,-1.98965967e-01,1.52676948e-03,-7.14962138e-03,-2.39842739e-02,
-2.21043095e-01,1.54227167e-01,-9.81007740e-02,-3.86119001e-02,3.96885723e-02,
-1.72688048e-02,3.62302661e-02,-2.14394510e-01,-4.84282672e-02,1.11830011e-01,
5.39462157e-02,-2.56238759e-01,1.73524141e-01,9.46905017e-02,6.99064285e-02,
-5.58901392e-02,9.94567275e-02,-1.50098085e-01,2.29566365e-01,2.18745377e-02,
-1.68907300e-01,8.60965922e-02,5.90592958e-02,-7.17504174e-02,3.11557166e-02,
-4.78039160e-02,1.03382960e-01,-1.76900774e-01,-2.64582813e-01,1.84190705e-01,
-6.96765482e-02,4.39997355e-04,-1.53084353e-01,4.57330570e-02,-4.96006384e-02,
1.73213929e-01,-1.29961520e-01,2.84459945e-02,-1.73881203e-01,3.84597108e-02,
-2.68222719e-01,-7.70487115e-02,9.51800942e-02,-9.84237809e-03,4.92373630e-02,
-2.57413387e-01,-8.31615999e-02,-1.96016490e-01,-3.41841877e-02,8.66879001e-02,
-9.18918326e-02,2.41913870e-01,9.27035511e-02,2.13570576e-02,-1.39523195e-02,
1.29991084e-01,8.47288147e-02,-5.79709113e-02,-7.44724497e-02,7.08963629e-03,
9.50687006e-03,-9.26380455e-02,-4.17174883e-02,1.21547975e-01,6.07206747e-02,
1.35185719e-01,-9.49674565e-03,1.02304555e-01,1.53550178e-01,9.62545201e-02,
-3.16724251e-03,-4.22427990e-03,-1.67544317e-02,-1.70539152e-02,1.62774995e-01,
1.16240509e-01,4.80135642e-02,8.80080536e-02,3.20774913e-02,4.14800271e-02,
2.05630139e-01,1.97457001e-01,9.74198952e-02,1.97460905e-01,1.33258626e-01,
1.27598643e-02,-5.64691313e-02,1.17824681e-01,-1.12842798e-01,1.44448340e-01,
-8.85720700e-02,1.12376526e-01,-6.79708645e-02,-6.01799749e-02,1.69478893e-01,
-8.44186470e-02,1.68901026e-01,1.54417664e-01,-4.75536287e-02,1.27842739e-01,
-2.10904796e-02,8.56722519e-02,1.04701877e-01,1.50465369e-01,-4.80695348e-03,
6.51329234e-02,3.75662185e-02,-5.68180811e-03,-7.80821517e-02,4.59819548e-02,
-1.14361413e-01,7.83593133e-02,-9.61764231e-02,2.18162984e-01,1.75545767e-01,
3.39260921e-02,1.01622632e-02,2.00565949e-01,1.50096286e-02,-9.77818146e-02,
5.02807982e-02,1.44660577e-01,-6.26010448e-02,-1.19707830e-01,-1.06115267e-01,
-6.77646184e-03,-1.20346909e-02,1.71461582e-01,-5.02720755e-03,-8.34595859e-02,
4.43375334e-02,7.19190435e-03,1.65929675e-01,-2.74678711e-02,9.14357752e-02,
-2.30913609e-02,1.27760172e-01,1.35734752e-01,2.01164316e-02,1.38158888e-01,
1.82353765e-01,1.18661836e-01,-7.71791441e-03,-1.40713349e-01,-5.67107238e-02,
6.43089088e-03,8.89802575e-02,-1.66151166e-01,-8.08037166e-03,1.03902422e-01,
-3.52164991e-02,1.98721021e-01,-2.91943569e-02,-1.18348666e-03,5.07275388e-02,
-8.28953460e-02,1.34013258e-02,-1.20651297e-01,-3.88758034e-02,1.12522401e-01,
-2.30094157e-02,-1.35564711e-02,1.16318576e-01,1.33908063e-01,-7.41226822e-02,
6.05515726e-02,-3.25827412e-02,4.54556383e-02,1.93176395e-03,-7.63077512e-02,
8.81596729e-02,-1.19168848e-01,2.04667777e-01,1.27201632e-01,4.71454337e-02,
1.08872531e-02,1.51627824e-01,-5.98269291e-02,3.91263179e-02,1.13563932e-01,
3.64760980e-02,-4.88925502e-02,9.21054464e-03,-8.75141546e-02,-1.26297310e-01,
1.03355706e-01,1.10578232e-01,-4.06042859e-02,4.28982079e-03,-9.33921058e-03,
4.65478562e-02,5.32674305e-02,-5.93923740e-02,5.95489331e-02,-9.36986580e-02,
3.75955664e-02,-7.85171092e-02,1.03320748e-01,-1.17751442e-01,4.05501276e-02,
6.59349933e-02,1.31267712e-01,-1.88928843e-02,-9.70119089e-02,8.59692171e-02,
2.44108436e-04,4.77170646e-02,-9.23155695e-02,-1.14044137e-01,-6.92611411e-02,
-4.02162336e-02,-8.45235810e-02,1.21101670e-01,8.26004744e-02,-5.92268221e-02,
1.35721982e-01,1.29683493e-02,1.27816694e-02,9.23280511e-03,1.07858777e-01,
1.06773414e-01,1.74310043e-01,-5.94583713e-02,-6.42458797e-02,-5.42814881e-02,
9.78393704e-02,6.96732551e-02,-1.30653590e-01,4.02933583e-02,-4.83555496e-02,
-1.53231071e-02,1.10574640e-01,-1.30972877e-01,1.24784112e-01,-9.43720788e-02,
-4.18761671e-02,-6.76103905e-02,4.14546169e-02,2.17465907e-02,4.83610630e-02,
-3.67400423e-03,9.15715396e-02,-9.00950134e-02,1.55934587e-01,-1.21281415e-01,
-1.05520682e-02,-1.35784447e-02,-7.35011604e-03,6.59056380e-02,-1.65642742e-02,
8.36245716e-02,-9.11940038e-02,-8.13495275e-03,9.83890370e-02,6.32108301e-02,
9.41384211e-02,-9.98398662e-02,8.80486518e-02,3.28738578e-02,1.49856985e-01,
-1.58616945e-01,1.76170483e-01,1.22064769e-01,2.42429413e-03,-1.93295553e-02,
1.41733542e-01,-6.44853860e-02,-5.41619323e-02,-1.08895749e-01,-9.05175284e-02,
8.58572870e-02,5.85985109e-02,2.96932627e-02,9.69379246e-02,1.37632340e-01,
-1.73255846e-01,1.41952917e-01,1.37192104e-03,9.48094111e-03,1.43695742e-01,
8.41507688e-02,3.19380648e-02,6.38117567e-02,1.86784603e-02,-5.72723374e-02,
7.20725134e-02,1.52858943e-01,-7.43290409e-02,3.80695984e-02,9.56370961e-03,
1.29342064e-01,1.54772639e-01,2.19244119e-02,1.83725223e-01,8.43491852e-02,
-7.25660771e-02,4.63796519e-02,-1.40393444e-03,8.67520645e-02,6.94140121e-02,
-7.15430304e-02,-2.69934051e-02,3.09038330e-02,8.97312388e-02,-6.91460911e-03,
-1.20510757e-01,-8.98691490e-02,4.93282974e-02,1.37913197e-01,8.34205896e-02,
1.27387106e-01,9.39032957e-02,5.22703379e-02,1.43515453e-01,2.65261792e-02,
4.08871733e-02,7.36171305e-02,-1.09489098e-01,3.92600521e-02,-8.73907208e-02,
-9.98805463e-03,1.11967504e-01,1.86422870e-01,1.56838238e-01,4.61513409e-03,
-2.24396903e-02,1.88423321e-01,-1.09384857e-01,-2.28949487e-02,1.44477576e-01,
-2.31011994e-02,9.19284970e-02,1.84150711e-01,7.06416497e-04,6.08862452e-02,
-6.13618754e-02,-2.62710415e-02,-6.45204708e-02,1.31230533e-01,1.94219351e-01,
5.56749478e-02,1.17380992e-01,3.19425091e-02,1.49984598e-01,3.89680751e-02,
-7.97772631e-02,-3.68564278e-02,-2.33390275e-02,-3.87492254e-02,-6.20436259e-02,
1.52777404e-01,8.78170952e-02,4.35706414e-02,-4.29297425e-02,1.71829164e-02,
1.46627337e-01,-9.78231709e-03,1.54585958e-01,-1.23743378e-01,-1.22906715e-01,
-2.73958631e-02,-7.06041306e-02,-4.40692566e-02,1.38987347e-01,-1.23327278e-01,
1.39400035e-01,-1.06850535e-01,-5.68500347e-03,3.82615961e-02,-1.35383001e-02,
1.18380778e-01,5.66737773e-03,8.47272351e-02,2.26006396e-02,1.32487476e-01,
1.45365685e-01,-2.41106306e-03,-1.55992787e-02,-2.83605494e-02,1.10005431e-01,
1.51824623e-01,-9.77201462e-02,8.36524088e-03,1.14137247e-01,1.10447586e-01,
1.15065619e-01,7.68395886e-02,-2.78138351e-02,8.92283171e-02,5.09070419e-02,
-1.75333861e-02,4.84365150e-02,1.20818146e-01,6.12825202e-03,5.79590052e-02,
-4.16119769e-02,3.59530896e-02,1.09242968e-01,8.70198533e-02,-7.97544271e-02,
1.38323260e-02,4.66181617e-03,-3.97158563e-02,-9.03820321e-02,-3.04953624e-02,
1.48176670e-01,-8.03882927e-02,8.53464007e-02,-1.43190518e-01,-6.90821838e-03,
2.39177980e-02,9.53437611e-02,1.41717233e-02,-1.04485378e-01,1.37563780e-01,
1.53266460e-01,5.23321405e-02,-9.73845795e-02,4.99994494e-02,-2.83046477e-02,
-1.24675478e-03,-7.93434400e-03,-5.15381098e-02,1.78102329e-01,-5.13346195e-02,
-1.55446038e-01,-8.47722292e-02,3.04587232e-03,-4.33016010e-02,4.11780775e-02,
-2.07150236e-01,-4.42700051e-02,1.26552507e-01,1.54207677e-01,-8.72668773e-02,
-8.11900869e-02,-1.41837224e-01,1.03190348e-01,1.55627683e-01,-1.33615974e-02,
-3.90405208e-02,-4.06035855e-02,5.11100516e-03,-1.35906888e-02,-4.08772156e-02,
1.61767259e-01,1.11290216e-01,1.55422747e-01,1.83245674e-01,7.52871484e-02,
-1.63763668e-02,1.15764521e-01,-8.77924562e-02,1.91932708e-01,-3.53293754e-02,
6.03456870e-02,-3.93529609e-02,5.22715263e-02,-5.93292676e-02,-5.21112941e-02,
3.25631388e-02,5.45797916e-03,1.59805983e-01,-8.86218026e-02,-9.03936923e-02,
8.46500974e-03,1.50661513e-01,-3.25009339e-02,1.15572043e-01,1.65934503e-01,
-6.38804883e-02,1.21742599e-01,-2.66821478e-02,4.95178290e-02,1.20272815e-01,
9.31601152e-02,2.52214093e-02,5.34995040e-03,-3.93883027e-02,-5.44888042e-02,
-1.40953735e-01,1.01270601e-02,-7.25761428e-03,3.35545116e-03,1.23690374e-01,
-3.67422253e-02,6.24433206e-03,-6.43437132e-02,3.32321599e-02,3.61757092e-02,
7.85060152e-02,1.23039121e-03,5.94100961e-03,4.42271978e-02,7.09085315e-02,
1.50625154e-01,-9.21781287e-02,9.18046944e-03,4.75290865e-02,-5.33251315e-02,
-9.36163589e-02,-1.41943380e-01,1.73791230e-01,7.88250268e-02,6.93281889e-02,
3.37747782e-02,-1.92774430e-01,1.13961771e-01,-1.45960748e-01,4.53270897e-02,
8.48733261e-02,8.49484354e-02,1.05220921e-01,4.59399372e-02,-9.57245976e-02,
-6.47145370e-03,-7.77261704e-02,5.95242679e-02,-1.28094330e-01,4.61387299e-02,
2.30706874e-02,2.64750863e-03,-1.75261870e-02,-1.99011769e-02,4.89291921e-02,
1.73991427e-01,1.29276916e-01,-1.40621051e-01,1.00907877e-01,-1.18394569e-01,
8.66385549e-02,-6.32372545e-03,1.88622221e-01,-1.54554859e-01,3.80039699e-02,
2.48196423e-02,1.25555834e-02,-1.38910890e-01,-1.65810827e-02,1.84894636e-01,
1.02407634e-01,7.03809038e-02,3.63284536e-02,2.41454020e-02,-9.03276280e-02,
-1.91570774e-01,1.50345594e-01,5.68581671e-02,8.06204006e-02,3.59339684e-01,
-7.69193769e-02,-1.44295022e-02,1.44968152e-01,-9.99328196e-02,1.61929708e-02,
9.96676013e-02,1.13423705e-01,-4.51870449e-02,1.24660708e-01,1.92054361e-01,
-5.91113567e-02,-6.13699704e-02,1.58678234e-01,6.63807467e-02,1.14623919e-01,
-2.14671239e-01,6.01876751e-02,-1.10898390e-01,9.34638903e-02,3.40433642e-02,
5.91152981e-02,5.90638351e-03,1.40491977e-01,-1.08350702e-01,1.43304542e-01,
-1.56354457e-01,5.99913411e-02,1.60070240e-01,4.80722375e-02,-2.89511736e-02,
8.08855221e-02,1.47277012e-01,-2.98946886e-03,-8.56695101e-02,-1.05645038e-01,
-4.74069118e-02,1.43746793e-01,-1.45269722e-01,1.06556460e-01,1.49090424e-01,
4.07535844e-02,-2.04621535e-03,3.28494087e-02,1.02264449e-01,7.49056637e-02,
1.35167167e-01,1.66760340e-01,7.94542313e-04,6.84203431e-02,-8.97823796e-02,
2.03446019e-02,-7.81358406e-02,-1.25819519e-01,1.48261888e-02,-1.85914785e-02,
-9.49114487e-02,1.51808575e-01,3.84828672e-02,3.74784246e-02,-1.13441676e-01,
-6.48359284e-02,5.32949939e-02,-4.34722453e-02,8.60520378e-02,1.37388766e-01,
-8.85832757e-02,-6.35314956e-02,2.93413587e-02,1.80856790e-02,1.27545580e-01,
-1.21489510e-01,3.84070823e-04,1.20285466e-01,-1.86754987e-01,-1.66808628e-02,
1.19183816e-01,-4.19163667e-02,1.09700739e-01,9.30140167e-02,5.03497897e-03,
-3.67874210e-03,-7.69295916e-02,-6.08464256e-02,1.81367472e-01,1.40112758e-01,
1.32895261e-01,-3.47982943e-02,1.49530068e-01,-1.10293992e-01,-1.06497921e-01,
-1.08267717e-01,1.88131690e-01,2.17139628e-02,1.82455797e-02,1.54493257e-01,
1.51805669e-01,-4.77828495e-02,-1.95635221e-04,4.41073626e-03,1.46303907e-01,
-9.90137383e-02,7.55540803e-02,7.15470985e-02,-2.67798398e-02,1.68004856e-01,
3.80810201e-02,-1.46285713e-01,-1.04362652e-01,8.40556994e-03,7.52190053e-02,
-1.53971184e-02,-3.83293629e-02,1.42061904e-01,2.56283153e-02,-1.61072724e-02,
4.97286655e-02,2.43054461e-02,5.20017333e-02,-5.61866313e-02,-4.88525815e-02,
7.09672570e-02,1.46130966e-02,-5.60196079e-02,5.49173579e-02,-1.08107142e-01,
5.73079474e-02,-6.37870505e-02,1.18459739e-01,1.33936867e-01,1.23115005e-02,
1.09669141e-01,-1.94905829e-02,4.99593616e-02,-3.77567373e-02,-1.29081249e-01,
9.42529961e-02,-1.30336046e-01,1.76536828e-01,-5.54552637e-02,1.64817363e-01,
-5.12961857e-02,8.96691456e-02,-3.32505740e-02,-8.12827200e-02,1.65314734e-01,
1.29814416e-01,-2.76853256e-02,2.08027363e-01,9.36161727e-02,6.19996451e-02,
1.42058492e-01,1.40937814e-03,-1.10300668e-01,7.84492269e-02,8.43167454e-02,
-4.18996252e-02,8.97700787e-02,9.08821747e-02,-1.01674885e-01,-4.08871435e-02,
-7.22787827e-02,-4.97417450e-02,-5.60038239e-02,1.56433031e-01,1.17656477e-01,
1.28538534e-01,1.68576334e-02,-8.94434899e-02,4.45653871e-02,-8.07893276e-02,
7.27522075e-02,7.61685669e-02,-2.00297683e-03,1.41374081e-01,6.30388483e-02,
-4.58128378e-03,1.15859821e-01,5.10404771e-03,4.85103764e-02,-1.48076913e-03,
8.59949365e-02,-5.35630323e-02,1.74921960e-01,-5.77403270e-02,1.70559481e-01,
-1.31528853e-02,-1.59189310e-02,-9.53788161e-02,1.03029661e-01,7.15558678e-02,
-6.23422265e-02,3.30812633e-02,1.09346017e-01,-1.17716037e-01,-5.01572341e-02,
-2.92457882e-02,-9.55495089e-02,-1.66900948e-01,1.40430748e-01,-7.90292323e-02,
1.69531614e-01,1.66858211e-02,-3.51936333e-02,3.75867821e-02,5.11347167e-02,
1.30409617e-02,-1.29390955e-01,8.63312781e-02,-5.30471876e-02,4.39523757e-02,
4.91317101e-02,1.71087474e-01,6.15184419e-02,-6.78843707e-02,-1.02376416e-02,
9.70084742e-02,9.11973193e-02,-1.15621909e-01,-6.73401952e-02,2.16815360e-02,
6.58224374e-02,2.18180735e-02,1.72290914e-02,-4.28096913e-02,3.56619544e-02,
-1.17825046e-01,2.17234362e-02,-1.86671212e-01,-4.83238809e-02,-3.19105610e-02,
1.75361156e-01,9.39079821e-02,-1.89020216e-01,-1.27269268e-01,-5.52225597e-02,
-9.23548564e-02,3.93553562e-02,2.28848942e-02,-2.26075649e-02,9.02810395e-02,
1.24447711e-01,9.35004950e-02,6.72983080e-02,2.73472699e-03,4.24074642e-02,
-5.80428019e-02,-8.75210166e-02,1.01301409e-01,-7.84375295e-02,1.28065169e-01,
-3.77691276e-02,-4.54326021e-03,3.43780331e-02,1.63390741e-01,-6.16096109e-02,
-1.20204926e-01,9.10824463e-02,-9.44339409e-02,-3.30325775e-02,3.73621583e-02,
-9.62359309e-02,-9.99544188e-03,-2.36156583e-02,7.41229802e-02,-1.30840108e-01,
-1.91932544e-02,-1.30200125e-02,5.81180565e-02,-6.46847859e-02,2.94111341e-01,
-1.41968504e-01,7.04476237e-02,5.65836951e-02,1.80456176e-01,-1.88608151e-02,
5.59826158e-02,-1.28148079e-01,-8.63326807e-03,-1.22788340e-01,1.58361390e-01,
1.20269306e-01,-4.21176180e-02,-5.37445731e-02,1.72592923e-01,4.07998152e-02,
1.62023351e-01,-1.37179703e-01,4.96210866e-02,-1.91305541e-02,-2.17778515e-03,
-1.54111590e-02,-5.54597527e-02,1.07329506e-02,1.97748449e-02,1.24934778e-01,
-8.13082010e-02,-4.07564417e-02,-1.39812659e-02,1.05764076e-01,-7.39671886e-02,
-3.57358381e-02,8.95069540e-02,6.04020432e-02,-1.50473833e-01,-5.08738719e-02,
8.04825276e-02,3.69209982e-02,-8.25346261e-02,4.48379032e-02,9.26714018e-02,
-6.85927123e-02,-8.28486532e-02,1.22493267e-01,-7.53152296e-02,-5.51800765e-02,
-8.76610428e-02,-1.19535974e-03,5.20759076e-02,1.71927046e-02,-1.05678789e-01,
1.06703810e-01,-2.99983099e-02,-1.34127706e-01,2.71627773e-03,-3.43949124e-02,
-9.19050053e-02,7.62337670e-02,2.07709409e-02,-7.53436610e-02,1.44165918e-01,
1.69825315e-01,-6.89535737e-02,2.63812970e-02,5.10454550e-03,-1.20794445e-01,
8.13637599e-02,1.00036725e-01,5.71161471e-02,-5.64129241e-02,-1.40827820e-01,
1.74903974e-01,1.09423585e-01,-3.27597633e-02,-6.56493828e-02,-1.58177942e-01,
2.49083973e-02,-4.04218771e-02,-8.29489529e-02,3.94770242e-02,-1.70484520e-02,
1.23701334e-01,4.39407490e-02,3.73549871e-02,6.38843188e-03,-8.27518702e-02,
7.77106583e-02,-1.02844099e-02,1.28813684e-01,-2.10250840e-02,8.87055136e-03,
1.22564167e-01,1.05120972e-01,-7.09250122e-02,-1.75103173e-02,-2.52155331e-03,
-1.74867615e-01,-1.43414199e-01,8.03386867e-02,-1.26109108e-01,-4.31171544e-02,
4.49883118e-02,7.03152865e-02,-1.56583816e-01,1.69576462e-02,3.83870304e-02,
-5.79453968e-02,6.18183278e-02,-1.83696412e-02,-1.28319249e-01,-1.19738378e-01,
1.10154338e-01,-4.04265337e-02,1.32837743e-01,5.71776666e-02,-8.85340967e-04,
-1.00774981e-01,1.09134905e-01,1.15452826e-01,1.09968282e-01,-1.55211195e-01,
-4.15301993e-02,6.81981817e-02,1.79685391e-02,-9.91172418e-02,-1.34478450e-01,
-3.88025530e-02,-6.32089237e-03,-1.95302945e-02,7.97886327e-02,5.69747239e-02,
-1.25537097e-01,-1.35606140e-01,1.37695357e-01,-2.54822448e-02,-1.41309023e-01,
1.21407196e-01,-3.08682173e-02,1.16372146e-01,2.92837303e-02,5.91963194e-02,
1.31601483e-01,-9.00872648e-02,-1.16621196e-01,-9.41582099e-02,6.17697202e-02,
-9.24341753e-02,-2.07605045e-02,-1.14332549e-01,-1.92209799e-02,-1.09499983e-01,
-7.52867013e-02,-1.41607255e-01,-8.02622959e-02,-8.07494968e-02,1.33583874e-01,
1.13381118e-01,-4.00891043e-02,-1.61169142e-01,7.24530816e-02,-1.06095457e-02,
9.59052220e-02,2.13762913e-02,-1.01420119e-01,9.71600786e-02,5.00584878e-02,
-5.17529696e-02,-8.01110491e-02,1.56600066e-02,4.28534672e-02,1.26731947e-01,
-8.24836940e-02,-9.82563361e-04,-1.11704856e-01,3.21964733e-02,-1.72808804e-02,
5.46131022e-02,-4.49408293e-02,-1.10022947e-01,-2.16971487e-02,5.57512417e-02,
1.45991012e-01,-7.49939531e-02,-6.19480386e-02,-1.64288282e-01,9.70503539e-02,
3.86551879e-02,-7.10801706e-02,1.38799384e-01,-6.82295486e-02,-8.76129325e-03,
-5.99165261e-02,-5.17895781e-02,8.23123753e-02,-6.79405332e-02,-1.14313893e-01,
7.29137361e-02,5.98171428e-02,-4.06720079e-02,6.87930137e-02,-3.80080789e-02,
9.95162725e-02,-5.43923210e-03,-3.46802436e-02,1.74179956e-01,-2.38294178e-03,
-9.03721340e-03,-1.03278726e-01,-1.33616790e-01,-1.87561601e-01,6.76619783e-02,
1.66357219e-01,1.73849508e-01,3.22627276e-02,-3.17817405e-02,1.19849347e-01,
6.85124025e-02,2.91046873e-02,-8.88156518e-02,-1.15688033e-02,-1.07724212e-01,
-1.95618957e-01,-1.93199292e-02,1.18431143e-01,1.84530504e-02,-1.09074004e-01,
-9.56213176e-02,1.77744120e-01,-3.64789814e-02,-3.40285115e-02,-3.29229608e-02,
1.95591271e-01,5.43416515e-02,8.49852338e-02,1.74001440e-01,-1.02778986e-01,
2.58674413e-01,1.03061404e-02,-2.44445249e-01,-1.36303037e-01,-8.87876377e-03,
-5.81024913e-03,1.04835827e-03,-1.00121692e-01,-4.62617129e-02,-3.14232856e-02,
-4.34738882e-02,-3.04076392e-02,-5.01929931e-02,-1.80323448e-04,-5.79490559e-03,
-8.85087028e-02,9.18002725e-02,-7.74601549e-02,-1.74079135e-01,-9.77955461e-02,
1.85567122e-02,-1.93875376e-02,1.08486488e-02,-2.16744453e-01,1.57017577e-02,
1.94189660e-02,3.16467695e-02,-3.29512656e-02,-2.00605556e-01,6.80221245e-03,
1.66881382e-01,-1.43733084e-01,-7.05027729e-02,3.96260396e-02,-7.84480944e-02,
2.75416404e-01,-1.10033669e-01,-1.24991179e-01,-8.97038355e-02,-1.78768262e-02,
-1.14751399e-01,-1.39811859e-02,-6.50243536e-02,-1.78242713e-01,-4.70934957e-02,
7.99887031e-02,7.95208663e-02,-2.79417317e-02,5.75429089e-02,-1.10386007e-01,
4.11795340e-02,-1.15457870e-01,1.27949193e-01,-3.77867967e-02,1.33593634e-01,
4.62692007e-02,-1.19469367e-01,1.43274575e-01,8.99035633e-02,8.04021433e-02,
9.86201465e-02,1.51160121e-01,1.37816936e-01,1.34101287e-01,-6.48412034e-02,
9.43239927e-02,3.61396931e-02,-1.02483891e-01,-6.62148446e-02,-2.52343323e-02,
1.61485359e-01,-1.35711923e-01,-2.03740552e-01,-2.53675487e-02,1.27563849e-01,
-1.53194852e-02,-7.75893480e-02,-5.49040549e-02,-5.98749220e-02,1.07517615e-01,
1.15880445e-01,6.55324105e-03,-4.05998603e-02,8.22281316e-02,5.63446023e-02,
2.73388880e-03,-3.61061059e-02,7.54840448e-02,-1.04423404e-01,-3.73958685e-02,
1.29188240e-01,1.39445975e-01,1.06516913e-01,-4.42521367e-03,1.01354547e-01,
6.91343397e-02,4.34806421e-02,-2.18873993e-02,1.18307434e-01,2.32625410e-01,
-3.47237028e-02,-4.11374569e-02,8.12367499e-02,-8.73867050e-02,5.56710921e-03,
3.66527122e-03,-4.74561490e-02,-9.92067605e-02,2.95564029e-02,-5.09343259e-02,
-6.93237334e-02,-1.13079481e-01,1.10227376e-01,-3.22484709e-02,-4.02236171e-02,
-1.12309083e-01,-2.68015806e-02,4.38210480e-02,-8.76712203e-02,-6.00452051e-02,
-1.04880586e-01,1.63135201e-01,-1.16006427e-01,3.10361981e-02,-1.68325771e-02,
1.01163015e-01,2.14820690e-02,1.34462357e-01,-5.47062280e-03,2.80029792e-02,
-1.18954599e-01,-8.75716880e-02,-5.74271530e-02,-1.10345684e-01,-1.23891927e-01,
2.82011218e-02,-2.70621568e-01,-1.93069592e-01,1.02035366e-01,-5.91738559e-02,
-1.63814604e-01,6.01094402e-02,-1.35036811e-01,4.72846515e-02,-1.95548702e-02,
-1.12529039e-01,-1.55761331e-01,-4.18034866e-02,7.21866190e-02,2.57078763e-02,
2.41369121e-02,6.99971318e-02,-7.52641121e-04,-1.25967383e-01,1.07011527e-01,
7.97068700e-02,1.12596611e-02,1.09268866e-01,1.25120790e-03,2.57146708e-03,
1.41846007e-02,1.56298712e-01,-3.35955690e-03,7.64141455e-02,-6.32162169e-02,
9.96346846e-02,1.19473025e-01,-6.36738092e-02,-2.53943913e-02,1.85702622e-01,
-1.20731138e-01,-1.92292139e-01,8.32649097e-02,-4.40834928e-03,2.62525622e-02,
-2.09185127e-02,1.89334713e-02,-1.46042004e-01,1.56434655e-01,-1.26620024e-01,
1.44636109e-01,-5.32178208e-02,4.35561780e-03,-9.70910117e-02,-1.47866428e-01,
-1.22629508e-01,-1.59641936e-01,3.18005793e-02,-1.18839957e-01,-9.83112976e-02,
7.83584267e-02,6.10045791e-02,-7.13814646e-02,-7.61457831e-02,7.14987293e-02,
1.50319571e-02,-1.09339274e-01,1.63963154e-01,2.99184322e-02,3.73470713e-03,
-9.16232243e-02,2.08090022e-01,-1.34592742e-01,1.02300994e-01,4.88853715e-02,
9.31069702e-02,-8.10365379e-02,-8.33372995e-02,-7.87723511e-02,-4.60449010e-02,
-1.12350367e-01,1.20038979e-01,1.49898112e-01,1.15465537e-01,1.81950003e-01,
6.02476746e-02,-7.82860518e-02,-4.33515832e-02,2.40932927e-02,9.14210230e-02,
-1.13590941e-01,6.58552721e-02,1.10346489e-02,1.21396609e-01,8.06481019e-02,
-6.41362369e-02,-6.04828671e-02,-1.22091481e-02,1.66192681e-01,-1.05343416e-01,
-3.42464894e-02,3.93255204e-02,1.35641575e-01,-4.20992784e-02,2.20622540e-01,
-6.91526830e-02,-3.53684984e-02,5.68358302e-02,1.18164811e-02,-7.55840316e-02,
-9.23395678e-02,-1.00622168e-02,-7.74945617e-02,-4.01154868e-02,-5.55992313e-02,
8.58675316e-02,1.47617146e-01,-1.01192474e-01,2.09815726e-01,-1.20227709e-01,
-8.31089318e-02,2.55257767e-02,3.04032434e-02,1.35380566e-01,-1.24962173e-01,
-1.31685911e-02,-6.78985938e-02,-1.76068723e-01,-9.57001373e-02,4.06408459e-02,
-2.13175938e-01,-5.34330606e-02,-9.87523794e-02,9.49162245e-02,-1.97696596e-01,
-9.75661576e-02,-2.06139982e-01,7.76517019e-02,-1.76418703e-02,-5.79583012e-02,
2.17773050e-01,-5.28915003e-02,1.06648296e-01,4.31486592e-03,1.59493133e-01,
1.18027724e-01,-9.76251811e-02,-1.47730097e-01,-2.41338357e-01,-1.13416553e-01,
-6.55266494e-02,-1.12427995e-01,-8.12953524e-03,-2.40625609e-02,4.15774919e-02,
7.66672716e-02,1.59466296e-01,1.91908151e-01,-6.01523519e-02,1.90822050e-01,
1.39212295e-01,-2.00814456e-02,-8.25343207e-02,2.40523349e-02,7.59128407e-02,
-9.15975720e-02,1.70642599e-01,1.06779583e-01,-1.66082680e-01,7.91076720e-02,
-1.51063781e-02,-9.84108001e-02,1.20341673e-01,4.04537581e-02,-1.50979161e-01,
3.47570404e-02,-5.65952472e-02,-8.36801901e-03,-2.01346092e-02,1.41785005e-02,
2.38893870e-02,1.37941837e-02,-1.90490671e-02,-9.32819620e-02,-8.32258984e-02,
-1.08935878e-01,-5.45255132e-02,1.16438948e-01,-1.56399682e-01,-3.15401377e-03,
-5.53154387e-02,5.12282401e-02,-7.13681355e-02,1.15506887e-01,-1.43498242e-01,
1.07567772e-01,5.51593639e-02,1.08898595e-01,-3.28514948e-02,-1.05634108e-01,
-7.28350878e-02,-2.34044001e-01,-1.71223536e-01,-1.60810590e-01,-9.12511200e-02,
4.55495082e-02,5.37991375e-02,7.45446011e-02,-2.22987169e-03,1.64089706e-02,
-9.20915529e-02,1.34019896e-01,-1.99271515e-01,-6.58153668e-02,-1.32907256e-01,
-2.09985733e-01,4.61692512e-02,-1.33251250e-01,-1.28225610e-01,-5.89271635e-03,
1.76569168e-02,1.41532868e-01,2.63988972e-02,-4.19392101e-02,4.22245450e-02,
6.08457662e-02,-8.18564817e-02,1.15331739e-01,-1.34321302e-03,-1.09591642e-02,
-9.36662927e-02,-8.01173300e-02,9.59020033e-02,-1.55758318e-02,8.59614611e-02,
8.65234882e-02,2.61640344e-02,1.30739853e-01,-1.25693396e-01,-1.29079148e-01,
-3.24320570e-02,-6.70190379e-02,-1.75643880e-02,-1.00934736e-01,-5.71914800e-02,
6.10209033e-02,-2.53637624e-03,5.51191792e-02,-1.39138728e-01,-5.37225045e-02,
7.56102577e-02,1.19528100e-01,7.62691870e-02,1.48018569e-01,4.39593531e-02,
-4.69387993e-02,-1.05726875e-01,-3.74808237e-02,5.71017005e-02,-1.06376216e-01,
1.18473046e-01,4.01603477e-03,1.87396295e-02,1.75871979e-02,3.45540680e-02,
6.52399883e-02,-1.51845023e-01,7.30204135e-02,2.49038804e-02,-8.31245109e-02,
5.55116422e-02,1.17254622e-01,2.79108025e-02,1.44304903e-02,-1.01610839e-01,
-1.12945855e-01,-7.92827755e-02,-7.98509270e-02,-1.26527935e-01,1.14666842e-01,
-1.13883898e-01,3.30222100e-02,-1.01365231e-01,-1.27847627e-01,8.55412260e-02,
-1.35310307e-01,8.08221251e-02,8.54845643e-02,5.60604641e-03,1.13532901e-01,
3.87523137e-02,-4.12879512e-02,1.00526877e-01,2.82191392e-02,-3.51031013e-02,
-9.68947932e-02,-8.06164071e-02,1.00040659e-01,-3.07979789e-02,-8.89606774e-02,
-7.23588001e-03,-1.00397110e-01,1.22744501e-01,-7.75208548e-02,2.69213486e-02,
-5.29911555e-02,1.06109142e-01,1.39033794e-01,-4.84140180e-02,1.01835109e-01,
1.54215917e-01,-1.51888102e-01,1.61697436e-03,-2.69021131e-02,-2.88327560e-02,
4.22562286e-02,-1.11927815e-01,-1.25575140e-01,1.49018109e-01,-7.07280114e-02,
1.06702864e-01,-1.23433307e-01,-5.50438045e-03,-6.32790243e-03,-2.57307645e-02,
-2.28286069e-03,4.48005907e-02,8.93753991e-02,8.95857885e-02,2.29260363e-02,
-3.64748798e-02,-1.96227860e-02,-7.85166249e-02,1.77080780e-02,-6.89796060e-02,
-3.26931626e-02,-5.14713936e-02,7.87737668e-02,5.41323274e-02,-8.97503570e-02,
6.08173907e-02,6.28504530e-02,1.03639565e-01,6.31119609e-02,1.23867162e-01,
-1.53508216e-01,-6.46096468e-02,-9.60290134e-02,-6.36949241e-02,-1.46877654e-02,
8.84035751e-02,-5.34823444e-03,2.90902518e-02,8.14303905e-02,5.29988185e-02,
-1.69547915e-01,1.83976535e-02,1.61598518e-01,-1.59145832e-01,3.28574032e-02,
1.20511822e-01,1.35906056e-01,-1.60029739e-01,-4.34312671e-02,-5.84717542e-02,
-1.14060007e-01,-2.78449040e-02,1.17026865e-01,-1.78996459e-01,4.30693552e-02,
-1.85429901e-02,-9.23752934e-02,-2.06137970e-01,-1.62611216e-01,-5.67201301e-02,
-1.08001955e-01,-8.33270773e-02,8.98959413e-02,2.02986673e-01,-1.39873311e-01,
1.49027199e-01,3.28601114e-02,1.06965140e-01,-2.53845483e-01,3.16681117e-02,
1.02272481e-01,-1.74830705e-02,2.26509601e-01,-3.74006666e-02,-9.05727677e-04,
1.00790627e-01,-1.41097516e-01,1.98920108e-02,3.41747813e-02,2.69843817e-01,
-1.57299023e-02,-8.62140395e-03,-5.47414534e-02,-1.27354227e-02,-7.16676749e-03,
4.40283902e-02,-2.83677697e-01,1.23073757e-01,4.46153805e-02,1.01011187e-01,
-6.58135042e-02,-6.60958216e-02,-5.04444018e-02,-7.43228644e-02,-1.10910632e-01,
-5.57042174e-02,-1.72510706e-02,1.64443091e-01,-1.40082553e-01,-3.82621512e-02,
1.17192827e-01,9.70362723e-02,1.67037532e-01,3.07470206e-02,1.21870853e-01,
1.52158365e-01,6.30668998e-02,7.06854016e-02,-4.95016351e-02,-9.39897671e-02,
4.15025698e-03,7.84285888e-02,1.41699344e-01,-3.08104102e-02,9.00846273e-02,
-8.43416527e-02,1.71555981e-01,1.51205570e-01,-1.16183162e-01,-4.03548181e-02,
1.00328244e-01,3.48813161e-02,-8.50221608e-03,-6.73274845e-02,-5.14661968e-02,
1.69145375e-01,3.27306986e-02,-1.17493264e-01,-1.09692447e-01,9.13741440e-02,
-4.59853187e-02,-6.19024895e-02,7.84759969e-02,-6.44259378e-02,-2.31832210e-02,
1.25413641e-01,1.53584898e-01,-9.03504789e-02,1.25053376e-02,6.10495880e-02,
1.28789544e-01,1.67745218e-01,2.74339374e-02,6.53591156e-02,-6.08314574e-02,
1.39246611e-02,-4.17601876e-02,5.46027832e-02,-1.05467506e-01,1.28548384e-01,
-2.71724816e-03,9.11830515e-02,1.82522222e-01,1.56857327e-01,1.70984685e-01,
-9.91044119e-02,-8.30666944e-02,-7.13276640e-02,1.32275075e-01,2.30390579e-02,
-2.04216272e-01,-1.27539128e-01,1.94247048e-02,-4.22436148e-02,-1.43504113e-01,
8.55888426e-02,-1.00838996e-01,-2.09134202e-02,6.96126595e-02,-1.23083023e-02,
1.34208024e-01,1.01986326e-01,-1.08167216e-01,1.75033584e-02,1.27196118e-01,
5.98427467e-02,1.16911558e-02,2.11175159e-01,-1.29218012e-01,-9.67387855e-02,
-1.46868825e-02,-3.83519903e-02,1.13308318e-01,-9.47994143e-02,-3.58003564e-03,
6.96045831e-02,-1.01023661e-02,-6.70093298e-03,1.72480673e-01,-1.16806619e-01,
-3.54240760e-02,4.30733040e-02,-2.62368768e-02,-4.83984537e-02,-1.10595085e-01,
-2.09088176e-02,-4.49427553e-02,3.84071805e-02,1.31578580e-01,7.19509125e-02,
2.76349224e-02,7.56658986e-02,8.63399878e-02,-1.11735776e-01,6.35108873e-02,
-3.87448370e-02,1.28577203e-02,-5.23208976e-02,3.36658359e-02,-9.39755440e-02,
1.03306845e-01,-6.43732622e-02,1.39887994e-02,1.43293679e-01,-2.19399203e-03,
9.39589366e-02,1.46557391e-01,-7.92096555e-03,-5.32844141e-02,-7.91426003e-02,
3.33696716e-02,5.06514236e-02,1.92515671e-01,2.02871129e-01,-1.45990774e-01,
1.75013375e-02,-7.20148087e-02,-1.57673597e-01,-4.11409438e-02,1.70984983e-01,
-6.16274588e-02,1.49007350e-01,8.84928629e-02,-1.52442932e-01,-2.32117088e-03,
-2.34494358e-02,-6.45503448e-03,6.88269138e-02,-5.82545660e-02,9.11979079e-02,
2.78412625e-02,1.32429391e-01,-9.52280164e-02,-4.92463447e-02,1.37770753e-02,
9.00376588e-02,8.82352144e-03,-7.56302997e-02,-4.22261953e-02,2.44928673e-02,
2.28162631e-02,2.59733293e-02,9.89274755e-02,-9.62370783e-02,-6.38026744e-02,
9.06521678e-02,-8.11505839e-02,-8.65982994e-02,-7.53720924e-02,-3.10204104e-02,
1.56317815e-01,6.38391301e-02,1.23762012e-01,8.63368362e-02,6.91006891e-03,
5.70518821e-02,-6.33111969e-02,5.63282520e-02,5.64662814e-02,6.45047575e-02,
1.33934766e-01,1.36994213e-01,1.23406060e-01,1.00676365e-01,2.07960308e-02,
-1.09254189e-01,-1.41689599e-01,8.54258910e-02,-1.19050004e-01,-6.88120648e-02,
-7.49984533e-02,-7.29620457e-02,-4.01226222e-04,1.62324369e-01,1.28692031e-01,
1.22742452e-01,4.30645645e-02,5.25266081e-02,-7.93888569e-02,-1.29165307e-01,
1.37803599e-01,-5.37799820e-02,-1.45819917e-01,3.33296135e-02,3.71776777e-03,
4.72407527e-02,-6.02842458e-02,5.96720427e-02,2.79240273e-02,2.92356741e-02,
9.95847732e-02,-2.04807460e-01,-8.98180231e-02,-6.70535788e-02,4.54836637e-02,
1.31885052e-01,-6.40393374e-03,1.78894913e-03,1.25192299e-01,4.00173152e-03,
9.85556990e-02,4.66314964e-02,2.13343784e-01,1.37749553e-01,-6.56769350e-02,
-1.15639120e-01,3.38936113e-02,1.31499216e-01,9.05028358e-02,1.89060271e-02,
1.44686505e-01,1.12514086e-01,-9.91636366e-02,-1.62502676e-01,4.31261547e-02,
3.34175229e-02,-1.01529993e-01,-6.28522784e-02,2.90762614e-02,1.34763857e-02,
-1.44937057e-02,4.95115891e-02,-6.02796823e-02,1.27099544e-01,-5.53101907e-03,
-8.64019841e-02,1.20804615e-01,2.59265248e-02,9.63439792e-02,-1.23245187e-01,
7.38362893e-02,-1.67851135e-01,2.94811334e-02,9.33683142e-02,-1.44849986e-01,
1.10853530e-01,-1.63107112e-01,-7.30596483e-02,2.77721463e-03,1.01474017e-01,
1.13415144e-01,-6.79970300e-03,1.17922559e-01,8.67825560e-03,-9.51269269e-02,
-1.29602984e-01,5.79600744e-02,1.12778902e-01,-1.18207231e-01,5.10370322e-02,
5.14394566e-02,-1.11583427e-01,1.98802561e-01,-4.38350625e-02,4.65489365e-02,
4.22489420e-02,5.66973798e-02,-6.65620863e-02,-8.30273554e-02,-3.11161894e-02,
1.00475349e-01,-7.91530386e-02,1.36799589e-01,-1.18477792e-01,-5.08730207e-03,
3.69202159e-02,1.10905491e-01,1.59157991e-01,1.56403944e-01,-1.72531977e-02,
-8.55717063e-02,-4.86656874e-02,-7.79665112e-02,9.28331539e-02,-1.55105844e-01,
2.84851063e-02,1.56633019e-01,1.10747866e-01,1.45715531e-02,-1.54453525e-02,
2.38770712e-02,-4.17800583e-02,-5.55967465e-02,-5.70310205e-02,6.25300966e-03,
5.78651391e-02,9.54589620e-02,9.46286041e-03,-1.31237864e-01,1.88224077e-01,
-1.16061457e-01,-7.94500038e-02,-1.33649424e-01,-6.23555519e-02,2.31015105e-02,
5.74603910e-03,6.80488199e-02,-3.65675315e-02,2.50924076e-03,-6.79261796e-03,
-1.04231521e-01,1.12505689e-01,8.62005502e-02,-1.75477356e-01,2.54877239e-01,
-7.63996318e-02,1.27519026e-01,2.38788389e-02,8.34867880e-02,-7.99976885e-02,
1.36420384e-01,5.06628007e-02,-1.62351429e-01,-8.57545286e-02,1.29370332e-01,
-2.30846144e-02,-5.40011302e-02,6.75680563e-02,4.15049046e-02,-9.18936208e-02,
-1.72392905e-01,-6.32309839e-02,7.03468323e-02,-3.74269262e-02,5.09550981e-02,
1.00630909e-01,-5.96621558e-02,-5.73361181e-02,6.25043288e-02,1.64962932e-01,
-7.70910177e-03,2.24258021e-01,-3.19358148e-03,-1.58967376e-01,-1.52906716e-01,
1.54675506e-02,8.04489702e-02,1.57795548e-01,-2.21869811e-01,1.72146097e-01,
1.67621709e-02,3.19875591e-02,7.86903724e-02,-7.20689520e-02,-1.29719347e-01,
1.86683107e-02,1.32934362e-01,5.47976345e-02,-4.61553335e-02,-2.86551714e-02,
-1.15323804e-01,-6.93460461e-03,-2.23333612e-01,-5.80019653e-02,6.26810342e-02,
1.21703245e-01,-3.39855775e-02,3.10841016e-02,4.40736562e-02,6.33124858e-02,
1.51594892e-01,1.43807724e-01,9.77705345e-02,-9.44965333e-03,-1.28613085e-01,
1.40490144e-01,-7.77606964e-02,-5.15480042e-02,1.14682123e-01,1.43407673e-01,
8.46339483e-03,1.63707316e-01,-1.14330919e-02,2.31377743e-02,4.39616255e-02,
2.71738898e-02,5.69727719e-02,-8.45291093e-02,-2.03321986e-02,1.01711854e-01,
-1.01641692e-01,1.16691448e-01,7.33445212e-02,-1.50141254e-01,-4.64187637e-02,
1.53255329e-01,-1.02661490e-01,3.21680680e-02,1.12216264e-01,-2.87964493e-02,
-1.46351799e-01,-2.99770795e-02,-1.38675151e-02,1.05199981e-02,-8.73706937e-02,
-1.07455373e-01,8.87382701e-02,3.76108326e-02,-7.48539641e-02,1.72202587e-02,
-1.07947156e-01,1.91395685e-01,-1.14351481e-01,8.16490948e-02,8.40874091e-02,
1.71761140e-01,2.14962378e-01,7.03879446e-02,-7.50915185e-02,1.17090046e-01,
-4.47777994e-02,-2.07457215e-01,8.42466131e-02,1.18243508e-01,-1.15796831e-02,
1.37925344e-02,1.77841008e-01,1.11788988e-01,-6.31560087e-02,8.04276615e-02,
1.16556428e-01,8.29975232e-02,7.17309266e-02,-2.10851103e-01,-1.14690810e-01,
-1.68566898e-01,-1.77014366e-01,1.08899595e-02,1.25535533e-01,1.50784388e-01,
8.75100493e-02,-5.15070930e-02,1.63244724e-01,5.88531271e-02,-5.25223128e-02,
7.02014789e-02,2.47576702e-02,-1.26224095e-02,-1.04199223e-01,1.56584516e-01,
-1.66402623e-01,1.56103402e-01,-1.04027577e-01,-1.55593574e-01,1.29434600e-01,
-1.86564121e-02,1.08228602e-01,1.35082575e-02,-5.58022000e-02,-2.72172932e-02,
-5.13316207e-02,2.89826561e-02,-4.63392064e-02,-1.45611949e-02,3.02825477e-02,
1.67684481e-02,5.39394543e-02,-1.14871804e-02,1.54145315e-01,-8.84932950e-02,
-1.64548084e-01,-2.28589177e-02,1.07131988e-01,9.87289250e-02,-9.69572812e-02,
5.08797318e-02,1.34725019e-01,2.63770849e-01,-6.06096648e-02,5.75596057e-02,
-2.24938780e-01,-1.69179365e-01,7.91506320e-02,-3.07545308e-02,1.63604449e-02,
7.00676516e-02,3.64832804e-02,9.33867097e-02,-1.13521785e-01,-7.76874050e-02,
-5.12285829e-02,-1.67909175e-01,1.39188498e-01,2.60649268e-02,4.22461741e-02,
3.02479062e-02,-3.14439386e-02,4.26475741e-02,-4.94878888e-02,-2.05408987e-02,
-2.41229031e-02,-1.34252101e-01,-5.07565029e-02,-2.82634161e-02,2.24388376e-01,
-7.93001577e-02,2.20983960e-02,-5.85816726e-02,2.12236978e-02,-1.67776108e-01,
-3.91857959e-02,6.01369962e-02,1.13541007e-01,-1.56445146e-01,-2.56530102e-02,
-1.15556516e-01,7.54170679e-03,6.91434741e-02,1.85385626e-02,-7.92675558e-03,
1.53220013e-01,6.64336830e-02,1.71825781e-01,2.61630602e-02,1.13928489e-01,
8.89190435e-02,-3.69282067e-02,-6.00030646e-02,4.39023785e-02,-1.41884893e-01,
7.59340599e-02,-1.24203309e-01,-6.62243040e-03,2.19652697e-01,1.60451114e-01,
-1.44956097e-01,-1.66940838e-01,9.07998011e-02,2.04743468e-03,1.16543122e-01,
-9.28814933e-02,2.32297435e-01,-3.25210877e-02,6.02408983e-02,4.65562008e-02,
7.15849847e-02,-8.04109499e-02,-9.26873684e-02,-1.75577328e-01,1.34839684e-01,
-3.84441428e-02,7.38675520e-02,-4.08592410e-02,-1.03170782e-01,1.39370427e-01,
1.28537556e-02,-1.82471246e-01,-1.34877682e-01,5.50738461e-02,-1.69287711e-01,
1.37723431e-01,-3.73156592e-02,1.68372646e-01,-8.19019377e-02,7.88625851e-02,
-1.96677595e-02,1.50777930e-02,-1.18600197e-01,1.33868158e-01,8.29434544e-02,
6.87759817e-02,-8.48099887e-02,9.70303565e-02,1.21814273e-01,8.36281255e-02,
-1.73189074e-01,-9.57138315e-02,-6.24788599e-03,1.30797088e-01,1.00830548e-01,
1.51289269e-01,1.98750421e-02,3.43218371e-02,-1.07126884e-01,-3.64135243e-02,
-2.02929452e-02,-1.20404109e-01,1.86921824e-02,-3.91622297e-02,-5.05618192e-02,
2.28562281e-02,-5.37618995e-02,-3.27550806e-02,-2.55051591e-02,-1.08546890e-01,
-6.78935200e-02,-4.84666508e-03,7.13229701e-02,1.20243810e-01,-1.45670906e-01,
1.45710528e-01,1.43700778e-01,-1.48256794e-01,5.25881127e-02,1.21327803e-01,
5.61374836e-02,1.44548714e-01,-1.03969038e-01,7.10237548e-02,1.41009390e-01,
1.22256562e-01,1.76647693e-01,2.28408650e-02,-1.00633226e-01,8.18803236e-02,
2.62579974e-02,-1.09631963e-01,1.68015271e-01,-3.71897258e-02,5.83050214e-03,
1.50028557e-01,1.62772804e-01,-3.30766998e-02,-9.22500864e-02,-1.06532834e-02,
-4.47847769e-02,8.66238177e-02,1.12030759e-01,1.18621893e-01,1.17634319e-01,
5.08112786e-03,-1.63512565e-02,-8.03195965e-03,-4.09848094e-02,1.14219137e-01,
1.20801598e-01,7.23769590e-02,1.56254694e-01,1.11606404e-01,-8.81304294e-02,
-1.48007318e-01,-1.66568700e-02,-1.25672355e-01,-8.81167725e-02,4.38925736e-02,
-2.29754206e-02,1.27601743e-01,-1.00932620e-01,1.45721182e-01,9.59594101e-02,
-1.03449285e-01,-1.19915262e-01,1.52179018e-01,-7.97958225e-02,-1.54282525e-01,
1.41684934e-01,2.33422760e-02,-7.56061897e-02,-6.23955950e-02,-2.39778822e-03,
-2.96497121e-02,-4.98776697e-02,-9.67841148e-02,-6.89892247e-02,-9.73467752e-02,
8.00684467e-02,-3.91402915e-02,-9.96465161e-02,-1.42263681e-01,9.62070376e-02,
-7.53622279e-02,8.12100545e-02,1.10975914e-01,-9.40883607e-02,9.86026749e-02,
-2.57934686e-02,1.56697705e-01,3.75269726e-02,5.23813032e-02,4.55570687e-03,
-1.97554417e-02,1.88119352e-01,1.07232250e-01,1.49131164e-01,1.02744877e-01,
-9.80165601e-02,-1.98984873e-02,-1.22117124e-01,1.73615925e-02,1.10563643e-01,
-1.36663005e-01,1.22079678e-01,-4.95563969e-02,-7.22494647e-02,-1.81209520e-02,
9.13521722e-02,-6.45395964e-02,-6.94605783e-02,-4.70182672e-02,1.18443808e-02,
1.01570599e-01,1.60197422e-01,1.07343264e-01,-1.21017806e-01,-2.01492663e-02,
7.23917689e-03,4.60874997e-02,9.18337777e-02,-8.18872079e-02,2.02392429e-01,
8.17654505e-02,-1.44319788e-01,7.01717064e-02,-5.20064831e-02,1.54489771e-01,
-1.78408936e-01,2.19404288e-02,3.01240217e-02,-4.68527079e-02,4.02912684e-02,
3.96091454e-02,-9.05523375e-02,-1.22984853e-02,-1.07903838e-01,7.01298565e-02,
1.73066370e-02,-1.72305986e-01,1.25475898e-01,1.07295468e-01,2.84046903e-02,
-1.23000294e-01,3.18397097e-02,-1.58552632e-01,5.26697598e-02,-2.15946399e-02,
1.41209485e-02,-1.44056301e-03,9.23122838e-02,4.37363461e-02,-9.23672616e-02,
-3.08021516e-01,-4.68659364e-02,3.45749781e-02,6.54001236e-02,-6.03719149e-03,
3.12498268e-02,1.50638632e-02,-1.09452724e-01,-1.64733976e-01,9.11879353e-03,
-1.01573318e-01,-5.56471162e-02,-1.69707656e-01,6.49703965e-02,1.40763819e-01,
-3.45180891e-02,8.58546495e-02,1.50748700e-01,1.49951279e-01,-5.20348698e-02,
-2.33309045e-02,5.79262599e-02,6.33177832e-02,-1.76689371e-01,-2.07946859e-02,
-4.77962792e-02,5.56946024e-02,}; 
k2c_tensor lstm_1_kernel = {&lstm_1_kernel_array[0],2,3072,{48,64, 1, 1, 1}}; 
float lstm_1_recurrent_kernel_array[16384] = {
1.14006937e-01,7.19902199e-03,9.94164846e-04,1.41147664e-02,-1.17565677e-01,
-2.01339766e-01,-1.86827779e-01,-2.39508972e-02,-3.34532671e-02,6.60012215e-02,
8.18403140e-02,1.17850979e-03,3.89803909e-02,-1.27650471e-02,1.96477100e-02,
5.07818535e-02,1.71451084e-02,-1.19169913e-02,-2.54068542e-02,-1.33210897e-01,
-6.04036488e-02,1.98089764e-01,-8.96456838e-03,-7.25109130e-02,2.25633644e-02,
1.06544591e-01,7.25455629e-03,1.58337548e-01,-2.27749404e-02,1.94242802e-02,
-2.82051325e-01,-5.71381003e-02,4.00284603e-02,9.76702943e-02,3.01692616e-02,
-6.81443065e-02,1.10939197e-01,-1.11870363e-01,-1.08503141e-01,-7.77727962e-02,
1.45930145e-02,1.20557986e-01,-6.93741664e-02,-3.45983244e-02,1.87531002e-02,
-6.63417578e-02,7.50892535e-02,-8.40274394e-02,2.33322233e-01,-1.24163263e-01,
-3.01275644e-02,-7.72708058e-02,4.89175040e-03,3.71773914e-02,-2.38855630e-02,
1.14674769e-01,-7.21008405e-02,3.95694934e-02,-3.14022824e-02,7.40683004e-02,
6.49140105e-02,-8.32504109e-02,7.89351240e-02,-1.04854971e-01,-8.10368508e-02,
4.34798487e-02,-1.46847725e-01,1.25844911e-01,2.88523678e-02,-1.11486036e-02,
5.52271791e-02,-5.27873226e-02,-1.37877256e-01,6.87028766e-02,1.70963198e-01,
6.37586489e-02,-3.45165320e-02,-5.71266524e-02,6.07475340e-02,-2.58048568e-02,
-4.07117829e-02,2.55827755e-02,2.39452645e-02,3.26451138e-02,-7.60123646e-03,
3.71570177e-02,3.57265361e-02,1.37483805e-01,6.24430180e-02,1.05744917e-02,
-2.30274014e-02,3.48888151e-02,2.15285327e-02,1.74031973e-01,-3.50776426e-02,
-8.67794529e-02,7.81418905e-02,-7.98459426e-02,-1.65134910e-02,-1.19008645e-01,
3.24666351e-02,-2.59909574e-02,-2.06371993e-01,-6.82839081e-02,-3.87998261e-02,
-3.39713469e-02,-4.25941497e-02,-2.17953175e-02,-4.00897041e-02,-4.81702797e-02,
5.58784269e-02,-3.02395299e-02,-4.37899940e-02,3.99546698e-02,1.01289302e-01,
2.28690833e-01,-7.92589933e-02,3.40110138e-02,1.01891216e-02,1.10525928e-01,
5.88133186e-02,-8.77474397e-02,6.99855620e-04,-7.71461055e-02,1.83362048e-02,
-9.56228282e-03,1.88583180e-01,7.88391456e-02,-8.73119161e-02,9.69343558e-02,
-1.65135533e-01,-7.94788375e-02,-1.03327669e-02,-3.35085168e-02,3.70099507e-02,
-4.30754684e-02,-1.98069345e-02,-2.49436800e-03,1.00227967e-01,1.98575947e-02,
-4.34911735e-02,-1.11443125e-01,3.41300666e-02,-1.05948806e-01,-7.17115477e-02,
1.49485514e-01,8.92620534e-02,9.56508592e-02,9.48303267e-02,2.68221237e-02,
6.63920492e-02,6.44509941e-02,-5.18798502e-03,8.18117857e-02,-9.22690239e-03,
-5.27930707e-02,5.30043542e-02,6.60255775e-02,-2.21182369e-02,-1.43142268e-02,
-1.03653021e-01,3.68521623e-02,6.52749464e-02,3.00383084e-02,-1.22972708e-02,
-1.38244361e-01,-1.61887817e-02,2.73826607e-02,-4.65377644e-02,1.35820866e-01,
1.78123754e-03,-4.19452563e-02,-4.54291739e-02,1.00598730e-01,-4.53337990e-02,
-9.76150855e-02,7.00171441e-02,-5.25619090e-02,4.44911867e-02,-5.81687205e-02,
-2.23343909e-01,-1.09441832e-01,1.27803341e-01,1.35460481e-01,-6.71631470e-02,
-1.22899273e-02,4.97382581e-02,2.17885487e-02,-1.95461199e-01,1.53107315e-01,
-2.60975026e-02,6.40442595e-02,-1.27986476e-01,3.78798209e-02,-1.47769198e-01,
8.54707137e-02,-1.00075454e-01,3.94214764e-02,-1.44885585e-01,-7.61636067e-03,
4.19454090e-02,1.23060316e-01,-8.01540688e-02,5.25261052e-02,1.49704665e-02,
-1.66444294e-02,-1.70512244e-01,-5.00875264e-02,-6.60620555e-02,-9.68585834e-02,
-4.37797680e-02,-1.01482645e-01,-4.07114578e-03,-7.97448531e-02,3.87897342e-02,
1.06341541e-01,9.72876400e-02,8.12481344e-03,-2.20626846e-01,-2.02754252e-02,
-1.35683820e-01,-6.98159859e-02,1.07102737e-01,-6.71822727e-02,-3.69435847e-02,
3.51832509e-02,2.86334977e-02,-8.62036869e-02,2.12756947e-01,-5.00968322e-02,
-1.71704009e-01,-1.10657318e-02,-1.41292391e-02,6.13931268e-02,1.72534823e-01,
6.59561083e-02,-1.09752472e-02,1.96406916e-02,9.39866081e-02,4.36788797e-02,
-4.11983132e-02,1.18425392e-01,-1.30412579e-01,-9.54582393e-02,-1.58508763e-01,
-8.58355239e-02,1.63428649e-01,2.83384556e-03,7.46372342e-02,2.39213645e-01,
7.45778605e-02,1.96751896e-02,2.75735417e-03,3.06126308e-02,1.05821058e-01,
-1.93453999e-03,3.81544232e-02,1.38274789e-01,-5.04314825e-02,-8.13116413e-03,
-4.59399680e-03,1.49426550e-01,-6.07518144e-02,-7.88945530e-04,2.15661936e-02,
9.50272530e-02,-1.12343244e-01,-1.56676937e-02,-9.31538045e-02,-1.05499662e-01,
-1.40521228e-01,-5.58801219e-02,-3.12751755e-02,5.02118841e-02,-1.22997649e-02,
-6.55057356e-02,2.96508260e-02,-7.34545216e-02,6.54205009e-02,-9.47975144e-02,
-7.68519640e-02,3.88203971e-02,4.81485799e-02,6.69824239e-03,5.99202551e-02,
2.90259253e-02,-1.85083528e-03,-6.51067495e-02,-8.52897242e-02,-1.77353635e-04,
-9.70651358e-02,9.14324448e-02,8.95358622e-02,-1.16078354e-01,-1.07979454e-01,
-3.31465080e-02,9.53657106e-02,1.49670303e-01,-4.07307036e-02,8.70874450e-02,
2.74353232e-02,2.81409007e-02,-1.53368294e-01,2.16088705e-02,1.50561705e-01,
5.32984473e-02,8.40640143e-02,-1.48441613e-01,1.28598958e-02,-1.17801256e-01,
-3.78070213e-02,-4.19780314e-02,-2.10847761e-02,-8.81303921e-02,-1.57421291e-01,
-1.21575277e-02,-1.16012514e-01,1.05830217e-02,-9.86783579e-02,7.13474303e-02,
4.03912216e-02,-3.90702188e-02,5.92561364e-02,2.64906045e-02,2.76545499e-04,
1.19905569e-01,4.09688875e-02,-8.30347613e-02,3.17821465e-02,-3.91945988e-02,
-9.76464227e-02,-8.66330042e-02,3.18758860e-02,-2.47653946e-02,9.02915895e-02,
2.28967711e-01,3.15069184e-02,1.21631492e-02,9.48986411e-02,1.14177139e-02,
-1.06926531e-01,-1.83690190e-02,1.26378238e-01,6.62773773e-02,-2.33419552e-01,
-6.88514560e-02,3.96527424e-02,-4.63210931e-03,2.16338206e-02,-1.21543817e-01,
-4.36213017e-02,2.11755070e-03,-8.54640175e-03,-1.47627071e-01,4.64048982e-02,
-7.56406039e-02,8.87845701e-04,5.00385053e-02,-8.77939463e-02,2.17433795e-02,
-8.00081268e-02,-2.15185896e-01,1.69093385e-01,7.85733908e-02,2.19573528e-02,
9.57981646e-02,2.36830756e-01,-2.62731258e-02,1.70492843e-01,-1.38300136e-01,
5.01543172e-02,6.11470006e-02,7.30145797e-02,3.81578389e-03,3.97087596e-02,
1.77179649e-01,3.05438004e-02,2.74875872e-02,-1.15026534e-01,5.74702248e-02,
-3.77854891e-02,-4.56058346e-02,2.13945433e-02,2.63056070e-01,1.04725675e-03,
-1.29328728e-01,-1.38854086e-01,4.99890260e-02,4.89477739e-02,-2.56696567e-02,
-6.09347560e-02,5.69178665e-04,-1.40350565e-01,6.11252077e-02,7.41994679e-02,
5.45349270e-02,1.18428469e-01,-2.95729376e-02,-1.13104016e-01,-6.07693456e-02,
9.28588212e-02,-2.26759557e-02,-3.90576720e-02,-1.72770824e-02,-9.96021181e-02,
-8.61353800e-02,5.64121902e-02,-2.91076098e-02,6.19495921e-02,-3.01917791e-02,
-6.63043857e-02,5.46400063e-02,6.59186244e-02,8.31179172e-02,-9.68515575e-02,
-5.47394808e-03,-6.42954111e-02,6.13516457e-02,9.17315930e-02,1.60020888e-02,
2.93428935e-02,3.03349216e-02,-1.54555023e-01,-1.33632440e-02,-3.18750888e-02,
-3.61668244e-02,9.21342969e-02,1.72836836e-02,-2.62375083e-02,-1.71168633e-02,
1.14369705e-01,-4.23144624e-02,2.06006151e-02,9.16243792e-02,-9.43799224e-03,
-8.20582509e-02,-2.67572235e-02,-4.11701165e-02,-1.40355006e-02,-9.43370350e-03,
-1.91743281e-02,-2.27293465e-02,8.89516920e-02,5.29023856e-02,-1.05847560e-01,
-6.25651702e-02,-1.39766052e-01,6.26126155e-02,1.30502477e-01,-1.17324755e-01,
-1.51799740e-02,-6.02994822e-02,4.16941456e-02,-1.62278831e-01,-9.75941792e-02,
-3.62611599e-02,-9.09935534e-02,-5.44942692e-02,-1.36605734e-02,-7.92507082e-02,
-9.81447175e-02,-3.92212011e-02,-8.02604705e-02,3.94050702e-02,1.34267792e-01,
-6.80023953e-02,8.77769068e-02,3.45987827e-02,-7.89679289e-02,1.04757972e-01,
9.66143608e-02,5.56414127e-02,6.58172742e-02,3.06012128e-02,-7.14413375e-02,
4.90246713e-02,-1.00617141e-01,6.85871439e-03,-7.11920857e-02,1.42794335e-02,
-1.74490899e-01,6.28720447e-02,-2.84732711e-02,6.10658228e-02,1.72817811e-01,
-1.84839994e-01,-7.80087486e-02,1.35114398e-02,4.85616252e-02,6.72534853e-02,
5.47284335e-02,-1.64353892e-01,-8.06014333e-03,-1.52606457e-01,1.68849733e-02,
3.38640846e-02,3.94731127e-02,1.81942567e-01,9.48644206e-02,2.60160826e-02,
-9.55768973e-02,2.19657607e-02,1.04645723e-02,1.69090237e-02,-8.38563293e-02,
3.38660255e-02,1.12390518e-02,5.48231862e-02,3.07924896e-02,-1.76564362e-02,
-1.41661227e-01,-1.17736317e-01,5.82472980e-03,-3.55428457e-02,1.19659506e-01,
1.58735752e-01,-3.19497362e-02,-4.75223660e-02,-1.15034077e-02,-2.83781737e-02,
7.03185126e-02,7.16101602e-02,5.68746477e-02,4.20072079e-02,8.76817182e-02,
-6.90061748e-02,-6.58442453e-02,2.41531748e-02,9.22935680e-02,-2.50669271e-02,
1.82645038e-01,4.75925989e-02,5.88306133e-03,1.42737016e-01,-1.17947990e-02,
-9.76685062e-02,5.34523427e-02,-5.12607247e-02,6.04122169e-02,-1.87562909e-02,
8.30332339e-02,-1.28951082e-02,-4.98551875e-02,1.59191519e-01,-2.70958506e-02,
8.25655684e-02,5.66408737e-04,1.96959391e-01,1.01129390e-01,3.49019207e-02,
-1.11425137e-02,1.80232581e-02,-8.10214505e-02,1.35385320e-01,4.75460701e-02,
-1.22504652e-01,-6.40883297e-02,-1.07969055e-02,5.95803075e-02,-3.69769521e-03,
-1.38319761e-03,-8.00673291e-03,-1.19142503e-01,1.76921990e-02,-2.87294611e-02,
-4.16298071e-03,7.10555017e-02,-1.19593628e-01,2.88042165e-02,-1.59242414e-02,
-5.63218296e-02,-8.01409185e-02,-1.27534568e-01,-1.33729912e-02,-9.81485192e-03,
-1.89415514e-01,7.05610914e-03,-1.35030463e-01,-8.22507665e-02,6.06790073e-02,
2.17852201e-02,-6.55239895e-02,1.47986010e-01,1.20627478e-01,7.83361122e-03,
-1.90290913e-01,-1.21563688e-01,1.57293472e-02,-7.44885579e-02,-5.50373308e-02,
6.30534813e-02,-5.98113984e-02,-9.52873379e-02,-5.68342917e-02,1.18493265e-03,
9.42439735e-02,-2.43140459e-02,-1.35092109e-01,-2.23449897e-04,3.46912295e-02,
-1.09414272e-01,-1.22621045e-01,1.26853891e-04,-8.47982988e-02,3.97167802e-02,
-2.58597936e-02,-5.36812544e-02,1.70108061e-02,1.76514667e-02,3.70022729e-02,
-2.71003544e-02,2.72663161e-02,-4.35476340e-02,-1.70552209e-01,-1.25556989e-02,
-6.58095554e-02,-4.27444279e-02,2.19103266e-02,1.03719428e-01,-1.10355668e-01,
-8.15182645e-03,3.24430540e-02,6.51976243e-02,-2.03582142e-02,-2.10081607e-01,
-2.02598318e-01,7.42219612e-02,1.36689678e-01,2.28622466e-01,2.44497452e-02,
6.28058286e-03,4.77900840e-02,1.41261041e-01,-6.02000467e-02,-4.48328294e-02,
5.52071966e-02,-2.52539031e-02,3.15122455e-02,1.28995404e-01,-5.37746772e-02,
3.18830013e-02,-1.90908345e-03,-2.85024103e-02,-2.06696261e-02,9.42135006e-02,
-6.09013401e-02,-8.30482244e-02,1.15584187e-01,6.29535392e-02,6.25444204e-02,
-1.71422079e-01,2.73044594e-02,-4.66361903e-02,1.30996853e-01,7.25090727e-02,
3.55967432e-02,4.84598465e-02,1.19230188e-01,-6.00073896e-02,3.87531109e-02,
8.55178684e-02,5.68706952e-02,7.36312568e-02,3.47456709e-02,-4.70419601e-03,
-2.75525320e-02,1.85214117e-01,-3.36891487e-02,9.09623280e-02,6.23781718e-02,
2.49765925e-02,6.41613305e-02,1.97237022e-02,2.18191762e-02,1.02038570e-01,
5.62823843e-03,3.33127193e-02,7.47432336e-02,1.67325541e-01,1.17129900e-01,
-5.07945083e-02,7.44490027e-02,8.30575079e-03,-7.73992464e-02,7.98070729e-02,
-4.61580306e-02,-1.19677104e-01,-2.60505807e-02,1.12542391e-01,-4.04029973e-02,
4.60986234e-02,1.47745192e-01,4.81002592e-02,-3.81647050e-02,1.27010494e-01,
-7.28001595e-02,-1.71266198e-01,-8.87039304e-03,3.01037878e-02,-1.79142654e-02,
-2.33480502e-02,1.01987161e-01,-2.19262242e-01,-5.52602075e-02,-4.60209064e-02,
6.77534193e-02,-6.55256733e-02,-5.78990579e-02,2.77161063e-03,6.36554882e-02,
-2.64311135e-02,-8.33477825e-02,-2.56592259e-02,-2.23787501e-02,3.24431919e-02,
4.01348211e-02,-1.62160918e-01,9.46602300e-02,-1.43386796e-01,1.45788153e-03,
7.05060437e-02,-2.20140014e-02,-8.78413245e-02,-1.12291694e-01,6.17715083e-02,
-8.67809504e-02,-1.08756535e-01,7.97939301e-03,4.69981246e-02,-1.10965468e-01,
6.57064887e-03,1.52434573e-01,-1.73586205e-01,-1.18081987e-01,-7.46767372e-02,
9.27036405e-02,-1.20658748e-01,-1.49888806e-02,-8.81298035e-02,6.08982556e-02,
4.58167605e-02,-4.23535407e-02,-5.07489890e-02,-5.98919541e-02,1.81811750e-02,
4.33294214e-02,1.21036619e-01,-4.40857112e-02,-1.33404881e-01,-1.88944340e-01,
-1.75910249e-01,1.65168077e-01,-1.85728036e-02,9.55290347e-02,9.11305994e-02,
4.90909116e-03,1.13228314e-01,-9.31023434e-02,-1.65004939e-01,-8.52038153e-03,
-5.39120752e-03,4.01148200e-02,-1.19768262e-01,-1.14289537e-01,1.60004482e-01,
-8.50514509e-03,6.79455698e-02,1.92666128e-02,-3.11980303e-02,-7.52496123e-02,
1.04409419e-01,-3.48024517e-02,-1.69773579e-01,-1.15546294e-01,-1.18238907e-02,
7.64197782e-02,3.27295028e-02,1.61922082e-01,-1.30301770e-02,2.22988613e-02,
-8.84062126e-02,-4.70781475e-02,-8.26473832e-02,-1.05539262e-01,6.49402812e-02,
-1.75885092e-02,1.05255805e-01,2.32102303e-03,-5.06212339e-02,7.80933052e-02,
4.91875298e-02,2.79382467e-02,6.93849772e-02,1.59661975e-02,-3.88550200e-02,
8.79823640e-02,8.27191398e-02,-4.18334305e-02,-1.92705635e-02,-2.67157275e-02,
1.14277966e-01,1.45664081e-01,1.01942778e-01,7.31686875e-02,4.77097817e-02,
2.30957791e-02,-1.45690227e-02,-6.76918030e-02,5.08135222e-02,1.17431082e-01,
-7.84526765e-02,-8.97196382e-02,2.83479597e-02,2.47582663e-02,1.41925782e-01,
-1.01199560e-01,2.98356218e-03,-3.66649181e-02,-2.39368547e-02,-1.37656078e-01,
8.31869692e-02,-3.23991925e-02,-6.49397373e-02,-6.41255826e-02,-3.48672383e-02,
1.36504069e-01,-9.85827949e-03,2.58125439e-02,7.74972588e-02,6.92449212e-02,
-3.50471102e-02,1.15550766e-02,6.78775311e-02,1.10933974e-01,1.48830637e-01,
-1.79286767e-02,-1.21395707e-01,2.31231985e-04,4.51371633e-02,6.97145760e-02,
-2.50528157e-02,-2.87490571e-03,-3.01225507e-03,-4.42717448e-02,-9.93108749e-02,
-8.38994086e-02,-1.59865037e-01,-1.63266167e-01,6.81259558e-02,2.63118837e-02,
1.70065135e-01,-2.92600859e-02,-1.12906722e-02,1.65619150e-01,4.58395295e-03,
8.15015733e-02,5.67980632e-02,6.30693063e-02,-1.60743091e-02,1.11946456e-01,
1.07515998e-01,8.59042350e-03,1.92112792e-02,-8.11015740e-02,-7.66102150e-02,
1.28322318e-01,-8.64900351e-02,-2.27114260e-02,2.15649940e-02,1.72139127e-02,
-5.95642403e-02,-4.91724685e-02,7.88274258e-02,8.68542492e-02,-2.63521895e-02,
-6.93040267e-02,2.17092293e-03,7.44902762e-04,-4.11983058e-02,-4.02489156e-02,
1.26817226e-01,3.93019579e-02,-1.19094416e-01,-1.83721945e-01,3.46989967e-02,
-4.15679403e-02,1.91118076e-01,2.97532417e-02,-4.20455337e-02,3.37426774e-02,
-6.18560985e-02,-2.57113203e-02,1.18326461e-02,-1.73119754e-01,-1.39411474e-02,
-1.66055877e-02,-1.04785621e-01,-1.24700807e-01,-1.38538346e-01,-6.42438186e-03,
3.49003100e-03,4.10349108e-02,-6.96323514e-02,-5.17963395e-02,-6.64789882e-03,
-1.73560947e-01,1.44112855e-01,-1.72375832e-02,-3.89688276e-02,-6.91391379e-02,
9.09927264e-02,-5.07045388e-02,-6.90231770e-02,8.74318033e-02,8.38846192e-02,
9.03660581e-02,1.36284390e-02,1.06484018e-01,-2.76596211e-02,3.88738252e-02,
2.18905862e-02,-2.29138173e-02,-6.03212006e-02,-6.37812987e-02,-1.06837563e-01,
1.16994709e-01,-9.81269591e-03,-9.22006276e-03,-8.26666132e-03,2.11832742e-03,
-7.70064369e-02,-1.08165294e-01,-5.08754998e-02,5.94357029e-02,4.18159291e-02,
-5.80261648e-02,7.79595003e-02,1.40251651e-01,-4.14057672e-02,-6.32704794e-02,
1.76324755e-01,3.97865884e-02,4.69709076e-02,7.98829347e-02,1.02285128e-02,
-1.15915596e-01,1.28230490e-02,-3.68947722e-02,-8.51626471e-02,3.63044441e-02,
5.09477928e-02,9.49740186e-02,-3.06190997e-02,-1.73692405e-02,4.76223007e-02,
8.20136443e-02,3.40677169e-03,4.76020053e-02,1.29046574e-01,2.44044289e-02,
1.71437830e-01,-5.90419136e-02,-3.80531549e-02,8.92014503e-02,-4.10884768e-02,
2.63703559e-02,-3.30479257e-03,-1.00118048e-01,8.34127739e-02,9.86937955e-02,
2.36035302e-01,-5.66101782e-02,-8.14426392e-02,5.26116453e-02,-6.37050271e-02,
1.12216987e-01,-8.23195279e-02,6.07867241e-02,-1.52536541e-01,-5.62515594e-02,
3.40417959e-02,2.19254531e-02,3.79093960e-02,8.98786858e-02,5.18485084e-02,
6.33384883e-02,-5.98004013e-02,6.48121834e-02,2.91973054e-02,-1.43802119e-02,
-7.65263010e-03,7.15007931e-02,1.67277962e-01,-1.31986255e-03,6.13724533e-03,
6.54933378e-02,4.81360517e-02,8.06356147e-02,1.21449148e-02,1.07151968e-02,
-7.91287571e-02,-2.01722682e-02,-1.94413699e-02,4.22941670e-02,-9.92051661e-02,
-6.86898828e-02,-5.59067801e-02,-5.36948815e-02,-9.31860209e-02,1.81187525e-01,
5.03302664e-02,-1.37961298e-01,3.76696438e-02,1.94944441e-02,-1.48033321e-01,
1.48539945e-01,-4.24476750e-02,-4.36959602e-02,3.02267727e-02,5.09392582e-02,
1.91907063e-01,-6.36373740e-03,4.04946133e-02,-1.52626544e-01,3.22108008e-02,
7.73160681e-02,-1.09501436e-01,5.65342605e-02,-5.54089956e-02,1.27133474e-01,
-8.54366943e-02,-1.39416859e-01,-1.53599298e-02,1.39493570e-01,9.61942151e-02,
-8.49290416e-02,-1.09140418e-01,-2.24514548e-02,-7.29623139e-02,-1.10016003e-01,
7.79017508e-02,-3.35120261e-02,-1.25976995e-01,-3.80516537e-02,-7.06634447e-02,
1.63929686e-01,6.66409880e-02,6.21876940e-02,-1.90258829e-03,4.14639711e-02,
-1.42371222e-01,-3.04506924e-02,-3.12800775e-03,8.62026936e-04,3.88804488e-02,
-3.94573808e-02,-1.11796804e-01,-3.51115093e-02,-8.03606864e-03,1.02834674e-02,
-5.72230406e-02,-2.28272621e-02,-3.23423184e-02,-6.13571554e-02,-1.01786274e-02,
-5.23159280e-02,3.79653014e-02,9.96454656e-02,-8.66060331e-02,1.71047114e-02,
-5.56208044e-02,-5.45603335e-02,-1.23067889e-02,7.81768411e-02,-1.24844901e-01,
-1.43705890e-01,-6.89022020e-02,7.36989900e-02,-4.75840643e-03,2.06429213e-02,
1.20341126e-02,4.50219633e-03,1.42066285e-01,-1.28610760e-01,1.56572163e-02,
-1.35048956e-01,9.43507701e-02,5.01506180e-02,7.18945544e-03,2.16347780e-02,
9.06430706e-02,-1.13056600e-01,1.96509615e-01,-1.96278119e-03,2.34427815e-03,
-3.24410312e-02,-2.31397320e-02,-1.31398827e-01,-1.18120939e-01,6.95817098e-02,
-6.01030998e-02,-1.24801155e-02,-2.34607328e-02,1.29470536e-02,1.63680892e-02,
-1.32703215e-01,9.81975198e-02,9.20992494e-02,2.10814565e-01,-9.19704810e-02,
1.66403726e-02,3.79101373e-02,-2.81440485e-02,-9.65355933e-02,1.30027622e-01,
1.56268030e-02,1.64042130e-01,6.61336957e-03,-7.07899034e-02,6.95538372e-02,
3.66267860e-02,1.16170079e-01,9.39850584e-02,1.44299075e-01,3.70224565e-02,
-1.16622038e-01,-3.10867839e-02,2.62922887e-02,5.22747869e-03,-2.85050664e-02,
-6.19874857e-02,2.58655101e-02,-3.66487689e-02,7.18909204e-02,-1.94109216e-01,
2.95036659e-02,9.24640819e-02,-1.01110041e-01,1.63925797e-01,-5.81748337e-02,
6.25751466e-02,3.22336070e-02,-1.08364604e-01,3.23794186e-02,-5.16985059e-02,
3.57044451e-02,-4.07743268e-02,5.61223105e-02,8.74167234e-02,-5.08926250e-02,
-1.42839951e-02,1.17690876e-01,-8.55085179e-02,-9.22232494e-02,-1.23452686e-01,
2.59368587e-02,1.32780641e-01,-4.10578996e-02,-4.63353582e-02,-7.74233043e-02,
-1.14868358e-02,1.03668692e-02,1.46953389e-01,-3.72978002e-02,-2.53049601e-02,
-5.24573661e-02,-1.13241943e-02,-9.82826389e-03,9.07764807e-02,2.00212421e-03,
4.79439422e-02,1.34328706e-02,-1.52324680e-02,-9.41083506e-02,5.95606640e-02,
-7.78929703e-03,-2.63344496e-02,-7.01618791e-02,8.63421857e-02,-2.13119630e-02,
4.71046101e-03,-1.14953294e-02,5.11638261e-02,1.52403310e-01,-5.86829288e-03,
6.81120157e-02,-1.93840656e-02,2.50387881e-02,7.09453458e-03,-6.37265341e-03,
1.02612060e-02,-3.62503566e-02,6.37546033e-02,1.88288391e-01,7.96619132e-02,
-3.77573483e-02,-4.49919812e-02,6.43644296e-03,1.45498708e-01,-5.18654939e-04,
-1.82094667e-02,-6.86206892e-02,1.37549415e-01,1.46928698e-01,-3.83628570e-02,
1.45875541e-02,7.29106590e-02,9.05770659e-02,-2.79464270e-03,-7.77246505e-02,
-1.42609552e-01,2.61426289e-02,-2.39642914e-02,-8.38526245e-03,-4.13745362e-03,
6.46084361e-03,3.45404819e-02,-7.03818351e-03,-2.90304255e-02,-6.27380237e-02,
9.89263356e-02,1.06315136e-01,2.17623916e-02,-5.42041473e-03,1.37808800e-01,
-6.80509582e-03,5.05981520e-02,1.92277096e-02,6.67595118e-02,-4.09156494e-02,
1.06191047e-01,3.69408056e-02,-1.08939730e-01,-3.21421102e-02,5.26999347e-02,
-4.91352752e-02,6.26509637e-02,6.55764667e-03,8.85135308e-03,5.08749224e-02,
6.43055066e-02,1.42506938e-02,-1.07590994e-03,4.43307906e-02,-9.73238144e-04,
3.52224261e-02,7.40044488e-05,1.68742728e-03,8.46015289e-03,3.33938263e-02,
7.60072470e-02,1.03223331e-01,1.07277535e-01,1.80420093e-02,7.37800598e-02,
-3.84550309e-04,-4.15628543e-03,-1.40063301e-01,1.50221109e-01,9.79169384e-02,
1.45271858e-02,1.52690634e-01,-9.03573409e-02,6.56478927e-02,-4.97125015e-02,
-1.58692077e-02,6.59217611e-02,9.61410329e-02,6.43151030e-02,1.75679401e-02,
-5.39753214e-02,-5.60580492e-02,-1.48541152e-01,-6.86383545e-02,6.95907325e-02,
8.46597254e-02,-1.60152223e-02,-6.77119270e-02,-2.38073971e-02,-1.79344192e-02,
9.53900889e-02,2.00652648e-02,-2.53169779e-02,-1.52039807e-02,2.38013361e-02,
-4.08818573e-02,-8.04510340e-02,-6.50632083e-02,-7.08824117e-03,-1.19605094e-01,
5.87519370e-02,-7.53510520e-02,3.35024744e-02,9.30636302e-02,-2.04236329e-01,
-1.38185233e-01,8.07709098e-02,6.07082713e-03,1.67540740e-02,-1.05917536e-01,
-7.68578378e-04,8.42932090e-02,2.32669362e-03,1.91449299e-02,8.82011950e-02,
9.20240059e-02,1.93663104e-03,-1.34287486e-02,-3.84058990e-02,3.66575317e-03,
6.32301122e-02,-1.41182959e-01,-6.08653277e-02,-1.44826457e-01,5.39998524e-03,
-1.03884833e-02,2.19901511e-03,1.55937932e-02,-2.20755320e-02,1.11576162e-01,
4.48734537e-02,1.92206219e-01,9.84348282e-02,1.53343072e-02,-2.94342190e-02,
-2.92401314e-02,8.15287419e-03,-6.63268892e-03,8.13289254e-04,5.71860932e-02,
-8.95147678e-03,-7.42575079e-02,-9.98941343e-03,8.92606080e-02,-6.67525753e-02,
6.65261820e-02,-2.01843455e-02,-6.62952065e-02,2.58537978e-02,2.70906165e-02,
-2.09363922e-02,-1.29771084e-01,1.49952909e-02,7.58947581e-02,-1.84076369e-01,
-8.99831951e-03,-4.47782204e-02,1.08687587e-01,4.19335403e-02,-1.50913909e-01,
-1.17523819e-02,-2.08297521e-02,9.39976126e-02,3.41094211e-02,1.97724737e-02,
-1.00643635e-01,1.03680037e-01,9.12447199e-02,-5.60076116e-03,-3.50739202e-03,
9.15820077e-02,-2.55501363e-02,-1.48537140e-02,-6.40987456e-02,-3.64398770e-02,
-7.41078854e-02,-7.58101568e-02,2.33851559e-02,2.07585166e-03,1.38401464e-01,
-2.19789729e-01,8.54454190e-02,6.06857650e-02,-6.77864924e-02,7.81456456e-02,
-4.73402115e-03,1.90625161e-01,-6.35488890e-03,5.83780296e-02,-1.55762536e-02,
-3.25299054e-03,1.59620821e-01,-1.00042716e-01,-1.13953270e-01,-1.45984292e-01,
-2.31776834e-01,-2.01650485e-02,-5.29665388e-02,5.71125858e-02,7.19665214e-02,
1.06882609e-01,-9.59216505e-02,-1.10576503e-01,3.51400711e-02,-3.35879400e-02,
2.92909499e-02,-6.40532300e-02,-5.26366346e-02,1.09384790e-01,4.56857532e-02,
1.22750938e-01,-2.37794563e-01,-3.03646103e-02,-9.09838304e-02,-1.81843236e-01,
3.65359522e-02,3.62477899e-02,-1.02761433e-01,5.10816127e-02,1.34402603e-01,
-1.30057573e-01,1.42926928e-02,-1.25041932e-01,-2.74542551e-02,1.05117291e-01,
7.06250444e-02,8.79397392e-02,-1.70262054e-01,4.03840654e-02,4.94756438e-02,
-1.32371336e-01,-5.72344810e-02,4.06509489e-02,1.34279117e-01,-1.14845350e-01,
-9.72400699e-03,-5.45664392e-02,5.60354702e-02,9.04747397e-02,7.37567991e-02,
-1.95565149e-02,5.26203066e-02,-7.16384529e-05,1.30915549e-02,-5.72052263e-02,
9.69186891e-03,-6.77504912e-02,3.74883972e-02,2.79660337e-02,-1.41459048e-01,
-6.78346306e-03,-2.93933023e-02,3.25799845e-02,-5.94792254e-02,-1.21732987e-01,
-5.10357097e-02,1.91353615e-02,-5.52007295e-02,1.04274839e-01,1.59989018e-02,
-1.64026290e-01,8.48105550e-02,-4.14463021e-02,8.09313878e-02,1.65422365e-01,
-1.78055186e-02,-7.20440894e-02,-9.32806507e-02,7.95883015e-02,4.35363948e-02,
1.52928710e-01,1.32461414e-01,7.54740536e-02,4.26949933e-02,-3.14225778e-02,
-1.53212577e-01,-8.54504183e-02,-5.81976548e-02,-8.43122378e-02,-4.57175039e-02,
-3.91714461e-02,-6.40772209e-02,4.87846360e-02,-1.41747177e-01,-8.27106312e-02,
4.94396612e-02,7.84815252e-02,-2.80083954e-01,2.80343369e-02,-3.14926133e-02,
-2.42460996e-01,1.72385909e-02,-9.68328938e-02,5.49503490e-02,3.67415175e-02,
1.18987083e-01,1.00101507e-03,2.65396433e-03,7.40346909e-02,4.00762856e-02,
9.97249559e-02,-1.78281944e-02,-2.96185055e-04,-6.58136085e-02,-5.51463924e-02,
1.17032910e-02,-1.04634725e-01,-8.31105039e-02,6.72364533e-02,-4.95730191e-02,
2.81547178e-02,-2.03263596e-01,1.13423049e-01,-1.50515251e-02,-1.72083288e-01,
-3.58881317e-02,4.25568148e-02,2.38861237e-02,2.08649635e-02,1.17361322e-02,
7.15576634e-02,-1.98378526e-02,8.29458162e-02,2.03144073e-01,5.21536246e-02,
4.07950878e-02,-5.46346530e-02,1.79381147e-01,-7.02424273e-02,-5.53224385e-02,
-5.84946908e-02,-5.58565110e-02,1.18131503e-01,-7.23694405e-03,-5.40254265e-02,
-1.83858022e-01,3.90153341e-02,-1.13001160e-01,1.49971088e-02,6.41000867e-02,
6.56115636e-02,8.04256424e-02,1.62620664e-01,-6.88422397e-02,-1.38101324e-01,
-5.49216494e-02,4.72479351e-02,2.39262849e-01,7.27148205e-02,5.66141233e-02,
-2.14693006e-02,-5.96140884e-02,-6.51054382e-02,1.29179701e-01,1.64070442e-01,
-2.78009456e-02,3.95919941e-02,-6.08637091e-03,-2.06202250e-02,-9.09663215e-02,
1.62406564e-02,6.80790320e-02,2.75671091e-02,-4.86146659e-02,-8.84834677e-02,
-9.87629443e-02,7.34022707e-02,3.74541022e-02,2.63582822e-02,4.83738584e-03,
-6.01317622e-02,9.44260806e-02,-6.88618869e-02,1.73991304e-02,-1.30872324e-01,
3.25753470e-03,-1.00736931e-01,-3.73711064e-02,-7.18543306e-02,9.47384313e-02,
-1.87252194e-01,-1.12177588e-01,7.57935867e-02,2.84049995e-02,3.59180607e-02,
3.70331444e-02,6.83621392e-02,-4.23646681e-02,-1.24972776e-01,-5.51848523e-02,
-6.93298643e-03,-8.20962489e-02,-4.76976335e-02,-5.73641248e-02,2.81760007e-01,
9.20313969e-02,-1.31760955e-01,3.29402275e-02,-9.92052183e-02,-4.43334393e-02,
1.31034274e-02,-1.02956900e-02,3.51908803e-02,5.33641055e-02,1.45823415e-02,
-3.93851288e-02,-9.19409189e-03,-1.32851554e-02,-1.11736156e-01,2.21724361e-02,
-5.65706491e-02,6.98442161e-02,6.03340790e-02,1.45920143e-01,3.01746856e-02,
1.38526857e-01,7.09094778e-02,5.75169250e-02,-6.34730011e-02,-9.37790424e-03,
-2.56169196e-02,9.81716737e-02,8.42118785e-02,5.46697304e-02,2.59256307e-02,
3.10538597e-02,2.17400230e-02,4.96919602e-02,1.29111987e-02,1.55569330e-01,
5.59042618e-02,7.42930248e-02,6.33063540e-03,1.38550684e-01,-1.35903805e-01,
-7.91326612e-02,1.99428394e-01,3.14620398e-02,2.53205951e-02,-1.01402417e-01,
3.14213932e-02,1.02167197e-01,3.38795073e-02,4.62437347e-02,3.69103462e-03,
8.85677114e-02,-6.61537051e-02,3.68866473e-02,7.85024390e-02,2.47776136e-02,
3.37583609e-02,2.05242378e-03,3.18820290e-02,1.56201214e-01,6.53520003e-02,
1.34217784e-01,-7.80661330e-02,-5.77598661e-02,-4.30391096e-02,-2.85108574e-02,
2.24496350e-02,-2.89777778e-02,-6.39840215e-02,-2.68208561e-03,1.35405168e-01,
7.59237334e-02,-1.98511686e-02,-4.35976870e-02,-9.15133767e-03,-6.01413846e-02,
-3.33522931e-02,-3.12523283e-02,5.96270077e-02,-5.27285784e-02,7.57185370e-02,
3.90374027e-02,-5.40710101e-03,3.92509922e-02,-1.84023321e-01,-8.76280814e-02,
1.16140451e-02,-4.89064902e-02,6.49230927e-02,-7.40649998e-02,-3.99337057e-03,
1.27778679e-01,-9.43633169e-02,1.35628050e-02,4.19542044e-02,-2.70188674e-02,
-1.38328853e-03,-4.55912463e-02,3.97492722e-02,-5.50222732e-02,1.03724368e-01,
1.35946635e-03,4.82826419e-02,5.77075332e-02,-2.10468858e-01,5.59000522e-02,
-2.31961999e-03,-1.01055689e-02,1.07131051e-02,4.80308523e-03,-7.53245056e-02,
8.71614087e-03,2.94053718e-03,4.69942912e-02,1.19070530e-01,7.41818175e-02,
-9.83617753e-02,6.07015193e-03,9.71558094e-02,3.84573340e-02,9.46258530e-02,
1.92754179e-01,1.41722104e-03,3.01256888e-02,-3.83553877e-02,-1.68261882e-02,
-5.71191311e-02,6.53707534e-02,-3.32924388e-02,6.99674860e-02,2.48559248e-02,
1.65163830e-01,-1.22243844e-01,-5.69184832e-02,-6.77643484e-03,-6.66996241e-02,
-4.09666542e-03,7.39713609e-02,-1.80477314e-02,-5.54332174e-02,6.70034736e-02,
-3.79153490e-02,5.94416671e-02,9.43093449e-02,7.95943663e-02,-8.19934309e-02,
-8.42449963e-02,7.92981088e-02,1.83509693e-01,-3.09592523e-02,8.01962689e-02,
2.88088806e-02,-3.42438854e-02,-9.61273983e-02,9.06978324e-02,9.93159786e-02,
-1.01927161e-01,-5.74232116e-02,-5.03901113e-03,-1.85651798e-02,4.22692019e-03,
1.05762884e-01,3.65964952e-03,3.97101417e-02,-1.68136619e-02,-2.09206901e-02,
-9.15911701e-03,-2.18548715e-01,1.14256337e-01,-1.34461718e-02,6.62564486e-02,
2.66849659e-02,-6.39089895e-03,4.23863158e-03,-5.34743257e-02,-3.43763344e-02,
1.46597400e-01,-3.28759692e-04,2.89599877e-02,7.78621212e-02,1.54029224e-02,
-2.76062693e-02,-5.61415404e-02,5.54382578e-02,-1.98703874e-02,1.38218254e-01,
7.13181570e-02,-1.17430024e-01,7.95969814e-02,1.03308074e-02,-1.05824389e-01,
2.21118376e-01,-1.14639312e-04,-2.41668150e-02,2.54625846e-02,1.31355569e-01,
7.87509382e-02,-4.19562124e-02,1.12196445e-01,6.23688884e-02,-8.57920444e-04,
-2.36535799e-02,8.62524584e-02,1.37723237e-02,1.00299031e-01,-6.61782175e-02,
1.13157280e-01,-6.08146302e-02,1.95014358e-01,1.15068041e-01,1.14400156e-01,
-3.43402624e-02,1.56044951e-02,-1.01206996e-01,-1.30837455e-01,3.97240222e-02,
5.70317358e-02,-1.89512819e-02,-1.50800869e-02,-4.29411158e-02,9.75625739e-02,
2.94571221e-02,8.62364992e-02,-5.59804626e-02,-1.81320310e-02,-4.25092839e-02,
4.71415184e-02,7.48821944e-02,3.38316634e-02,1.38013717e-02,-2.24103015e-02,
-4.25644331e-02,9.83368009e-02,-1.86647430e-01,-1.32809579e-02,-2.45568510e-02,
3.60246040e-02,-1.04224943e-01,1.94247011e-02,-9.17830039e-03,-7.54185542e-02,
2.15949416e-02,-1.21092629e-02,1.22917639e-02,1.52397096e-01,4.35531326e-02,
-4.96325567e-02,-8.87995958e-02,6.32734522e-02,8.44326913e-02,1.36372456e-02,
4.19987105e-02,3.37484889e-02,3.64295021e-02,-1.08111687e-01,-8.94162618e-03,
2.54301339e-01,2.11296514e-01,1.38611030e-02,4.03912775e-02,1.43652380e-01,
1.13505460e-01,1.22976623e-01,1.07610129e-01,-7.73315802e-02,-1.10204093e-01,
7.34994933e-02,-3.83011880e-03,-1.00975744e-01,9.11544263e-02,-1.07379116e-01,
5.85792214e-02,6.83013350e-02,4.09153476e-02,8.33084062e-02,6.79705366e-02,
8.89878646e-02,1.97558738e-02,2.72993986e-02,-1.89026678e-03,-4.11541797e-02,
9.31780562e-02,-1.21310838e-02,-4.02547605e-02,-1.33581176e-01,2.65166797e-02,
-3.31398547e-02,1.09895326e-01,3.81110888e-03,4.30268748e-03,9.40103605e-02,
-8.09069797e-02,3.75886005e-03,1.31897181e-02,2.41419468e-02,6.15186244e-02,
-6.81282207e-02,4.84944470e-02,-4.72519659e-02,-4.18646075e-02,-8.92709866e-02,
5.81728220e-02,-3.66996080e-02,-9.97956321e-02,1.21420130e-01,4.14405577e-03,
1.24743067e-01,-6.63019642e-02,-4.68079075e-02,2.58869696e-02,-1.61039785e-01,
9.21510980e-02,1.06631604e-03,6.45556375e-02,-4.85359766e-02,-4.11081240e-02,
-1.28872767e-01,-8.84769782e-02,2.66471177e-01,7.36936033e-02,6.31199628e-02,
9.94079113e-02,-1.18897893e-01,-3.50357667e-02,1.01674132e-01,-1.64044090e-02,
9.58211254e-03,-8.19815472e-02,-5.11221737e-02,2.84514725e-02,4.66745812e-03,
6.52699247e-02,1.00072445e-02,-8.71763751e-02,-2.51257177e-02,7.84014165e-02,
2.93937512e-02,-2.02590406e-01,-2.24594604e-02,-8.27718899e-02,3.78813855e-02,
8.37046131e-02,-2.75608171e-02,2.29298010e-01,-9.05199647e-02,-7.30992779e-02,
-6.10637479e-02,-9.29694399e-02,4.91575673e-02,8.82643908e-02,-6.85852841e-02,
1.48793980e-01,5.83807193e-02,8.43971409e-03,-2.11588785e-01,1.27489604e-02,
-1.63085607e-03,-2.60539621e-01,-1.36001170e-01,6.01031957e-03,-3.66894081e-02,
5.33454828e-02,1.22769922e-01,-1.08668342e-01,-3.82682756e-02,2.07170309e-03,
-2.35978775e-02,5.00722714e-02,-9.74097569e-03,3.66788395e-02,-9.22359154e-03,
3.98473404e-02,1.20816797e-01,-3.86178195e-02,3.77079286e-02,-8.80955160e-02,
-1.42230287e-01,9.76740047e-02,2.39937520e-03,-1.05034627e-01,-6.42566234e-02,
-5.66646382e-02,-1.57537218e-02,-7.70417899e-02,6.76423833e-02,8.47860798e-03,
-1.27673037e-02,1.41008288e-01,1.12931326e-01,5.89352623e-02,5.99881932e-02,
-1.87812239e-01,1.77095667e-01,2.57389098e-01,1.55302078e-01,3.50436009e-02,
7.41416216e-02,1.17523149e-01,-1.54654652e-01,-1.05880544e-01,-9.30513591e-02,
7.21955225e-02,-2.03724121e-05,-6.88661709e-02,2.13025603e-02,-1.00820184e-01,
-1.02826282e-01,-2.79245693e-02,3.63292731e-02,-1.10105328e-01,6.00616373e-02,
-6.76836744e-02,6.83986694e-02,9.23261568e-02,-1.01299070e-01,-4.29007262e-02,
6.91146171e-03,3.62784788e-03,-2.39924863e-02,2.65196376e-02,-9.34599265e-02,
2.08512604e-01,8.44872072e-02,1.59113467e-01,5.27357645e-02,5.06035909e-02,
-1.38753906e-01,8.39803219e-02,7.19158277e-02,-3.23335528e-02,-6.19284697e-02,
-6.12817518e-02,-1.41070813e-01,-1.89382141e-03,2.30645146e-02,-4.63492237e-02,
4.45139557e-02,4.14477661e-02,2.69395281e-02,-4.29623909e-02,2.91823000e-02,
1.18284233e-01,1.95874497e-02,-1.97643060e-02,1.12474792e-01,6.09514676e-02,
2.65449639e-02,8.61481130e-02,5.71948476e-02,-9.41872597e-02,2.33461447e-02,
-3.24326791e-02,7.44905099e-02,5.95068820e-02,1.17353134e-01,-9.05094377e-04,
-6.56715110e-02,8.57274979e-02,4.37814780e-02,3.10563613e-02,1.35110959e-01,
1.32181691e-02,2.52638124e-02,-4.96658571e-02,5.52344173e-02,-7.00513497e-02,
-1.04629532e-01,1.02528349e-01,2.17747968e-02,-9.84614938e-02,-8.39676037e-02,
4.56433222e-02,-1.09331012e-01,1.00812852e-01,1.56424582e-01,4.02582586e-02,
-1.17770862e-02,-1.42916180e-02,-5.97854480e-02,2.16660816e-02,4.06321846e-02,
-1.23594925e-01,-1.91491898e-02,2.48818453e-02,-2.15395782e-02,-5.09516262e-02,
-5.22221951e-03,2.36787610e-02,3.24195996e-02,-8.98732990e-03,-4.36513824e-03,
1.05665363e-01,-2.70352662e-01,-9.59644243e-02,-1.69264097e-02,3.99424098e-02,
-5.91182820e-02,1.66036800e-01,-7.21499920e-02,7.68807232e-02,9.40229297e-02,
-5.75408041e-02,-1.09057151e-01,1.51962221e-01,-1.80429276e-02,1.12361871e-01,
-8.22007358e-02,-8.56501460e-02,-4.68042716e-02,1.49147436e-01,6.53068051e-02,
2.63973847e-02,-1.21803060e-01,2.13368628e-02,-8.76695290e-02,-1.65954269e-02,
-1.14198737e-01,1.12166263e-01,-1.14265181e-01,-1.65543959e-01,-4.09807591e-03,
1.21902637e-01,1.08312324e-01,3.03221326e-02,-1.29634693e-01,3.88856418e-02,
-1.28615633e-01,-8.70889351e-02,9.96770561e-02,-2.84273550e-02,8.44205990e-02,
2.16898266e-02,-2.55149212e-02,-3.25340778e-02,-5.03002107e-02,-3.67064998e-02,
-8.51269588e-02,-2.56124642e-02,2.55246665e-02,4.15300354e-02,3.43760885e-02,
8.18539336e-02,5.98291531e-02,-5.28241396e-02,-2.58922093e-02,5.94489910e-02,
-9.24814586e-03,8.87734164e-03,6.35730997e-02,-6.73278943e-02,-5.86381629e-02,
9.98500586e-02,-1.02595717e-01,-3.39127295e-02,9.79214907e-02,6.60063848e-02,
-4.88762371e-02,-7.41494521e-02,9.25073773e-02,1.15360953e-01,-4.53007892e-02,
9.69014887e-04,8.36471096e-02,-6.55354559e-02,-5.96877262e-02,5.55419251e-02,
1.16764210e-01,-7.37146363e-02,-7.29654506e-02,8.53595510e-02,3.32616083e-02,
-1.18789457e-01,4.22351956e-02,5.96065558e-02,1.33064091e-01,6.41693696e-02,
1.04161009e-01,-1.20975813e-02,1.39224920e-02,8.04937854e-02,1.07791331e-02,
3.11281439e-03,4.56720889e-02,1.23343430e-01,-2.13521030e-02,3.21625434e-02,
-7.60855451e-02,4.21385355e-02,-3.48206703e-03,3.45822647e-02,1.42862778e-02,
3.20758596e-02,1.16999231e-01,-6.82569072e-02,5.75722381e-02,-3.58366370e-02,
5.47428951e-02,1.00446735e-02,6.32638186e-02,4.57477048e-02,-3.78781580e-04,
-1.39875012e-02,-1.78191680e-02,4.77453098e-02,5.61508015e-02,3.95546667e-02,
8.15622360e-02,-1.12900920e-02,-1.67275399e-01,9.74614173e-02,-5.13426680e-03,
-1.01256445e-01,-4.02122997e-02,5.70660718e-02,3.61257941e-02,-2.67918780e-02,
-3.69359478e-02,3.86141501e-02,-4.59177559e-03,6.20767698e-02,1.47714540e-01,
1.01826303e-01,2.16539316e-02,9.45520177e-02,9.95979235e-02,-1.30798876e-01,
-8.65752548e-02,6.98388070e-02,-1.68173626e-01,6.76407069e-02,1.40222773e-01,
5.96881323e-02,6.34980667e-03,3.90292704e-02,-2.28741065e-01,7.10176211e-03,
6.81521446e-02,2.01454945e-02,4.47352417e-03,1.68330129e-02,-2.95442566e-02,
5.74130267e-02,8.82102549e-03,-5.45322138e-04,-6.50876155e-03,3.99519466e-02,
1.21058367e-01,-2.11162306e-02,-1.20606661e-01,-8.68819952e-02,2.25572009e-02,
1.82834774e-05,9.27389264e-02,8.07866827e-02,3.37889306e-02,2.59039328e-02,
-1.31098837e-01,-8.52438584e-02,1.10509701e-01,-1.18274771e-01,-6.83813021e-02,
5.37953712e-02,6.63753003e-02,-8.54939409e-03,6.66438490e-02,-8.12225509e-03,
-8.91254097e-02,-1.41418070e-01,-5.75794727e-02,-1.93665531e-02,1.07577644e-01,
2.43111309e-02,1.05647184e-02,1.70504272e-01,8.46537724e-02,-1.46193668e-01,
4.27664146e-02,-2.30525360e-01,6.02665246e-02,-1.06262499e-02,-2.22558677e-02,
-3.51882391e-02,2.92220642e-03,1.99360065e-02,2.25068536e-02,8.13743398e-02,
5.31387776e-02,-7.57446811e-02,-1.17880896e-01,-2.38378216e-02,-3.75549644e-02,
9.72145330e-03,4.05419022e-02,-8.80964398e-02,6.37745485e-02,1.25864729e-01,
1.10426091e-01,-6.26704395e-02,4.49024141e-03,1.41304687e-01,4.56529064e-03,
8.35685059e-02,4.56182435e-02,1.56779632e-01,-1.20490946e-01,-4.78148386e-02,
1.70618966e-01,3.88933159e-02,3.67307588e-02,9.54030976e-02,-1.13116028e-02,
1.50567874e-01,-1.41670993e-02,-6.09855317e-02,-1.48906514e-01,-1.27746714e-02,
-2.80538127e-02,-2.06692610e-02,1.21728949e-01,9.68745723e-03,1.96958613e-02,
1.51384016e-02,1.85908973e-02,-1.11723185e-01,1.15341105e-01,6.84484839e-02,
1.61810398e-01,-2.52654944e-02,2.44362969e-02,-1.47913367e-01,-3.12912129e-02,
-1.21426851e-01,-5.54699488e-02,7.29104355e-02,-6.30639195e-02,4.36695199e-03,
-1.43250898e-01,6.17712401e-02,-2.75044683e-02,-5.40674031e-02,1.13810487e-01,
4.55516949e-02,-3.75829916e-03,6.68654218e-02,6.80722110e-03,1.87357627e-02,
-2.53730882e-02,-2.76242178e-02,2.98820212e-02,4.72208373e-02,3.72396931e-02,
2.34096125e-03,3.06171700e-02,9.37916189e-02,7.57999271e-02,1.48492185e-02,
1.68019876e-01,-1.10260308e-01,1.39596432e-01,-9.53145847e-02,1.56219050e-01,
4.33197152e-03,-1.05052635e-01,1.31423667e-01,3.78530733e-02,7.54094776e-03,
-8.02298337e-02,-7.58327842e-02,1.55303152e-02,3.23627070e-02,5.77123314e-02,
-1.25463933e-01,1.26724551e-02,3.88359721e-03,3.81419808e-03,3.05382833e-02,
1.01814047e-01,6.31297454e-02,-2.50292327e-02,-4.29859050e-02,8.63300264e-02,
9.79128629e-02,8.04302320e-02,3.23595442e-02,-2.15471968e-01,-3.32833380e-02,
8.98367241e-02,-9.71623361e-02,-1.19187780e-01,2.20702231e-01,-2.47223675e-02,
1.28770977e-01,-1.11070432e-01,2.76965369e-02,3.03414296e-02,4.85492051e-02,
-5.02023660e-02,-1.88922100e-02,2.00424697e-02,-1.07373461e-01,2.11781599e-02,
-4.15801555e-02,3.37390415e-02,-2.23098174e-02,-7.92444944e-02,5.36213256e-02,
-9.53918099e-02,7.88814798e-02,1.27818614e-01,5.88017628e-02,1.11822881e-01,
6.65136203e-02,1.11563034e-01,-3.70247364e-02,-3.71668935e-02,-1.44712582e-01,
-6.31183386e-03,-1.38962537e-01,1.16831046e-02,2.17105802e-02,-8.23037699e-03,
-1.01259947e-01,-1.32757097e-01,-2.71869767e-02,-4.30728681e-02,1.69405684e-01,
-1.29367663e-02,1.65906530e-02,-1.49908364e-01,-3.22879776e-02,-5.31580523e-02,
1.95809011e-03,-3.16710919e-02,5.19131422e-02,-5.11478595e-02,1.38537446e-02,
-2.53793271e-03,-1.14669800e-01,-1.43477574e-01,4.67714295e-02,4.15338837e-02,
6.67333901e-02,-9.99890640e-02,4.23198864e-02,-8.09533969e-02,7.20080212e-02,
-1.11527428e-01,1.35424556e-02,-1.66554544e-02,-4.57364582e-02,6.29020780e-02,
-1.00444950e-01,4.34404649e-02,3.77678946e-02,3.15152109e-02,2.42615104e-01,
1.16740830e-01,-9.96317938e-02,1.41398281e-01,-1.51538953e-01,1.63539231e-01,
-8.79412368e-02,-1.12840990e-02,-2.40611378e-02,7.60686621e-02,1.39718533e-01,
4.45559546e-02,1.06520988e-01,1.73746347e-02,6.16268767e-03,8.33709165e-02,
2.77432427e-02,2.52304156e-03,4.68790233e-02,8.55537504e-02,5.78767024e-02,
-3.46600227e-02,3.30180079e-02,-1.13598160e-01,1.57238588e-01,-8.70580152e-02,
9.73959193e-02,6.62763417e-02,-1.17050044e-01,-4.06895019e-02,-1.14381075e-01,
8.15861076e-02,7.36783743e-02,-3.05660069e-02,7.17687160e-02,4.18070816e-02,
6.23821840e-02,-2.81543639e-02,4.90655378e-02,1.13538325e-01,1.50392085e-01,
-1.34830713e-01,-1.55269489e-01,-1.39698782e-03,-8.89261067e-02,1.71586312e-02,
1.16751261e-01,-8.70121494e-02,-9.75047350e-02,6.18684031e-02,2.79138424e-02,
6.01188280e-02,3.24201916e-04,1.70320749e-01,8.18542317e-02,-3.26606259e-02,
6.33302033e-02,-4.86844555e-02,-2.26693507e-02,6.11036420e-02,-8.69143456e-02,
-7.63327116e-03,4.24373373e-02,-8.03022236e-02,-4.60837670e-02,-1.66959897e-01,
6.90292493e-02,1.57419518e-02,4.25999872e-02,1.36532977e-01,6.47322014e-02,
-3.84927019e-02,-6.33844733e-02,1.33908704e-01,1.00966558e-01,1.02646016e-02,
-4.75815088e-02,-1.07882999e-01,2.60824822e-02,1.22895524e-01,1.71180546e-01,
-1.09583549e-01,7.41683543e-02,-1.34349689e-02,1.12509746e-02,6.21041059e-02,
-2.36216802e-02,-6.40099421e-02,1.00113014e-02,-1.06758848e-01,-5.03189303e-02,
-1.95021350e-02,-3.36007886e-02,1.71939239e-01,-3.36974673e-02,7.61469528e-02,
-3.16370577e-02,4.88471948e-02,-6.11777185e-04,-4.07476425e-02,3.65681164e-02,
1.14051299e-02,-1.06651997e-02,-8.16453621e-02,-1.76764987e-02,4.70934696e-02,
9.80149489e-03,1.21000834e-01,-1.95071667e-01,9.26436633e-02,-5.85131720e-02,
9.59531683e-03,-2.06646454e-02,-1.53018579e-01,-5.16319126e-02,-8.55762735e-02,
1.19971158e-02,-1.03122272e-01,-9.60055552e-03,-9.27768052e-02,-5.86112728e-04,
2.29364987e-02,-1.75193667e-01,1.66217372e-01,-1.61868528e-01,-3.22006419e-02,
1.99235901e-02,-1.01071913e-02,1.46665066e-01,3.01965531e-02,-8.27757195e-02,
-8.73163566e-02,-1.08804405e-02,9.09612849e-02,6.74909651e-02,-6.88909218e-02,
3.88304442e-02,-1.15790106e-01,-1.38501339e-02,-2.74045784e-02,2.56689135e-02,
1.00219123e-01,4.86630388e-02,8.49961070e-04,-2.35360429e-01,-5.82121424e-02,
-9.98419225e-02,-4.51076543e-03,-6.81898743e-03,9.66905896e-03,2.47597352e-01,
-7.22068921e-02,3.23188789e-02,-9.84135550e-03,7.94725940e-02,6.68126270e-02,
3.37619297e-02,-1.41259164e-01,-7.29038417e-02,1.78208664e-01,2.36648411e-04,
3.21007781e-02,6.98038489e-02,-1.54627450e-02,9.26375985e-02,2.87332963e-02,
1.91804156e-01,-3.16554815e-01,3.45659372e-03,-1.52253166e-01,2.54750028e-02,
-6.45415410e-02,6.78064674e-02,1.19044125e-01,4.81493073e-03,8.02928302e-03,
2.28774007e-02,-3.41635495e-02,-7.11450726e-02,1.39199257e-01,-1.00122303e-01,
-5.10709509e-02,7.19229877e-02,-4.61429730e-02,-9.09820944e-02,8.57757777e-02,
5.70732020e-02,-1.69092324e-02,3.22476402e-02,-7.20051955e-03,2.16070339e-02,
1.95469126e-01,-1.03359900e-01,7.01748803e-02,1.95625409e-01,5.98531999e-02,
1.53980311e-02,-1.10678226e-01,1.64082780e-01,2.65990179e-02,-9.45665967e-03,
3.18596140e-02,-1.27771050e-01,-2.89575644e-02,-8.37716609e-02,5.07623283e-03,
7.74393082e-02,6.66175708e-02,1.02566751e-02,-8.46177116e-02,-8.18693936e-02,
-3.80450189e-02,-5.19449152e-02,5.84109798e-02,-1.94384441e-01,-6.75036535e-02,
-5.19983061e-02,8.03394616e-02,5.36604300e-02,-1.44601002e-01,-1.10164151e-01,
-9.69074592e-02,-4.34417911e-02,-3.60741951e-02,-8.79052952e-02,4.43870714e-03,
-1.35753546e-02,-6.11584075e-03,1.25402994e-02,-8.96934047e-02,-2.35879831e-02,
2.20527992e-01,6.25917017e-02,-1.46791428e-01,-2.69848909e-02,1.00727201e-01,
-7.79830515e-02,-3.63617912e-02,7.57356286e-02,-5.06236665e-02,1.46594629e-01,
3.78545709e-02,-6.46472946e-02,5.57886437e-02,-7.61088207e-02,-4.07594070e-02,
3.66359986e-02,-4.49850149e-02,-9.61325616e-02,5.92422439e-03,-1.11791762e-02,
-1.20756522e-01,7.68539682e-02,6.30283207e-02,2.11696397e-03,-1.11644529e-01,
-1.41312614e-01,-6.01304099e-02,-5.88488206e-02,-6.89564692e-03,-1.24144450e-01,
-2.03141998e-02,-1.74451396e-02,7.61593285e-04,7.80910999e-03,1.53177112e-01,
1.87296554e-01,-3.58256772e-02,1.76181588e-02,-5.75696938e-02,5.12000062e-02,
9.53211635e-02,-1.07651733e-01,6.94603398e-02,1.33093178e-01,3.03450134e-02,
2.08040178e-02,7.40162730e-02,-1.77706033e-01,-1.38824135e-01,4.01784927e-02,
-9.31027979e-02,-2.78034136e-02,4.81826738e-02,-2.95275580e-02,-8.00643563e-02,
-3.18306834e-02,-1.99404985e-01,-1.07352473e-01,2.92077810e-01,-9.82457474e-02,
-8.02791212e-03,2.04666719e-01,7.35438168e-02,-2.52916813e-02,7.30178654e-02,
-7.13527948e-02,-1.22562885e-01,-1.84713230e-02,-1.31274819e-01,-3.00163686e-01,
-1.11184433e-01,6.58885902e-03,1.47509146e-02,3.50156389e-02,7.74691850e-02,
9.12796110e-02,-4.43044268e-02,-2.39320677e-02,3.61932963e-02,1.09385913e-02,
-5.66348899e-03,1.19431026e-01,-8.67378060e-03,4.24653962e-02,2.12860368e-02,
9.39894393e-02,9.01956707e-02,-5.67579828e-02,-7.31540918e-02,-1.24425419e-01,
1.96004063e-02,1.59028798e-01,3.85511410e-03,3.49992886e-02,-1.09773159e-01,
-1.80525258e-01,-6.44536596e-03,1.86804682e-02,9.92825180e-02,2.77456604e-02,
-1.06467701e-01,1.30931228e-01,-2.20306173e-01,-4.54096198e-02,-1.15257643e-01,
-4.84324135e-02,-1.27489537e-01,7.17341155e-02,8.10528453e-03,1.62109792e-01,
-3.26525830e-02,-3.74233089e-02,4.89534624e-02,-2.02669337e-01,-1.35369897e-02,
2.53248122e-02,-3.71417850e-02,-1.28917903e-01,-5.14139384e-02,3.55687132e-03,
-5.62711582e-02,1.84427962e-01,-2.49196105e-02,1.09071068e-01,-1.12793617e-01,
-1.77444182e-02,-1.20110616e-01,1.09399762e-02,1.89711273e-01,4.52435836e-02,
-4.21197750e-02,-2.15586722e-02,-1.62530601e-01,6.29715398e-02,-1.35292888e-01,
-1.50511768e-02,-3.98427919e-02,6.42096475e-02,-2.15848863e-01,-5.87836057e-02,
-6.54552802e-02,6.49116188e-02,-1.08490191e-01,-4.57997136e-02,-4.41680150e-03,
2.36033811e-03,-6.06337637e-02,-5.42102531e-02,9.78211462e-02,-5.95327951e-02,
2.53421348e-03,3.13902684e-02,-3.74444984e-02,-1.73838422e-01,3.76344770e-02,
-6.97770640e-02,5.02653839e-03,9.54631343e-02,-5.66032678e-02,8.76058042e-02,
2.15463713e-02,1.24701083e-01,-5.19638024e-02,2.70949695e-02,-5.86355552e-02,
3.98658775e-02,-6.19546585e-02,1.94804557e-02,-1.36716530e-01,-7.72369429e-02,
-1.18410960e-01,1.42667713e-02,3.60529199e-02,-1.17670737e-01,9.71295089e-02,
6.74682844e-04,1.82816794e-03,1.28652751e-01,2.08784100e-02,9.97395366e-02,
8.88371766e-02,-4.76740347e-03,-2.20536217e-02,-5.68683958e-03,1.41370311e-01,
1.09122619e-01,2.96904985e-02,-6.06934540e-02,4.82272655e-02,6.52275831e-02,
4.13445793e-02,-8.61909799e-03,-5.03522493e-02,-1.01283483e-01,2.89484710e-02,
-9.37445462e-03,6.58964962e-02,3.33315223e-01,7.54389539e-02,-7.40113482e-03,
-8.37489367e-02,-1.86113879e-01,1.21017367e-01,-1.18039824e-01,4.36838828e-02,
-5.88173307e-02,2.84785009e-03,5.82666546e-02,-4.32714745e-02,4.60650248e-04,
-2.51418771e-03,1.04537241e-01,2.37128675e-01,1.27097489e-02,-5.22321761e-02,
8.91766790e-03,1.14718944e-01,-3.77772637e-02,5.47096431e-02,9.63065922e-02,
-9.06577781e-02,-6.79271519e-02,2.12762728e-02,6.42372742e-02,3.46306264e-02,
7.95089379e-02,3.85201015e-02,-7.93408602e-02,1.06214099e-01,-6.38572723e-02,
8.78855586e-02,-1.54789500e-02,1.88091666e-01,-5.01997136e-02,-8.10127854e-02,
1.23046085e-01,-6.46607205e-02,-4.84069064e-02,-9.63979885e-02,1.42857283e-02,
-5.52981757e-02,5.76491561e-03,2.00304855e-02,5.67194112e-02,4.89005707e-02,
-9.35577846e-04,-3.47883292e-02,3.21290530e-02,-7.68140377e-03,7.97305182e-02,
1.79424584e-02,-9.67008770e-02,2.44879257e-02,1.03266723e-01,-1.35844294e-02,
9.49594844e-03,4.99872901e-02,-1.64145485e-01,8.79121646e-02,-1.34375459e-02,
1.12762839e-01,-1.96873397e-01,-3.40146199e-02,-9.60472375e-02,2.15973165e-02,
1.97029322e-01,2.35206783e-01,-2.58976649e-02,-5.31753264e-02,-2.76182313e-03,
-1.06286213e-01,1.45838317e-03,7.92621374e-02,-2.02191807e-02,-3.27680074e-02,
3.40976566e-02,-9.80799738e-03,1.25000909e-01,4.18120809e-02,-6.68029189e-02,
2.69101620e-01,-6.89681945e-03,7.48171955e-02,-4.33419198e-02,-1.66334081e-02,
1.29085451e-01,-5.50473742e-02,-8.02382901e-02,6.79388717e-02,8.06637630e-02,
-8.56608078e-02,1.48811609e-01,1.31956890e-01,-3.73604596e-02,4.26868014e-02,
-1.04012117e-01,-1.55467261e-02,1.01638800e-02,-1.72788620e-01,1.02279291e-01,
4.02269466e-03,1.19696362e-02,1.36877820e-01,1.33085310e-01,5.90449087e-02,
8.66695940e-02,-3.30352671e-02,-4.70446795e-02,5.77870868e-02,-3.00542004e-02,
7.10011199e-02,-6.39372244e-02,2.13562921e-02,1.35437131e-01,3.62568647e-02,
-1.80691648e-02,-7.11015686e-02,1.00299753e-01,1.00679956e-02,1.08261868e-01,
-1.26727492e-01,2.47621313e-02,2.27340952e-01,4.56137583e-02,-5.88333607e-02,
3.81511003e-02,2.84227580e-02,-1.18527807e-01,1.47692561e-01,5.47876507e-02,
-1.66371301e-01,-6.52140826e-02,-1.00539066e-01,-1.15690894e-01,-8.81779119e-02,
1.50908940e-02,-1.49382874e-01,-1.66403055e-01,1.22411288e-01,3.03319424e-01,
-4.31045629e-02,-5.35819978e-02,-1.23446928e-02,-1.06736375e-02,-1.85056217e-02,
3.57059091e-02,5.34187444e-03,-1.21490307e-01,2.55528569e-01,3.14189047e-02,
5.40838949e-02,-3.55886109e-02,5.89608140e-02,-4.90843952e-02,-2.36929301e-02,
-2.74333470e-02,5.90445735e-02,2.72874743e-01,4.79353145e-02,-1.64723173e-01,
-4.77761924e-02,-3.32451724e-02,-5.57422340e-02,-3.64843793e-02,6.92992508e-02,
-2.24469379e-02,3.97000909e-02,-3.78148281e-03,-7.10254312e-02,-6.04963042e-02,
-2.50946563e-02,1.04640491e-01,9.80995744e-02,2.47952510e-02,-4.45391610e-03,
-1.10560626e-01,-3.26833762e-02,6.52675703e-02,-4.48361747e-02,3.45388763e-02,
-1.55355200e-01,-1.97590180e-02,5.70177324e-02,1.06907651e-01,-6.50234893e-02,
4.84134071e-02,-6.70205280e-02,-2.47446254e-01,2.59919129e-02,3.04755978e-02,
-1.28440171e-01,1.51154008e-02,4.62489761e-02,7.89570957e-02,-1.12336027e-02,
-1.39707820e-02,-1.73265070e-01,3.26201357e-02,6.52173236e-02,-8.83688629e-02,
6.32792190e-02,5.85868321e-02,6.05434030e-02,-2.21245587e-02,3.44715379e-02,
3.42230918e-03,9.86689422e-03,-7.38857388e-02,5.74902482e-02,-4.10808064e-02,
8.26355517e-02,-8.31227191e-03,1.89452525e-02,4.59259786e-02,-1.59257744e-02,
4.08018306e-02,4.73545603e-02,-4.01141180e-04,-1.24685176e-01,1.40929325e-02,
-1.61787830e-02,3.00343335e-02,8.72670859e-02,2.91458126e-02,3.71446572e-02,
1.46932043e-02,-7.48869628e-02,1.38846785e-01,1.03002056e-01,-1.25131374e-02,
-5.83743192e-02,3.76111344e-02,-4.64737564e-02,-1.76161438e-01,8.50957781e-02,
-5.42698614e-02,8.76360945e-03,-8.68798122e-02,-3.67140584e-02,1.68429866e-01,
-7.02224150e-02,8.09939578e-02,2.81295273e-03,-2.55719602e-01,1.32374689e-02,
9.42522734e-02,-3.09880525e-02,-4.84601930e-02,-1.82103831e-02,-5.20106368e-02,
2.22590655e-01,2.26612613e-02,1.38769355e-02,-1.12479024e-01,2.25602183e-03,
-2.30276934e-03,-4.00243364e-02,1.18508965e-01,2.44084261e-02,4.33097668e-02,
-6.92656115e-02,-5.62155736e-04,-1.93851963e-01,1.08455718e-01,-1.10502206e-01,
-1.66929681e-02,-2.07335114e-01,1.47606552e-01,-7.18242377e-02,-1.18064567e-01,
-1.10945120e-01,-1.86595190e-02,4.34687696e-02,-3.67012843e-02,-7.20344633e-02,
-1.75514683e-01,8.97214934e-02,4.52912338e-02,-8.73016343e-02,-5.48050851e-02,
-8.59790109e-03,-2.60731071e-01,3.47240418e-02,2.93705915e-03,5.71647622e-02,
-7.76578262e-02,5.30700646e-02,7.70528391e-02,2.47075520e-02,-2.96227969e-02,
1.28390461e-01,-1.36212390e-02,6.26211986e-02,3.80097218e-02,7.67453983e-02,
-7.88571965e-03,8.93425196e-02,1.25362247e-01,-5.54794334e-02,7.35893622e-02,
2.05302425e-02,-2.95450352e-02,2.14178964e-01,5.79822771e-02,7.73454905e-02,
6.11703731e-02,6.46702424e-02,2.28323154e-02,-3.11783124e-02,-1.04870580e-01,
-1.25189219e-02,-1.60585735e-02,-1.33457914e-01,1.75487325e-01,-3.98043636e-03,
-4.52637998e-03,1.31230885e-02,-1.26708284e-01,-6.65401667e-02,-5.61837927e-02,
-4.08714414e-02,1.03526013e-02,1.83258262e-02,8.49049818e-03,-6.85658380e-02,
-4.66026030e-02,-5.99598959e-02,4.65086922e-02,1.15788281e-02,4.81564775e-02,
7.27255791e-02,-1.28181800e-01,7.02766627e-02,-2.66500805e-02,2.89560799e-02,
-4.03180830e-02,1.71579737e-02,5.31541258e-02,-7.78504983e-02,-1.41533881e-01,
4.87582795e-02,2.03185938e-02,1.14807226e-02,1.11336939e-01,-3.57720740e-02,
1.68203209e-02,8.22501350e-03,1.25338882e-01,6.95081651e-02,1.52861208e-01,
4.71663065e-02,3.86736616e-02,3.91823910e-02,-9.16785747e-02,-2.28979741e-03,
2.04593055e-02,-8.14298168e-02,-8.60921592e-02,5.28355390e-02,2.52279621e-02,
3.40004452e-02,1.05500251e-01,-6.90124258e-02,-7.08545595e-02,6.51226193e-02,
2.35909894e-02,-5.69903329e-02,5.98944612e-02,4.61104177e-02,-4.51808572e-02,
-9.52628329e-02,1.33213714e-01,-5.42791411e-02,7.70125724e-03,9.10230875e-02,
5.17535359e-02,-8.13739374e-03,-1.14300832e-01,-7.68801644e-02,-4.90062535e-02,
