#include <math.h> 
 #include <string.h> 
#include "./include/k2c_include.h" 
#include "./include/k2c_tensor_include.h" 

 
static struct frnn_stateful_static_vars 
{ 
float lstm_1_state[400]; 
} frnn_stateful_states; 


void frnn_stateful(k2c_tensor* input_1_input, k2c_tensor* dense_1_output) { 

float lstm_1_output_array[200] = {0}; 
k2c_tensor lstm_1_output = {&lstm_1_output_array[0],1,200,{200,  1,  1,  1,  1}}; 
float lstm_1_fwork[1600] = {0}; 
int lstm_1_go_backwards = 0;
int lstm_1_return_sequences = 0;
float * lstm_1_state = frnn_stateful_states.lstm_1_state; 
float lstm_1_kernel_array[11200] = {
-5.47125451e-02,-5.68370558e-02,-6.00207597e-02,2.11111959e-02,4.55361046e-02,
2.26916354e-02,-4.13378701e-02,6.48174435e-02,2.36822702e-02,-7.98157752e-02,
2.21416838e-02,4.43146862e-02,5.12912832e-02,5.46386391e-02,3.84866968e-02,
4.04043272e-02,-1.31857640e-03,7.38561526e-02,-1.82305090e-02,-3.76895443e-02,
7.27293715e-02,2.43033692e-02,-2.53643561e-02,8.20007846e-02,-3.27631347e-02,
-5.99915124e-02,-2.66043679e-03,4.20492478e-02,-9.63007379e-03,-4.22729217e-02,
-2.04365551e-02,4.67315949e-02,-7.17008188e-02,6.27363026e-02,8.45591351e-02,
7.52926664e-03,-2.82594608e-03,-4.98903580e-02,1.86598245e-02,5.79982884e-02,
6.42536208e-02,-4.86614592e-02,-7.26962313e-02,5.05132042e-02,2.09547151e-02,
2.64666434e-02,6.47243783e-02,-7.95472264e-02,9.70513653e-03,4.54054922e-02,
-3.50027867e-02,-1.08062373e-02,5.71847074e-02,3.68103734e-03,3.19995023e-02,
7.37281563e-03,-6.69472069e-02,5.92160784e-02,1.24441618e-02,-6.13768809e-02,
-5.40389828e-02,6.68819770e-02,2.60090157e-02,2.94473991e-02,2.57477094e-03,
2.62637828e-02,-5.48017658e-02,-8.75889659e-02,8.70183036e-02,-7.67919123e-02,
-4.08225097e-02,6.07137978e-02,6.10397942e-02,-7.95959756e-02,-3.98754664e-02,
1.25261294e-02,1.23012131e-02,-6.04551919e-02,5.63754747e-03,1.14467787e-02,
-4.83720675e-02,-4.61846218e-02,-3.39870378e-02,2.58771665e-02,-7.39262551e-02,
-9.24163498e-04,1.09565095e-03,-2.18613893e-02,6.23109080e-02,-3.90847176e-02,
1.04333013e-02,-7.57611869e-03,6.27889931e-02,-4.73046675e-02,-4.76642326e-03,
7.78193772e-02,-7.91688189e-02,3.05644469e-04,7.29222670e-02,-7.45207444e-02,
2.26047877e-02,-5.39296418e-02,7.23563135e-02,8.19300339e-02,3.36859897e-02,
-1.10846562e-02,-5.57220019e-02,4.29379102e-03,-7.26398304e-02,-3.19484547e-02,
-5.83320968e-02,2.89858356e-02,7.61542469e-02,6.17959760e-02,7.45646283e-02,
3.44372466e-02,-6.73212856e-02,1.42836571e-03,-3.62349786e-02,-7.21501336e-02,
1.36657571e-02,-1.63777824e-02,6.12040237e-03,-4.18050215e-04,8.55882093e-02,
-8.18145275e-02,-5.34640588e-02,-9.89071652e-03,7.13857189e-02,1.05867554e-02,
4.28361148e-02,6.53922930e-02,9.42288525e-03,8.31354707e-02,3.76021676e-02,
2.31469125e-02,3.01458426e-02,-4.64698449e-02,-5.29772155e-02,-3.59018296e-02,
-8.77907947e-02,4.52538058e-02,-2.50257906e-02,3.41299102e-02,2.30953768e-02,
-6.50220597e-03,5.75088821e-02,-7.30864555e-02,-7.30192289e-02,-1.73525382e-02,
-7.03213513e-02,-3.46619915e-03,-4.90859896e-02,-1.30107077e-02,-4.01499234e-02,
-6.15059473e-02,6.86481521e-02,7.13162273e-02,5.73957302e-02,3.00723519e-02,
-1.08893530e-03,4.87126373e-02,6.21963702e-02,-3.78222913e-02,-6.84868619e-02,
-3.79318371e-03,-4.31031585e-02,1.92963108e-02,-2.86575570e-03,-5.35801612e-02,
6.85767159e-02,8.05901960e-02,4.35759760e-02,7.00540692e-02,-8.42886716e-02,
8.36110711e-02,7.30602816e-02,-7.83946365e-02,3.70593481e-02,1.14594288e-02,
-4.04662974e-02,1.57645270e-02,4.80658412e-02,-6.73334301e-02,-2.47904398e-02,
-3.15586701e-02,6.05146177e-02,-7.90449902e-02,-2.39591543e-02,5.11927642e-02,
-5.22061735e-02,6.78342655e-02,5.61789870e-02,6.81870431e-02,7.63062239e-02,
7.11020008e-02,-3.25492863e-03,5.83570497e-03,4.41085212e-02,5.74018806e-02,
-1.03797447e-02,-3.46606970e-02,4.38164286e-02,8.15724358e-02,4.73856814e-02,
-3.40538733e-02,2.44238451e-02,4.74939756e-02,2.77376194e-02,5.63761517e-02,
-4.79625240e-02,-1.80137437e-02,-4.67081331e-02,5.21760732e-02,-3.26788202e-02,
7.57901222e-02,4.45601717e-02,-1.61804836e-02,4.48490940e-02,3.40708829e-02,
1.70540661e-02,2.95693073e-02,-8.58013611e-03,5.98285496e-02,-2.59618368e-02,
7.96094462e-02,4.78231609e-02,-5.52256256e-02,-5.18525019e-02,-2.22140569e-02,
4.76869792e-02,4.73900922e-02,-3.32786888e-02,5.53388558e-02,4.79148440e-02,
-7.88851157e-02,-6.49129320e-03,-1.49552487e-02,-3.10034361e-02,-4.19518277e-02,
4.67312708e-02,-8.69077146e-02,-1.56573690e-02,7.96912313e-02,8.22335556e-02,
4.86281551e-02,6.10306039e-02,9.55699570e-03,-3.81669700e-02,-5.96056208e-02,
3.12140603e-02,7.15906918e-02,8.00407976e-02,2.81585418e-02,-6.88952878e-02,
-8.08192268e-02,-2.01409888e-02,-6.00825809e-02,-8.00961554e-02,4.24840376e-02,
3.23554873e-02,-2.31690332e-02,-6.53113499e-02,8.18799511e-02,-3.86912636e-02,
-6.85390607e-02,-1.45707102e-02,5.92584647e-02,-5.29368035e-02,5.18303178e-02,
1.15429293e-02,7.35332351e-03,-2.74798609e-02,2.72474363e-02,3.72459106e-02,
-2.55632494e-02,-8.61807019e-02,-4.86374311e-02,8.85085482e-03,-1.57192629e-02,
-6.53201565e-02,1.89425815e-02,7.37725273e-02,7.81185031e-02,-7.78675973e-02,
-4.69678901e-02,-1.66864647e-03,6.43025152e-03,6.28211796e-02,-6.25295856e-04,
-7.06919581e-02,8.26541558e-02,-8.20975304e-02,1.07573848e-02,6.06990010e-02,
-2.78186668e-02,-8.17241073e-02,2.95311771e-02,-5.11917025e-02,5.19373603e-02,
2.63753738e-02,-6.64630085e-02,4.81996201e-02,-4.76018339e-03,1.81043763e-02,
8.09980109e-02,-5.61007783e-02,-9.98469070e-03,-4.97235693e-02,2.92546842e-02,
8.04016367e-02,5.27589396e-02,-3.20197418e-02,3.04926708e-02,9.33365803e-03,
2.39988626e-03,-2.17737257e-02,-3.69667052e-03,-5.21620661e-02,2.65231393e-02,
-1.35164252e-02,6.68950826e-02,-5.17303310e-03,-2.20405348e-02,-3.45807034e-03,
-8.13010186e-02,1.52358236e-02,5.34883216e-02,3.33631337e-02,8.27181935e-02,
3.27601209e-02,5.04192747e-02,-1.54730594e-02,-4.01948802e-02,3.99693623e-02,
-1.33624710e-02,-2.67789923e-02,-5.33268079e-02,-7.30594918e-02,3.36354487e-02,
-4.23089005e-02,6.75970390e-02,-4.07115258e-02,5.10283150e-02,8.44167396e-02,
4.89226840e-02,-5.67911491e-02,-4.39274348e-02,-5.21861129e-02,3.64091322e-02,
-7.03528523e-02,4.14726697e-02,5.72977774e-02,8.19572881e-02,-6.71442151e-02,
2.96767931e-02,-7.55125433e-02,-3.17356661e-02,2.54517179e-02,-4.60463166e-02,
-5.94452992e-02,-4.34430689e-02,4.79704551e-02,4.73738573e-02,-7.71954134e-02,
6.43438697e-02,-2.74181888e-02,1.99352633e-02,-3.69245857e-02,6.32474646e-02,
6.01349287e-02,2.38786209e-02,6.81352541e-02,-5.76453656e-02,-2.04267018e-02,
1.84658240e-03,-3.53991576e-02,6.30281717e-02,-8.15110430e-02,7.18578994e-02,
-8.12970772e-02,-4.57574613e-03,-2.63073333e-02,-2.69454550e-02,7.66831338e-02,
5.21930978e-02,-1.46928905e-02,-7.35734263e-03,-7.95792788e-02,-7.32081607e-02,
7.61348680e-02,-3.92007455e-02,5.00545884e-03,7.69269317e-02,3.56256799e-03,
5.65406010e-02,-3.20596322e-02,-3.78095135e-02,5.94655052e-02,-5.38946725e-02,
1.41836358e-02,6.86961636e-02,4.15613055e-02,5.34590967e-02,6.54292852e-02,
-6.35031387e-02,-1.55362859e-02,-5.82344234e-02,3.14405002e-02,7.38340691e-02,
-7.60687143e-02,8.16424415e-02,3.50232832e-02,-5.46538271e-02,6.98014721e-02,
-2.93820370e-02,-7.75154904e-02,4.82021645e-02,-7.10160658e-02,-2.38377340e-02,
-7.60439364e-03,-4.54644337e-02,8.35611224e-02,-6.22642003e-02,7.05566630e-02,
-7.88139077e-05,-6.42341794e-03,2.08945647e-02,-7.45111629e-02,-7.82805681e-02,
4.80296090e-02,-5.20042935e-03,-8.28893930e-02,4.66512442e-02,-5.27783670e-03,
-4.73314524e-02,2.32426915e-02,-1.02854501e-02,-2.20864895e-03,-6.62133321e-02,
7.18858093e-02,7.16233328e-02,-3.98433730e-02,4.36826348e-02,1.53117059e-02,
1.54265827e-02,1.84122901e-02,3.27627473e-02,-7.12274164e-02,8.46312866e-02,
-1.22255804e-02,6.76427111e-02,4.32870798e-02,-4.41076383e-02,-6.92699254e-02,
5.56567393e-04,-4.47940007e-02,3.72265354e-02,6.20931871e-02,5.54799400e-02,
-5.93628921e-02,5.00459857e-02,4.07057256e-02,-5.18327206e-02,-3.35988775e-02,
-1.54949958e-02,8.06557536e-02,7.86615685e-02,-8.18441436e-02,-2.38849428e-02,
-2.09046499e-04,-4.26212586e-02,8.20644852e-03,-2.58671306e-02,-7.84623101e-02,
-1.54498480e-02,7.72953779e-02,-2.36171670e-02,-4.24196906e-02,1.78339779e-02,
-5.80858020e-03,7.29075894e-02,-8.64826143e-02,-6.18193485e-02,-7.88821280e-02,
-2.42639985e-02,-3.48451808e-02,4.05584127e-02,-5.32427244e-03,-1.32793477e-02,
-5.88838495e-02,-5.60736191e-03,-4.46353555e-02,4.95629432e-03,-3.20317666e-03,
-6.97186356e-03,-6.87441677e-02,-3.68324891e-02,2.75273267e-02,-8.29998329e-02,
3.57976817e-02,-2.04617064e-02,-4.55343686e-02,-4.42760177e-02,-4.85575423e-02,
5.64852394e-02,2.91758608e-02,7.29693100e-03,7.78770000e-02,8.39442089e-02,
-6.29229918e-02,3.65783349e-02,3.48971337e-02,-5.59150279e-02,-4.42545228e-02,
2.91240346e-02,-8.21804702e-02,4.19610515e-02,-6.07711077e-02,3.95002738e-02,
3.53871509e-02,-5.16038248e-03,4.61900868e-02,-8.25153589e-02,-1.56508237e-02,
2.34777126e-02,6.10550679e-02,6.40480593e-02,4.26059328e-02,-1.56633351e-02,
4.90929857e-02,-1.15214363e-02,3.62583287e-02,3.89580168e-02,4.15467471e-02,
1.39655657e-02,1.33353239e-02,-2.26578470e-02,7.62424916e-02,-2.00252738e-02,
-6.00480214e-02,5.16302772e-02,3.16333249e-02,2.88086617e-03,-4.66361046e-02,
-1.72982123e-02,-2.25393823e-03,-5.75944446e-02,4.52337191e-02,6.82819113e-02,
7.93497637e-02,7.05804601e-02,4.23463397e-02,-1.79605503e-02,2.16318890e-02,
6.68834075e-02,3.03193182e-03,-6.91431910e-02,7.33178779e-02,-5.02673388e-02,
9.89168510e-03,6.94283517e-03,-7.09159896e-02,-8.77379626e-02,1.16954418e-02,
7.19107017e-02,5.16864704e-03,-4.98228408e-02,-7.25413635e-02,-6.01123832e-02,
-4.93947268e-02,2.99641732e-02,1.65799055e-02,4.98509146e-02,-3.52640711e-02,
-5.63109666e-02,-8.37986842e-02,7.06513077e-02,-5.14586531e-02,-3.28243636e-02,
1.40965227e-02,-9.66496672e-03,5.04360460e-02,1.35084642e-02,-7.00980499e-02,
-4.89259735e-02,6.52302727e-02,-7.37899169e-02,4.95591164e-02,3.73645276e-02,
7.14616850e-02,3.87578644e-02,-5.52060716e-02,1.51133686e-02,-2.74693575e-02,
7.16245547e-02,6.14694916e-02,8.32272843e-02,-6.27572760e-02,6.71978444e-02,
-6.78286850e-02,4.17085551e-02,3.23939770e-02,-7.12090507e-02,8.00167322e-02,
4.96135391e-02,-4.40113712e-03,3.43428925e-02,-6.26856610e-02,-6.84584007e-02,
-1.64886639e-02,-1.83223933e-02,1.13769658e-02,-2.72683538e-02,-3.67922224e-02,
-5.40617406e-02,3.37721989e-03,2.34334711e-02,-1.40396114e-02,-2.65038293e-02,
3.58523466e-02,3.10730040e-02,6.78035393e-02,6.74609616e-02,-4.73862002e-03,
3.26743089e-02,-2.23308746e-02,7.18770269e-03,-4.11006398e-02,-5.13693364e-03,
4.71089222e-02,-2.78337393e-02,6.32692054e-02,-6.53302819e-02,-5.07031195e-02,
-4.19696569e-02,-4.54796217e-02,1.29978526e-02,4.46263738e-02,4.77291532e-02,
4.79564108e-02,-1.74800605e-02,-2.25530379e-03,4.14309949e-02,-8.34485982e-03,
3.52490321e-02,7.16520026e-02,1.65637843e-02,4.61896881e-02,-4.90194447e-02,
-4.25296202e-02,2.96479147e-02,8.21942464e-02,5.62586561e-02,-6.63485080e-02,
-2.76397145e-03,-6.90851957e-02,3.90419998e-04,5.51794022e-02,6.54049101e-04,
-4.21926752e-02,5.16290329e-02,-7.05305533e-03,-2.25642938e-02,-5.14286049e-02,
-6.16997518e-02,4.66412632e-03,6.21751845e-02,2.10640840e-02,-7.81716257e-02,
-7.93450773e-02,-2.44460572e-02,6.23931084e-03,-1.59028396e-02,-5.10980599e-02,
2.29089614e-02,-2.82517802e-02,6.69928268e-02,-1.56173883e-02,4.05796394e-02,
1.18109975e-02,6.35241941e-02,2.03978107e-03,-7.10118860e-02,-6.18467107e-02,
-5.87447546e-02,-5.57937920e-02,-4.59963754e-02,-7.00103492e-02,-7.56524950e-02,
-5.08432835e-02,-5.43613583e-02,-7.74899591e-03,3.44120003e-02,-6.10628203e-02,
5.32150418e-02,3.27015668e-02,4.03085239e-02,3.14198211e-02,5.76996021e-02,
5.77362441e-02,-7.04792440e-02,-3.75176370e-02,3.32195591e-03,-4.62651700e-02,
2.62203738e-02,7.58823305e-02,-3.46417762e-02,-3.35523747e-02,-4.75990251e-02,
-2.67615635e-02,6.28929073e-03,6.52600154e-02,2.31327526e-02,-1.38102993e-02,
3.23963165e-02,3.18925828e-02,7.09772706e-02,-4.79080454e-02,6.25781044e-02,
2.31658649e-02,-2.59029549e-02,-4.65357825e-02,3.82107943e-02,-5.10919802e-02,
2.32982286e-03,5.81937879e-02,-6.55743256e-02,3.66645791e-02,7.96636790e-02,
-6.12793602e-02,-6.03305660e-02,-3.09439581e-02,-3.72964703e-02,6.64255694e-02,
7.03657046e-02,9.41358600e-03,-3.26250866e-02,6.39187992e-02,-1.70141254e-02,
6.18602112e-02,7.66487718e-02,2.31431089e-02,6.46521300e-02,-2.72216904e-03,
-2.19679512e-02,1.36403339e-02,6.13329280e-03,-6.14614934e-02,-3.23810577e-02,
4.31422032e-02,-6.76767901e-02,1.25046652e-02,-1.21419206e-02,-4.85410243e-02,
-5.97688071e-02,-3.14763524e-02,-3.07761449e-02,-4.69075628e-02,5.97860524e-03,
4.30552177e-02,7.18076974e-02,4.16949280e-02,8.18509087e-02,-4.87949587e-02,
-4.33016345e-02,-1.92225315e-02,-6.36439472e-02,7.29231909e-02,-8.61743465e-02,
-3.54558416e-02,2.09869090e-02,-8.40577632e-02,2.19851788e-02,7.60665089e-02,
8.72294530e-02,5.06049246e-02,-5.43696284e-02,-5.52500710e-02,-3.69770871e-03,
-1.83948558e-02,-5.50244786e-02,6.33141175e-02,-7.48704448e-02,-7.51660168e-02,
-2.42726002e-02,-3.44027393e-02,-7.14329258e-02,-6.51182560e-03,-8.24335217e-02,
-3.63343284e-02,2.08004620e-02,-3.49400425e-03,6.15375526e-02,-2.29173675e-02,
-7.61450678e-02,-6.58667386e-02,2.05831639e-02,2.06694938e-02,-1.98566802e-02,
6.08856557e-03,1.09653147e-02,-4.16895654e-03,6.04583602e-03,-1.97121091e-02,
-7.62806684e-02,4.30605188e-03,4.54794504e-02,2.08026189e-02,3.61284241e-02,
6.52272478e-02,-3.71781923e-02,2.95498017e-02,-4.31152582e-02,2.89729293e-02,
3.42822336e-02,-1.25880679e-02,7.71204531e-02,1.52513077e-02,-8.05894006e-03,
-2.38201655e-02,2.99318554e-03,8.46675336e-02,-6.77127987e-02,7.26074502e-02,
7.36092925e-02,1.67840458e-02,4.29255888e-02,7.69994780e-02,-5.87230548e-02,
-5.96614592e-02,-4.65092361e-02,5.68795018e-03,3.66223082e-02,7.30778202e-02,
-2.49150805e-02,-6.24097027e-02,1.59370657e-02,-8.37149769e-02,-1.69921424e-02,
5.70681458e-03,8.92017316e-03,-2.33187973e-02,8.21501464e-02,-7.08011677e-03,
-1.20120812e-02,1.07492171e-02,-4.16109264e-02,5.71076199e-02,-6.07331237e-03,
5.56555530e-03,7.25791603e-02,-4.14124429e-02,5.02541214e-02,-8.05506203e-03,
2.39367094e-02,2.63758581e-02,-8.45662877e-03,2.98157502e-02,-3.03886808e-03,
-5.95378540e-02,3.33789736e-02,8.22391585e-02,-6.42063618e-02,-4.17014286e-02,
6.37129843e-02,2.73774676e-02,7.41126239e-02,8.76034722e-02,2.89331693e-02,
-2.49220692e-02,3.47541906e-02,6.09063953e-02,5.93996095e-03,-4.73594442e-02,
-3.67942043e-02,1.18156467e-02,4.55528274e-02,-6.48489669e-02,1.22932689e-02,
-7.63622373e-02,-5.35111688e-02,-6.35342747e-02,4.58727293e-02,7.04346038e-03,
-5.63470945e-02,6.10690042e-02,-3.62689905e-02,-4.52518836e-02,-6.21296354e-02,
-4.67910208e-02,1.27365049e-02,-8.66486058e-02,6.31735697e-02,5.70154153e-02,
4.99346629e-02,7.41963908e-02,2.62834933e-02,3.36563475e-02,6.28176033e-02,
8.56957980e-04,-2.93031661e-03,-6.29772106e-03,1.68648940e-02,6.47755787e-02,
4.29170877e-02,-3.01059685e-03,5.37126772e-02,6.79445863e-02,-4.63692425e-03,
-6.29035430e-03,5.37344702e-02,2.10508667e-02,3.03354245e-02,3.03789210e-02,
7.23968223e-02,-4.77634324e-03,6.67931745e-03,-3.71152200e-02,-2.32729968e-02,
-7.61610940e-02,-7.08040446e-02,-7.15067238e-02,6.69891983e-02,-6.35142699e-02,
7.38552809e-02,3.17295901e-02,-4.83251140e-02,-1.90116442e-03,2.06745137e-02,
8.08614939e-02,-3.07467766e-02,-8.71393271e-03,-3.53784561e-02,-5.57386829e-03,
-4.78153937e-02,5.27429990e-02,6.21130504e-02,2.43951548e-02,8.16784725e-02,
-2.46387254e-02,2.59763207e-02,-1.06927031e-03,-4.07178216e-02,9.34334751e-03,
-3.98875922e-02,-8.20386857e-02,-6.99721426e-02,-6.32929876e-02,2.33610533e-02,
-1.77897159e-02,3.26865017e-02,-3.07610389e-02,1.61144175e-02,-2.32413169e-02,
-1.66084133e-02,5.52222915e-02,4.74134013e-02,3.51653025e-02,5.35692684e-02,
-1.02658439e-02,-5.56546561e-02,-8.32058117e-02,2.53567472e-02,-7.43384799e-03,
6.77698404e-02,-7.82995075e-02,2.05237903e-02,3.89184989e-03,-1.40528549e-02,
-1.99751444e-02,8.03361237e-02,3.46550047e-02,6.89616576e-02,6.38334304e-02,
-8.23965073e-02,3.37042324e-02,-1.89768355e-02,-1.45538365e-02,-1.04035744e-02,
-3.11240107e-02,-1.84262134e-02,8.38361457e-02,-1.11632422e-03,5.56896720e-03,
7.59524032e-02,5.31370565e-02,-6.90878928e-02,-3.50542776e-02,7.20022246e-02,
-6.86379662e-03,1.52739687e-02,6.06704950e-02,-4.99777831e-02,-6.39699623e-02,
7.41751045e-02,-3.92933227e-02,-1.03174429e-02,5.83495423e-02,-6.18641265e-02,
-4.01142091e-02,4.97935852e-03,4.27627750e-02,8.72683451e-02,-5.54936305e-02,
8.58912319e-02,8.00712705e-02,-6.55648634e-02,7.42962882e-02,1.89483650e-02,
-4.86657843e-02,-5.18776663e-02,7.67890960e-02,-6.60442263e-02,-7.85473660e-02,
3.45120467e-02,1.19032990e-02,2.69365590e-02,-4.29604650e-02,4.80472296e-02,
8.43246132e-02,4.94268574e-02,7.54823312e-02,5.35003208e-02,-1.76949799e-03,
-1.63283516e-02,-8.84412229e-03,2.59137768e-02,-1.30240461e-02,-1.76748224e-02,
-3.22469920e-02,-3.50928269e-02,3.89656276e-02,7.65149370e-02,4.95242178e-02,
5.50732166e-02,2.46336833e-02,-5.07058054e-02,-1.81093216e-02,-1.62078459e-02,
5.93014546e-02,-8.10759291e-02,-5.95448837e-02,7.02135041e-02,-3.55272554e-02,
1.69481784e-02,-6.41641766e-02,-2.98267230e-02,-8.65183547e-02,2.15888843e-02,
8.36526901e-02,5.22869080e-02,-4.64248434e-02,4.23380062e-02,-3.55177633e-02,
-1.49888813e-03,-3.03314198e-02,-7.92070702e-02,-8.73833671e-02,3.76523398e-02,
6.18607700e-02,3.99834430e-03,-1.66727435e-02,-1.47620421e-02,8.10108632e-02,
5.70050254e-02,-4.92954925e-02,6.81584105e-02,1.04727754e-02,7.02475235e-02,
2.90921982e-02,-1.28915887e-02,6.43169954e-02,-4.49643619e-02,2.56273933e-02,
6.04982153e-02,6.20390065e-02,4.36620526e-02,-5.15958332e-02,6.26576543e-02,
-6.53002858e-02,-2.32194085e-02,-2.18421519e-02,-8.28432888e-02,-4.48099524e-02,
4.61854376e-02,-2.86659482e-03,6.94269408e-03,-5.23540936e-02,-5.13195731e-02,
-3.39305922e-02,7.93821216e-02,-6.15831688e-02,6.55404776e-02,-6.39895201e-02,
2.20006425e-02,-7.79159591e-02,6.21920787e-02,-2.07240731e-02,4.15029936e-02,
1.14018219e-02,-4.43520248e-02,3.77528593e-02,7.24380324e-03,6.11670762e-02,
4.03959826e-02,-1.65033434e-02,-7.81833008e-02,-6.07430674e-02,4.29099724e-02,
-5.48124239e-02,2.81904452e-02,-5.47911897e-02,1.33700715e-02,1.35461735e-02,
-7.76735693e-02,3.70847285e-02,-7.71134049e-02,-4.66823615e-02,-7.11322501e-02,
-5.58804050e-02,8.17432627e-02,-2.04060581e-02,-4.74209674e-02,8.34550336e-02,
-7.79494345e-02,-8.50953609e-02,-6.32897839e-02,-6.82493076e-02,-3.54488604e-02,
8.23149905e-02,-5.68617955e-02,-6.73353076e-02,-7.62604875e-03,-6.93327338e-02,
1.59050543e-02,6.51661381e-02,6.70793876e-02,-4.89755124e-02,2.24941317e-03,
-5.91586437e-03,1.00443850e-03,-2.31876280e-02,-3.43305990e-02,4.93337363e-02,
-8.38118419e-02,-6.25914335e-03,2.44571771e-02,-1.91636162e-03,-6.53383285e-02,
3.61304209e-02,-5.36112189e-02,-1.53084779e-02,-7.28258025e-03,-4.68559675e-02,
1.18152425e-03,1.30706830e-02,7.44804144e-02,-1.56485364e-02,-2.00956017e-02,
2.25918684e-02,-1.98893603e-02,-5.36522120e-02,6.40650392e-02,1.39004784e-02,
2.84247026e-02,-8.66261646e-02,-7.16612190e-02,-1.41527997e-02,-7.98083469e-02,
-6.99869990e-02,7.31360912e-02,-8.37305710e-02,1.54786920e-02,4.41780537e-02,
6.58368468e-02,-2.66745128e-02,3.76633438e-03,-3.96235250e-02,-6.22615069e-02,
8.05919394e-02,4.58174385e-02,7.02500567e-02,-7.05780685e-02,1.70397684e-02,
-6.44957945e-02,8.29570889e-02,-1.03701428e-02,6.08904026e-02,-6.58683777e-02,
-3.45779322e-02,-5.34977093e-02,-6.91541508e-02,-6.69743046e-02,5.92743456e-02,
-5.67418570e-03,-7.27469027e-02,3.35894972e-02,7.13168783e-03,-8.10731649e-02,
6.95029926e-03,-4.22629826e-02,-2.63320263e-02,-4.02286462e-02,-2.28149141e-03,
-3.61597426e-02,2.94940770e-02,-2.48227101e-02,-5.70838526e-02,-5.22368290e-02,
-7.79595450e-02,-4.18991297e-02,2.30675582e-02,1.94381848e-02,4.61873263e-02,
-3.20757478e-02,-4.32249159e-02,2.72400975e-02,-6.98366612e-02,-6.22869357e-02,
-6.76353797e-02,2.72277500e-02,3.71875204e-02,2.51201093e-02,-4.28142138e-02,
4.97228801e-02,6.66780323e-02,1.04922010e-02,1.74812432e-02,-5.11267744e-02,
2.97633884e-03,3.73847410e-03,-8.39798246e-03,-4.36541997e-02,-2.53979792e-03,
-4.77814339e-02,7.83741325e-02,1.90425082e-04,4.57580760e-02,-4.92415465e-02,
-6.22919016e-02,7.21678808e-02,-5.34027107e-02,4.26581455e-03,6.33536056e-02,
-9.18038376e-03,-3.29203787e-03,-5.11964262e-02,-6.98597431e-02,4.74076420e-02,
-5.34797274e-02,6.77431524e-02,1.20096020e-02,7.72970319e-02,-5.95504083e-02,
5.05316518e-02,-3.46955173e-02,8.61205757e-02,-5.83182052e-02,-7.00805858e-02,
6.36327043e-02,4.35857289e-02,-6.28155246e-02,-4.56860438e-02,-1.42319854e-02,
-6.72789067e-02,4.87367101e-02,2.21411251e-02,-3.70088071e-02,-7.75467977e-02,
3.53931263e-02,2.68615950e-02,-1.71038006e-02,1.97569318e-02,-3.59900692e-03,
7.45893493e-02,6.99508339e-02,-4.26928848e-02,-5.81399500e-02,-4.47879024e-02,
-5.38375378e-02,1.98455770e-02,-4.14295271e-02,6.44694790e-02,2.91874446e-02,
3.93011831e-02,8.67816359e-02,8.10162202e-02,-3.63740139e-03,1.98430941e-03,
2.48354338e-02,-2.32687611e-02,-2.78086495e-02,-5.43445200e-02,-8.61113220e-02,
6.99880943e-02,-1.06957052e-02,5.76669462e-02,-8.08932707e-02,-3.57896648e-02,
7.97973648e-02,-1.58225726e-02,-2.69542616e-02,3.68918180e-02,-3.87071073e-02,
-7.16000572e-02,5.82639426e-02,-6.15140647e-02,-5.23459800e-02,6.37806505e-02,
-2.45221332e-02,1.36902891e-02,6.36250079e-02,5.65254912e-02,-2.29192730e-02,
2.87684761e-02,-4.71643619e-02,-7.93319643e-02,-2.74223485e-03,-3.05984896e-02,
-6.96889609e-02,7.75527284e-02,6.29949048e-02,2.83522960e-02,1.76504273e-02,
-3.04543599e-03,-2.08653118e-02,5.27430549e-02,3.73831652e-02,6.55129328e-02,
-1.28865810e-02,-4.96940948e-02,-8.25894400e-02,1.80330053e-02,6.14400245e-02,
-6.55628592e-02,3.12080253e-02,-5.13873920e-02,9.64567252e-03,-2.63071973e-02,
4.03186604e-02,-6.71357336e-03,-6.00454099e-02,8.04789662e-02,-1.90199260e-02,
9.13627353e-03,-1.29042445e-02,2.56753787e-02,-7.68504944e-03,-1.98432654e-02,
2.35126074e-03,-4.16310178e-03,7.10008815e-02,7.68015012e-02,-2.78728195e-02,
4.88614663e-02,5.39873242e-02,-3.81915495e-02,-8.47219825e-02,-4.37465720e-02,
-7.14154541e-02,5.35665564e-02,-1.73222516e-02,-6.00453429e-02,1.82345808e-02,
4.96768504e-02,-7.04263523e-02,-3.73490378e-02,7.57630914e-02,-5.51649146e-02,
-4.03187387e-02,-4.56032306e-02,7.32457638e-02,6.77601472e-02,-2.84527312e-03,
2.24602874e-02,6.64689858e-03,5.61476350e-02,-8.13715309e-02,6.18951656e-02,
6.13203719e-02,4.77236789e-03,-2.14661844e-02,3.88693549e-02,-8.10617134e-02,
-6.70985654e-02,6.51588961e-02,4.62462157e-02,2.45488025e-02,3.27993110e-02,
7.74108022e-02,-2.03915052e-02,-1.11501536e-03,3.74075323e-02,-6.99372739e-02,
3.58635709e-02,-4.49884050e-02,-5.90182245e-02,-1.35095436e-02,-6.56951815e-02,
7.81146362e-02,-5.90826459e-02,8.24757218e-02,-3.84451374e-02,-3.82380933e-02,
5.99744730e-02,-6.63227518e-04,2.70800311e-02,3.82596664e-02,-9.86834057e-03,
1.51896402e-02,1.42882811e-02,-6.27104640e-02,1.11989845e-02,8.67358781e-03,
-8.06754306e-02,6.73973486e-02,-5.18857203e-02,1.52841061e-02,7.85121396e-02,
5.33900708e-02,4.29482870e-02,-8.03766847e-02,-3.24868783e-02,-4.41532917e-02,
-8.08631778e-02,-1.43936528e-02,-4.80526388e-02,-3.07709202e-02,-2.10410915e-02,
-1.72617640e-02,2.30288655e-02,6.92813993e-02,-6.63903207e-02,-7.50653297e-02,
-1.60684381e-02,-1.09854555e-02,5.81216253e-02,1.77462213e-02,-4.32388857e-02,
-1.17544783e-02,9.49154329e-03,-2.53627375e-02,-2.68711820e-02,5.85197797e-03,
-1.28529053e-02,7.83358738e-02,1.94829621e-03,2.35388502e-02,8.11879337e-03,
-2.52792053e-02,-1.84301566e-02,-7.69641772e-02,2.04157438e-02,4.70550843e-02,
5.67775816e-02,7.09725097e-02,3.64513285e-02,-4.00260687e-02,1.46912048e-02,
-1.59079619e-02,-7.08802342e-02,6.57875836e-02,5.34940511e-02,-5.08028343e-02,
-6.04732037e-02,-2.48237420e-02,-4.65755574e-02,-7.74953216e-02,3.43583003e-02,
5.51583879e-02,-2.03249399e-02,6.53305575e-02,5.48623595e-03,2.62456518e-02,
-1.75614581e-02,-1.66286100e-02,7.85382167e-02,6.21309206e-02,-2.06484348e-02,
-7.21529201e-02,-7.22721368e-02,8.03692639e-02,-4.45379950e-02,2.97758933e-02,
-7.19048381e-02,-7.52492920e-02,-2.74852533e-02,5.72924614e-02,-6.42908830e-03,
-1.88623797e-02,4.49365601e-02,-3.79436687e-02,-2.63271518e-02,-4.74590100e-02,
-7.23789483e-02,-2.55888458e-02,9.54759959e-03,-6.46794140e-02,-6.97297156e-02,
-2.37594824e-02,5.25360517e-02,-5.91834821e-02,-1.37606720e-02,6.08083457e-02,
-7.02110529e-02,-8.15965831e-02,4.68211584e-02,7.45913014e-02,-1.64455362e-02,
3.83218788e-02,1.26658063e-02,5.78591563e-02,6.66808756e-03,-4.33426909e-02,
8.64800215e-02,-7.32261091e-02,4.82705608e-02,4.97408286e-02,4.99521047e-02,
1.13505695e-03,-5.27602285e-02,-3.22440565e-02,-6.54938444e-02,6.64237887e-03,
-4.03664187e-02,7.03001991e-02,-4.35970090e-02,-6.46479847e-03,-2.96059772e-02,
-5.27945273e-02,-7.39349127e-02,3.97573598e-02,-9.71579365e-03,2.02899892e-02,
-2.58351713e-02,-6.74282834e-02,-4.81216908e-02,-3.52187664e-03,-5.29721864e-02,
-3.78664173e-02,1.40622137e-02,3.76202166e-02,2.05806289e-02,7.08762407e-02,
-2.49006432e-02,1.97589956e-02,-4.34735902e-02,1.89158507e-02,-1.88101679e-02,
1.46012763e-02,1.19279334e-02,7.98524693e-02,2.25413479e-02,1.05500948e-02,
-1.51363984e-02,8.12643841e-02,-3.99293713e-02,-2.02202480e-02,4.70902324e-02,
3.69567686e-04,7.49974474e-02,5.93803683e-03,-3.85723859e-02,4.72430959e-02,
-3.65682617e-02,-8.26758426e-03,-3.75647843e-02,6.35189340e-02,2.27222294e-02,
7.67082125e-02,1.56075843e-02,4.42038849e-02,4.91263680e-02,6.67429343e-02,
8.07619691e-02,-3.40427756e-02,-6.68014213e-02,-4.35912646e-02,7.06505328e-02,
-5.54502616e-03,-8.13180283e-02,1.25547387e-02,-1.59505196e-02,6.53735623e-02,
-5.36200777e-02,5.47620095e-02,-3.41337286e-02,1.64922103e-02,4.94944230e-02,
6.99123964e-02,-2.31907461e-02,-5.88820428e-02,6.86249286e-02,-6.57412689e-04,
6.34413287e-02,4.86683752e-03,2.39876062e-02,-3.25041488e-02,5.61672263e-02,
7.70264678e-03,-6.68029115e-02,1.96156390e-02,6.04422130e-02,2.60208920e-02,
-2.10345862e-03,-7.32134879e-02,6.42343685e-02,2.87268292e-02,-3.16158421e-02,
6.79169670e-02,3.74715328e-02,-3.52760940e-03,-1.10819619e-02,-1.55743985e-02,
3.74278501e-02,3.79746482e-02,1.48992697e-02,6.12153523e-02,3.64112370e-02,
5.50757945e-02,-3.31605040e-03,5.09147011e-02,-6.13309257e-02,-4.43374515e-02,
7.53209814e-02,8.23796615e-02,1.00823352e-03,-8.13703798e-03,-8.10745731e-02,
3.43922302e-02,6.74350262e-02,-6.95154965e-02,-1.85374524e-02,3.11665107e-02,
-8.59315321e-02,-6.53378591e-02,-4.93195616e-02,-2.54194885e-02,6.37580827e-02,
3.32942270e-02,-5.12140095e-02,5.95806018e-02,4.25135419e-02,-1.87408384e-02,
-5.15590683e-02,-4.31442559e-02,7.07932636e-02,1.99122559e-02,-4.99966815e-02,
8.75762850e-02,1.54470559e-02,4.05361541e-02,-4.61876802e-02,-2.55297520e-03,
5.54924905e-02,-8.80772099e-02,2.73953695e-02,-2.15309858e-02,6.49707997e-03,
-8.07325467e-02,4.90859635e-02,8.61075744e-02,1.05078276e-02,-7.14073926e-02,
-2.92996150e-02,-1.15439957e-02,1.80284623e-02,-4.30736393e-02,-2.45962869e-02,
-6.36174902e-02,-2.10470855e-02,3.80983688e-02,6.40396848e-02,9.37850866e-03,
-3.84141132e-02,-4.83135283e-02,8.58075768e-02,-4.27880585e-02,-5.44031002e-02,
-6.70148283e-02,-5.95059842e-02,4.78601418e-02,-6.47920668e-02,-4.97356290e-03,
-4.84988615e-02,8.27866420e-02,7.19183460e-02,-1.48616619e-02,-6.76123146e-03,
5.73857538e-02,1.55237755e-02,-5.45341559e-02,-7.03912675e-02,-4.29779403e-02,
-1.32242572e-02,-2.81479061e-02,-2.70821210e-02,-3.84252854e-02,5.94114810e-02,
-9.23039485e-03,8.28840360e-02,-1.87076386e-02,7.92074651e-02,-6.17665127e-02,
7.54416138e-02,7.53990039e-02,6.76917285e-02,5.76156974e-02,-1.82463676e-02,
8.27266499e-02,5.91793656e-02,-7.19900951e-02,-3.12335677e-02,-2.01754384e-02,
6.09518178e-02,-8.79658153e-04,6.88742846e-02,7.25032985e-02,7.66241103e-02,
6.03571981e-02,8.08051601e-02,-6.55637830e-02,7.50495121e-02,-7.54414424e-02,
-1.14738783e-02,3.85493189e-02,6.74621109e-03,1.08106749e-03,-8.32550973e-02,
-2.63663363e-02,-6.70440868e-02,4.55886498e-02,2.72104926e-02,4.22531692e-03,
-5.46253510e-02,1.84664745e-02,-1.68790836e-02,-4.60470766e-02,-7.09269335e-03,
-6.23637736e-02,3.71627286e-02,3.97022665e-02,-7.42470995e-02,-7.28166029e-02,
1.76736172e-02,3.60450856e-02,6.41837865e-02,7.85299540e-02,-1.66407712e-02,
7.90970773e-02,-7.01410398e-02,-3.57321166e-02,-5.85423000e-02,-6.92463713e-03,
-3.23688053e-03,1.79061610e-02,-5.90949506e-02,-7.54149929e-02,-2.38437224e-02,
-5.39275035e-02,-3.39390486e-02,5.13721397e-03,1.16313342e-02,1.43794650e-02,
-1.98882781e-02,2.73691416e-02,-2.88966522e-02,-7.38060623e-02,-5.73127009e-02,
2.97150714e-03,-8.57912078e-02,4.55590412e-02,2.54265871e-02,5.33607081e-02,
3.41647714e-02,-3.94488536e-02,-7.68172294e-02,-8.36565495e-02,5.73876165e-02,
3.01303733e-02,-7.59205297e-02,-3.32522951e-02,-3.10871075e-03,8.31798688e-02,
-2.19218917e-02,6.20386824e-02,6.45430759e-02,7.66872838e-02,-8.14160779e-02,
-7.03109652e-02,-1.46147367e-02,-5.53171597e-02,-2.26807911e-02,-3.05226147e-02,
5.57602523e-03,5.07646762e-02,2.29480360e-02,-1.12307034e-02,-6.23781458e-02,
-4.82928790e-02,-7.51905143e-02,-4.09567915e-02,-1.42239956e-02,-6.69700503e-02,
-1.79538522e-02,5.36462739e-02,-4.10585366e-02,-1.79546196e-02,4.76172902e-02,
9.64908674e-03,5.58994673e-02,-4.62069958e-02,4.91721891e-02,5.56538515e-02,
-1.97189656e-04,9.72393714e-03,-4.27772552e-02,-6.52133450e-02,2.40044966e-02,
2.88262311e-02,8.38203207e-02,3.27669792e-02,-6.20251633e-02,8.14046785e-02,
-1.21344384e-02,-8.56292397e-02,5.08177355e-02,1.62736196e-02,4.17152792e-03,
-6.67651370e-02,-7.95588642e-02,6.03856221e-02,8.06382522e-02,4.50951383e-02,
-6.04899079e-02,4.74430136e-02,-1.02781430e-02,7.25100562e-03,3.00729536e-02,
4.11688350e-02,-3.78702790e-03,-8.16910937e-02,8.01124275e-02,2.79037096e-02,
-5.67591749e-02,8.08984116e-02,-8.24526548e-02,-1.21281564e-03,5.33187799e-02,
-6.46317974e-02,-1.47124138e-02,5.74735478e-02,-2.61510089e-02,-2.49830391e-02,
1.62927471e-02,3.25429849e-02,-7.71030337e-02,4.89116758e-02,5.96776307e-02,
8.09143484e-02,6.43171817e-02,2.25896910e-02,-5.17159924e-02,2.86458358e-02,
3.29090399e-03,2.29626168e-02,-6.75746612e-03,-4.10655476e-02,-7.64345378e-02,
4.90835728e-03,2.00925581e-02,-4.24327813e-02,-3.35561000e-02,-6.26323894e-02,
-7.64402449e-02,3.60033251e-02,-7.84896431e-04,5.42751849e-02,3.13399136e-02,
3.67220603e-02,-2.56554708e-02,7.69538283e-02,2.19940767e-02,-7.13653862e-02,
1.32064652e-02,2.27072313e-02,-6.94660842e-02,-7.29288012e-02,5.26777934e-04,
6.51916042e-02,-8.44847709e-02,-1.88572854e-02,2.23783962e-02,-7.66623914e-02,
5.38181514e-02,8.08019117e-02,-6.44485578e-02,5.47376834e-03,6.14218339e-02,
4.78830468e-03,2.72625573e-02,6.85282350e-02,-5.02679646e-02,4.85433228e-02,
5.47535419e-02,5.56694083e-02,-7.00744614e-02,-2.70082057e-02,-2.70830430e-02,
-6.23585731e-02,-7.51117170e-02,7.51012340e-02,-3.22469361e-02,2.31445078e-02,
7.27113634e-02,7.43733644e-02,4.39015515e-02,3.48080955e-02,5.03620468e-02,
-2.04824954e-02,2.76104920e-02,7.15499595e-02,-1.23740630e-02,4.27759588e-02,
-6.97268844e-02,7.30446205e-02,8.35888311e-02,-5.63801685e-03,4.09709141e-02,
8.27424079e-02,-2.62873713e-02,4.71254215e-02,1.53831448e-02,6.91086501e-02,
5.62829897e-02,7.76759163e-02,4.08245847e-02,-4.52984646e-02,4.22619358e-02,
4.30145338e-02,2.78815273e-02,-1.60642713e-02,-2.04082855e-04,3.02307904e-02,
5.04319854e-02,2.54634768e-02,5.88909872e-02,-3.75318006e-02,1.83415823e-02,
-1.92273203e-02,-5.74922450e-02,5.01344986e-02,-5.41452393e-02,5.78971915e-02,
-1.37677668e-02,4.95527945e-02,-2.73753814e-02,-3.00617348e-02,-2.16212682e-02,
-5.90391271e-03,3.37956063e-02,-5.38826771e-02,6.08220580e-04,-5.60249686e-02,
5.53245191e-03,-7.83712044e-02,-7.17863953e-03,-7.77171850e-02,-1.90000460e-02,
6.84804544e-02,8.02706480e-02,-6.52580634e-02,-3.05443555e-02,5.67033403e-02,
-3.71549353e-02,8.27575698e-02,-7.03748763e-02,-5.72921373e-02,-1.59148853e-02,
-4.52028736e-02,4.18221438e-03,-1.00779114e-02,3.91449668e-02,3.90716903e-02,
-6.48025200e-02,4.42126095e-02,-7.70968795e-02,-6.20564930e-02,-7.36579075e-02,
-3.71171795e-02,-6.99343458e-02,6.53936192e-02,2.50853635e-02,3.98331359e-02,
2.48714332e-02,6.92436695e-02,1.79308057e-02,-3.05116139e-02,-4.00052965e-02,
6.61956444e-02,7.73932189e-02,5.43160737e-02,-2.03360282e-02,-1.00918370e-03,
6.29616231e-02,-2.85986234e-02,-2.09452920e-02,5.95795028e-02,3.48238610e-02,
5.75444754e-03,-3.01706158e-02,-1.49276704e-02,-2.47898586e-02,-6.50818199e-02,
3.52836587e-02,1.46794766e-02,-4.54117134e-02,-7.44445324e-02,-7.37336203e-02,
-1.77830700e-02,2.99925227e-02,-6.81083798e-02,-7.71496147e-02,-5.55941239e-02,
6.43412322e-02,-1.51039362e-02,-1.61653887e-02,-5.74555323e-02,-3.76761854e-02,
3.35828252e-02,3.33573334e-02,-4.15443629e-02,-6.18308671e-02,5.59003986e-02,
7.28508011e-02,-3.05850282e-02,-8.71625468e-02,-7.83392638e-02,-1.81280803e-02,
5.94919771e-02,-6.52616173e-02,-8.18077251e-02,-6.56158477e-02,1.22102313e-02,
4.94635478e-02,-9.47153848e-03,7.90145528e-03,-5.37463576e-02,2.04653610e-02,
2.44423021e-02,-1.23760449e-02,-2.96315216e-02,6.23953342e-02,-5.51931374e-02,
6.50243387e-02,-7.06249401e-02,-4.36469838e-02,-2.66232025e-02,6.86736107e-02,
5.66180125e-02,-3.55344303e-02,-4.89050597e-02,-3.76839302e-02,-8.18753913e-02,
-1.78741366e-02,-7.42570758e-02,1.50396815e-02,-6.04857281e-02,7.37932548e-02,
-2.18489971e-02,-6.49368465e-02,-4.74779308e-02,3.02188601e-02,-1.56793743e-02,
1.20763471e-02,3.33793578e-03,-6.87145740e-02,7.99615905e-02,-2.77469587e-02,
9.03887674e-03,7.29685724e-02,-5.42403907e-02,-2.29966789e-02,3.79895717e-02,
-8.09396356e-02,2.79646628e-02,5.32808490e-02,6.44158153e-03,-7.79640600e-02,
-6.76459745e-02,5.77256419e-02,5.77555560e-02,-2.77480390e-02,-2.67318487e-02,
-1.97319854e-02,-5.01588080e-03,-3.13809514e-02,-3.85843543e-03,4.92925532e-02,
-2.36883853e-02,-2.52218079e-02,-6.87855184e-02,-5.57258651e-02,6.65008947e-02,
-5.55204973e-02,-7.20379427e-02,5.05569279e-02,-5.77705912e-02,-1.10116589e-03,
6.44330261e-03,4.99377958e-03,6.10905103e-02,-7.09236227e-03,5.94057851e-02,
-2.06035282e-02,3.85157280e-02,9.87223256e-03,9.59528331e-03,6.75601587e-02,
8.76992941e-02,-3.33273299e-02,5.49629331e-02,-2.41762828e-02,6.34861141e-02,
1.77055895e-02,2.36412119e-02,8.87513719e-03,-5.17921560e-02,4.73720878e-02,
5.03071025e-02,4.95136203e-03,3.16132084e-02,2.52674799e-02,1.65792666e-02,
6.47184206e-04,6.73631132e-02,-1.23869171e-02,-4.25481647e-02,8.43470991e-02,
6.06958531e-02,-7.44574443e-02,-2.66188756e-02,-3.16794477e-02,-1.90374237e-02,
-2.89444793e-02,-8.48660395e-02,3.84078082e-03,3.72110307e-02,6.15188107e-02,
-7.11910725e-02,2.86270422e-03,-3.02050803e-02,-3.67934704e-02,-1.53529765e-02,
-8.45856145e-02,2.79119778e-02,-5.79217374e-02,-7.15747178e-02,5.70503026e-02,
4.06247191e-03,6.02120114e-03,7.43727162e-02,2.23199092e-03,2.12377533e-02,
-6.84441850e-02,4.87640463e-02,1.57300048e-02,7.60271177e-02,-2.56296359e-02,
-2.59648468e-02,1.08398423e-02,-8.01048428e-02,7.43015856e-02,-3.51999477e-02,
-7.16313794e-02,-7.14221597e-02,2.33996622e-02,3.24528776e-02,2.72666737e-02,
5.24685755e-02,-7.47187883e-02,7.05914050e-02,-8.70375782e-02,-5.35163805e-02,
4.46407963e-03,3.18425801e-03,7.32046366e-02,3.41163613e-02,5.70859089e-02,
-4.21284474e-02,5.48193082e-02,2.55998950e-02,6.38657957e-02,3.40287499e-02,
-4.24786210e-02,-1.57966558e-02,2.42036302e-03,-4.41210940e-02,6.24255203e-02,
-2.47775782e-02,-8.27409625e-02,2.42112000e-02,-3.28625366e-02,3.10818572e-02,
-3.27681154e-02,-1.76938698e-02,2.55454760e-02,2.16169953e-02,1.20687801e-02,
7.44974390e-02,5.10477275e-02,-3.22356820e-02,-4.03165780e-02,-1.64978192e-04,
-7.40626380e-02,7.30299205e-03,-6.58296496e-02,8.39565843e-02,4.06186096e-03,
-8.31407160e-02,8.73454381e-03,3.16084847e-02,7.99952820e-02,7.75459781e-03,
-6.71286210e-02,-5.81012340e-03,-4.58742818e-03,2.96636540e-02,4.90888208e-02,
9.21574421e-03,5.48307747e-02,1.46093415e-02,-6.83356076e-02,-1.44407330e-02,
9.49820597e-03,-3.40258256e-02,-9.30468459e-03,-1.12372283e-02,7.03650415e-02,
5.30614741e-02,7.83422962e-02,8.07515904e-02,-1.71205662e-02,-8.49412027e-05,
3.04811709e-02,-4.22796682e-02,1.15802349e-03,-2.58749463e-02,8.09253007e-02,
3.03057246e-02,3.45784910e-02,9.04121436e-03,-8.43052119e-02,-2.32615769e-02,
-5.19602299e-02,6.92422315e-02,3.33027393e-02,6.16830550e-02,-7.87794311e-03,
2.41977405e-02,6.58147931e-02,-1.49465594e-02,-4.84262779e-02,-3.80373225e-02,
5.54380454e-02,5.59519976e-03,-1.59574542e-02,-5.07238992e-02,1.60123333e-02,
-1.83034278e-02,-1.69545803e-02,4.31367755e-02,-5.11620604e-02,8.39111656e-02,
-6.47127852e-02,2.77886167e-03,3.45815420e-02,1.18241496e-02,-7.75230825e-02,
-6.51326105e-02,7.01538622e-02,-4.72436436e-02,8.20348691e-03,2.01167911e-02,
-1.01999603e-02,7.40520330e-03,-1.56914666e-02,7.75183067e-02,1.01943100e-02,
-3.16914767e-02,-6.21919222e-02,-8.74344483e-02,2.16750614e-02,3.02761607e-02,
-1.91491619e-02,2.73354873e-02,1.81072243e-02,-5.57727069e-02,-7.38218427e-02,
-6.29004836e-02,9.78119951e-03,3.98699706e-03,-4.66355905e-02,-8.45987443e-03,
6.39586151e-03,-5.32590039e-02,8.28213543e-02,-3.69768515e-02,3.62696275e-02,
-3.62828523e-02,5.40394150e-02,6.52550831e-02,1.12946087e-03,-3.00875288e-02,
5.22429422e-02,-3.28134894e-02,1.73633285e-02,-1.85102168e-02,4.69145365e-02,
-1.33615630e-02,1.69715788e-02,-5.05441576e-02,-3.63572761e-02,3.30884866e-02,
-7.98398033e-02,1.18159251e-02,-1.50514801e-03,4.58624177e-02,1.59904175e-03,
-4.04781476e-02,-1.25863275e-03,-8.32417309e-02,-7.92965293e-02,4.64692339e-02,
5.19519038e-02,3.85677554e-02,-7.72460252e-02,8.63781478e-03,8.71774927e-02,
-4.24602591e-02,-5.22559360e-02,-4.29924801e-02,-3.05954330e-02,-2.21981574e-03,
-2.70240307e-02,6.15676604e-02,5.23583069e-02,-1.88501105e-02,5.67401946e-02,
-1.63059514e-02,5.01220003e-02,3.03280316e-02,6.04363196e-02,-1.76289752e-02,
-7.77876973e-02,-5.55512011e-02,4.12861146e-02,-7.06837699e-02,-5.51636182e-02,
-2.08657105e-02,8.17333609e-02,-2.45018452e-02,5.24694845e-02,-8.38284120e-02,
4.71190624e-02,-3.04206996e-03,2.32244525e-02,2.56122220e-02,3.66731407e-03,
1.36952968e-02,4.16818485e-02,-5.34995943e-02,-1.24694658e-02,-3.95454653e-02,
3.87190953e-02,1.19709903e-02,3.16447429e-02,-6.29832298e-02,5.88978827e-02,
9.21227562e-04,1.31463595e-02,-2.52576284e-02,-6.36198595e-02,7.79274246e-03,
1.76137928e-02,8.13882519e-03,1.93393808e-02,-5.44510446e-02,1.56927500e-02,
-3.70234773e-02,-8.13721195e-02,-6.14120858e-03,1.71109894e-03,4.51744860e-03,
4.84032817e-02,6.32170821e-03,-8.73575583e-02,7.94125125e-02,6.00871183e-02,
-8.63606408e-02,-2.08029617e-03,7.97519833e-02,-5.15060239e-02,6.35430887e-02,
5.84212355e-02,6.81813853e-03,1.49978185e-02,3.49885784e-02,2.85926536e-02,
-5.69099858e-02,4.20950167e-02,-9.13198199e-03,-3.99520509e-02,3.42623778e-02,
6.13254234e-02,6.00960199e-03,-4.44142371e-02,-2.54096687e-02,-1.49086434e-02,
-7.30029643e-02,-3.40473652e-02,6.23311587e-02,-2.49168975e-03,7.97022805e-02,
3.66677642e-02,-2.90574562e-02,-1.58193391e-02,-5.97831793e-02,7.30054826e-02,
-5.95037527e-02,2.43330728e-02,-6.38172254e-02,-5.60483802e-03,6.35515228e-02,
-8.70868042e-02,-3.67393233e-02,-6.96478784e-02,-4.64324020e-02,-2.86968686e-02,
3.99730615e-02,3.08092833e-02,-6.05586171e-02,2.68882290e-02,-3.14748697e-02,
-5.18692508e-02,-9.10225848e-04,-5.93868196e-02,2.46650781e-02,6.87076747e-02,
-5.59854396e-02,-8.23574737e-02,-6.78306893e-02,6.39260113e-02,-7.70881474e-02,
6.52005002e-02,-5.96472900e-03,-5.00591099e-02,-5.51289357e-02,-1.03280572e-02,
6.02892712e-02,-4.90294807e-02,3.48747447e-02,8.54541664e-04,-6.09587021e-02,
8.43738019e-02,-7.32362717e-02,-1.36552071e-02,5.42823933e-02,-3.14574763e-02,
-4.32973308e-03,-1.54880015e-02,-2.59739021e-03,-3.17075998e-02,6.08357452e-02,
2.12389641e-02,5.37559129e-02,3.90195735e-02,3.04968320e-02,5.31619713e-02,
-7.94561580e-02,5.98246790e-02,-8.16243663e-02,4.95956652e-02,6.69626892e-02,
-1.76075064e-02,-1.64139997e-02,-4.99644987e-02,8.13200921e-02,-4.77948459e-03,
8.20344836e-02,2.32842639e-02,-4.78652045e-02,8.05946961e-02,-6.76586181e-02,
3.51747824e-03,3.68291885e-02,-3.81391831e-02,-7.66912475e-02,-2.47812700e-02,
-1.54112196e-02,-4.48740348e-02,3.31988521e-02,1.89681072e-02,-2.60849344e-03,
-2.39254404e-02,7.08230212e-03,3.93160395e-02,-2.93644350e-02,-4.76438776e-02,
6.31964281e-02,1.35716386e-02,-1.93867367e-02,7.21966326e-02,-3.68104391e-02,
-4.13355269e-02,5.04463762e-02,-3.13343108e-02,6.42985925e-02,-4.58775982e-02,
8.25384557e-02,1.75302755e-02,-8.43738392e-03,2.86786389e-02,2.69751251e-02,
-6.17069229e-02,4.94820662e-02,-4.20058370e-02,-2.61800438e-02,-2.38018222e-02,
8.27819556e-02,-6.37932122e-02,-1.35759395e-02,-8.51563588e-02,-2.79970225e-02,
-8.74212291e-03,3.85049209e-02,6.19350597e-02,1.79549363e-02,1.90059422e-03,
-2.43319515e-02,3.27719674e-02,-1.65267829e-02,6.08686879e-02,5.23280241e-02,
1.57691967e-02,5.74025624e-02,-7.88737535e-02,-1.59601606e-02,-5.56473657e-02,
7.58793205e-02,8.46414566e-02,-5.72966039e-03,6.45403042e-02,-7.38096088e-02,
4.24571894e-03,-1.32770780e-02,2.45740451e-02,-5.51936179e-02,-6.32355511e-02,
3.37702073e-02,-5.20849153e-02,7.13906065e-02,1.65980812e-02,-4.35218513e-02,
6.05009906e-02,-6.19653286e-03,8.66906121e-02,-8.36333781e-02,2.85348902e-03,
2.31107045e-02,5.91572039e-02,1.53425802e-02,-6.32505938e-02,8.23713094e-02,
-3.17587145e-02,5.40003777e-02,-5.60603365e-02,6.36294112e-02,6.84066396e-03,
8.22765902e-02,4.44112159e-02,-3.91554795e-02,-1.68431811e-02,9.74274892e-03,
-2.14025415e-02,-4.02526259e-02,6.10475615e-02,6.66155964e-02,-1.90408397e-02,
2.59389877e-02,-7.45813474e-02,8.04340541e-02,-7.98173025e-02,2.46707015e-02,
1.08205285e-02,-4.82227504e-02,2.89469548e-02,2.57713422e-02,3.19543527e-03,
-2.26837229e-02,5.12499511e-02,-3.49745410e-03,-5.16956896e-02,8.12539533e-02,
5.17187566e-02,-4.37190160e-02,4.91680168e-02,2.82645728e-02,8.02809000e-02,
-7.48078674e-02,6.76526874e-02,-6.86572567e-02,-2.44566724e-02,4.36780974e-02,
-3.72654982e-02,1.59284659e-02,8.48120674e-02,-4.55754064e-02,-2.83187684e-02,
6.43559620e-02,2.27143187e-02,5.68349324e-02,-3.98543067e-02,-1.08475797e-02,
5.28779626e-02,-8.33746642e-02,5.07841446e-02,-1.03171738e-02,-3.69494371e-02,
5.51836640e-02,-8.14139750e-03,-3.61612141e-02,6.09727055e-02,-7.28569403e-02,
6.74402639e-02,4.93808277e-02,-7.62793049e-02,6.92356704e-03,2.87678605e-03,
-1.47042954e-02,-5.22813350e-02,-5.54487593e-02,-2.47965963e-03,-2.11413503e-02,
-8.12867656e-03,1.10941920e-02,7.46752843e-02,-5.08685932e-02,6.48660436e-02,
5.94799500e-03,-2.12148894e-02,-8.04372951e-02,3.06400824e-02,4.28708531e-02,
4.98396903e-02,-7.49617442e-02,3.60672511e-02,-3.53659876e-02,-8.13327655e-02,
-6.57292008e-02,3.20155285e-02,-3.86760645e-02,3.69538181e-02,3.44852880e-02,
1.45189343e-02,5.62114343e-02,7.04915076e-02,6.47687986e-02,6.29574619e-03,
9.27621312e-03,5.63802086e-02,-5.30823059e-02,7.57198259e-02,8.87781009e-03,
4.24885415e-02,5.50414361e-02,1.02006029e-02,-3.61743942e-02,-6.66733906e-02,
3.23108584e-02,-6.93335906e-02,-1.93438828e-02,-7.51505643e-02,7.02651367e-02,
-2.92098382e-03,-8.23963881e-02,-4.52302322e-02,3.32966913e-03,-2.36537866e-02,
-3.00461426e-02,-7.87938461e-02,5.43761961e-02,2.00246088e-02,-3.33405286e-02,
-4.01826762e-02,2.10239273e-02,-6.13537766e-02,-6.15760498e-02,-1.79082099e-02,
5.74990809e-02,-1.95939075e-02,-4.13995944e-02,-8.09404850e-02,3.69286835e-02,
-7.76405185e-02,5.14512043e-03,-2.62433775e-02,2.15244293e-03,5.86714447e-02,
-2.08083913e-02,-7.28001595e-02,-4.82793674e-02,2.26640664e-02,7.58944079e-02,
-6.51922449e-02,-1.27991950e-02,-9.24735516e-03,-1.90026611e-02,-2.29036547e-02,
6.63795322e-02,-4.96425666e-02,3.11962944e-02,-3.99064496e-02,-3.50921005e-02,
-7.98669457e-02,-1.93750709e-02,-1.37584340e-02,-2.08599847e-02,-7.65598640e-02,
-5.47742136e-02,5.97869046e-02,-5.07971179e-03,4.03051525e-02,2.51609050e-02,
-4.01297472e-02,4.48070988e-02,-3.79825156e-04,-4.96465489e-02,-7.25424066e-02,
-6.56355098e-02,7.97210783e-02,-1.03016375e-02,7.13423863e-02,-1.44665670e-02,
-4.88764271e-02,8.41703545e-03,3.12336572e-02,-5.22716790e-02,-1.24305096e-02,
-1.92162674e-03,-3.13148648e-02,4.74380888e-02,-5.57363778e-02,-5.75414412e-02,
3.30798626e-02,4.23379913e-02,-6.43004403e-02,-4.76318523e-02,7.70456642e-02,
-1.46929929e-02,6.80612326e-02,7.88531825e-02,-6.11976311e-02,1.96330007e-02,
2.20246203e-02,-3.52659225e-02,1.16279591e-02,-2.80207936e-02,3.36241722e-03,
-9.49554518e-03,-7.10735284e-03,-1.91118941e-02,1.76449995e-02,-7.06872046e-02,
-1.22630093e-02,2.48615798e-02,-7.86691979e-02,8.27975050e-02,4.68931608e-02,
-7.40741342e-02,5.98653145e-02,1.63568687e-02,1.86630785e-02,9.32530407e-03,
-1.01372134e-02,-3.21059674e-02,-1.68593414e-02,-6.69541731e-02,2.32645473e-03,
-3.53430174e-02,1.29693775e-02,2.22067237e-02,5.78017831e-02,-2.78711729e-02,
-3.66149209e-02,-5.88724948e-02,-1.94721613e-02,3.42318527e-02,4.45017777e-02,
4.25834581e-02,-5.96023574e-02,3.99819948e-02,-1.10388603e-02,4.20370325e-02,
-2.97741611e-02,5.67624159e-03,-6.33079708e-02,5.86948171e-02,7.04366341e-02,
-4.73396890e-02,4.75625992e-02,4.22601961e-02,-4.64765839e-02,4.69684228e-02,
6.75889701e-02,5.70043772e-02,-5.92849068e-02,4.44120504e-02,-6.19764999e-02,
8.31191242e-02,-3.94274518e-02,3.15518156e-02,2.44630892e-02,4.93759550e-02,
-8.24586526e-02,4.94273454e-02,-2.29921788e-02,-8.19849819e-02,-5.28690056e-04,
4.50704433e-02,-6.35655969e-02,5.50498031e-02,2.12002848e-03,2.86728591e-02,
-7.82494769e-02,8.37568268e-02,-7.75103197e-02,-6.94878176e-02,-1.22444220e-02,
-5.13556376e-02,6.29144628e-03,-2.52325684e-02,4.71447520e-02,-5.29937968e-02,
6.72204122e-02,3.80120687e-02,-2.64509358e-02,-4.45744358e-02,6.87161982e-02,
8.63436013e-02,-1.34764658e-02,6.24612980e-02,7.99933299e-02,-1.94756165e-02,
-5.08301482e-02,7.86574464e-03,-1.72623284e-02,-3.57305408e-02,-7.05744624e-02,
-8.31417963e-02,3.26770321e-02,5.71801178e-02,-7.70043023e-03,7.94137120e-02,
4.20071259e-02,5.73511198e-02,-7.21718818e-02,-4.80960347e-02,6.98428974e-02,
4.19008732e-02,2.28078440e-02,7.68389255e-02,-5.41711450e-02,-2.02774908e-02,
-7.15482384e-02,8.03876743e-02,8.03215653e-02,6.16515130e-02,6.53471947e-02,
1.42435720e-02,2.17987085e-03,-2.48608645e-02,4.33102325e-02,-3.16260532e-02,
-3.10365893e-02,3.68565172e-02,7.22857565e-02,3.77293974e-02,6.60582334e-02,
-6.42143115e-02,6.75686449e-02,-3.25684319e-03,1.58462282e-02,5.10727391e-02,
6.93024024e-02,-2.55299266e-02,1.70158930e-02,3.42778750e-02,-3.55559215e-02,
-2.77341716e-02,8.09747800e-02,6.30501136e-02,4.80830744e-02,-6.50446042e-02,
-7.80222416e-02,1.09419720e-02,3.28903720e-02,7.23580196e-02,1.55507158e-02,
6.02410175e-02,5.84546197e-03,4.12711650e-02,-7.42540658e-02,-4.64469977e-02,
6.88534081e-02,-4.11615036e-02,2.13769339e-02,5.32898791e-02,-3.02602649e-02,
3.05297766e-02,4.07306477e-02,3.35971871e-03,-8.67175683e-02,6.66679367e-02,
-7.12970197e-02,3.82948061e-03,-5.91285154e-02,8.17069709e-02,8.25895965e-02,
4.81117480e-02,-1.08057428e-02,2.88465084e-03,-3.57144363e-02,-8.22612941e-02,
-7.87317231e-02,3.22114415e-02,7.00288862e-02,-3.16214822e-02,1.46453250e-02,
-1.69718638e-02,-3.72811332e-02,6.72109351e-02,-4.16464061e-02,4.48075868e-02,
-7.03650936e-02,4.41371389e-02,2.05711164e-02,-4.98438738e-02,-4.91670035e-02,
-7.97700882e-02,-1.73892919e-02,3.71953137e-02,-6.61472008e-02,-2.13224031e-02,
4.39113863e-02,5.11890203e-02,4.77198139e-02,7.59878233e-02,3.99124250e-02,
7.09942579e-02,1.77642033e-02,-3.81128229e-02,-5.75670265e-02,3.71811003e-03,
6.26537576e-02,-1.79706346e-02,-6.79197907e-02,-8.52724314e-02,-8.18039551e-02,
-2.01136619e-02,3.73033131e-03,-2.42525525e-02,-4.37901467e-02,-3.84478867e-02,
7.57231563e-02,1.88919548e-02,-1.82520431e-02,-6.92658052e-02,3.90242366e-03,
-5.55126965e-02,3.30549069e-02,2.71418914e-02,-2.24916805e-02,2.70630624e-02,
2.60767508e-02,1.46736391e-02,3.00478339e-02,8.34820569e-02,-2.27310956e-02,
7.93337673e-02,1.46234557e-02,5.00437878e-02,9.26054362e-03,-3.72341946e-02,
8.18995526e-04,-7.36296624e-02,2.47967932e-02,6.23805076e-02,-2.11128332e-02,
-1.32744573e-02,4.90753688e-02,4.80451882e-02,5.45709319e-02,7.51070455e-02,
-2.11753696e-02,3.95153761e-02,-2.38152724e-02,-2.99062431e-02,8.16647783e-02,
-6.62788004e-02,-4.54114191e-02,6.63637221e-02,-7.94661939e-02,-2.14850786e-03,
1.95373222e-02,4.12361212e-02,-6.59592524e-02,-3.05100456e-02,-2.14820802e-02,
-1.40887601e-02,-4.32451963e-02,-4.54682969e-02,-7.92124346e-02,1.23492372e-03,
-3.87574770e-02,1.12513686e-02,9.04043019e-03,7.83662722e-02,7.60914460e-02,
5.34113832e-02,-1.08450828e-02,-3.08911428e-02,-1.27839129e-02,7.25397766e-02,
-2.68476624e-02,-9.07893293e-03,-4.88532148e-02,-6.60793334e-02,-1.36441726e-04,
6.19933894e-03,5.52025922e-02,5.59782013e-02,-5.81844226e-02,8.05653632e-02,
5.99301718e-02,6.80920780e-02,7.37323938e-03,-6.71040220e-03,-3.12550142e-02,
-5.55526987e-02,-2.79167183e-02,8.82521085e-03,1.29562747e-02,-8.59275758e-02,
3.85058275e-03,-1.83790848e-02,8.41235295e-02,-6.94338381e-02,8.57080147e-02,
-1.37044974e-02,-4.18309979e-02,-2.50768159e-02,-2.45381761e-02,5.54574020e-02,
4.01247740e-02,-4.74388637e-02,-2.27458365e-02,-3.93936932e-02,6.67589679e-02,
-7.69625828e-02,2.73203198e-02,-1.26700997e-02,6.10459074e-02,3.28815579e-02,
-4.28291783e-02,3.92965265e-02,6.09338991e-02,6.82922453e-02,-3.15339006e-02,
-6.77138194e-02,2.86713019e-02,-7.56493863e-03,4.64123003e-02,-7.89865851e-02,
-7.17396066e-02,1.54717192e-02,-5.65782748e-02,-4.41979170e-02,1.07295662e-02,
5.40596657e-02,2.41289046e-02,1.97961405e-02,1.23236468e-02,-5.90804815e-02,
3.94890234e-02,8.72212052e-02,-3.56068909e-02,5.38460016e-02,5.80694303e-02,
-5.53425476e-02,-5.77205941e-02,6.00268319e-02,2.93897297e-02,-1.76526029e-02,
5.35427593e-02,7.68681169e-02,-2.18650606e-02,-8.07698146e-02,-5.93972765e-02,
2.97582410e-02,8.69994685e-02,3.73252891e-02,-4.89435643e-02,8.06616470e-02,
-6.17594458e-02,-7.55792558e-02,5.94617240e-02,-1.19172093e-02,-3.34317200e-02,
-2.10823659e-02,-2.54628696e-02,7.53075778e-02,-1.69195570e-02,7.66949505e-02,
-9.67424538e-04,-5.86941652e-02,-7.22166225e-02,6.43005595e-02,-5.41147441e-02,
-8.47080201e-02,-1.79352798e-02,-1.45640345e-02,-3.72757912e-02,6.47764746e-03,
6.78514764e-02,5.19805029e-02,-6.32513082e-03,2.63028014e-02,7.15855286e-02,
1.55196907e-02,8.22128579e-02,4.63614278e-02,3.84551249e-02,6.51779072e-03,
1.57450940e-02,8.77451673e-02,-8.14310014e-02,4.59523825e-03,-1.50271424e-03,
-5.00444807e-02,1.83358304e-02,1.49722560e-03,-5.21989651e-02,6.04573376e-02,
6.97009042e-02,-7.22785443e-02,-5.28884940e-02,-1.97298583e-02,-5.60792238e-02,
-6.73048869e-02,1.70421507e-02,-7.48220161e-02,-1.86719466e-02,-7.36936256e-02,
-3.69967707e-02,-7.86041562e-03,5.61293494e-03,-4.60939147e-02,-6.93205371e-02,
-3.06547824e-02,7.02958135e-03,-3.83502170e-02,-7.50706047e-02,6.14982545e-02,
-7.82122239e-02,5.88875376e-02,-6.36343807e-02,-7.37572014e-02,-6.95506344e-03,
-8.31281319e-02,-5.57124726e-02,7.60321245e-02,1.02958479e-03,-6.96843266e-02,
-1.49793224e-02,8.08116943e-02,7.19623566e-02,-7.37696141e-02,8.32390115e-02,
-6.32869601e-02,6.54345006e-02,3.55614312e-02,-5.87539282e-03,-5.08140065e-02,
8.16339329e-02,5.91270775e-02,7.84554854e-02,6.82977885e-02,-7.69568756e-02,
8.19398761e-02,-2.13001426e-02,-3.15372716e-03,-2.35417094e-02,-1.16178032e-03,
-3.65791917e-02,6.78811446e-02,-7.83119649e-02,8.50336403e-02,7.54324272e-02,
-2.31623575e-02,-4.21388671e-02,-3.31810042e-02,-3.69001664e-02,3.24110575e-02,
-4.56379680e-03,-2.13890392e-02,6.32169098e-02,8.23799819e-02,1.71021782e-02,
8.18145797e-02,2.74664965e-02,3.89825627e-02,1.20277889e-02,8.21350738e-02,
1.68826357e-02,-5.09531908e-02,4.77117710e-02,7.57225901e-02,1.73591506e-02,
-5.93363345e-02,5.05431145e-02,-1.37061346e-02,-7.87563249e-02,7.84678459e-02,
-5.00345491e-02,-2.71619428e-02,-5.75840380e-03,-7.40092695e-02,3.65982689e-02,
-5.59340604e-03,1.74494814e-02,-3.58209796e-02,2.32272572e-03,-6.71770498e-02,
6.04777634e-02,-5.40699326e-02,5.62210642e-02,2.67163441e-02,-4.89663817e-02,
-4.07635160e-02,5.10654189e-02,6.93551684e-03,-6.46253005e-02,-1.25908963e-02,
-7.39574060e-02,-2.14984082e-02,2.20168699e-02,-5.72774075e-02,3.40043902e-02,
7.59246424e-02,7.27081224e-02,3.39036882e-02,-2.01062672e-02,4.87463400e-02,
7.85502866e-02,1.76899938e-03,-3.12896520e-02,8.05024654e-02,1.72245987e-02,
3.59365493e-02,3.66513617e-02,-2.68800538e-02,-4.08955626e-02,1.49543135e-04,
3.30223776e-02,5.35800010e-02,3.07606831e-02,-2.75292099e-02,-1.41081950e-02,
3.46926302e-02,5.36021069e-02,-6.75390428e-03,1.72477644e-02,4.21475545e-02,
-1.17974374e-02,-3.75695154e-02,-3.97691410e-03,3.73126157e-02,-5.94783425e-02,
1.97894834e-02,-8.05355906e-02,4.51249778e-02,-4.80186790e-02,-5.81716523e-02,
-6.61616921e-02,-4.35701665e-03,-8.35402776e-03,-4.30398844e-02,4.31793742e-02,
-1.66762795e-03,-6.88255504e-02,2.32054312e-02,8.20175260e-02,-5.39777055e-02,
-3.78371626e-02,-6.55418187e-02,5.52174710e-02,-4.82045934e-02,2.73098201e-02,
2.25545261e-02,8.89415387e-03,-5.80737181e-02,-4.20673797e-03,-5.54628372e-02,
-7.89735392e-02,-3.68308299e-03,9.88414325e-03,-5.12980893e-02,7.92435929e-02,
-3.10320389e-02,5.67016341e-02,5.50872795e-02,2.60855351e-02,3.04118879e-02,
-5.71281351e-02,-4.71759625e-02,3.22072953e-02,4.23305808e-03,-8.19512308e-02,
-2.69213468e-02,-7.55204931e-02,-3.38726789e-02,8.32649171e-02,1.96361728e-03,
-7.87459686e-02,3.20944898e-02,7.58174136e-02,6.99798390e-02,-7.10382015e-02,
1.31510701e-02,4.23307866e-02,-3.97795364e-02,-4.66434024e-02,5.42621240e-02,
4.75057960e-02,3.04766521e-02,-6.88929558e-02,-2.12487169e-02,6.30943105e-02,
-7.76938573e-02,-3.89018375e-03,-1.42090023e-02,8.19159746e-02,1.75126363e-02,
5.42374626e-02,5.45427129e-02,-1.89251266e-02,-6.06691539e-02,6.67043850e-02,
7.34040886e-02,-4.95511852e-02,3.91508490e-02,-3.47484648e-02,5.92621192e-02,
-2.53474107e-03,-7.66011998e-02,8.48188177e-02,-1.77302435e-02,1.51562020e-02,
-7.40968734e-02,5.20206504e-02,-5.10653853e-02,-4.35814932e-02,-4.74756323e-02,
5.09943813e-02,-5.77500686e-02,7.03691170e-02,8.35740753e-03,2.48653553e-02,
-1.54458759e-02,-4.84512262e-02,8.09661895e-02,-8.48216489e-02,7.13018626e-02,
5.83606064e-02,-3.95718105e-02,-7.32934549e-02,2.33706012e-02,7.92824179e-02,
1.74310431e-02,3.93162630e-02,8.13328400e-02,2.60635484e-02,2.84948405e-02,
-1.17160352e-02,-3.61236222e-02,-8.20510760e-02,-6.86454922e-02,5.36203645e-02,
-6.93763513e-03,1.24140065e-02,4.10242341e-02,2.83350516e-02,-6.41027912e-02,
8.61328542e-02,-1.78802665e-02,3.58487442e-02,2.00559795e-02,-7.88001120e-02,
-2.93319095e-02,4.65565287e-02,3.69046293e-02,3.38674821e-02,-3.49060185e-02,
2.85175852e-02,-7.39702508e-02,-4.20295596e-02,-8.06768760e-02,-6.64687715e-03,
2.95125712e-02,-4.34955992e-02,-7.83702582e-02,-7.22262561e-02,-3.96629833e-02,
-4.72100750e-02,6.56250119e-02,-5.80488741e-02,3.16500403e-02,-1.10229244e-02,
-1.56675484e-02,7.03948289e-02,3.72326225e-02,-4.95643802e-02,5.38361594e-02,
8.02475810e-02,-3.81269399e-03,5.88898249e-02,-8.78757704e-03,-7.04110935e-02,
7.65608102e-02,-8.07867199e-02,-4.73525748e-02,-7.04318378e-03,4.09525633e-02,
4.43945788e-02,-7.10234120e-02,-7.53444731e-02,4.07305509e-02,2.50251889e-02,
1.25272153e-02,-8.02843496e-02,3.58377062e-02,6.19578827e-03,3.43108028e-02,
-4.44173999e-02,4.36637215e-02,-7.30717927e-02,1.55632542e-02,1.93255842e-02,
-2.73657870e-02,-7.12285936e-02,-2.39869021e-02,-4.44371030e-02,-5.11725852e-03,
3.26815099e-02,2.65159812e-02,3.62553522e-02,-3.90521362e-02,-8.46679509e-02,
8.22893605e-02,3.11118108e-03,-3.74689884e-02,-8.45070481e-02,-7.95865878e-02,
1.88812111e-02,5.26096113e-02,-1.51072443e-03,-1.35602243e-02,-1.86775494e-02,
-5.28579858e-06,4.27696221e-02,-5.41677736e-02,-4.78351153e-02,2.57897638e-02,
-5.43073975e-02,3.84893902e-02,2.05301009e-02,3.25118825e-02,-3.29496362e-03,
6.17257431e-02,1.87788382e-02,2.65175160e-02,-8.03228915e-02,6.21550307e-02,
-5.94582073e-02,-7.58456960e-02,-8.04611295e-02,-4.22616825e-02,-7.14605600e-02,
-2.93155257e-02,5.00471815e-02,-7.73897618e-02,2.95852832e-02,-8.21288526e-02,
1.95946749e-02,7.32890889e-02,6.97031021e-02,5.00216112e-02,8.16903561e-02,
-3.42592783e-02,-7.12859631e-02,-5.91419963e-03,2.45158840e-02,-4.16887030e-02,
-1.94730517e-02,-6.64500892e-02,-2.94120125e-02,4.87486124e-02,4.15256508e-02,
6.23095855e-02,1.65028460e-02,-3.28448601e-02,6.81302547e-02,5.68981282e-02,
7.92744756e-03,-4.62346859e-02,4.30674106e-02,3.68627720e-02,1.14922160e-02,
6.24886230e-02,-1.95771432e-03,-8.28291550e-02,-2.13404233e-03,-1.38999149e-02,
4.68334667e-02,-7.48683140e-02,8.23590383e-02,6.95572048e-02,-4.94528227e-02,
1.46805272e-02,5.19387014e-02,4.86511849e-02,-4.45008874e-02,-4.60592248e-02,
6.21369155e-03,6.28408343e-02,-1.18496511e-02,-8.15106183e-02,-3.08118295e-02,
5.88438241e-03,6.36611581e-02,4.80496660e-02,3.53624369e-03,-2.25135516e-02,
7.31829405e-02,1.90974921e-02,-6.43335506e-02,3.41576524e-02,3.64039317e-02,
4.04313542e-02,1.27572399e-02,-6.90197349e-02,5.62948175e-02,3.50804031e-02,
-5.36115691e-02,-6.10083081e-02,-5.81637397e-02,8.15235227e-02,-2.41928231e-02,
4.72685974e-03,1.74356196e-02,8.58197396e-04,-4.88741770e-02,5.68719991e-02,
5.49281165e-02,-1.33058736e-02,4.54579517e-02,-6.97332323e-02,-2.71102712e-02,
6.38198406e-02,-5.26736453e-02,1.68020390e-02,-4.17720452e-02,1.08231911e-02,
-5.08598164e-02,-3.04259583e-02,6.65984005e-02,5.44986725e-02,4.07308377e-02,
1.81296729e-02,-3.59329060e-02,7.99130127e-02,-3.76403369e-02,-8.61541256e-02,
1.96661390e-02,4.46350984e-02,6.49657920e-02,5.18855713e-02,-1.57915037e-02,
-7.92860016e-02,8.71731117e-02,2.34402604e-02,-5.21305986e-02,3.95551175e-02,
-8.27739537e-02,-2.53548585e-02,-5.56372479e-02,-7.28441924e-02,4.31701578e-02,
7.02566430e-02,3.49867530e-02,-1.45779811e-02,2.69450136e-02,-6.24931306e-02,
-7.80093074e-02,-7.55743235e-02,5.71182556e-02,-2.54860390e-02,-5.26784584e-02,
-3.30828130e-02,-1.27930641e-02,-6.67892247e-02,-4.29236814e-02,1.72806345e-02,
-2.02321429e-02,-6.13252595e-02,4.89830709e-05,2.85617616e-02,3.80122177e-02,
4.62160036e-02,7.22073317e-02,3.88826393e-02,-2.07275152e-02,7.56080449e-03,
1.88675448e-02,4.33520749e-02,-3.45800593e-02,7.70917460e-02,6.56281114e-02,
8.48281235e-02,3.13110724e-02,-8.36684331e-02,3.01327631e-02,5.67913018e-02,
4.57379371e-02,-3.44609991e-02,-5.68917021e-02,2.17190869e-02,-3.53576615e-02,
2.39289869e-02,7.05677420e-02,4.41412814e-03,-5.11177070e-02,-8.75202417e-02,
1.12721203e-02,3.51524241e-02,4.74410877e-02,6.46975785e-02,7.33869076e-02,
-3.15989405e-02,-7.06288964e-02,-2.65609361e-02,-6.00488596e-02,-5.34943677e-02,
-5.49320169e-02,-6.77589253e-02,-3.63006592e-02,-5.74304275e-02,-5.86583316e-02,
5.65508790e-02,5.96092921e-03,7.38388374e-02,4.18678783e-02,-3.61762680e-02,
6.63050637e-02,-2.41493564e-02,-2.75665428e-02,-6.00212701e-02,-4.04826067e-02,
4.07582847e-03,-4.62820344e-02,-3.08052748e-02,2.68521644e-02,2.07910724e-02,
2.09042872e-03,8.59693736e-02,-6.42626882e-02,-5.43395095e-02,7.64757469e-02,
4.91676629e-02,6.97678402e-02,3.68743017e-02,-7.09251687e-03,5.27557321e-02,
4.59285378e-02,4.87317145e-02,3.24358116e-03,-4.60353270e-02,-5.33520728e-02,
2.58175693e-02,1.31814638e-02,4.40476127e-02,-5.13637625e-03,-4.03448008e-02,
4.75524878e-03,4.47527207e-02,-3.85504179e-02,4.78275167e-03,-1.68414023e-02,
7.21247634e-03,2.95307226e-02,3.09067834e-02,1.25842551e-02,-4.27067615e-02,
-7.52508268e-02,-7.05390200e-02,6.38823137e-02,1.06090400e-02,-7.98809379e-02,
3.17242257e-02,-5.61996326e-02,6.67599887e-02,8.13044328e-03,-7.03490227e-02,
-3.03977877e-02,1.56719461e-02,-3.28957848e-02,5.37097678e-02,-6.47955611e-02,
5.88575751e-02,-2.04429347e-02,-6.46765605e-02,-2.53582187e-02,5.90579510e-02,
-4.79980670e-02,-4.30839173e-02,5.61814196e-02,-4.08660471e-02,2.38286220e-02,
8.20565000e-02,6.00074530e-02,-3.73709947e-02,1.63618382e-02,2.91613732e-02,
4.80426215e-02,-5.48938988e-03,-2.89346427e-02,1.79039184e-02,-2.97934394e-02,
-7.59500340e-02,-5.22002093e-02,1.64435301e-02,-5.99887110e-02,-6.17251061e-02,
7.52221644e-02,2.51849834e-02,-3.93038206e-02,-6.41915500e-02,4.40505333e-02,
2.92182267e-02,7.92958513e-02,-5.19378297e-03,-3.36687341e-02,-8.37394372e-02,
7.88581446e-02,-7.31325746e-02,7.36602116e-03,-2.56462442e-03,-4.22499096e-03,
-2.94604972e-02,-4.72151935e-02,-2.19257716e-02,4.45254296e-02,6.00802116e-02,
4.56409305e-02,3.78939286e-02,5.32219298e-02,5.77404201e-02,-6.48720637e-02,
-6.11635223e-02,6.84402734e-02,1.75482128e-02,-4.68910392e-03,-4.27478179e-02,
-6.72308877e-02,7.20375925e-02,3.54068279e-02,6.31339150e-04,-4.64341268e-02,
-8.78248811e-02,8.18190947e-02,6.44289553e-02,4.73725609e-02,-3.09180375e-02,
4.21929583e-02,-2.16763187e-02,1.43814282e-02,1.11744646e-02,-5.53658392e-05,
1.74300801e-02,2.32108887e-02,3.46238911e-02,8.09596702e-02,4.28463258e-02,
7.42153749e-02,-7.96746910e-02,-6.23880737e-02,7.69848302e-02,-1.10282516e-02,
5.69261238e-02,-7.91124925e-02,5.73371947e-02,7.32677057e-02,-4.15386446e-02,
6.50192574e-02,-8.15385729e-02,3.90993953e-02,5.82107976e-02,6.05506375e-02,
6.78740069e-02,5.59181198e-02,-1.00502521e-02,-2.39050686e-02,2.96473335e-02,
8.10204968e-02,-2.53394470e-02,-8.79205987e-02,-5.05786985e-02,-2.47691479e-02,
6.79936931e-02,-6.12525828e-02,4.60065082e-02,5.25197983e-02,3.87264192e-02,
5.16785420e-02,-5.01729082e-03,7.02611059e-02,-5.27022295e-02,-6.37078658e-02,
-1.28373681e-02,-7.56909996e-02,7.74300769e-02,6.27819002e-02,8.33137929e-02,
-3.77416387e-02,4.93216217e-02,4.65179756e-02,-7.01081008e-02,-3.04550622e-02,
5.55099733e-03,-5.26426509e-02,2.45640147e-02,2.27051303e-02,1.79649908e-02,
6.18495792e-02,-1.44828800e-02,7.83683434e-02,4.46421467e-02,-5.20316847e-02,
3.66146513e-03,2.10203175e-02,1.39274513e-02,-4.33620065e-02,-1.89344501e-04,
4.44303863e-02,7.16936365e-02,2.10593622e-02,-4.28663641e-02,-5.96976019e-02,
5.47656380e-02,-1.47458678e-02,-6.95684031e-02,-3.96070927e-02,8.79391730e-02,
-7.96430781e-02,7.46848211e-02,-6.45915344e-02,1.06821079e-02,-3.19273546e-02,
-6.24715425e-02,-6.75295889e-02,-4.55612615e-02,3.83803062e-02,-7.47862235e-02,
-8.24054480e-02,-4.39723767e-03,-2.33938228e-02,1.63027346e-02,-2.96396785e-03,
4.57319506e-02,5.92011400e-02,6.08713403e-02,-4.89699021e-02,-8.30820799e-02,
3.76657024e-02,2.55860090e-02,2.21402999e-02,-1.13335634e-02,-7.95530528e-03,
6.90161660e-02,-3.25161703e-02,-7.53345862e-02,-5.20264357e-03,-4.92224619e-02,
4.82597994e-03,5.53839803e-02,2.85810996e-02,7.04777837e-02,-5.13238907e-02,
6.67003095e-02,1.76440347e-02,3.81775051e-02,8.32763985e-02,6.68013841e-02,
5.68710864e-02,4.42449488e-02,4.19016965e-02,-3.70644918e-03,-5.48373722e-02,
-6.30741566e-02,-2.08751000e-02,9.84399859e-03,-6.82901144e-02,7.53429718e-03,
-3.91889513e-02,-8.57656598e-02,-4.44481112e-02,-2.00468563e-02,-1.77870635e-02,
5.69849350e-02,-1.32879866e-02,-3.21547128e-02,-1.93218887e-02,-6.17566379e-03,
1.10993413e-02,3.97612862e-02,5.23478836e-02,-3.36894915e-02,2.66498420e-02,
3.60308513e-02,7.81892166e-02,-6.04456142e-02,6.76473742e-03,-8.23095590e-02,
1.55989993e-02,-6.82322979e-02,4.36886102e-02,-8.34052786e-02,7.52754956e-02,
2.76179705e-02,-8.08505937e-02,-8.11475590e-02,-5.11563644e-02,7.84054548e-02,
-2.94026285e-02,-3.71542014e-02,5.91453277e-02,-1.51808616e-02,-3.10082957e-02,
-6.62908927e-02,-7.83240944e-02,-3.17971446e-02,-7.29285255e-02,-2.95590833e-02,
1.99051369e-02,-4.75973226e-02,-3.85076851e-02,7.21613914e-02,-3.43692191e-02,
3.33626308e-02,5.07091470e-02,-7.15421373e-03,6.32038713e-02,-8.13038275e-03,
-1.99298933e-02,7.15673119e-02,6.34049922e-02,-3.87114752e-03,-1.38299502e-02,
8.29092115e-02,-1.94123276e-02,-2.20073331e-02,-5.09381760e-03,-7.67459050e-02,
-7.85857737e-02,2.51523647e-02,3.42619717e-02,3.36730406e-02,3.42572690e-03,
8.21942389e-02,7.56624117e-02,5.32982918e-03,-2.02571880e-02,-8.32475349e-02,
-4.00836654e-02,1.23586971e-02,-8.36478695e-02,-3.19762789e-02,5.06897196e-02,
-5.62760793e-02,5.44805937e-02,4.26028632e-02,-5.39049767e-02,4.49067317e-02,
-7.68105537e-02,3.23369168e-02,1.63174570e-02,7.76746720e-02,2.46200375e-02,
-1.34790502e-02,2.19085086e-02,-3.00696027e-03,1.23316878e-02,6.31934330e-02,
3.68890800e-02,8.03479701e-02,-8.04275200e-02,7.96741322e-02,-8.51919577e-02,
-7.42971301e-02,-2.91259252e-02,-2.06060521e-02,2.24761898e-03,-7.62475133e-02,
-7.60446116e-02,-8.21097270e-02,8.21625516e-02,9.94075672e-04,-9.18575749e-03,
3.72371264e-02,4.51588668e-02,-7.31590390e-02,4.50697877e-02,-6.98275194e-02,
-7.39144087e-02,-6.99405149e-02,1.36194257e-02,6.13380559e-02,-1.47607434e-03,
4.83116880e-03,-4.54107411e-02,4.97124298e-03,-4.68330318e-03,-1.66906416e-02,
-1.03576574e-02,3.83007787e-02,-5.58504201e-02,2.02579387e-02,-2.22826079e-02,
-7.82208592e-02,7.48738721e-02,6.93608820e-02,-2.89328713e-02,-6.68770000e-02,
1.42149702e-02,2.60396544e-02,7.39349425e-02,1.84498858e-02,8.10081959e-02,
-4.14064787e-02,-7.93624446e-02,3.33213694e-02,3.83178778e-02,6.98172301e-02,
5.61993942e-02,5.36129959e-02,-1.32879978e-02,-7.91585743e-02,-8.19919705e-02,
5.15508167e-02,2.60135508e-03,-6.92848191e-02,1.22497855e-02,-7.42012337e-02,
5.36682904e-02,-7.46868998e-02,1.39351739e-02,-5.02874292e-02,2.06372477e-02,
-4.54729833e-02,-4.18486213e-03,4.01181839e-02,8.11897311e-03,1.99191254e-02,
4.45108265e-02,-1.70455091e-02,6.54529035e-02,-7.02544302e-02,-2.79961731e-02,
2.45834813e-02,-5.11634052e-02,7.15201870e-02,5.93249016e-02,-7.98294470e-02,
-4.24769633e-02,2.18128264e-02,-5.13199978e-02,-8.20674896e-02,-4.91349772e-02,
-3.41673568e-02,-2.33041476e-02,7.93808550e-02,2.25657672e-02,2.18665544e-02,
-7.60174692e-02,-7.11031780e-02,-7.57736042e-02,-6.30073473e-02,-2.78002489e-03,
7.65402019e-02,1.78488996e-02,-3.62880304e-02,6.16342872e-02,-3.52500081e-02,
5.36271892e-02,-6.32117838e-02,5.33865429e-02,-4.95184846e-02,-5.79161430e-03,
7.00567067e-02,-6.43214136e-02,7.92420730e-02,8.34915787e-02,7.59759694e-02,
-6.07822789e-03,-3.13515030e-02,8.51688758e-02,-4.91288081e-02,1.27240317e-02,
-3.82026099e-03,-6.33342192e-02,-7.27470964e-02,3.34584154e-02,-3.51027101e-02,
1.33049693e-02,-3.09445225e-02,-7.64054358e-02,-4.03305367e-02,1.24689620e-02,
5.68294674e-02,1.45639814e-02,-3.90894189e-02,-2.80421954e-02,7.55676255e-03,
3.64504033e-03,-1.90650355e-02,7.97524154e-02,1.10614588e-02,1.13133714e-02,
-1.04836579e-02,-2.12806277e-03,-5.22003360e-02,4.53616232e-02,8.07654783e-02,
7.21385702e-02,-9.22642741e-03,-7.53970221e-02,2.58131437e-02,-6.20989911e-02,
-2.78887264e-02,-1.93422772e-02,-7.40065649e-02,-5.21730147e-02,-8.36190209e-02,
-4.35264409e-02,-7.81558305e-02,-4.25753966e-02,-8.73833895e-02,-3.18433307e-02,
-7.93821439e-02,-6.48488998e-02,6.47305846e-02,-4.26479504e-02,3.91648561e-02,
-6.24636654e-03,-7.66676909e-04,-5.76341199e-03,-6.78482205e-02,2.29598917e-02,
2.74730637e-03,-4.55878899e-02,4.52840291e-02,6.70877695e-02,8.16812962e-02,
-5.93082793e-02,3.26503292e-02,-4.49827574e-02,4.44357730e-02,-3.62347737e-02,
-3.80472839e-02,1.45566761e-02,2.29374990e-02,2.74971072e-02,-4.51210141e-03,
3.44379805e-03,2.43003741e-02,-4.53503691e-02,-8.45265761e-02,-5.68453819e-02,
6.37469888e-02,-4.77720462e-02,8.13058317e-02,-7.09820092e-02,-6.62675872e-02,
8.36424157e-02,-1.24863023e-02,-2.23399438e-02,7.45622516e-02,3.86873707e-02,
-3.41154225e-02,6.33678809e-02,5.72437197e-02,4.85798530e-02,-3.31971459e-02,
8.98788124e-03,2.42309421e-02,3.65505815e-02,-4.89625409e-02,6.82851113e-03,
-2.61131357e-02,9.54827107e-03,6.58479035e-02,-2.95981411e-02,-1.26334624e-02,
4.12769057e-02,-6.06114157e-02,-5.29233590e-02,-6.43991455e-02,-2.48958413e-02,
7.01955557e-02,-7.36984704e-03,4.42752913e-02,8.13229531e-02,-7.74781778e-02,
5.37429005e-02,8.48636627e-02,-6.35156110e-02,-1.67510845e-02,5.05778790e-02,
3.21515910e-02,-1.87544022e-02,2.59490144e-02,5.56071587e-02,6.79897070e-02,
4.75406162e-02,-7.49902353e-02,3.07481643e-02,5.93802072e-02,8.92535783e-03,
7.88690802e-03,-2.85749547e-02,-2.81682927e-02,7.43218139e-02,2.58672815e-02,
-6.53829277e-02,1.51686734e-02,-2.30669533e-03,3.41053121e-02,-3.93016972e-02,
-5.33201173e-02,-8.62468854e-02,-6.28347695e-02,4.53254431e-02,-4.74966094e-02,
-7.26331100e-02,6.12857714e-02,1.84499379e-02,5.06343171e-02,2.67483220e-02,
-4.68789749e-02,5.14784157e-02,-9.81171522e-03,7.02822506e-02,1.14190746e-02,
-3.38089466e-02,5.54353185e-02,-5.02781495e-02,3.74129764e-03,7.19498172e-02,
-4.48971335e-03,3.63874845e-02,-5.57782575e-02,1.40099572e-02,-2.24329252e-02,
6.36660978e-02,-7.04028681e-02,-4.16570157e-02,4.77751270e-02,-2.39519239e-03,
8.18417966e-02,3.96860540e-02,-6.75367638e-02,2.59699789e-03,3.21789756e-02,
3.91080678e-02,-3.49330120e-02,-2.59984564e-02,8.24990422e-02,-5.82162216e-02,
5.16034849e-02,1.38653088e-02,-1.12562173e-03,3.42574008e-02,3.16550657e-02,
-5.04740700e-02,3.38842347e-02,-1.62480865e-02,-2.92634368e-02,-5.64470962e-02,
3.34077813e-02,-9.84539930e-03,-2.27703564e-02,5.62899793e-03,3.40692466e-04,
-6.40342459e-02,-6.56434819e-02,6.04027361e-02,-4.27709753e-03,-6.31272271e-02,
3.46987732e-02,-5.69957905e-02,-4.21439745e-02,3.99246998e-02,7.15385228e-02,
8.36753938e-03,-8.07263032e-02,-6.22022897e-03,-6.32179230e-02,3.47416289e-02,
4.65800650e-02,-6.48231879e-02,-7.17451498e-02,5.64110689e-02,-6.49495870e-02,
2.13917550e-02,8.15492719e-02,3.76798958e-02,-6.87910691e-02,-3.05192899e-02,
-3.13090533e-02,-6.68659732e-02,2.40537729e-02,-7.27621317e-02,9.10938159e-03,
3.22817527e-02,-5.48589192e-02,8.55129063e-02,6.81526512e-02,6.69397190e-02,
3.32351439e-02,-6.83670267e-02,2.37458926e-02,1.54680507e-02,-2.00483017e-02,
-1.57092419e-02,9.51233320e-03,4.15999256e-02,5.02674840e-02,-6.95849070e-03,
-6.38304800e-02,2.67885923e-02,6.90885112e-02,4.39565107e-02,3.88122760e-02,
-6.81824610e-03,2.05356255e-02,7.16611817e-02,-6.16846234e-02,-4.77841496e-02,
-7.82542974e-02,5.88494446e-03,-4.94563533e-03,6.34679869e-02,-2.36327294e-02,
-4.55933809e-02,-6.78665712e-02,4.26380709e-02,-8.15563202e-02,-1.95471031e-04,
7.26481229e-02,-5.83009012e-02,-6.56506792e-02,-7.83420727e-02,-6.89605698e-02,
6.24866076e-02,7.44772926e-02,2.61521507e-02,-9.86818690e-03,-7.92279541e-02,
-8.73603970e-02,-1.03808455e-02,-5.00536198e-03,-1.84822250e-02,6.78343698e-02,
-3.17608453e-02,1.55524397e-02,4.70384359e-02,3.18117294e-04,4.75359941e-03,
-5.14343828e-02,9.22910403e-03,8.39648917e-02,-3.98010053e-02,-6.36683851e-02,
-3.66897061e-02,-6.89021870e-03,3.17172296e-02,-2.31786314e-02,7.72827566e-02,
1.30048422e-02,7.87244514e-02,-5.19719087e-02,4.02494520e-02,-1.14820153e-02,
7.79969692e-02,-3.44333402e-03,-7.56764039e-02,9.65775084e-03,3.58695611e-02,
-3.32655152e-03,2.43483409e-02,3.53895314e-02,5.76279275e-02,1.25453202e-02,
2.25389972e-02,3.23203430e-02,-6.64360598e-02,-6.53637922e-04,4.11192365e-02,
7.70491511e-02,-1.16297016e-02,-4.86574881e-02,2.03565997e-03,-1.21380482e-02,
1.12908296e-02,8.55988823e-03,-5.33441268e-02,3.78444791e-02,8.64993110e-02,
1.00205615e-02,7.74540156e-02,6.60275444e-02,-4.60440516e-02,-1.19815618e-02,
1.09211728e-02,8.69602263e-02,-5.00073731e-02,8.34028870e-02,4.42074984e-02,
-5.21763377e-02,7.35028312e-02,2.49842331e-02,7.64253959e-02,5.41060083e-02,
-5.53241372e-02,7.32974112e-02,6.84668943e-02,-3.77593935e-02,7.16344342e-02,
4.10613790e-02,-3.48183848e-02,-5.20368628e-02,1.94154065e-02,2.71885954e-02,
-2.91273836e-02,7.32939169e-02,2.88442560e-02,-2.08317414e-02,8.18361193e-02,
1.19939903e-02,7.73001164e-02,2.28073876e-02,5.30421846e-02,-5.26108220e-02,
-5.50500974e-02,-2.10005101e-02,-6.15371726e-02,1.71200139e-04,7.48224854e-02,
5.61495200e-02,-5.92845604e-02,1.71961747e-02,6.23389259e-02,4.00308184e-02,
-8.78220722e-02,4.17870954e-02,4.50783260e-02,7.47953877e-02,3.59952413e-02,
4.73951250e-02,3.97493411e-03,-5.16169891e-02,-1.80441197e-02,2.24167630e-02,
3.92419100e-02,-3.84706184e-02,6.70686811e-02,2.44572796e-02,-4.97366041e-02,
8.14619064e-02,-1.14912586e-02,3.61152254e-02,-1.64680034e-02,7.08379671e-02,
-6.63081631e-02,-8.23310763e-02,-2.88152471e-02,6.47754520e-02,-4.86297309e-02,
-6.30954951e-02,-5.36076501e-02,5.11930604e-03,8.55552778e-02,-3.61678749e-02,
-6.61914673e-05,-6.13720492e-02,6.94196224e-02,5.70323765e-02,-3.89184952e-02,
-6.56298697e-02,7.58270025e-02,5.28034680e-02,-6.65249527e-02,-8.35032389e-02,
-2.22891197e-02,-7.06193820e-02,2.12610327e-02,7.95558393e-02,4.79579121e-02,
9.88020375e-03,4.74915802e-02,8.28762650e-02,-5.96107319e-02,7.86210969e-02,
5.44917248e-02,1.37870004e-02,-4.71563973e-02,-8.45246390e-02,6.60132756e-03,
3.53510305e-02,1.28913950e-02,4.85383235e-02,-6.72064573e-02,2.31225416e-02,
2.68596187e-02,-2.68655773e-02,-4.76957206e-03,2.12534741e-02,-7.56864250e-02,
4.10469100e-02,-2.69392878e-02,-2.69629676e-02,-3.62308919e-02,4.27353382e-02,
-5.13167344e-02,-6.18083626e-02,4.65205461e-02,-4.59967442e-02,-7.86217898e-02,
5.58068417e-03,7.58827329e-02,-7.08258059e-03,-7.80359954e-02,3.33722346e-02,
-7.59252459e-02,-6.91322749e-03,1.64061692e-02,-8.12588558e-02,-6.79718480e-02,
7.51221851e-02,-5.86289726e-02,-3.44715938e-02,4.35268171e-02,-6.81694523e-02,
-4.71260138e-02,5.72483242e-03,1.78939884e-03,2.15040073e-02,7.57858008e-02,
8.09506252e-02,-5.75918034e-02,6.92826882e-02,-3.93176042e-02,3.68636660e-02,
1.66317560e-02,6.80205924e-03,1.81657393e-02,-1.66468956e-02,8.69861431e-03,
-7.93906078e-02,-6.81643263e-02,-4.38545570e-02,-8.08012635e-02,8.17679707e-03,
2.29855403e-02,5.38620614e-02,4.95352957e-04,7.50794336e-02,-1.92198195e-02,
-5.39092347e-02,1.82740577e-02,8.09715241e-02,2.82391589e-02,-3.04704793e-02,
-5.50199263e-02,-6.53466061e-02,-4.25811633e-02,8.70723277e-02,1.92921236e-02,
-4.56533469e-02,-4.37965393e-02,-1.44384634e-02,8.65284428e-02,-5.55562973e-02,
4.19976600e-02,-2.01286338e-02,1.43226059e-02,-6.43830672e-02,2.12938972e-02,
6.23983033e-02,5.77814877e-03,5.34475446e-02,8.28379542e-02,4.30219546e-02,
-9.10345931e-03,7.38641620e-02,-6.81110546e-02,-4.44554053e-02,-7.50717893e-02,
5.25477119e-02,4.55447845e-02,2.71713678e-02,-2.55528167e-02,-5.61680235e-02,
8.36737901e-02,-2.52159592e-03,2.45579947e-02,-8.42245296e-02,2.94353366e-02,
-1.53703503e-02,-7.66090676e-03,6.68252110e-02,-1.40567692e-02,-1.33515373e-02,
-7.55058229e-02,5.57642020e-02,1.42067187e-02,-6.19978877e-03,1.90363675e-02,
6.53141662e-02,5.41020297e-02,-6.64180219e-02,1.65659282e-02,9.02378582e-04,
4.09790687e-02,2.55484357e-02,1.90591551e-02,-3.77238244e-02,3.03943045e-02,
-2.05783974e-02,7.94483349e-02,-4.90023345e-02,-7.22978860e-02,-3.73193286e-02,
-5.41604236e-02,-4.68110666e-02,-5.48122711e-02,-1.29391793e-02,-6.04517311e-02,
-4.96269157e-03,-4.86696586e-02,6.34613857e-02,1.80389602e-02,3.73409763e-02,
-3.58113833e-02,-1.47518888e-02,6.62461445e-02,9.91115626e-03,-6.40422404e-02,
7.21371546e-02,-3.90194841e-02,6.65025190e-02,-4.22892487e-03,-3.57937962e-02,
-7.04071447e-02,-9.42735292e-04,8.42500776e-02,-6.66483864e-02,-2.90532131e-02,
1.19733708e-02,7.03356937e-02,7.99320936e-02,-3.45235802e-02,4.98688631e-02,
7.75500685e-02,-6.89343512e-02,-1.81231480e-02,-5.23428731e-02,-6.27319515e-02,
8.06260034e-02,-7.24134445e-02,5.67209497e-02,-6.46537095e-02,-4.02478054e-02,
3.32442559e-02,-6.63763657e-02,7.46963099e-02,-4.26240414e-02,3.60721573e-02,
-6.08102269e-02,6.54211966e-03,8.23842064e-02,-7.52155259e-02,3.79482023e-02,
8.03331286e-02,4.10411730e-02,6.91787302e-02,-6.90186098e-02,-5.06004579e-02,
9.83468071e-03,6.69235662e-02,5.84311076e-02,-8.43652114e-02,2.83466224e-02,
-3.58731300e-02,-6.31237328e-02,-5.00723533e-02,5.89548126e-02,-2.08196454e-02,
-2.63906363e-02,6.89644814e-02,4.52100299e-03,9.56646618e-05,-4.84816022e-02,
-2.99943928e-02,2.31237859e-02,3.19072679e-02,4.77000736e-02,-8.13663378e-02,
6.44992199e-03,2.75128279e-02,3.73900086e-02,-2.90247425e-02,-5.91242723e-02,
-6.19851202e-02,-5.65504692e-02,6.11492544e-02,-7.77962655e-02,1.31072272e-02,
2.11658869e-02,-5.31629063e-02,1.29693309e-02,1.99756343e-02,4.59216908e-02,
1.32177933e-03,-4.66086827e-02,4.15004008e-02,7.35973269e-02,2.13035829e-02,
7.62389600e-02,8.67704898e-02,-4.16733064e-02,5.48227765e-02,-5.50666861e-02,
-6.07002936e-02,-8.46894085e-02,4.81844656e-02,-4.51707393e-02,1.89222675e-02,
-6.41607344e-02,4.39402498e-02,-7.11511150e-02,-2.80472636e-02,7.62992129e-02,
-5.89754023e-02,-5.12848794e-02,2.02540215e-02,3.64365296e-05,-2.56236177e-02,
-8.02283585e-02,3.47566232e-02,-6.32057991e-03,-3.88485938e-02,8.16427842e-02,
3.00313570e-02,2.22255681e-02,-1.57638397e-02,5.60522713e-02,4.82084155e-02,
5.32223023e-02,1.80191752e-02,3.95321809e-02,-3.88838053e-02,-3.83273065e-02,
3.36734168e-02,-5.57516776e-02,-3.01413536e-02,5.41080013e-02,-2.10424215e-02,
1.45597281e-02,5.58450706e-02,2.39065643e-02,-6.60687909e-02,1.33179091e-02,
4.02665101e-02,-1.79825407e-02,-4.28492799e-02,-5.45388274e-02,6.88870475e-02,
-7.60780275e-02,-7.14777932e-02,5.57192378e-02,-2.10754871e-02,-7.34715685e-02,
-5.09311296e-02,8.69277418e-02,3.01452447e-02,6.84049577e-02,-4.70545143e-02,
-4.42070588e-02,6.46610633e-02,1.60885435e-02,-7.24452958e-02,-6.52012303e-02,
-4.56065387e-02,-7.77481124e-02,-2.76573673e-02,-7.38621354e-02,-3.35839912e-02,
6.12272788e-03,3.45766433e-02,8.05437937e-02,1.02422992e-02,-7.17658848e-02,
-5.30704260e-02,5.60919382e-03,1.69331711e-02,-6.57403320e-02,1.74267087e-02,
5.58766834e-02,2.64936518e-02,3.61147826e-03,4.17490043e-02,-3.35150212e-02,
-3.05822734e-02,-7.67677948e-02,-1.87048092e-02,4.82586324e-02,-7.24108052e-03,
-1.23437047e-02,7.67945945e-02,-5.80767207e-02,6.49494603e-02,1.30217094e-02,
8.14550817e-02,-3.21721211e-02,-3.44583355e-02,8.33819285e-02,1.73283722e-02,
6.35375408e-03,7.00255632e-02,-4.61994819e-02,-7.55655691e-02,6.25200272e-02,
6.51635379e-02,-5.25264442e-02,-6.60319552e-02,1.12325558e-03,4.83448505e-02,
6.18547536e-02,-1.33131882e-02,4.46975864e-02,4.43532318e-02,3.39324921e-02,
-8.16914812e-02,-2.25152797e-03,8.49063396e-02,6.85985461e-02,5.32929227e-02,
8.82959459e-03,-3.60085517e-02,-6.07352667e-02,-5.17138327e-03,-7.39635155e-02,
-2.81115249e-02,7.76482299e-02,-6.23711199e-02,-6.01454079e-02,-4.42483090e-02,
-3.95048708e-02,-2.68639959e-02,5.27120791e-02,-8.45862851e-02,-8.99643730e-03,
7.95992538e-02,-6.50250316e-02,8.17278214e-03,-7.71624669e-02,6.28034920e-02,
-2.27442337e-03,-5.66041097e-02,-1.51313925e-02,4.59461026e-02,-1.98436007e-02,
1.00140553e-03,8.57050123e-04,6.48189038e-02,-4.68174107e-02,4.56835963e-02,
-3.29352953e-02,-3.07293795e-02,7.80947432e-02,-3.62590961e-02,2.10879697e-03,
8.29238966e-02,-5.29237464e-02,5.11101894e-02,-6.08867593e-02,7.80148357e-02,
-4.99102622e-02,-4.72902767e-02,-1.24479237e-03,8.14961046e-02,2.14450750e-02,
-1.70664620e-02,1.07858293e-02,1.31244138e-02,4.10385095e-02,1.90091711e-02,
1.26740849e-02,-8.00113007e-03,-5.89210019e-02,6.39150292e-02,7.08376691e-02,
-1.94457988e-03,-3.03178206e-02,-8.33838284e-02,3.96866500e-02,3.34701501e-02,
4.35218066e-02,-3.43909953e-03,9.81116854e-03,2.62723472e-02,-2.53572222e-03,
3.84883247e-02,-4.26017679e-02,-4.29305620e-02,6.59087971e-02,-1.29623506e-02,
2.46551335e-02,3.41606513e-02,-5.84088964e-03,8.15411806e-02,7.59043992e-02,
3.21488455e-02,5.74087761e-02,1.67139713e-02,-1.34427659e-02,-5.08294543e-05,
6.46504909e-02,5.61764985e-02,-1.41284252e-02,-3.07115503e-02,7.50614479e-02,
1.24696328e-03,7.48474821e-02,5.60709387e-02,6.16318472e-02,5.15148900e-02,
-3.00487932e-02,-8.27966351e-03,6.03542849e-03,-4.60710302e-02,-5.08684590e-02,
-5.21846227e-02,3.30433138e-02,-8.40859264e-02,2.58529396e-03,1.19992997e-02,
7.78456628e-02,2.03599725e-02,-8.06575045e-02,-6.71925172e-02,1.37360422e-02,
-3.35044488e-02,1.63311008e-02,6.60064369e-02,4.70178910e-02,-7.81619456e-03,
4.38350849e-02,-1.65398940e-02,7.26859272e-02,-1.00482851e-02,-3.63628902e-02,
-2.80421576e-03,9.34921578e-03,5.40410392e-02,-3.19062790e-04,-8.49032253e-02,
-5.33310510e-02,-6.53693751e-02,8.27195868e-02,-4.32434632e-03,-2.70770062e-02,
1.47076296e-02,-3.33826542e-02,-1.17258802e-02,6.78285435e-02,-2.88882423e-02,
1.01664430e-02,3.33897173e-02,5.89515120e-02,-6.64856806e-02,-7.45528042e-02,
7.86064416e-02,4.53949906e-03,5.72233461e-02,-2.80219573e-03,5.77981994e-02,
-3.46131101e-02,-8.17208961e-02,-7.14231431e-02,-7.35165402e-02,5.34200855e-02,
2.64381841e-02,-3.71034741e-02,7.41196573e-02,2.13675853e-02,5.31206056e-02,
6.04481734e-02,3.98760363e-02,2.23563127e-02,-8.04720148e-02,5.18726977e-03,
8.33611339e-02,-8.46375304e-04,-4.93127815e-02,-7.99624622e-02,-1.43784992e-02,
3.26197557e-02,-1.85895581e-02,1.59028359e-02,5.39716072e-02,-6.05868362e-03,
8.28274414e-02,-6.49687871e-02,4.24865894e-02,-7.85668343e-02,-6.48284480e-02,
-4.15757410e-02,7.12973103e-02,-7.34743550e-02,4.06237952e-02,-2.33653337e-02,
-2.27369852e-02,6.12462126e-02,7.02495351e-02,4.66662459e-02,8.52793269e-03,
5.37791215e-02,4.77119349e-03,6.94295764e-02,-1.08930953e-02,-5.19986115e-02,
6.89984187e-02,3.61806303e-02,6.19853102e-02,1.00982217e-02,-5.64531013e-02,
8.49875137e-02,7.84762725e-02,2.14437898e-02,-2.15045419e-02,7.94640258e-02,
5.98367415e-02,2.57692635e-02,8.23204592e-02,5.17874472e-02,3.37712355e-02,
7.13214427e-02,8.01844597e-02,1.15475571e-02,-8.41829106e-02,6.68723807e-02,
7.28654163e-03,-2.83653922e-02,-7.25504430e-03,6.08526245e-02,-6.96790218e-02,
-5.21441922e-02,6.82323147e-03,5.73874414e-02,-7.00693130e-02,-2.42948104e-02,
-1.51899038e-02,-1.08688856e-02,5.98061569e-02,-8.19095597e-02,-4.19268832e-02,
-3.83007005e-02,4.91341874e-02,7.96528161e-02,-9.35423933e-03,5.75137511e-02,
-3.11214980e-02,-5.90624623e-02,-8.55153352e-02,-2.62896027e-02,-8.08463469e-02,
5.80937304e-02,6.67928606e-02,-2.69908141e-02,-1.97799355e-02,7.35974461e-02,
7.15725943e-02,-2.21102708e-03,-6.12971699e-03,6.91553354e-02,2.46043447e-02,
-8.00833404e-02,-4.55656126e-02,5.82168344e-03,-8.23859796e-02,-8.77350643e-02,
6.37071878e-02,-2.58975029e-02,3.22554931e-02,-3.90396602e-02,-6.64866045e-02,
1.98865049e-02,4.09577191e-02,8.72115418e-03,-2.16282695e-03,2.79859677e-02,
1.39076738e-02,-3.97005938e-02,-7.45813847e-02,-4.50650714e-02,-7.77546037e-03,
2.24939231e-02,-3.70467268e-02,2.86087226e-02,-8.07200372e-02,6.32454678e-02,
-4.15814556e-02,-2.04623514e-03,-4.08705883e-02,2.43604966e-02,-8.19997862e-03,
-1.62666216e-02,7.75517672e-02,6.52504861e-02,2.52004769e-02,2.66658999e-02,
-6.49937615e-02,1.21308665e-03,2.53397319e-02,-2.81514004e-02,8.73258896e-03,
-2.97257733e-02,7.99684301e-02,-8.15257952e-02,3.76774780e-02,4.37267649e-04,
-8.08792263e-02,-3.60096619e-02,3.42848375e-02,8.22507292e-02,3.87497880e-02,
-7.37555847e-02,3.85131687e-02,1.52741065e-02,-4.67782803e-02,1.04106893e-03,
-5.24214730e-02,4.06603031e-02,-3.08239693e-03,4.40499410e-02,4.37437743e-02,
1.78917740e-02,2.28662100e-02,4.64694612e-02,-5.33712246e-02,-3.94951738e-02,
6.70595691e-02,-3.76313888e-02,-8.32092464e-02,8.11216980e-02,-1.77744478e-02,
-1.17480522e-02,-1.56517327e-02,8.05534795e-02,3.76938209e-02,6.33830726e-02,
3.10555636e-03,6.21665902e-02,5.58554828e-02,-7.07597882e-02,-7.99356326e-02,
5.86373471e-02,7.65707716e-02,5.80762140e-02,1.06526364e-03,2.86089946e-02,
-3.64791416e-02,3.83150801e-02,7.54742101e-02,2.40195617e-02,4.31018583e-02,
-8.08518901e-02,-7.65098538e-03,-1.33226407e-04,4.80496027e-02,-7.03666508e-02,
-8.23757872e-02,4.69866097e-02,-8.66218582e-02,-5.35608456e-02,5.72714508e-02,
5.52243553e-02,7.78334960e-02,8.51857513e-02,-3.05883884e-02,4.79925200e-02,
6.02121353e-02,-5.12812845e-02,2.87521165e-02,-6.75387383e-02,5.94784832e-03,
-1.26143033e-02,3.88020393e-03,-8.22678283e-02,7.17150196e-02,-2.39233226e-02,
-2.54049879e-02,-3.46969478e-02,-8.39433447e-02,1.77202821e-02,8.72392431e-02,
-2.40896903e-02,-5.33529967e-02,-6.81736395e-02,-2.89892871e-02,2.51898766e-02,
-5.18126450e-02,-5.83401844e-02,-2.45131720e-02,3.07650026e-02,2.37543173e-02,
6.08640388e-02,6.09718412e-02,6.88308999e-02,4.51915488e-02,1.04904398e-02,
-4.18664403e-02,-2.09725089e-02,4.50985394e-02,5.24777994e-02,6.18543383e-03,
-8.16094503e-02,6.93434104e-02,7.14187548e-02,7.51548260e-02,-5.47077022e-02,
-2.04962958e-02,-7.33114108e-02,-6.17389120e-02,-3.77758518e-02,-7.25434944e-02,
2.41308901e-02,5.56787960e-02,2.96478793e-02,9.14207194e-03,1.70089323e-02,
-6.91881701e-02,7.66075402e-02,4.62147631e-02,8.25451240e-02,-3.11478153e-02,
1.66672245e-02,-3.08954976e-02,-2.38841143e-03,-3.20867524e-02,-7.16493204e-02,
5.08628078e-02,6.20227456e-02,4.24755691e-03,7.26187229e-02,-5.75126261e-02,
-2.93708611e-02,-5.67613840e-02,-1.47208981e-02,-4.11875062e-02,-3.85502614e-02,
-5.99279851e-02,-3.84245962e-02,7.84075037e-02,7.80326501e-02,-3.56339961e-02,
5.89369126e-02,8.43452066e-02,2.83746831e-02,-5.75272962e-02,-5.34136891e-02,
6.71527013e-02,-7.86537305e-03,4.94462214e-02,6.16840273e-02,8.56064707e-02,
1.86513178e-02,-3.84247415e-02,6.92909881e-02,-5.59906801e-03,6.75288960e-02,
-1.75465588e-02,-7.91823864e-02,5.58836618e-03,-6.87603801e-02,-3.49914767e-02,
4.12759110e-02,5.54124489e-02,2.84722890e-03,1.07568863e-04,3.48718511e-03,
-2.45679691e-02,7.27791712e-02,7.90248215e-02,4.44528088e-02,4.22835872e-02,
5.44600096e-03,-4.66921628e-02,-3.79967131e-02,-7.70923719e-02,-1.42709620e-03,
1.38149932e-02,7.31719658e-02,6.66567907e-02,4.90573868e-02,7.56583512e-02,
6.91526905e-02,5.51235937e-02,-2.94224229e-02,-4.35966030e-02,1.02254525e-02,
2.13105921e-02,1.58270840e-02,-1.28428359e-02,2.68575065e-02,6.14540055e-02,
1.61589179e-02,-5.09134540e-03,-5.06883897e-02,7.59012327e-02,-1.54136736e-02,
6.99486062e-02,-1.30347861e-02,7.83076789e-03,-6.23183744e-03,3.33964080e-02,
-5.77144511e-02,-1.67819615e-02,-5.69207557e-02,5.22866957e-02,7.10802898e-02,
5.12765907e-02,-3.31035890e-02,4.13725376e-02,7.67039061e-02,3.70293222e-02,
-2.10413467e-02,1.80972051e-02,-7.25965872e-02,-3.37443640e-03,4.83795069e-02,
-4.27631922e-02,6.01519085e-02,5.58918491e-02,-5.85285202e-02,5.37035242e-02,
-8.35677534e-02,-7.58646503e-02,-1.78747680e-02,-5.26735038e-02,7.01544434e-02,
6.60329461e-02,-7.20740631e-02,-1.38389757e-02,-6.19462281e-02,-2.45046429e-02,
4.02779803e-02,8.75186697e-02,4.70390655e-02,2.82620043e-02,4.84037586e-03,
-6.77497461e-02,-4.44790535e-02,7.65664354e-02,7.55035207e-02,6.25619143e-02,
-6.82512894e-02,-2.24967394e-02,3.11922710e-02,-3.38099673e-02,6.96287975e-02,
-7.09228143e-02,-3.85274440e-02,-1.90677214e-02,-3.86537537e-02,6.47569820e-03,
2.89748367e-02,-3.54871973e-02,8.22165534e-02,-2.81131696e-02,-3.81842852e-02,
-7.63067007e-02,-8.34103078e-02,6.46156594e-02,-1.40703786e-02,-5.19675575e-02,
-3.02289929e-02,7.16338083e-02,5.12706526e-02,3.15700583e-02,2.05424801e-02,
-2.10943948e-02,-5.20915501e-02,-1.33532546e-02,5.93175143e-02,2.98920088e-02,
-4.57939245e-02,5.85610094e-03,-8.68647993e-02,-6.50148094e-02,-7.18297288e-02,
2.32757721e-02,8.22196379e-02,4.66234470e-03,-2.21590027e-02,6.93882033e-02,
-1.15364119e-02,-5.24999425e-02,6.11885078e-02,-5.93280420e-02,-2.27947012e-02,
-5.83406724e-02,-8.80907010e-03,-4.78204824e-02,4.98128422e-02,3.98435816e-02,
-7.43177533e-02,-2.40589143e-03,7.76728764e-02,4.90517057e-02,-2.73304675e-02,
2.04773359e-02,-5.81221841e-02,-6.70427233e-02,-5.19995913e-02,-2.47928575e-02,
-2.39651490e-06,-1.92216635e-02,1.40667753e-02,2.93722395e-02,8.09690207e-02,
-1.95868183e-02,-3.70367579e-02,1.25928894e-02,2.91771796e-02,-6.88547269e-02,
-6.07461669e-02,-1.43005501e-03,-8.19685534e-02,4.39726040e-02,-7.95585662e-02,
-3.47696692e-02,-7.61796385e-02,7.42729101e-03,-5.06144986e-02,-5.90385981e-02,
-6.70806738e-03,3.54354642e-02,9.10096522e-03,-8.22171420e-02,4.69181277e-02,
7.24657020e-03,-3.27239223e-02,3.14503126e-02,-4.14270796e-02,1.31479884e-02,
1.30659435e-02,8.67843777e-02,7.91547894e-02,-1.20800547e-02,-6.19947612e-02,
-2.05295254e-02,-7.01701716e-02,4.55456451e-02,-1.70949735e-02,1.12524759e-02,
-4.71064448e-02,6.97031841e-02,4.12325040e-02,6.20185658e-02,-6.02270383e-03,
-4.31308746e-02,-6.67483732e-02,6.79606646e-02,7.24626929e-02,4.09032777e-02,
-6.03179038e-02,1.76518429e-02,5.69628663e-02,-4.22245227e-02,1.72314867e-02,
-8.14172849e-02,6.89566955e-02,8.57122988e-02,-7.56703243e-02,3.59414779e-02,
-7.48571083e-02,-9.45775025e-03,7.65842199e-02,-6.01562224e-02,-6.74879700e-02,
-7.58766830e-02,-5.60679734e-02,5.81909232e-02,-4.23489586e-02,4.32977006e-02,
1.02254748e-03,-8.35902765e-02,-3.57687064e-02,-6.67174235e-02,4.70043160e-02,
-2.03880500e-02,1.83621217e-02,2.90021300e-03,8.28462187e-03,-3.03798039e-02,
3.94675918e-02,2.38477103e-02,9.12063697e-04,-6.93102702e-02,-1.63010042e-02,
8.83746669e-02,-4.04247157e-02,2.19158940e-02,2.90482827e-02,-4.06018551e-03,
7.06494525e-02,-8.52725953e-02,6.35125116e-02,-7.55296499e-02,4.36341166e-02,
5.34624495e-02,-1.86351668e-02,4.59974892e-02,8.06404352e-02,-2.57848180e-03,
-6.31366223e-02,-4.37434316e-02,6.25090525e-02,5.86387180e-02,-8.33558291e-02,
5.42927608e-02,-7.73852691e-02,7.86442980e-02,3.56613882e-02,-8.15702379e-02,
3.77884582e-02,-4.99191992e-02,5.36667742e-02,-5.39831035e-02,4.05775523e-03,
-1.51570020e-02,-4.23543043e-02,-2.31633559e-02,6.89748153e-02,1.70900337e-02,
-2.70601548e-02,7.30252918e-03,6.95760921e-02,-8.28092471e-02,1.81719044e-03,
-3.60653028e-02,-7.69017935e-02,5.21549881e-02,-6.77832887e-02,-7.76894689e-02,
-6.94034696e-02,1.40406294e-02,-1.71939600e-02,6.03154935e-02,4.43372019e-02,
-1.77156348e-02,-4.76206765e-02,4.58509326e-02,-1.01088434e-02,3.58940586e-02,
-5.36567122e-02,2.16011051e-02,-2.97537073e-03,4.42109704e-02,8.72698948e-02,
-6.85991496e-02,-2.37969160e-02,-3.53196003e-02,-2.02512220e-02,-2.90953647e-02,
8.41083750e-03,-8.30711499e-02,-5.42296618e-02,2.61435863e-02,3.90992947e-02,
-7.39188269e-02,-7.67145352e-03,2.69648638e-02,-2.67438665e-02,3.40304635e-02,
-2.21453048e-02,-7.04476237e-02,-4.96348888e-02,7.41657568e-03,7.86579773e-02,
5.06862737e-02,-1.41110653e-02,4.30349186e-02,-4.57323901e-02,5.35667725e-02,
6.83657005e-02,-6.28767759e-02,4.29921458e-03,7.09560663e-02,-7.82801211e-02,
-5.71696125e-02,-7.01041818e-02,-4.54812832e-02,-8.35961488e-04,-7.29771182e-02,
5.07924445e-02,-2.67767929e-03,2.97114090e-03,-7.38743171e-02,3.49074788e-02,
-3.69509794e-02,-7.59403333e-02,4.44203578e-02,-4.70492989e-02,-8.17875117e-02,
7.56273791e-02,3.81046794e-02,7.19030201e-02,-4.29890454e-02,7.58846402e-02,
-3.20855603e-02,4.50354181e-02,1.52864913e-02,-4.56722379e-02,1.75031684e-02,
6.89862818e-02,3.95629369e-02,8.45104307e-02,6.92606643e-02,-4.61608507e-02,
1.58676170e-02,-1.03526767e-02,-8.56982823e-03,5.69523424e-02,-2.68436316e-02,
-3.89559716e-02,8.42829794e-02,5.81482872e-02,2.62893327e-02,3.25876772e-02,
-7.22561553e-02,-1.27282739e-02,-3.96070629e-02,2.11464986e-02,1.34277763e-03,
3.21570486e-02,-2.42983643e-02,-3.88479084e-02,6.90739742e-03,5.02413549e-02,
6.91277683e-02,5.32527119e-02,-2.83368677e-03,-2.57023647e-02,-2.44701318e-02,
-3.82403024e-02,-6.36418313e-02,6.36115372e-02,-4.62849475e-02,3.83022428e-02,
-6.09527193e-02,5.44320606e-02,1.49531383e-02,6.17270209e-02,-4.34034988e-02,
4.84816357e-02,6.82896078e-02,-8.49037338e-03,2.77485922e-02,-5.63762374e-02,
-3.08647174e-02,-6.07796162e-02,-2.28101797e-02,-1.11556184e-02,-2.65568513e-02,
4.71900217e-02,-8.64881799e-02,-5.91565520e-02,6.96733296e-02,6.86868578e-02,
-1.68917682e-02,3.88484746e-02,-1.76745350e-03,-7.94071779e-02,2.58584246e-02,
-4.99585234e-02,3.47772315e-02,3.45538519e-02,7.68345222e-02,2.16990765e-02,
1.89584047e-02,-4.26199175e-02,-4.42487709e-02,8.26671198e-02,5.55812940e-02,
5.22921160e-02,-6.83946311e-02,4.61190790e-02,7.85479620e-02,-7.17009455e-02,
-6.42516688e-02,-8.87914281e-03,2.25821454e-02,-6.36126921e-02,1.63309183e-02,
-1.33619169e-02,-5.31715639e-02,-5.96857890e-02,3.22416574e-02,-1.53711056e-02,
-4.83074524e-02,-4.03900221e-02,7.27165341e-02,1.98458481e-04,-3.51496078e-02,
6.53532222e-02,-7.64993653e-02,-4.85339127e-02,-3.93822528e-02,-7.98713788e-02,
-3.62748578e-02,-3.45052481e-02,7.30832219e-02,-3.86834443e-02,-3.62915359e-02,
-6.26304299e-02,6.50236011e-02,3.08744144e-03,-6.62495801e-03,-1.73676237e-02,
-6.23154156e-02,8.23287889e-02,-5.15765883e-02,6.84586540e-02,1.92606989e-02,
1.50185097e-02,2.40636710e-02,7.84925744e-02,8.22571442e-02,-5.96309416e-02,
-8.51415247e-02,3.93623859e-02,-6.31863177e-02,2.89052520e-02,-8.50828886e-02,
-6.57581612e-02,5.19307293e-02,-5.30313514e-03,-6.05381206e-02,-8.37297551e-03,
7.34813586e-02,-7.27275982e-02,4.23634052e-02,8.20487551e-03,5.23974895e-02,
2.58533936e-02,-5.55456392e-02,3.31133902e-02,1.25615746e-02,-4.28991579e-02,
9.21675004e-03,-3.78353186e-02,-5.05905412e-02,-2.51677004e-03,3.14871501e-03,
5.38332053e-02,2.23096460e-03,-7.67952576e-02,-6.58672377e-02,-4.63113114e-02,
-7.84050971e-02,4.32038866e-02,6.27216622e-02,-8.33450817e-04,1.08172251e-02,
-8.00937563e-02,-2.27222424e-02,7.49454200e-02,-4.42696847e-02,3.64611186e-02,
-2.38901041e-02,-4.35811840e-02,-3.85421067e-02,1.13011170e-02,-2.12317966e-02,
-3.75049822e-02,-4.23368998e-02,-2.68840585e-02,3.59144993e-02,4.72414456e-02,
3.15869390e-03,1.01962751e-02,7.16671422e-02,5.14773875e-02,-1.53065696e-02,
2.87206075e-03,-6.89249858e-02,-2.19969563e-02,5.05283400e-02,-2.13783979e-02,
1.04969880e-02,4.18151692e-02,6.78291097e-02,-9.67579894e-03,2.58502625e-02,
-6.99960813e-02,-6.87403306e-02,-7.31490031e-02,-5.32649904e-02,-1.53959682e-02,
7.12685212e-02,-1.60540454e-02,5.21661565e-02,-4.32939529e-02,-2.38234289e-02,
-1.36029252e-04,-1.62209477e-02,8.28692317e-02,-6.69070929e-02,-2.95377895e-03,
8.42264947e-03,4.43871021e-02,2.35659983e-02,6.87005445e-02,-3.39387842e-02,
4.68102023e-02,-2.08056048e-02,-4.24827822e-02,4.26541492e-02,-4.66453247e-02,
1.12158302e-02,3.12300678e-02,6.59378916e-02,-3.35378945e-02,7.88570642e-02,
3.75886261e-02,-3.39109115e-02,-2.37326324e-02,-7.15170354e-02,-5.45974635e-03,
-7.20499754e-02,-7.45806843e-02,-2.86189802e-02,-8.30393136e-02,2.75082421e-03,
-2.00210009e-02,-2.37405044e-03,5.67731308e-03,1.01649538e-02,7.37217963e-02,
-2.38530394e-02,-6.39078021e-02,-5.25690205e-02,-6.72307387e-02,-8.79441202e-02,
4.45868298e-02,-7.77007341e-02,7.74307922e-02,-7.96583593e-02,-6.45871460e-02,
-2.44331304e-02,2.85142474e-03,-5.61742345e-03,-1.03884507e-02,7.96329081e-02,
7.91957676e-02,6.75171465e-02,-5.13906814e-02,5.14112599e-02,4.72654887e-02,
-6.43075705e-02,-6.66724797e-03,-5.11059910e-03,8.28569662e-03,5.84040023e-02,
6.36286065e-02,-7.83052742e-02,7.62115717e-02,-7.29033723e-02,8.58920813e-02,
-7.93589838e-03,6.54597282e-02,-6.58386946e-02,-8.64572823e-02,-7.20172003e-02,
-2.83993296e-02,2.59894077e-02,-4.60993312e-02,-1.92184979e-03,6.33251294e-02,
3.64512578e-03,7.54591301e-02,-4.65302579e-02,-7.53252059e-02,-2.19111759e-02,
-9.09390021e-03,6.84062243e-02,5.65554686e-02,-7.26995170e-02,8.14731792e-02,
-6.40830696e-02,1.47213219e-02,7.65287802e-02,-6.34956509e-02,8.31322521e-02,
-8.20354894e-02,7.78316928e-04,-6.88858181e-02,8.09961706e-02,-6.99874908e-02,
-1.58137009e-02,7.65638798e-02,-4.64444561e-03,-3.82365547e-02,-5.03882132e-02,
-6.00283556e-02,6.43996671e-02,3.90260667e-02,6.58201799e-02,-3.78220305e-02,
1.84567850e-02,-7.04505593e-02,5.94107397e-02,-2.75815744e-02,-2.32799035e-02,
3.89756113e-02,7.46896490e-02,-7.04310536e-02,2.18108241e-02,3.38927074e-03,
-6.90384582e-02,1.07782020e-03,-1.52227785e-02,4.23314486e-04,2.03339513e-02,
-4.88669686e-02,-5.46695944e-03,-2.11464558e-02,2.39391550e-02,1.23468097e-02,
-4.76714447e-02,-1.85872819e-02,2.22577862e-02,2.95084948e-03,6.99005509e-03,
-2.54158322e-02,-5.44415787e-02,-1.35392770e-02,3.09006282e-04,-2.85823122e-02,
-3.30903269e-02,-3.88397314e-02,4.70822304e-02,1.69647727e-02,-3.25411707e-02,
-3.00051440e-02,-4.84230444e-02,-6.94323555e-02,-3.54318395e-02,-7.47319609e-02,
-1.53032122e-02,2.58471053e-02,5.45117892e-02,7.01952353e-02,8.08778107e-02,
-6.75986409e-02,1.78814260e-03,6.42116070e-02,4.60587591e-02,-7.28342608e-02,
-1.37607232e-02,-8.24507251e-02,4.06273901e-02,-3.61873172e-02,-7.71770030e-02,
1.82207320e-02,-8.41671377e-02,-1.27566466e-03,-2.92008035e-02,-7.90208802e-02,
-2.50884574e-02,-3.40404920e-02,8.70965945e-04,3.11028156e-02,-4.39894907e-02,
4.09576856e-02,-6.58312738e-02,2.67538503e-02,-2.78104637e-02,-8.61613676e-02,
3.91219072e-02,7.10192546e-02,4.41838019e-02,2.15129443e-02,6.76864460e-02,
-1.02726761e-02,8.13726410e-02,-1.95662603e-02,5.30508682e-02,-6.20082058e-02,
-6.22158907e-02,-7.25554600e-02,3.32024135e-02,-6.48253560e-02,-4.27604690e-02,
-3.43895219e-02,3.07498816e-02,-1.45960152e-02,-8.33350942e-02,-6.90111332e-03,
5.22334352e-02,3.49259526e-02,-2.17445754e-02,3.03295366e-02,-1.01651615e-02,
1.78551339e-02,-5.69310859e-02,-2.77138278e-02,4.87816446e-02,6.86699599e-02,
-2.34431438e-02,-1.10597652e-03,-1.07571427e-02,2.34984867e-02,-2.37270817e-02,
-3.74403559e-02,-2.23853439e-02,-1.39860800e-02,2.80543491e-02,-2.00628047e-03,
-4.04630080e-02,4.65545245e-02,-8.64201859e-02,-2.79672835e-02,-7.38440305e-02,
3.27063464e-02,6.70455024e-02,-7.91640282e-02,-1.07692853e-02,8.30709562e-02,
-3.95879224e-02,8.46011266e-02,8.38832483e-02,6.17471198e-03,-4.68918085e-02,
-5.57324663e-02,-1.71067026e-02,4.32849526e-02,-1.98946260e-02,7.33207762e-02,
-4.68356945e-02,4.06114645e-02,-4.70910035e-02,-6.13076203e-02,-6.28255829e-02,
-3.80864404e-02,6.59434125e-02,-2.44312483e-04,7.25859627e-02,-3.23448777e-02,
7.28721544e-02,-6.77719247e-03,4.67769094e-02,-1.86995920e-02,-2.45145913e-02,
3.98863293e-03,-2.07410157e-02,6.46377802e-02,-5.32550253e-02,-3.08756083e-02,
4.31196578e-02,-6.83746785e-02,-1.35037536e-02,7.62365684e-02,6.60310015e-02,
8.93681590e-03,-2.95936428e-02,-5.70689701e-02,-1.40126906e-02,-3.87392677e-02,
-6.15015365e-02,-3.08737233e-02,3.49457376e-02,7.97572359e-02,-6.80658594e-02,
-1.82303821e-03,-6.64159134e-02,7.58154839e-02,4.50076535e-02,-3.55199873e-02,
1.56045081e-02,4.32526879e-03,-3.72898788e-03,5.17201461e-02,-1.17777921e-02,
8.21337402e-02,-5.46769537e-02,4.17749025e-03,1.45514607e-02,-6.46382943e-02,
-7.37380013e-02,1.47582563e-02,-2.49596778e-04,-7.68707320e-02,6.96485937e-02,
1.76006407e-02,-6.87080845e-02,-1.40347369e-02,-8.37205499e-02,-2.44743247e-02,
-7.64496550e-02,-9.35884193e-03,-3.30064483e-02,2.55703591e-02,-2.53945123e-02,
-1.93218738e-02,4.25011031e-02,2.60140728e-02,4.87734228e-02,-7.14384839e-02,
-5.28721064e-02,5.48380539e-02,-5.43227606e-02,7.38990083e-02,-6.79032281e-02,
7.65899196e-02,4.52912413e-02,-3.02221663e-02,5.34927323e-02,4.16801460e-02,
-2.31109429e-02,-2.29446422e-02,7.77264610e-02,-4.32300121e-02,6.48080325e-03,
3.14046443e-02,-1.97862908e-02,-6.55362234e-02,2.49487963e-02,-6.78111538e-02,
-7.72781521e-02,2.88396403e-02,4.29650545e-02,-1.00711444e-02,2.89709251e-02,
-8.30434635e-02,-8.03123638e-02,4.39498723e-02,3.76486382e-03,-7.87898004e-02,
-1.72231570e-02,8.29138979e-02,-6.60103559e-02,3.89919318e-02,4.65908498e-02,
2.81776069e-03,-4.07707915e-02,-5.79148009e-02,2.51021627e-02,-5.92765808e-02,
-6.26093224e-02,-7.51898214e-02,7.02221841e-02,-4.15217020e-02,4.21378165e-02,
4.12919186e-02,6.57681227e-02,7.41702542e-02,-2.24233866e-02,-6.26849532e-02,
6.56616176e-03,1.18444972e-02,4.70326208e-02,-4.04835641e-02,-7.68778920e-02,
1.99671462e-02,2.32712589e-02,-5.05670309e-02,-6.70341924e-02,-5.71325645e-02,
6.28110617e-02,3.71878222e-03,4.68906155e-03,-2.97094397e-02,4.81459685e-02,
-4.16814014e-02,1.58577152e-02,5.30967442e-03,3.05319708e-02,5.89715354e-02,
-4.39510215e-03,-1.41170491e-02,-8.17612335e-02,5.47568034e-03,-1.56897195e-02,
-3.06473318e-02,5.05800061e-02,2.29798676e-03,6.93943202e-02,-1.33472187e-02,
5.58640398e-02,1.34137524e-02,4.12896425e-02,-9.72954556e-03,-1.20224701e-02,
4.39688265e-02,1.91115104e-02,-9.41413362e-03,-1.57847386e-02,-5.49682863e-02,
1.70149393e-02,4.56346050e-02,-5.89122660e-02,7.28981569e-02,-4.94166203e-02,
7.60529414e-02,1.81716448e-03,-4.13152389e-02,-1.58247314e-02,-5.97586483e-02,
-6.64047003e-02,-5.84419779e-02,-7.71820620e-02,-6.81795329e-02,-7.09674284e-02,
7.89606795e-02,-4.85079512e-02,-6.48493916e-02,-7.28802681e-02,-8.02865997e-02,
6.73138872e-02,3.26856831e-03,-5.44436797e-02,2.75868867e-02,5.83287664e-02,
8.26060027e-03,-7.51422998e-03,-5.64186200e-02,-4.08527255e-02,-7.59034455e-02,
-3.30768488e-02,8.03400278e-02,5.55854589e-02,1.45171033e-02,8.09787139e-02,
-5.69115803e-02,-5.88589311e-02,-8.22368711e-02,1.72592532e-02,6.06544800e-02,
8.91957432e-03,-2.08137706e-02,-2.69264225e-02,4.63069081e-02,7.22428039e-02,
-3.68840992e-02,6.52155504e-02,-8.82110000e-03,-4.31778245e-02,7.66734630e-02,
-1.23571986e-02,-2.76009385e-02,6.81462884e-02,-2.86457054e-02,7.70115480e-02,
-1.18982932e-02,-3.85962874e-02,2.84790639e-02,-3.37939896e-02,1.87773176e-03,
4.14390340e-02,4.41125780e-02,-1.93384886e-02,2.88303010e-02,3.71101387e-02,
-3.62664685e-02,-1.25131139e-03,3.39859352e-02,3.12338248e-02,4.43380252e-02,
-2.33109090e-02,-2.07285956e-02,1.48264067e-02,-5.35487905e-02,6.10173754e-02,
-2.32991725e-02,-7.12655708e-02,5.08368462e-02,-3.72856669e-02,1.79862045e-02,
4.86053154e-03,1.82096008e-02,-5.44580184e-02,-8.43409151e-02,-5.78914247e-02,
