#include <math.h> 
 #include <string.h> 
#include "./include/k2c_include.h" 
#include "./include/k2c_tensor_include.h" 

 
static struct FRNN_0D_small_static_vars 
{ 
float lstm_1_state[400]; 
} FRNN_0D_small_states; 


void FRNN_0D_small(k2c_tensor* input_1_input, k2c_tensor* dense_1_output) { 

float lstm_1_output_array[200] = {0}; 
k2c_tensor lstm_1_output = {&lstm_1_output_array[0],1,200,{200,  1,  1,  1,  1}}; 
float lstm_1_fwork[1600] = {0}; 
int lstm_1_go_backwards = 0;
int lstm_1_return_sequences = 0;
float * lstm_1_state = FRNN_0D_small_states.lstm_1_state; 
float lstm_1_kernel_array[11200] = {
-6.75382167e-02,-6.04877882e-02,-6.46876395e-02,1.37560628e-02,3.78792509e-02,
1.95078403e-02,-4.50269841e-02,6.30344376e-02,2.72712130e-02,-8.06609541e-02,
2.12917998e-02,4.54439335e-02,4.63280603e-02,4.19027023e-02,2.66556032e-02,
3.43619995e-02,-1.04417205e-02,6.83699101e-02,-2.64462996e-02,-5.29697835e-02,
6.41153976e-02,2.03011911e-02,-3.24292593e-02,7.46503249e-02,-4.67934422e-02,
-6.26100376e-02,-6.42763637e-03,3.64164747e-02,-2.08148155e-02,-4.62115072e-02,
-2.33780611e-02,4.54271100e-02,-7.57352561e-02,6.32895157e-02,8.45546350e-02,
5.47194941e-05,-7.50962179e-03,-5.52058928e-02,1.04021560e-02,5.31198755e-02,
6.37315139e-02,-5.65655567e-02,-8.15369487e-02,5.04329391e-02,1.81097612e-02,
1.11274151e-02,5.03799506e-02,-8.45631510e-02,8.77097249e-03,4.24901731e-02,
-3.40037197e-02,-1.48512889e-02,6.13038838e-02,-2.59718765e-03,2.80837361e-02,
3.46077560e-03,-7.33146146e-02,5.70448413e-02,2.92198383e-03,-7.00988322e-02,
-5.75296655e-02,5.59457131e-02,1.75862759e-02,2.55706813e-02,-4.78049880e-03,
2.79895496e-02,-5.60666509e-02,-9.41806883e-02,8.42469335e-02,-8.58527571e-02,
-4.38887700e-02,5.08341081e-02,5.11002243e-02,-8.28079581e-02,-4.26266566e-02,
1.13134757e-02,8.97745043e-03,-6.85620904e-02,1.96527108e-03,3.55616561e-03,
-6.05782084e-02,-5.21280766e-02,-3.93329076e-02,1.56600494e-02,-7.63364211e-02,
-5.65537810e-03,-6.99386792e-03,-2.12599263e-02,5.52111119e-02,-4.65460122e-02,
2.69529107e-03,-1.99293606e-02,6.27747625e-02,-5.31622246e-02,-2.04440355e-02,
7.15870261e-02,-8.34610984e-02,-4.87231929e-03,6.67058006e-02,-8.74061733e-02,
2.48154588e-02,-5.65101430e-02,5.22481464e-02,7.85060674e-02,2.85178069e-02,
-1.56233450e-02,-5.77607639e-02,5.70881763e-04,-7.47368634e-02,-2.97608413e-02,
-5.76586761e-02,2.00057197e-02,7.22981468e-02,5.43927103e-02,6.81028068e-02,
3.46652716e-02,-7.07854778e-02,-8.49230331e-04,-3.70988920e-02,-9.11442488e-02,
-5.55512356e-03,-1.64651833e-02,-6.90917484e-04,-1.28562259e-03,6.66457191e-02,
-8.69889408e-02,-6.11555614e-02,-8.50436557e-03,6.57630265e-02,-3.11150448e-04,
4.37459350e-02,6.04991578e-02,-9.50145244e-04,6.74817935e-02,3.65687683e-02,
2.02759169e-02,1.30411414e-02,-5.35672233e-02,-5.52687421e-02,-3.67156304e-02,
-8.59422982e-02,3.16131823e-02,-3.59036326e-02,1.70644131e-02,1.72521006e-02,
-1.73354894e-02,5.06366156e-02,-7.65931755e-02,-7.72096962e-02,-1.86219458e-02,
-7.95194134e-02,-6.24506362e-03,-5.63116856e-02,-2.35402994e-02,-3.78856286e-02,
-7.04458877e-02,6.49450645e-02,6.84948191e-02,4.98280525e-02,2.99353916e-02,
-8.87222309e-03,4.74806875e-02,4.70790043e-02,-4.20254022e-02,-7.40515441e-02,
-4.79536271e-03,-5.45281544e-02,1.61278322e-02,-1.25444802e-02,-5.81967644e-02,
6.39130324e-02,7.40167499e-02,4.00863439e-02,6.60767034e-02,-8.63608047e-02,
7.52190500e-02,7.90278614e-02,-8.15458372e-02,3.02500781e-02,-1.89695845e-03,
-4.25122790e-02,8.48675054e-03,4.54545319e-02,-7.32558444e-02,-2.52142567e-02,
-4.23044264e-02,5.92341572e-02,-7.65436515e-02,-2.62198299e-02,5.22059947e-02,
-5.45419492e-02,7.53135532e-02,4.21830639e-02,5.68658076e-02,7.49683976e-02,
6.80401251e-02,-1.35233831e-02,8.15566815e-03,3.53135727e-02,5.66434301e-02,
-2.26011872e-02,-4.00134623e-02,3.96132320e-02,7.40197375e-02,4.50420268e-02,
-3.88058834e-02,1.89241972e-02,4.56186458e-02,3.44464704e-02,5.75965419e-02,
-4.85362709e-02,-1.81882083e-02,-5.50928079e-02,4.11202945e-02,-3.85436565e-02,
7.08926022e-02,3.53407264e-02,-2.03278102e-02,3.60225588e-02,2.05407925e-02,
7.51206698e-03,2.49994546e-02,-1.67562161e-02,5.42216375e-02,-4.07831520e-02,
7.81501606e-02,4.55441363e-02,-5.69107793e-02,-5.89638650e-02,-2.72353198e-02,
4.62161675e-02,4.61463109e-02,-4.01314199e-02,5.80127127e-02,4.73780371e-02,
-8.89252648e-02,-1.25359828e-02,-1.79265290e-02,-3.96201797e-02,-4.91842739e-02,
4.69789691e-02,-9.37080383e-02,-2.26180162e-02,8.11037049e-02,7.89983943e-02,
3.76436114e-02,4.54685017e-02,3.11668147e-03,-3.99093293e-02,-6.41087517e-02,
3.10610663e-02,6.93147853e-02,8.27603042e-02,2.22625770e-02,-7.28824809e-02,
-8.64050239e-02,-2.83618290e-02,-6.37605116e-02,-8.87216553e-02,3.61491404e-02,
2.96379160e-02,-3.13969553e-02,-7.67277777e-02,7.73843154e-02,-4.59702536e-02,
-6.80047199e-02,-1.38166761e-02,5.28342798e-02,-5.73874004e-02,4.19185422e-02,
7.59110507e-03,-9.76835261e-04,-3.46138254e-02,2.62863226e-02,3.34060453e-02,
-2.83527561e-02,-8.59414041e-02,-6.00275621e-02,7.55990064e-03,-2.22832281e-02,
-7.59146065e-02,1.34390630e-02,7.04965293e-02,7.22167939e-02,-8.07867199e-02,
-4.90313806e-02,-1.33239888e-02,5.96940285e-03,5.31166755e-02,-8.67276639e-03,
-7.85366669e-02,7.25454316e-02,-8.10086802e-02,4.89484286e-03,4.72961962e-02,
-3.57970931e-02,-8.64971802e-02,2.32808739e-02,-5.98124713e-02,4.10929844e-02,
2.78691053e-02,-6.75821975e-02,2.74305362e-02,-7.85472523e-03,1.20933428e-02,
6.76522702e-02,-5.94498254e-02,-1.27078369e-02,-5.22526987e-02,3.02156098e-02,
7.83740431e-02,3.94832268e-02,-3.63839753e-02,2.09882073e-02,2.68868613e-03,
1.58841966e-03,-2.64906622e-02,-5.54877101e-03,-5.39415516e-02,4.07068664e-03,
-3.02521307e-02,6.64647073e-02,-1.31720109e-02,-2.28102151e-02,-2.26646494e-02,
-9.03878286e-02,8.52943212e-03,5.45489229e-02,2.35208981e-02,7.15902373e-02,
3.45399082e-02,4.36639003e-02,-2.82204244e-02,-5.12403287e-02,3.98232564e-02,
-1.56686418e-02,-4.14920636e-02,-6.30049109e-02,-7.50363469e-02,3.12974975e-02,
-4.03115340e-02,4.98364232e-02,-5.18285893e-02,3.53421494e-02,7.84207433e-02,
3.98058742e-02,-6.56035244e-02,-5.04595041e-02,-5.62338941e-02,3.35926414e-02,
-8.16256031e-02,3.62025350e-02,5.34650460e-02,7.18887746e-02,-6.55848607e-02,
2.00629104e-02,-7.95780197e-02,-3.93253639e-02,2.06409916e-02,-4.47622240e-02,
-6.71258941e-02,-4.59085144e-02,3.24106589e-02,4.53625992e-02,-8.18016231e-02,
6.14847802e-02,-3.89438085e-02,1.52010936e-02,-4.11091261e-02,5.97298108e-02,
5.79997934e-02,1.90079119e-02,6.58714846e-02,-6.07178994e-02,-2.27477700e-02,
-5.63276606e-03,-3.27422954e-02,6.12492748e-02,-9.12142023e-02,6.61191940e-02,
-8.26787800e-02,-1.16131129e-02,-2.85693295e-02,-3.17745358e-02,7.72272795e-02,
4.65223454e-02,-1.63978450e-02,-6.45315694e-03,-8.31044018e-02,-7.36900419e-02,
7.47231022e-02,-3.40656713e-02,-4.48322948e-03,6.54353499e-02,3.82320164e-03,
5.33092245e-02,-3.92630138e-02,-3.72877158e-02,5.13726436e-02,-5.35899438e-02,
-1.59068417e-03,6.31814301e-02,4.57675941e-02,4.58386429e-02,6.47509098e-02,
-7.07494169e-02,-3.09506734e-03,-5.80721460e-02,3.71591114e-02,9.01722461e-02,
-7.31650889e-02,8.07833374e-02,2.66934559e-02,-6.50619119e-02,6.67485893e-02,
-3.60689871e-02,-8.73105079e-02,4.81899008e-02,-8.10965449e-02,-3.40490006e-02,
-6.06689276e-03,-5.09117395e-02,6.91459328e-02,-6.35850728e-02,5.95245101e-02,
2.40574125e-03,-6.76255161e-03,2.61903219e-02,-7.75131583e-02,-8.52321684e-02,
5.06980456e-02,-9.50794853e-03,-8.98801833e-02,5.21876775e-02,-7.32419454e-03,
-4.85056750e-02,1.67795364e-02,-1.16032241e-02,-8.52669217e-03,-7.92047232e-02,
7.26680309e-02,6.39932752e-02,-4.61068042e-02,5.32677211e-02,1.03503466e-02,
8.62665940e-03,8.53853300e-03,2.52993274e-02,-7.14011341e-02,7.68056884e-02,
-1.60381366e-02,6.82321116e-02,4.16468494e-02,-5.09015061e-02,-7.09511116e-02,
-6.93876389e-03,-5.20348661e-02,2.29655709e-02,6.59711435e-02,5.17733917e-02,
-5.99924549e-02,4.64418828e-02,2.73589045e-02,-5.67829944e-02,-4.48979363e-02,
-1.53010227e-02,8.21324959e-02,7.82978833e-02,-8.80633369e-02,-2.85332128e-02,
-1.66069728e-03,-4.46326546e-02,5.38376579e-03,-2.47466173e-02,-8.36521685e-02,
-2.04849318e-02,6.90213069e-02,-2.96110231e-02,-4.28659171e-02,1.17602227e-02,
-1.23672234e-02,6.82403520e-02,-8.97748992e-02,-6.69867992e-02,-8.46568048e-02,
-2.26182565e-02,-4.13895585e-02,3.85518111e-02,-1.13370195e-02,-2.18434762e-02,
-6.82836175e-02,-1.12743266e-02,-3.93971577e-02,2.20446335e-03,-1.38778826e-02,
-1.69620477e-02,-7.71442279e-02,-4.30413708e-02,1.81312524e-02,-8.98519531e-02,
3.74774449e-02,-3.23040746e-02,-6.35032654e-02,-5.64809069e-02,-5.29015251e-02,
4.97412309e-02,2.45605111e-02,1.15154143e-02,7.58951902e-02,8.25820863e-02,
-6.49372861e-02,1.77334826e-02,2.64784154e-02,-6.70491531e-02,-5.15443869e-02,
2.58149169e-02,-8.91558006e-02,4.47899997e-02,-6.60052747e-02,4.29040752e-02,
2.64858641e-02,-4.24151914e-03,4.94972654e-02,-8.05934817e-02,-2.01923009e-02,
1.54192066e-02,5.66830225e-02,6.39872327e-02,2.71744113e-02,-2.53693368e-02,
4.85338792e-02,-1.82024874e-02,2.66064350e-02,3.26308422e-02,4.86234091e-02,
1.23081030e-02,-2.20876210e-03,-3.45798396e-02,7.62306750e-02,-2.10334770e-02,
-5.43144755e-02,4.54321243e-02,2.98957247e-02,8.45673122e-03,-5.33009209e-02,
-2.24870984e-02,-6.70103123e-03,-6.31530583e-02,3.92303616e-02,6.50399476e-02,
6.64286911e-02,6.43591955e-02,4.10592593e-02,-2.68116593e-02,2.11647712e-02,
5.97265065e-02,1.04204705e-02,-7.81399384e-02,7.48995692e-02,-4.53415178e-02,
6.64039422e-03,5.05761802e-03,-8.24988559e-02,-8.64448845e-02,9.07732546e-03,
7.19645992e-02,2.29839538e-03,-5.78828789e-02,-7.28588700e-02,-6.13593459e-02,
-4.89130542e-02,3.05918716e-02,1.63853858e-02,5.02230600e-02,-3.46405059e-02,
-6.31649196e-02,-8.43093097e-02,7.11233169e-02,-5.54533787e-02,-3.29009295e-02,
1.55028980e-02,-1.29472427e-02,5.00104278e-02,1.44248530e-02,-6.86482862e-02,
-5.01508638e-02,6.32274747e-02,-7.49458149e-02,4.74177413e-02,3.84810567e-02,
7.79944062e-02,2.99140606e-02,-5.40456027e-02,5.52123599e-03,-2.37942263e-02,
7.04140663e-02,6.26146570e-02,9.18384641e-02,-7.18561187e-02,7.09456354e-02,
-8.04045796e-02,3.85436118e-02,2.62729414e-02,-8.31932053e-02,8.42365474e-02,
4.30575237e-02,-1.17220059e-02,3.27044539e-02,-5.30793853e-02,-6.21932596e-02,
-1.42142456e-02,-2.58455742e-02,2.29421468e-03,-3.61531451e-02,-4.06889729e-02,
-4.19696756e-02,-6.13177288e-03,2.27959808e-02,-2.93084164e-03,-3.25948894e-02,
2.81699058e-02,2.33378522e-02,5.73269129e-02,6.45591691e-02,-1.53582375e-02,
3.26034687e-02,-2.02342365e-02,-9.35030752e-04,-4.09243666e-02,-9.23549943e-03,
5.04757240e-02,-3.16852555e-02,5.68829216e-02,-6.81141615e-02,-4.24359739e-02,
-4.22811322e-02,-5.39450571e-02,1.04471650e-02,3.40712257e-02,3.77755053e-02,
4.81470115e-02,-2.28309706e-02,-6.15220051e-03,4.41944338e-02,-1.57088749e-02,
2.79203989e-02,6.84957728e-02,2.41620536e-03,4.20784540e-02,-4.85989824e-02,
-3.53556015e-02,2.35340036e-02,8.22636262e-02,5.71671687e-02,-7.16672391e-02,
1.38506584e-03,-8.69466737e-02,-8.63810815e-03,5.19253984e-02,5.14053367e-03,
-4.50840145e-02,5.10732308e-02,-1.88983716e-02,-3.33584286e-02,-6.71100095e-02,
-6.59199283e-02,7.28461798e-03,5.86870238e-02,9.04544257e-03,-8.84489343e-02,
-8.52857605e-02,-3.62109728e-02,-2.99101649e-03,-1.90753955e-02,-5.27097285e-02,
1.71687622e-02,-1.50924744e-02,6.46224394e-02,-1.55977169e-02,3.93309072e-02,
5.47041511e-03,5.81637323e-02,1.25523219e-02,-7.82443583e-02,-6.65678978e-02,
-5.60320616e-02,-6.88531697e-02,-4.41351607e-02,-6.66231588e-02,-8.59384462e-02,
-5.09513989e-02,-5.82755357e-02,-2.90256971e-03,2.66229082e-02,-5.61860092e-02,
4.69358861e-02,2.68356707e-02,3.43176946e-02,2.74129678e-02,5.00558130e-02,
5.81638590e-02,-7.20814019e-02,-5.62857985e-02,-4.54105716e-03,-4.71005999e-02,
2.13628579e-02,6.91631287e-02,-4.15233262e-02,-3.18470635e-02,-4.36211340e-02,
-3.70211676e-02,-1.17867729e-02,5.86113036e-02,1.50369946e-02,-5.40264649e-03,
2.99092773e-02,2.30704006e-02,7.34662935e-02,-4.79222015e-02,5.02552725e-02,
2.15341710e-02,-1.77951455e-02,-5.38120158e-02,3.80075201e-02,-4.14217040e-02,
-3.39816464e-03,5.39272167e-02,-6.29202351e-02,2.62647979e-02,7.06998110e-02,
-4.51922901e-02,-7.07810968e-02,-4.30220179e-02,-4.21219058e-02,6.89801350e-02,
6.93587512e-02,1.12847164e-02,-2.22144108e-02,6.39625564e-02,-3.10911443e-02,
6.67084605e-02,5.86582832e-02,1.54469935e-02,5.31698652e-02,-9.68779065e-03,
-3.12668458e-02,5.68399997e-03,-8.63207504e-03,-6.82477579e-02,-2.74298936e-02,
3.12074702e-02,-7.07494840e-02,1.31493537e-02,-2.35360414e-02,-4.90876734e-02,
-6.77804798e-02,-2.31189765e-02,-2.12722216e-02,-5.40916622e-02,9.90285724e-03,
2.53976472e-02,6.73966408e-02,3.30265872e-02,8.31803679e-02,-5.16604483e-02,
-4.63114046e-02,-2.93637849e-02,-6.99688345e-02,7.52655491e-02,-8.61604363e-02,
-4.33437228e-02,1.62061248e-02,-8.78524929e-02,1.92495473e-02,7.61750489e-02,
7.77475610e-02,5.00044376e-02,-5.65017685e-02,-5.94676472e-02,7.69109605e-03,
-2.26594005e-02,-6.70086890e-02,6.29716441e-02,-7.55803362e-02,-8.49867165e-02,
-2.90062241e-02,-3.42489704e-02,-6.92982823e-02,-1.40600177e-02,-8.10901225e-02,
-4.12694365e-02,2.70913206e-02,4.70350869e-03,4.98716831e-02,-2.59520058e-02,
-7.90851414e-02,-6.93954602e-02,1.91987716e-02,1.67054906e-02,-1.50963822e-02,
-5.02309762e-03,7.87668861e-03,1.90714304e-03,-1.39785319e-04,-2.60420125e-02,
-8.01306590e-02,-3.73373186e-04,4.44242097e-02,2.62287129e-02,4.02125418e-02,
6.58829063e-02,-3.69315892e-02,2.57125143e-02,-5.75053990e-02,1.85962506e-02,
2.73981318e-02,-2.17812713e-02,7.31479824e-02,2.46355636e-03,-2.20501814e-02,
-2.50919051e-02,-3.74843192e-04,7.28678778e-02,-7.46077001e-02,5.75181544e-02,
7.20334724e-02,1.39381150e-02,3.96155603e-02,6.54795766e-02,-6.23217225e-02,
-5.77221140e-02,-4.97196987e-02,2.78161746e-03,3.85482237e-02,7.24525005e-02,
-3.62245068e-02,-6.70071393e-02,1.19424807e-02,-9.14421156e-02,-2.12565828e-02,
6.00415189e-03,1.46274210e-03,-3.22125591e-02,8.57593194e-02,-1.08421491e-02,
-2.72829346e-02,-3.86467553e-03,-4.64278832e-02,5.69327101e-02,-1.03966733e-02,
5.76285459e-03,7.07816854e-02,-3.89425084e-02,3.41498889e-02,-1.22603662e-02,
2.09014397e-02,2.18637902e-02,-1.08817797e-02,1.98635608e-02,-1.14901299e-02,
-6.22880645e-02,2.56632660e-02,7.42687434e-02,-6.89641386e-02,-4.96988483e-02,
6.52169585e-02,2.65032314e-02,6.92453086e-02,8.49393979e-02,2.41825227e-02,
-2.75795776e-02,3.35950293e-02,5.30180521e-02,4.53910325e-03,-4.99196313e-02,
-3.79117541e-02,9.23379324e-03,4.08111550e-02,-6.88408986e-02,2.05524010e-03,
-8.73472393e-02,-5.91273233e-02,-6.88740313e-02,3.48125808e-02,3.54421162e-03,
-5.95013089e-02,5.73540144e-02,-3.62387225e-02,-5.11806235e-02,-6.96524605e-02,
-5.45212552e-02,3.86649347e-03,-8.57491493e-02,5.86924739e-02,4.77281734e-02,
4.36677150e-02,6.95815384e-02,1.62594002e-02,2.94766203e-02,5.13480864e-02,
3.10465205e-03,-9.80989449e-03,-2.47126408e-02,9.91588738e-03,5.82865216e-02,
3.86674218e-02,-6.90775551e-03,5.34958318e-02,6.57194182e-02,-3.21436534e-03,
-5.32238325e-03,4.22511846e-02,1.55606298e-02,2.28176955e-02,2.50945352e-02,
7.20757768e-02,-8.47728364e-03,5.15789445e-03,-3.89033630e-02,-3.70637663e-02,
-8.69717002e-02,-7.10003823e-02,-8.18486065e-02,6.66969344e-02,-8.12507570e-02,
7.17656687e-02,2.61560343e-02,-4.77129221e-02,-6.59271050e-03,1.01680225e-02,
7.92586356e-02,-3.43126059e-02,-1.49091659e-02,-4.93403971e-02,-5.29835839e-03,
-5.02477959e-02,3.39125656e-02,5.18175848e-02,2.32613590e-02,8.19124132e-02,
-2.09582951e-02,8.59283470e-03,-1.71537008e-02,-5.26971817e-02,3.96804232e-03,
-5.29577062e-02,-8.68117213e-02,-7.39856511e-02,-6.82601705e-02,2.07573120e-02,
-2.45596804e-02,3.11555732e-02,-3.59059125e-02,5.83555782e-03,-2.13356614e-02,
-2.59733517e-02,5.72033189e-02,4.37962897e-02,2.99195517e-02,5.43857813e-02,
-1.66526120e-02,-5.80532774e-02,-9.60292369e-02,2.21160427e-02,-1.16201509e-02,
6.58138394e-02,-9.09075588e-02,1.64670553e-02,-2.77271750e-03,-1.83509029e-02,
-2.39947494e-02,7.23998696e-02,3.17565650e-02,6.48592338e-02,6.44601136e-02,
-9.22897086e-02,3.74606252e-02,-2.08220296e-02,-2.37841196e-02,-1.53416209e-02,
-3.18908431e-02,-2.42189206e-02,8.08985680e-02,-3.85203515e-03,4.88321483e-03,
6.70403317e-02,5.46974204e-02,-6.75429329e-02,-3.67288478e-02,7.25534931e-02,
-7.29436893e-03,2.23107580e-02,5.31653389e-02,-5.91118708e-02,-6.49154708e-02,
7.21421763e-02,-4.64403108e-02,-7.61184655e-03,5.02645932e-02,-6.19047284e-02,
-5.14771193e-02,1.69602514e-03,5.14880680e-02,8.09998512e-02,-5.94144017e-02,
8.12249854e-02,7.56193623e-02,-6.70509338e-02,8.18070769e-02,2.22978555e-02,
-4.88002598e-02,-5.25627062e-02,7.26312101e-02,-8.04784819e-02,-8.67011175e-02,
2.78602913e-02,2.87192175e-03,2.34637726e-02,-5.62892929e-02,3.43358889e-02,
8.42107087e-02,4.53800857e-02,6.41925558e-02,4.73830700e-02,-1.57048870e-02,
-1.69046130e-02,-1.06654493e-02,2.31502447e-02,-2.40082592e-02,-2.15832721e-02,
-2.88935415e-02,-3.89515534e-02,3.55707817e-02,7.95051455e-02,4.81862873e-02,
4.13554609e-02,1.94654204e-02,-5.37540130e-02,-2.69142892e-02,-2.08125561e-02,
5.96157610e-02,-8.83355811e-02,-6.85035512e-02,7.55712464e-02,-3.94446775e-02,
2.80177034e-03,-7.94670954e-02,-3.51232290e-02,-8.65280628e-02,1.63584631e-02,
8.32325965e-02,5.04362173e-02,-4.48057577e-02,2.59894859e-02,-3.93159650e-02,
-5.52646443e-03,-3.51962447e-02,-8.18338469e-02,-9.75104943e-02,2.91774981e-02,
5.92814311e-02,-2.10587005e-03,-2.46319603e-02,-2.02082433e-02,7.21927136e-02,
5.80339395e-02,-4.93108593e-02,6.28047064e-02,7.15623610e-03,6.53056502e-02,
2.60425191e-02,-1.32194851e-02,5.80464005e-02,-4.54852805e-02,2.26667095e-02,
5.88315874e-02,5.84596433e-02,3.83446775e-02,-5.43567762e-02,5.23385853e-02,
-7.55856261e-02,-2.90469863e-02,-2.61252448e-02,-9.54499841e-02,-4.89169843e-02,
4.40160595e-02,-7.02593103e-03,6.38122065e-03,-5.87210841e-02,-5.91496564e-02,
-4.11439762e-02,7.26128295e-02,-5.99289574e-02,6.12032488e-02,-7.58959651e-02,
1.47615401e-02,-8.27186629e-02,5.03293537e-02,-2.52079312e-02,2.98558474e-02,
1.26987714e-02,-5.21586165e-02,1.95134934e-02,-6.09732757e-04,5.40475138e-02,
3.33374813e-02,-2.01992225e-02,-7.79423490e-02,-6.40045255e-02,4.43685353e-02,
-5.40354773e-02,1.42751569e-02,-6.14123605e-02,5.58733754e-03,8.08711536e-03,
-7.89297372e-02,3.28263380e-02,-7.78254122e-02,-4.90613282e-02,-8.46829712e-02,
-6.53707907e-02,8.11424106e-02,-3.02334074e-02,-4.74291928e-02,6.72145188e-02,
-8.09257478e-02,-9.07732770e-02,-6.29453436e-02,-7.36793429e-02,-4.73792776e-02,
8.13819841e-02,-6.08316734e-02,-7.34636262e-02,-2.07616016e-02,-6.85144737e-02,
1.40126459e-02,4.63004522e-02,5.77742867e-02,-4.97043729e-02,1.87730743e-03,
-1.52485876e-03,-1.86684430e-02,-4.01520878e-02,-4.36927825e-02,4.34500538e-02,
-9.77362916e-02,-1.15907285e-02,1.97994485e-02,-7.19817588e-03,-6.91450462e-02,
2.98668519e-02,-5.54367155e-02,-1.90300774e-02,-1.89201497e-02,-4.57277112e-02,
-8.75209458e-03,1.43517815e-02,6.99263811e-02,-1.98649652e-02,-1.84467155e-02,
1.53776994e-02,-2.33305562e-02,-6.59332201e-02,6.20379485e-02,1.00890528e-02,
2.53292378e-02,-1.00808211e-01,-7.63653964e-02,-1.83769464e-02,-8.34201500e-02,
-7.29809254e-02,6.51228726e-02,-8.64027739e-02,1.15813194e-02,4.55313250e-02,
5.56558445e-02,-2.41788533e-02,2.31380528e-03,-5.24416305e-02,-6.54001832e-02,
8.04779232e-02,3.92005108e-02,6.69814199e-02,-7.30641633e-02,1.60759073e-02,
-7.12222904e-02,8.40263069e-02,-9.34054330e-03,5.89498840e-02,-6.58785105e-02,
-3.47108096e-02,-4.64780554e-02,-7.58559778e-02,-7.60386363e-02,5.91044985e-02,
-8.17173161e-03,-7.94343129e-02,3.62400599e-02,-1.88038230e-03,-8.06457251e-02,
-3.81336058e-03,-4.59248237e-02,-2.31541432e-02,-4.60140556e-02,-3.14451149e-03,
-4.06464934e-02,2.68597472e-02,-2.67375652e-02,-5.06750122e-02,-4.75163572e-02,
-7.73085430e-02,-4.20054011e-02,1.85689088e-02,5.16837044e-03,4.08354402e-02,
-3.96223404e-02,-5.24221100e-02,2.35663727e-02,-8.32320973e-02,-7.56435841e-02,
-6.98363259e-02,2.34021395e-02,2.69880816e-02,1.90209448e-02,-5.94328977e-02,
4.86284308e-02,6.48835376e-02,6.88036485e-03,7.43697863e-03,-5.46383597e-02,
4.95144865e-03,9.73713933e-04,-1.26681859e-02,-4.16513830e-02,-4.41053044e-03,
-5.94253577e-02,7.32343867e-02,-4.36296407e-03,3.67766060e-02,-5.40436655e-02,
-6.18518740e-02,6.54328093e-02,-6.17464446e-02,7.33666169e-03,5.76126948e-02,
-1.90907419e-02,-1.90195404e-02,-5.67624941e-02,-6.98427483e-02,4.29670401e-02,
-5.42173125e-02,6.60622343e-02,1.43208681e-02,6.00741766e-02,-6.25617504e-02,
4.66912501e-02,-3.99579220e-02,8.42944160e-02,-6.67137802e-02,-7.97408447e-02,
6.05164766e-02,3.39541510e-02,-7.13213235e-02,-5.10559455e-02,-2.16005743e-02,
-6.46372288e-02,4.85440865e-02,1.41508589e-02,-4.02811803e-02,-8.38737190e-02,
3.22919637e-02,2.64880881e-02,-2.26388890e-02,1.87763590e-02,-6.03984902e-03,
7.32160807e-02,6.89171404e-02,-5.28634712e-02,-5.96157238e-02,-5.25049306e-02,
-6.27826154e-02,1.46174487e-02,-4.79797944e-02,5.49351908e-02,2.61082184e-02,
3.69641483e-02,8.14858153e-02,8.13531280e-02,-1.22293737e-02,-5.81683870e-03,
1.83930360e-02,-3.14283893e-02,-2.76090764e-02,-5.92569076e-02,-9.71785784e-02,
6.19469024e-02,-1.49012078e-02,4.82218750e-02,-8.57472196e-02,-4.59170900e-02,
8.28071311e-02,-2.03652829e-02,-4.78703380e-02,3.11162565e-02,-4.47491147e-02,
-7.76331425e-02,5.56484535e-02,-6.29573241e-02,-5.44220209e-02,6.69451877e-02,
-2.33898982e-02,1.48352131e-03,5.78745343e-02,4.91844192e-02,-2.78175715e-02,
2.81820092e-02,-5.13349697e-02,-8.01847056e-02,-4.84785298e-03,-4.48341481e-02,
-8.00749734e-02,7.72846788e-02,5.54071479e-02,2.84815077e-02,1.74335658e-03,
-2.68891267e-03,-2.79724784e-02,5.44727221e-02,3.50028984e-02,5.57750128e-02,
-1.48356827e-02,-5.41305393e-02,-9.03352275e-02,6.55724527e-03,6.21679462e-02,
-6.76615313e-02,1.13351298e-02,-6.55068979e-02,8.93173087e-03,-2.67444216e-02,
4.32063229e-02,-2.59525366e-02,-7.20131844e-02,7.49526769e-02,-2.40926947e-02,
-3.27920890e-03,-1.73629336e-02,2.02529319e-02,-1.20433392e-02,-2.32527200e-02,
-5.08078467e-03,-6.47331169e-03,6.69235289e-02,6.63303137e-02,-2.57428084e-02,
3.97613086e-02,5.33191860e-02,-4.04320061e-02,-8.87781978e-02,-4.24671546e-02,
-7.92454183e-02,5.12578934e-02,-3.02415043e-02,-6.15776256e-02,1.32904965e-02,
4.70552258e-02,-8.26238915e-02,-4.10785601e-02,7.20275491e-02,-5.86881898e-02,
-4.33051772e-02,-5.14248759e-02,6.98241368e-02,6.40564784e-02,-3.25580221e-03,
1.24365678e-02,9.45783220e-03,5.33463620e-02,-8.98040310e-02,5.94564974e-02,
6.03169873e-02,-2.94170273e-03,-2.31093597e-02,3.61213014e-02,-8.10914263e-02,
-7.41691738e-02,6.64797798e-02,4.70649414e-02,2.37551741e-02,3.35574560e-02,
7.59266540e-02,-1.40729677e-02,-1.68638956e-02,2.89309919e-02,-7.04883412e-02,
3.29999253e-02,-5.44396155e-02,-5.56773618e-02,-1.93604194e-02,-6.53600618e-02,
6.69330060e-02,-6.05016053e-02,8.34716409e-02,-4.30224501e-02,-2.68143676e-02,
5.58563992e-02,-1.39469495e-02,2.56692637e-02,5.13987988e-02,1.90259435e-03,
1.02742584e-02,1.44812753e-02,-6.87390491e-02,1.74598291e-03,4.98309126e-03,
-9.43114012e-02,5.86578995e-02,-5.66281341e-02,1.14391670e-02,6.59144670e-02,
4.80121039e-02,3.80272195e-02,-8.20851102e-02,-3.95767950e-02,-5.95902652e-02,
-8.23673680e-02,-1.08502544e-02,-5.34263924e-02,-3.01078651e-02,-2.56655458e-02,
-1.44945653e-02,2.05918010e-02,6.57290593e-02,-6.05944172e-02,-7.84192160e-02,
-2.86978129e-02,-8.51295609e-03,5.62505312e-02,1.38231297e-03,-4.38434035e-02,
-9.58641153e-03,4.18376923e-03,-3.39817628e-02,-2.38496345e-02,1.30594071e-05,
-1.36708170e-02,6.63867816e-02,-2.93194642e-03,2.35636141e-02,1.48382259e-03,
-2.64372211e-02,-1.90559085e-02,-7.37684518e-02,1.04585821e-02,4.36620750e-02,
5.18569984e-02,6.41053319e-02,3.52915451e-02,-4.72698770e-02,1.03318328e-02,
-1.44129302e-02,-7.33760372e-02,6.48676679e-02,4.84906137e-02,-6.02177195e-02,
-5.71061671e-02,-2.90329512e-02,-6.01470247e-02,-8.10207799e-02,2.56667435e-02,
5.04672080e-02,-2.38905121e-02,5.97179160e-02,5.23098093e-03,2.32253503e-02,
-2.22665779e-02,-2.32112650e-02,6.87360018e-02,6.03575483e-02,-3.25191617e-02,
-8.33763778e-02,-7.93491378e-02,7.43865296e-02,-6.19961061e-02,2.65103132e-02,
-7.63448253e-02,-8.04890022e-02,-2.81846747e-02,4.88637164e-02,-1.37415584e-02,
-2.22674254e-02,4.03699093e-02,-3.87269892e-02,-3.41910496e-02,-5.54008447e-02,
-8.18847790e-02,-2.74872910e-02,2.93057738e-03,-6.76941052e-02,-8.43110308e-02,
-2.20949613e-02,5.05272187e-02,-8.29435438e-02,-1.75961368e-02,5.54224178e-02,
-7.72929192e-02,-8.73171091e-02,4.27836664e-02,7.35007599e-02,-1.41321244e-02,
3.83804888e-02,8.08641780e-03,5.04076220e-02,-2.28472333e-03,-4.97636795e-02,
8.64498392e-02,-7.70622417e-02,4.81521003e-02,4.81143668e-02,3.72330882e-02,
-7.60390703e-03,-5.54474890e-02,-4.68618572e-02,-6.77829683e-02,-4.49175434e-03,
-3.43008228e-02,6.26418889e-02,-4.19923514e-02,-1.22850938e-02,-4.14278097e-02,
-6.74611330e-02,-7.63763487e-02,3.18590812e-02,-2.21929792e-02,1.84776504e-02,
-3.38388421e-02,-8.71816427e-02,-5.65752797e-02,-5.13722142e-03,-5.78630865e-02,
-3.05390563e-02,-1.10360386e-03,2.33485810e-02,1.35245034e-02,6.49603605e-02,
-2.83155069e-02,1.67914163e-02,-4.97877412e-02,1.47518087e-02,-1.57913882e-02,
1.08116930e-02,9.27845854e-03,7.55021051e-02,1.33429002e-02,1.12222964e-02,
-2.94206366e-02,8.02835226e-02,-4.41476144e-02,-2.62431838e-02,4.84209955e-02,
-1.52626755e-02,7.18086064e-02,-4.35605040e-03,-3.94434258e-02,4.34454978e-02,
-4.18410338e-02,-1.98054425e-02,-4.01617512e-02,6.00990914e-02,2.27580182e-02,
7.47110173e-02,8.54020566e-03,3.95540185e-02,4.60639782e-02,6.79323822e-02,
6.81300983e-02,-3.38123254e-02,-7.05911592e-02,-5.56018315e-02,6.63297102e-02,
-5.77893713e-03,-9.39297974e-02,1.71934944e-02,-2.13483181e-02,6.23959899e-02,
-6.10071085e-02,5.59805185e-02,-3.52007300e-02,1.56960618e-02,4.98435386e-02,
6.79384470e-02,-2.00038478e-02,-7.48599097e-02,6.13090992e-02,-1.11143955e-03,
6.28786311e-02,-4.44012973e-03,2.35627890e-02,-1.88886821e-02,5.55764362e-02,
-2.34087161e-03,-7.04802498e-02,2.76566055e-02,4.98127043e-02,2.83120610e-02,
-9.11751110e-03,-8.78097042e-02,6.59401789e-02,3.73040400e-02,-2.81103607e-02,
6.33850619e-02,3.41163278e-02,-1.08423140e-02,-2.01725792e-02,-2.14046463e-02,
3.28092352e-02,2.89793573e-02,1.42662507e-02,4.56368439e-02,2.59630755e-02,
5.49660251e-02,-1.09844543e-02,3.92113253e-02,-6.60454854e-02,-5.87246306e-02,
7.71539211e-02,8.28689560e-02,8.02275143e-04,-8.24967492e-03,-8.71688500e-02,
3.94285992e-02,6.13351315e-02,-7.41708800e-02,-1.08013330e-02,2.88716462e-02,
-9.61910188e-02,-7.16212168e-02,-4.91324551e-02,-3.82106826e-02,5.56337237e-02,
3.17601748e-02,-5.35405017e-02,5.47966063e-02,5.12430072e-02,-2.39377264e-02,
-6.20817952e-02,-5.50471507e-02,6.37458637e-02,2.17299499e-02,-5.96577004e-02,
8.47685859e-02,9.92162991e-03,4.09938879e-02,-4.71932068e-02,-6.19815709e-03,
4.77398075e-02,-9.52647403e-02,2.03090888e-02,-2.95813642e-02,4.46123630e-03,
-7.95714483e-02,4.91712429e-02,7.79947042e-02,4.18412453e-03,-8.43156427e-02,
-3.20470929e-02,-8.92323069e-03,4.84032743e-03,-4.93472293e-02,-3.01348008e-02,
-7.07000718e-02,-1.66282635e-02,3.46504152e-02,6.62747994e-02,3.15642939e-03,
-4.41012159e-02,-5.13066091e-02,8.08574781e-02,-4.30100262e-02,-5.90926744e-02,
-7.88531750e-02,-6.96118325e-02,4.79747765e-02,-7.64359608e-02,-1.15477527e-02,
-4.80628274e-02,7.80522600e-02,6.85119778e-02,-2.31617130e-02,-1.52642736e-02,
4.90094125e-02,1.00825848e-02,-4.99070957e-02,-7.49286190e-02,-4.89901006e-02,
-2.16794237e-02,-3.50020304e-02,-3.65562886e-02,-4.51414436e-02,5.04671037e-02,
-1.19431261e-02,7.57973418e-02,-3.76562215e-02,7.10624158e-02,-7.02035427e-02,
6.22061975e-02,6.77983612e-02,7.02231973e-02,5.28568253e-02,-1.98553558e-02,
8.05729777e-02,4.40983884e-02,-8.36983472e-02,-4.17872071e-02,-2.88911760e-02,
5.59696928e-02,-7.37030571e-03,7.22039789e-02,6.84699044e-02,6.54030666e-02,
5.24741597e-02,7.81323537e-02,-7.65262842e-02,7.57003427e-02,-9.04325694e-02,
-1.57228187e-02,3.66722830e-02,4.67699021e-03,-1.58866365e-02,-9.72727388e-02,
-2.58634426e-02,-7.19376281e-02,3.91777009e-02,2.33913548e-02,6.28581550e-03,
-5.65290079e-02,-1.48420525e-03,-2.09221076e-02,-4.58764806e-02,-1.22896871e-02,
-5.42424917e-02,1.64065696e-02,2.18588971e-02,-7.97456428e-02,-8.29906911e-02,
8.14032834e-03,3.13637070e-02,5.79776019e-02,7.09062740e-02,-2.06891131e-02,
7.18292892e-02,-7.41400123e-02,-3.62061933e-02,-6.95726350e-02,-1.05672115e-02,
-1.25790099e-02,2.50993092e-02,-6.93935528e-02,-7.84844086e-02,-1.95945036e-02,
-6.73741996e-02,-4.00362872e-02,-5.92079479e-03,1.30137596e-02,1.30987754e-02,
-2.61040814e-02,1.54039031e-02,-3.77082936e-02,-7.38804787e-02,-5.90209961e-02,
2.49050092e-03,-9.05752033e-02,4.50674593e-02,2.48213988e-02,5.75675778e-02,
2.04047672e-02,-4.18099947e-02,-7.65801147e-02,-9.51364264e-02,5.75754307e-02,
3.26791257e-02,-8.35078359e-02,-3.75179425e-02,-4.75877430e-03,7.85544440e-02,
-2.34224778e-02,5.91639206e-02,6.39903992e-02,7.11706653e-02,-8.40519518e-02,
-6.69933334e-02,-1.72181427e-02,-6.06711283e-02,-3.21814790e-02,-2.77732350e-02,
5.92239853e-03,4.79258411e-02,2.45742258e-02,-1.74421985e-02,-6.01448193e-02,
-5.91712967e-02,-7.46896639e-02,-3.56135666e-02,-2.63568517e-02,-7.15785399e-02,
-2.25439779e-02,4.88597713e-02,-4.20585573e-02,-3.27586383e-02,4.80206944e-02,
-4.12224559e-03,5.48248887e-02,-5.18629141e-02,4.23285104e-02,4.22729142e-02,
-1.08064637e-02,2.66641699e-04,-4.47242223e-02,-7.34988526e-02,9.93284304e-03,
2.70953514e-02,7.82931224e-02,2.25841869e-02,-6.90263510e-02,7.08211660e-02,
-1.19668553e-02,-8.66105705e-02,4.92621064e-02,1.27955144e-02,-5.75797341e-04,
-6.09013550e-02,-8.67751613e-02,5.75008802e-02,8.76893327e-02,4.15594801e-02,
-7.17864409e-02,4.00243625e-02,-1.11147072e-02,-5.59722073e-03,2.37298291e-02,
4.04055975e-02,-1.53023973e-02,-8.87782350e-02,8.93112123e-02,2.00922489e-02,
-6.13441244e-02,7.14854151e-02,-8.77654403e-02,-1.74031011e-03,4.80366237e-02,
-6.57381564e-02,-2.11740118e-02,5.95904365e-02,-3.73996124e-02,-2.72683017e-02,
1.02873333e-02,2.63621006e-02,-8.01006183e-02,4.03979979e-02,5.19903265e-02,
7.99814984e-02,5.77371828e-02,1.98849998e-02,-5.73313944e-02,1.45188244e-02,
4.80990345e-03,2.49660984e-02,-2.29154546e-02,-4.55667675e-02,-8.38627294e-02,
-1.30796002e-03,1.69692524e-02,-4.94000167e-02,-3.24483030e-02,-6.72971606e-02,
-7.97360018e-02,2.50803754e-02,-6.81219529e-03,4.79289442e-02,2.27667782e-02,
2.49246024e-02,-3.27718072e-02,7.05073029e-02,1.12386402e-02,-7.68873170e-02,
1.20054288e-02,1.79927126e-02,-7.11205304e-02,-8.00169408e-02,-6.79397490e-03,
5.27035259e-02,-8.69950429e-02,-1.34178298e-02,1.84069369e-02,-9.35858861e-02,
4.72438000e-02,7.66341910e-02,-7.36937076e-02,1.05431792e-03,4.94931564e-02,
7.43500981e-03,2.32411977e-02,5.50206378e-02,-5.73266484e-02,3.97955403e-02,
4.70925495e-02,5.58862016e-02,-6.85523972e-02,-3.11474856e-02,-2.39600446e-02,
-6.31175935e-02,-8.45381543e-02,6.36845827e-02,-4.39884216e-02,1.44013865e-02,
7.15955123e-02,6.98280409e-02,4.83146831e-02,3.18859704e-02,3.65843736e-02,
-3.33493687e-02,2.57861149e-02,7.18739629e-02,-1.16477190e-02,2.30275039e-02,
-7.15260282e-02,6.96589351e-02,8.38348344e-02,-1.45034390e-02,3.27274241e-02,
8.47641826e-02,-3.05596925e-02,4.10540700e-02,1.02365166e-02,7.09067732e-02,
5.66871762e-02,5.78841455e-02,3.25730853e-02,-4.63083833e-02,4.08774130e-02,
4.64019775e-02,1.65015198e-02,-2.65359804e-02,-6.31551351e-03,2.16414724e-02,
3.61928418e-02,2.32668817e-02,5.34013025e-02,-4.50804681e-02,1.96363945e-02,
-2.41539516e-02,-5.97737692e-02,4.52277474e-02,-6.30161613e-02,5.71280383e-02,
-2.26848461e-02,5.32220937e-02,-3.53449695e-02,-3.40585373e-02,-1.72138829e-02,
-1.93395130e-02,3.08889989e-02,-6.93298802e-02,-5.76262421e-04,-5.73607907e-02,
1.39019033e-03,-8.89890343e-02,-1.42396763e-02,-8.41869041e-02,-2.21274160e-02,
6.73620403e-02,7.31561035e-02,-6.63178116e-02,-3.65620181e-02,5.93423732e-02,
-4.59884740e-02,8.43049139e-02,-7.23687261e-02,-6.42727092e-02,-1.71961058e-02,
-4.36775126e-02,-3.34020332e-03,-1.55169396e-02,3.75467278e-02,3.68716829e-02,
-7.02004507e-02,4.18905765e-02,-7.59889781e-02,-6.50995597e-02,-7.38901049e-02,
-3.60832512e-02,-6.54609278e-02,5.16488366e-02,1.29043115e-02,4.11742926e-02,
2.30957307e-02,6.39905855e-02,2.21050810e-02,-3.80130187e-02,-3.98154706e-02,
5.57517186e-02,7.84101337e-02,5.59323095e-02,-2.97062285e-02,-6.80122292e-03,
5.87429442e-02,-3.78189683e-02,-2.10686456e-02,5.07889204e-02,3.35247926e-02,
-5.88508835e-03,-3.05924620e-02,-1.96549967e-02,-3.40531357e-02,-8.11342150e-02,
2.73006838e-02,5.87358046e-03,-4.88682128e-02,-8.42527896e-02,-8.78549293e-02,
-1.93857849e-02,2.50998400e-02,-7.66894370e-02,-8.45070630e-02,-6.58888817e-02,
6.38944283e-02,-1.67359486e-02,-1.88445933e-02,-6.46168366e-02,-4.20470126e-02,
3.77813429e-02,2.88472585e-02,-4.42607924e-02,-5.66186309e-02,5.30253313e-02,
6.16868362e-02,-3.74766998e-02,-8.80805477e-02,-9.01417583e-02,-2.18748301e-02,
5.94045445e-02,-7.63429552e-02,-8.95281434e-02,-6.10541888e-02,4.71314974e-03,
4.12232913e-02,-2.26186160e-02,3.08611942e-03,-5.48891462e-02,1.55102201e-02,
2.41556223e-02,-1.79953314e-02,-2.74208244e-02,5.55626154e-02,-5.82459457e-02,
6.01635501e-02,-7.65345916e-02,-4.60050441e-02,-3.57361920e-02,6.06041327e-02,
5.48411720e-02,-4.19613980e-02,-5.34282960e-02,-4.28589545e-02,-9.41227600e-02,
-1.54963173e-02,-7.35190734e-02,2.95408208e-05,-6.39359877e-02,6.76725283e-02,
-2.66466793e-02,-7.46047124e-02,-5.70579022e-02,3.04670259e-02,-1.94897335e-02,
9.74705815e-03,-1.74984243e-02,-7.56283849e-02,7.10084140e-02,-3.87631506e-02,
-3.25392839e-03,6.85875788e-02,-5.99660277e-02,-3.35667767e-02,3.29908915e-02,
-8.31997991e-02,2.47889291e-02,5.20541519e-02,1.86202559e-03,-8.54239836e-02,
-7.76086673e-02,5.65505102e-02,6.10607862e-02,-3.20074856e-02,-4.14730161e-02,
-2.52851695e-02,-8.21895525e-03,-3.93867195e-02,-7.61203002e-03,3.78777646e-02,
-2.16867849e-02,-3.03207040e-02,-8.65088180e-02,-6.17803000e-02,5.91375902e-02,
-5.94243892e-02,-7.53249303e-02,4.93141934e-02,-6.18730411e-02,2.28249491e-03,
5.88327507e-03,-3.99196381e-03,5.07882312e-02,-1.73548087e-02,5.10509275e-02,
-2.09530015e-02,3.42166796e-02,1.16026290e-02,7.12126726e-03,5.34205288e-02,
7.82525241e-02,-3.53282243e-02,5.01562320e-02,-2.33928394e-02,4.39362861e-02,
1.75054558e-02,2.03192830e-02,9.16486327e-03,-6.29978254e-02,3.79249640e-02,
5.06723896e-02,1.39525579e-03,2.60247178e-02,1.77154783e-02,1.71781648e-02,
-5.30500198e-04,5.01462929e-02,-2.07551010e-02,-4.33993004e-02,8.33062455e-02,
6.48707598e-02,-9.05007347e-02,-3.85076813e-02,-4.16832976e-02,-2.62825396e-02,
-4.29487787e-02,-8.78396779e-02,-2.84679583e-04,3.09424829e-02,6.42265901e-02,
-7.64688551e-02,1.41894980e-03,-3.64859626e-02,-4.68728803e-02,-1.57985520e-02,
-9.45266411e-02,3.11137438e-02,-6.68165758e-02,-7.68339410e-02,5.95407002e-02,
-6.31305110e-03,3.37344594e-03,5.97719140e-02,-1.08912110e-03,1.99044533e-02,
-7.23534748e-02,3.83609980e-02,1.07197678e-02,6.66982085e-02,-2.95888558e-02,
-2.79876888e-02,6.93550683e-04,-8.16784874e-02,6.88033700e-02,-3.34019996e-02,
-8.15036222e-02,-6.94092661e-02,2.17995271e-02,2.42038723e-02,2.39885859e-02,
5.36515675e-02,-8.23630020e-02,6.57717213e-02,-8.93748477e-02,-5.55790886e-02,
-3.51670943e-03,2.16351263e-03,7.48022199e-02,3.23107354e-02,5.76279052e-02,
-4.18087021e-02,6.18148893e-02,1.12784831e-02,5.41210473e-02,3.44171226e-02,
-4.43580411e-02,-2.12564114e-02,5.13600744e-03,-5.55761456e-02,6.23389781e-02,
-4.07720469e-02,-8.68752450e-02,2.73827482e-02,-3.97959724e-02,2.85402406e-02,
-3.83834541e-02,-7.04269670e-03,2.53964197e-02,2.86167562e-02,2.85463333e-02,
7.72630498e-02,5.17068841e-02,-3.97947393e-02,-5.25338501e-02,-5.73149743e-03,
-8.45476091e-02,-2.66503845e-03,-6.78032860e-02,6.69648349e-02,-6.20560255e-03,
-8.31643492e-02,4.69784811e-03,1.14655439e-02,7.74466917e-02,-3.65752634e-03,
-6.66376129e-02,-7.70470034e-03,-3.02674272e-03,2.33506057e-02,4.33851928e-02,
9.43348464e-03,5.14798500e-02,8.37441068e-03,-6.51069656e-02,-1.57521367e-02,
8.71818420e-03,-3.94957215e-02,-1.25654228e-02,-1.68079901e-02,5.97793236e-02,
5.44272624e-02,6.99043795e-02,7.45952204e-02,-1.06236842e-02,-4.89932392e-03,
2.10749544e-02,-5.68119809e-02,-5.11039142e-03,-2.61173807e-02,7.52797350e-02,
2.81867608e-02,3.46954800e-02,8.94412491e-03,-9.17588174e-02,-2.55244523e-02,
-5.79399355e-02,6.27047569e-02,2.62854025e-02,6.23388588e-02,-1.27229700e-02,
2.25782003e-02,5.92112988e-02,-2.75514461e-02,-5.24540357e-02,-4.79004644e-02,
5.63632064e-02,5.48696704e-03,-1.54968826e-02,-5.55340499e-02,1.13683725e-02,
-1.87761150e-02,-2.27426924e-02,3.78335901e-02,-5.18844537e-02,7.99563825e-02,
-6.82042688e-02,-4.23216308e-03,3.00052632e-02,1.00200344e-02,-8.44600797e-02,
-7.25953281e-02,6.74176440e-02,-5.22252060e-02,2.62558926e-03,1.58888251e-02,
-1.05347456e-02,5.94011508e-04,-1.62091814e-02,7.31798410e-02,2.02610856e-03,
-4.23670113e-02,-7.40145817e-02,-8.42192322e-02,1.87108163e-02,2.00370904e-02,
-2.82067489e-02,1.95777472e-02,1.24948863e-02,-6.42348528e-02,-8.14649016e-02,
-6.03802055e-02,-6.50441856e-04,-1.34562571e-02,-5.74013516e-02,-1.12652285e-02,
-3.02735541e-04,-5.81394285e-02,8.51245150e-02,-3.79311033e-02,3.65477726e-02,
-3.72841172e-02,3.75643671e-02,5.86624071e-02,-9.02737677e-03,-3.67004573e-02,
5.05495071e-02,-3.85964587e-02,1.81543157e-02,-2.23806854e-02,4.98697460e-02,
-2.56387070e-02,1.85049716e-02,-4.91963699e-02,-3.53375301e-02,2.28607673e-02,
-8.96737278e-02,6.18793815e-03,-9.45702137e-04,3.21564041e-02,-8.25991295e-03,
-4.22504917e-02,-7.11819669e-03,-9.30575356e-02,-8.95612538e-02,5.17995283e-02,
4.96576764e-02,2.55844463e-02,-8.91622081e-02,7.45474081e-03,8.75967443e-02,
-3.86494882e-02,-6.03028126e-02,-4.99477163e-02,-2.87437160e-02,-7.67350057e-03,
-3.18743885e-02,5.81428334e-02,4.79668565e-02,-2.39273459e-02,5.36281839e-02,
-2.97609456e-02,4.45684679e-02,2.66994480e-02,5.23034148e-02,-1.62592325e-02,
-8.92415717e-02,-5.19300140e-02,3.37247141e-02,-7.12439418e-02,-5.19089065e-02,
-2.33310070e-02,8.13581869e-02,-3.95304263e-02,5.19945659e-02,-8.77234265e-02,
4.83972803e-02,-7.55811017e-03,1.66326389e-02,2.23156977e-02,1.21903140e-03,
1.24803800e-02,4.27524745e-02,-5.47895171e-02,-1.34566287e-02,-4.11325172e-02,
3.24366242e-02,1.39605328e-02,3.04117892e-02,-6.63513541e-02,5.63120395e-02,
8.87393719e-04,1.05840918e-02,-2.61120666e-02,-6.52769953e-02,1.01193534e-02,
1.32469563e-02,7.05687376e-03,1.97645240e-02,-5.56842312e-02,1.75426360e-02,
-3.40074785e-02,-8.62638056e-02,-4.55352245e-03,-8.44751298e-03,6.45366451e-03,
4.66439575e-02,3.18491226e-03,-8.03696215e-02,7.05060512e-02,6.22893684e-02,
-9.74955410e-02,-9.57191270e-03,8.03514868e-02,-5.91350086e-02,6.44978285e-02,
5.20893037e-02,1.32713618e-03,1.33559527e-02,3.72269265e-02,2.66174041e-02,
-5.59910014e-02,4.01557870e-02,-1.65873114e-02,-5.07193841e-02,3.17711160e-02,
5.55663183e-02,-3.14149866e-03,-4.67707738e-02,-3.67359184e-02,-2.85612270e-02,
-7.56398365e-02,-4.01239358e-02,5.55708408e-02,-7.33390264e-03,6.50954619e-02,
3.69337983e-02,-2.88020913e-02,-1.64147057e-02,-6.24959283e-02,6.77693114e-02,
-5.70521317e-02,2.12685838e-02,-7.00422227e-02,-7.41475145e-04,6.15460277e-02,
-1.00254580e-01,-4.39489186e-02,-6.99948519e-02,-5.64377196e-02,-3.59230191e-02,
3.92902531e-02,2.48682126e-02,-6.80835694e-02,3.28702815e-02,-3.73257771e-02,
-5.93814217e-02,-1.33026214e-02,-6.67139366e-02,2.35765949e-02,6.20408207e-02,
-5.78558780e-02,-8.61777365e-02,-6.67692870e-02,5.69414943e-02,-8.03479254e-02,
5.79349138e-02,-1.40856197e-02,-5.47770709e-02,-6.37793764e-02,-1.73851028e-02,
5.86487837e-02,-5.29300794e-02,2.71926578e-02,-5.05481800e-03,-7.02461377e-02,
8.47952589e-02,-7.09085092e-02,-2.28910651e-02,4.88011576e-02,-3.89958732e-02,
-9.74918157e-03,-1.56224696e-02,-6.34415355e-03,-3.09393480e-02,5.65113872e-02,
1.73026156e-02,4.87814508e-02,2.90036500e-02,3.01893987e-02,4.75667380e-02,
-8.99526775e-02,5.38241938e-02,-8.40825960e-02,4.46269587e-02,6.17771298e-02,
-1.78143084e-02,-2.36286595e-02,-5.21248542e-02,7.06775188e-02,-1.37084126e-02,
7.65058324e-02,1.83789525e-02,-4.48829718e-02,7.58206993e-02,-7.75663033e-02,
-5.73719293e-03,3.13948020e-02,-4.97738197e-02,-8.41579512e-02,-3.43415067e-02,
-1.51926503e-02,-4.84612621e-02,1.25703262e-02,1.34791834e-02,-1.01636788e-02,
-3.29746529e-02,4.33641160e-03,3.90893891e-02,-3.43158506e-02,-4.69064936e-02,
6.09433129e-02,-2.39504967e-03,-2.71486584e-02,6.25684857e-02,-4.44215909e-02,
-4.40789685e-02,4.44186032e-02,-3.02131847e-02,6.05922081e-02,-6.03106245e-02,
7.41347969e-02,1.57767758e-02,-1.57240070e-02,2.93698031e-02,1.41767077e-02,
-6.53608888e-02,4.38915864e-02,-4.21094559e-02,-3.79256420e-02,-3.58497351e-02,
8.36910009e-02,-7.01232031e-02,-2.28911694e-02,-9.25799012e-02,-2.71688960e-02,
-1.00494977e-02,1.86450165e-02,4.93707098e-02,1.83862038e-02,-1.33602135e-03,
-1.98904499e-02,1.31445583e-02,-2.92590950e-02,5.17217554e-02,4.52487469e-02,
3.73036787e-03,4.88830619e-02,-8.59047920e-02,-2.16477271e-02,-6.00778125e-02,
6.80612773e-02,8.04493949e-02,-7.35317823e-03,5.10887131e-02,-7.51653686e-02,
-6.48272457e-03,-1.13670174e-02,1.49858100e-02,-5.77642135e-02,-6.00976795e-02,
2.45456621e-02,-5.68832010e-02,5.90450838e-02,1.67064574e-02,-4.67705764e-02,
5.50938435e-02,-1.82949603e-02,8.10029358e-02,-8.37770402e-02,4.38418065e-04,
2.25603413e-02,5.35291992e-02,1.36828953e-02,-6.53903782e-02,8.32683444e-02,
-4.13822085e-02,5.53026870e-02,-5.67732640e-02,4.89118509e-02,5.70470747e-03,
8.31976458e-02,3.56404409e-02,-4.20062281e-02,-1.98993515e-02,8.25694483e-03,
-2.33285259e-02,-4.18197922e-02,6.02954030e-02,6.29300401e-02,-1.98791157e-02,
2.65889950e-02,-6.92300349e-02,7.12634325e-02,-8.91512409e-02,2.62747929e-02,
8.02047830e-03,-5.32858372e-02,3.19665261e-02,1.73820071e-02,4.70612710e-03,
-1.83186065e-02,6.22872673e-02,-4.93333116e-03,-5.05016930e-02,8.03843513e-02,
5.28280623e-02,-4.37314771e-02,5.51546030e-02,2.69383807e-02,7.44553283e-02,
-7.06316903e-02,6.99429959e-02,-5.51931374e-02,-2.07678489e-02,3.09335981e-02,
-3.54400612e-02,2.24453844e-02,8.51785094e-02,-5.14067486e-02,-2.05905288e-02,
6.16559200e-02,1.91249065e-02,5.05215041e-02,-3.66140343e-02,-3.63144046e-03,
6.12461902e-02,-8.73385817e-02,5.09909950e-02,-1.24850348e-02,-4.00346667e-02,
4.85514030e-02,-1.08679440e-02,-2.86556259e-02,5.95184378e-02,-7.60733709e-02,
7.75482878e-02,6.03100583e-02,-8.49639326e-02,9.44615901e-03,5.68664353e-03,
-1.58112403e-02,-5.25788441e-02,-4.77390327e-02,-8.53089429e-03,-1.93515997e-02,
-1.12800151e-02,1.41591886e-02,8.37053657e-02,-4.12384681e-02,7.15891272e-02,
4.66418033e-03,-2.42883172e-02,-7.56305233e-02,4.00622711e-02,4.94323112e-02,
5.81984594e-02,-6.42057285e-02,4.45260704e-02,-3.00907735e-02,-8.11745673e-02,
-7.24843219e-02,3.34303044e-02,-3.97861749e-02,4.18428630e-02,4.32468839e-02,
3.06783454e-03,5.17269261e-02,7.52500743e-02,7.00288042e-02,9.59867239e-03,
1.44077446e-02,4.63861786e-02,-6.12451434e-02,7.33497813e-02,1.13233496e-02,
4.41939458e-02,4.90908362e-02,2.42643654e-02,-3.69516462e-02,-6.88798726e-02,
4.11970951e-02,-7.36396909e-02,-2.15566289e-02,-7.29164556e-02,7.92631358e-02,
-4.68976749e-03,-8.09089541e-02,-4.41348702e-02,1.58127490e-02,-1.59362499e-02,
-3.33004557e-02,-7.01099262e-02,4.93913740e-02,2.03848612e-02,-3.17691080e-02,
-2.94997301e-02,2.25165039e-02,-5.45613803e-02,-5.48167042e-02,-2.14883462e-02,
4.71771210e-02,-1.17243519e-02,-2.41693333e-02,-7.04808235e-02,4.30696085e-02,
-7.25267902e-02,1.01177096e-02,-2.80073527e-02,1.40421372e-02,5.42718694e-02,
-2.19130255e-02,-5.44706360e-02,-3.68493535e-02,3.71860452e-02,8.70504528e-02,
-6.50855973e-02,-3.61658959e-03,-5.29916491e-03,-9.97082517e-03,-4.19689491e-02,
7.25224018e-02,-4.77662124e-02,2.25774627e-02,-4.16538343e-02,-3.46252397e-02,
-7.69291520e-02,-1.79869495e-02,-1.44636566e-02,-1.26380781e-02,-6.56890050e-02,
-4.45621610e-02,6.88978210e-02,5.49175870e-03,3.99888307e-02,3.03800404e-02,
-3.96313518e-02,4.24887128e-02,1.26252593e-02,-4.95486036e-02,-7.48071894e-02,
-6.81659877e-02,8.24811161e-02,-8.26301798e-03,8.04952234e-02,-1.26501620e-02,
-3.87972333e-02,1.08033326e-02,3.94113846e-02,-4.50310595e-02,-1.04515310e-02,
-5.83310844e-03,-3.03399246e-02,4.15748470e-02,-4.98066247e-02,-5.51954135e-02,
2.77383775e-02,5.99652603e-02,-6.90768063e-02,-5.23692705e-02,7.11755157e-02,
-1.07374899e-02,7.46670961e-02,9.61465985e-02,-6.28525913e-02,1.74482539e-02,
3.35866883e-02,-3.78566943e-02,1.85469929e-02,-3.01872659e-02,2.04079086e-03,
-1.43269962e-02,-4.30983910e-03,-1.76094864e-02,1.82693079e-02,-6.94053769e-02,
-1.30194137e-02,2.89859064e-02,-8.28160867e-02,9.40908715e-02,3.59915458e-02,
-8.07961747e-02,7.09997267e-02,2.17980221e-02,2.45004427e-02,7.05134636e-03,
-1.15552908e-02,-4.96633984e-02,-5.09018498e-03,-6.77521676e-02,-1.85927434e-04,
-3.64516377e-02,1.08385142e-02,2.64685024e-02,6.37425631e-02,-2.94796508e-02,
-3.45711447e-02,-6.14691786e-02,-1.24843298e-02,3.30522135e-02,4.01467495e-02,
3.07910219e-02,-6.65464327e-02,3.37629467e-02,-1.99657362e-02,3.48912440e-02,
-3.46120223e-02,8.77305109e-04,-6.64442703e-02,5.67635410e-02,5.99284284e-02,
-4.95920479e-02,4.71657850e-02,3.63080800e-02,-5.57692237e-02,3.62579264e-02,
5.65891042e-02,4.91691120e-02,-6.46534115e-02,3.24275941e-02,-7.45679811e-02,
7.58692622e-02,-4.50899489e-02,2.24342123e-02,1.72701608e-02,3.67090814e-02,
-8.45916718e-02,4.40586247e-02,-3.08229141e-02,-9.14524645e-02,-5.87008148e-03,
4.16877046e-02,-6.78328201e-02,5.06756976e-02,2.04603979e-03,2.53616273e-02,
-8.58138725e-02,7.83284977e-02,-8.29719678e-02,-7.82315135e-02,-1.83906723e-02,
-5.37064672e-02,-5.83996705e-04,-3.45472880e-02,4.75214906e-02,-5.76493666e-02,
5.36271036e-02,2.32149344e-02,-3.33800539e-02,-4.71162051e-02,6.42102286e-02,
8.54167193e-02,-1.76377874e-02,6.59763664e-02,7.10463151e-02,-2.32722070e-02,
-5.67547716e-02,2.25136406e-03,-2.39089727e-02,-4.36707027e-02,-8.07143971e-02,
-8.61124396e-02,2.40388345e-02,4.83349673e-02,-1.34712541e-02,7.58509487e-02,
4.30877134e-02,5.50744012e-02,-7.57652447e-02,-5.21419905e-02,5.90177551e-02,
3.66342738e-02,1.13708973e-02,6.70851991e-02,-5.83192706e-02,-2.37660557e-02,
-7.41460174e-02,6.82996511e-02,6.97127581e-02,5.57817258e-02,5.72899356e-02,
7.67835975e-03,-3.08471336e-03,-3.26892436e-02,3.44036333e-02,-3.56465504e-02,
-3.68324667e-02,2.96118595e-02,7.07085207e-02,3.00580766e-02,5.82813583e-02,
-7.11178184e-02,5.52753136e-02,-4.73916251e-03,9.25089326e-03,3.38704176e-02,
6.29467517e-02,-3.13165076e-02,1.15609001e-02,2.57735159e-02,-4.65706773e-02,
-2.79300027e-02,7.81679675e-02,4.22293656e-02,4.33462746e-02,-7.14422539e-02,
-8.92803296e-02,7.58736115e-03,3.05095408e-02,6.80600628e-02,1.49993254e-02,
6.06934018e-02,-3.07596801e-03,3.43886763e-02,-8.25447291e-02,-5.44538200e-02,
6.75336048e-02,-4.61689942e-02,2.23129150e-02,5.02675287e-02,-4.80180159e-02,
1.48888212e-02,3.81071419e-02,4.40862821e-03,-8.88529643e-02,4.96983863e-02,
-7.70854130e-02,-3.32452543e-03,-5.93882129e-02,6.89545572e-02,7.01676831e-02,
4.64739203e-02,-1.88996159e-02,-6.15568180e-03,-5.04648313e-02,-8.27564523e-02,
-8.06880817e-02,1.63505189e-02,6.06092736e-02,-3.45035903e-02,1.31114153e-02,
-1.58950258e-02,-5.29089160e-02,5.87088279e-02,-5.90394810e-02,3.80565263e-02,
-7.96355382e-02,3.56172249e-02,1.39827933e-02,-5.61291613e-02,-5.17689399e-02,
-8.85976180e-02,-2.32292246e-02,2.91660484e-02,-7.48881102e-02,-2.09138244e-02,
3.50753292e-02,4.88787517e-02,4.13648374e-02,6.64238036e-02,3.89886349e-02,
6.20081089e-02,1.56939123e-02,-5.07471003e-02,-6.25051036e-02,-8.02290684e-04,
6.06674887e-02,-2.97928154e-02,-7.35007450e-02,-9.34261307e-02,-8.68188292e-02,
-2.57484931e-02,-2.88034533e-03,-2.86932308e-02,-4.82598320e-02,-4.22733501e-02,
6.59280941e-02,2.55027693e-02,-2.17052158e-02,-7.47199953e-02,-5.55532100e-03,
-5.72734475e-02,2.53436156e-02,2.25056354e-02,-2.95677464e-02,2.35667489e-02,
1.78343579e-02,1.46017065e-02,3.03767212e-02,7.97880813e-02,-2.31216196e-02,
7.81837776e-02,2.74442397e-02,3.90470326e-02,-2.11396418e-03,-3.88343632e-02,
-2.08921428e-03,-8.19469467e-02,2.25814749e-02,4.82435822e-02,-2.25457978e-02,
-2.51824036e-02,4.10732552e-02,4.34266031e-02,4.64662462e-02,7.10967407e-02,
-2.73250155e-02,3.61972339e-02,-2.65767928e-02,-3.28289270e-02,7.27667138e-02,
-6.82517290e-02,-4.70935069e-02,5.80103323e-02,-8.81101340e-02,-8.16628896e-03,
8.57593212e-03,3.29555906e-02,-7.06339478e-02,-4.68793437e-02,-3.26307043e-02,
-2.10682936e-02,-4.92758676e-02,-5.50611280e-02,-8.53714272e-02,-1.16993906e-02,
-3.97182591e-02,6.96815969e-03,8.32367968e-03,7.07607493e-02,7.04618245e-02,
5.07130511e-02,-1.45426104e-02,-3.72218601e-02,-1.14719477e-02,6.86652139e-02,
-3.79046015e-02,-1.51477465e-02,-5.27549312e-02,-7.42995515e-02,-8.13848246e-03,
4.52904962e-03,4.94632758e-02,4.88958843e-02,-5.65114431e-02,7.77273402e-02,
5.21380752e-02,5.42583056e-02,-1.86629622e-04,-1.01701682e-02,-3.70011739e-02,
-5.77970035e-02,-3.12706977e-02,1.07719712e-02,4.72516939e-03,-9.15235803e-02,
-2.83514289e-03,-2.50904784e-02,7.83381015e-02,-7.68064409e-02,7.74619058e-02,
-1.66312475e-02,-4.77225669e-02,-3.44434977e-02,-3.04181501e-02,5.17368354e-02,
4.15619314e-02,-4.79065143e-02,-2.75833197e-02,-4.43281233e-02,5.52042574e-02,
-8.29391629e-02,1.65960453e-02,-1.93681214e-02,5.82506210e-02,2.85959020e-02,
-4.63041738e-02,2.77501736e-02,4.89469208e-02,6.52162731e-02,-3.76868919e-02,
-7.52665997e-02,2.38348916e-02,-1.36089223e-02,4.01961543e-02,-8.34789574e-02,
-7.57249221e-02,7.29778223e-03,-5.87952211e-02,-5.35048991e-02,2.87000928e-03,
4.70080599e-02,1.14874933e-02,1.92661788e-02,5.40542044e-03,-7.56534189e-02,
3.22828591e-02,8.11253265e-02,-4.17449586e-02,4.38641608e-02,4.87277582e-02,
-5.67326806e-02,-6.04753979e-02,3.85322608e-02,2.55888868e-02,-2.47756355e-02,
4.12005112e-02,7.17792287e-02,-2.35182960e-02,-8.58782008e-02,-6.07030876e-02,
2.79946681e-02,7.47060701e-02,3.09134535e-02,-5.84948882e-02,7.31766820e-02,
-6.43435195e-02,-8.15094635e-02,5.90597391e-02,-1.60171092e-02,-4.96294424e-02,
-3.30138914e-02,-2.78996434e-02,7.48844296e-02,-1.88789461e-02,6.27733767e-02,
-8.77572037e-03,-6.51369467e-02,-7.28848204e-02,5.15172444e-02,-6.77927956e-02,
-8.65652561e-02,-2.63783652e-02,-2.59115584e-02,-4.85944189e-02,6.75225258e-03,
6.72951117e-02,3.78979929e-02,-1.57761164e-02,2.41446905e-02,6.97389916e-02,
1.72346234e-02,6.22181185e-02,3.65416184e-02,2.18718182e-02,-8.35229002e-05,
8.31468403e-03,7.64890686e-02,-8.73314664e-02,-1.38578995e-03,-5.33417286e-03,
-5.95027246e-02,1.06339706e-02,-4.14459081e-03,-6.34158030e-02,6.05379306e-02,
5.94884902e-02,-7.48268068e-02,-6.17882162e-02,-2.73923296e-02,-5.62950075e-02,
-7.59389699e-02,1.37738576e-02,-8.75772759e-02,-2.23630853e-02,-7.65847936e-02,
-3.97874638e-02,-2.04236452e-02,-4.61963762e-04,-5.01217023e-02,-7.41126314e-02,
-3.41588557e-02,2.32134410e-03,-4.24918868e-02,-7.90983811e-02,5.70475273e-02,
-8.59054029e-02,6.45918101e-02,-6.64990023e-02,-8.33761692e-02,-1.13914916e-02,
-8.40817988e-02,-6.26451224e-02,7.16473982e-02,-4.95477673e-03,-7.27006048e-02,
-1.92400049e-02,7.92163610e-02,7.14159161e-02,-7.82869309e-02,8.27534124e-02,
-6.41612336e-02,7.58404508e-02,2.70945076e-02,-1.73759758e-02,-5.13997898e-02,
7.81764388e-02,5.36121726e-02,7.16025829e-02,5.51683605e-02,-7.78525025e-02,
6.86680302e-02,-2.93694604e-02,-2.91953469e-03,-3.10818795e-02,-3.28420266e-03,
-4.54583988e-02,7.87905008e-02,-7.73420334e-02,8.07975233e-02,8.74963254e-02,
-2.33523324e-02,-4.44273837e-02,-4.10141759e-02,-4.84341085e-02,2.86989193e-02,
-1.15565211e-02,-3.12567987e-02,6.10228665e-02,7.66586065e-02,8.43425654e-03,
8.16363022e-02,2.16681417e-02,2.44816989e-02,9.89312585e-03,6.99088275e-02,
1.92077029e-02,-5.18528968e-02,4.88012880e-02,7.09528327e-02,9.56117362e-03,
-5.85416704e-02,4.50229049e-02,-2.08429173e-02,-7.27741942e-02,7.45612606e-02,
-4.49693464e-02,-3.32814977e-02,-8.28798115e-03,-7.95267150e-02,2.40690392e-02,
-7.29084760e-03,1.28663406e-02,-4.03218754e-02,1.08711971e-02,-6.93452880e-02,
5.43752238e-02,-6.30008578e-02,4.79053706e-02,2.40018703e-02,-5.78465723e-02,
-4.61874418e-02,4.87231538e-02,6.23182254e-03,-7.15964884e-02,-1.55823557e-02,
-8.11437219e-02,-2.71784626e-02,5.99267753e-03,-5.72434179e-02,2.89254263e-02,
7.42653534e-02,6.85623139e-02,2.23820060e-02,-2.53116693e-02,4.37346585e-02,
8.12397972e-02,2.37599108e-03,-3.37873138e-02,7.42440969e-02,1.13630295e-02,
3.21190022e-02,3.19681875e-02,-3.01625449e-02,-4.17799577e-02,-4.67942050e-03,
2.78159119e-02,4.12242748e-02,2.11517625e-02,-2.82589309e-02,-2.01011337e-02,
2.99180746e-02,4.80319671e-02,-1.02495831e-02,1.12414826e-02,3.57845537e-02,
-1.21714072e-02,-4.40328903e-02,-7.27468450e-03,3.01482342e-02,-6.74817562e-02,
9.42062773e-03,-8.98939520e-02,4.76769544e-02,-5.11248149e-02,-6.60991818e-02,
-7.53492564e-02,-1.29050435e-02,-1.34562636e-02,-5.34202345e-02,3.71684991e-02,
-1.73025066e-03,-7.55714178e-02,1.07579501e-02,7.15848356e-02,-5.58657758e-02,
-4.46850657e-02,-6.94137067e-02,5.85798174e-02,-5.19987196e-02,2.49069259e-02,
1.90330762e-02,-8.84607807e-03,-6.77912235e-02,-1.42731993e-02,-6.20871633e-02,
-8.36001113e-02,-1.15247108e-02,1.37744155e-02,-5.89508116e-02,7.75630400e-02,
-3.65544744e-02,5.56569099e-02,6.04685098e-02,2.71809399e-02,2.33631879e-02,
-6.19955920e-02,-5.08386157e-02,3.11808269e-02,-9.02159791e-03,-9.20147449e-02,
-2.72950064e-02,-8.19070116e-02,-4.32189666e-02,7.54683167e-02,6.53279014e-03,
-7.95771629e-02,1.82870440e-02,6.72578216e-02,6.94173202e-02,-7.15364516e-02,
1.79691873e-02,3.25141996e-02,-4.26221564e-02,-4.12062742e-02,4.72533628e-02,
4.16967198e-02,2.37117987e-02,-7.38108158e-02,-2.84521449e-02,5.84560595e-02,
-9.20972377e-02,-1.16761047e-02,-1.65827591e-02,7.28864223e-02,1.63121372e-02,
4.68983091e-02,5.66381775e-02,-2.86249649e-02,-6.18312024e-02,6.96562827e-02,
6.76375180e-02,-5.11160642e-02,2.98479926e-02,-3.34228389e-02,5.78331240e-02,
-3.66711756e-03,-7.58897364e-02,7.66768903e-02,-1.85024906e-02,1.26327677e-02,
-7.48806074e-02,5.16892523e-02,-5.25007434e-02,-4.43161987e-02,-4.79935631e-02,
4.42812555e-02,-5.86059652e-02,6.97561726e-02,7.42301391e-03,2.50785816e-02,
-1.43741751e-02,-5.15391976e-02,7.62930587e-02,-8.49902257e-02,6.93562031e-02,
5.71757071e-02,-4.16215286e-02,-7.61468261e-02,1.95605233e-02,7.88160786e-02,
2.21819356e-02,5.10025509e-02,8.32077116e-02,1.71778630e-02,3.08711529e-02,
-1.36085497e-02,-3.46490815e-02,-7.10919201e-02,-8.25056210e-02,5.53090870e-02,
-2.09739842e-02,5.25893923e-03,3.94239165e-02,1.79503076e-02,-6.63254187e-02,
7.76805878e-02,-2.01363042e-02,3.21796499e-02,1.55374715e-02,-8.11481327e-02,
-3.06990445e-02,4.34833430e-02,2.86667738e-02,2.61661522e-02,-3.71778719e-02,
2.98561882e-02,-8.23314190e-02,-4.51784059e-02,-8.74243304e-02,-1.61421522e-02,
2.83581112e-02,-5.28910570e-02,-8.82716849e-02,-7.62264282e-02,-4.59169447e-02,
-4.48056795e-02,6.20037876e-02,-5.92600964e-02,3.04625537e-02,-1.70230735e-02,
-1.49511723e-02,6.66931942e-02,3.16523947e-02,-4.90357652e-02,4.46904041e-02,
8.13416988e-02,-1.21431379e-02,5.64841405e-02,-1.79805905e-02,-8.11920092e-02,
7.12996870e-02,-8.84678438e-02,-5.27748354e-02,-1.44345788e-02,3.26326340e-02,
4.23591807e-02,-8.02125782e-02,-8.67996663e-02,3.18866707e-02,1.97444968e-02,
1.37189012e-02,-8.65602642e-02,3.49976905e-02,2.23414553e-03,2.78603528e-02,
-4.89444137e-02,3.06286793e-02,-8.73350352e-02,9.49667394e-03,1.72459185e-02,
-2.80731842e-02,-7.16768503e-02,-3.26460227e-02,-5.21811768e-02,-1.54373851e-02,
3.17686759e-02,3.07206176e-02,3.41554694e-02,-4.86622863e-02,-9.54743102e-02,
7.02687427e-02,-1.01431524e-02,-4.37785611e-02,-8.51979554e-02,-8.67669135e-02,
1.50962621e-02,4.36607599e-02,-3.43238795e-03,-1.46605130e-02,-2.22221334e-02,
-5.41269546e-03,3.74779850e-02,-5.17017655e-02,-5.35492152e-02,2.17061285e-02,
-5.50580844e-02,3.07443980e-02,1.92011595e-02,2.50511579e-02,-1.26734199e-02,
5.60694113e-02,1.32364091e-02,2.77040582e-02,-8.76903459e-02,6.54075369e-02,
-6.54881597e-02,-8.21657553e-02,-8.66928846e-02,-4.65837233e-02,-7.70542994e-02,
-3.28245983e-02,4.41885330e-02,-9.36133564e-02,2.92659812e-02,-9.01153982e-02,
1.26346191e-02,6.67691082e-02,7.15200827e-02,4.59585749e-02,7.92233497e-02,
-4.26543504e-02,-8.81191269e-02,-1.17653217e-02,1.62060689e-02,-4.58578654e-02,
-2.33559497e-02,-7.43657872e-02,-2.77164709e-02,4.52920832e-02,2.97991131e-02,
6.86169118e-02,1.83696635e-02,-3.60285342e-02,6.70678094e-02,4.52218503e-02,
2.90322490e-03,-5.18274270e-02,4.19290923e-02,2.17936784e-02,-1.25475065e-03,
6.67626187e-02,-1.36026721e-02,-9.44374278e-02,-7.84090627e-03,-1.14938347e-02,
5.40427081e-02,-8.41950253e-02,7.79661760e-02,6.98317885e-02,-6.07227534e-02,
1.65360272e-02,3.82058583e-02,3.91309522e-02,-5.76121695e-02,-5.50661646e-02,
-1.17900083e-03,5.03188483e-02,-2.28423029e-02,-8.88681188e-02,-3.38926762e-02,
-8.28879233e-03,5.50183468e-02,4.84738089e-02,-9.03422944e-03,-2.57887524e-02,
6.73417225e-02,2.45415792e-02,-6.51571378e-02,2.54990514e-02,4.07350883e-02,
2.42653657e-02,8.36792868e-03,-7.77141005e-02,5.75239621e-02,3.64943333e-02,
-5.84243797e-02,-7.34878033e-02,-6.72040954e-02,8.38482380e-02,-2.88828928e-02,
-1.78379449e-03,1.50316777e-02,-4.87237517e-03,-5.44304214e-02,5.42696714e-02,
4.39985842e-02,-9.47339367e-03,4.58778515e-02,-7.69738555e-02,-1.43062547e-02,
6.53184503e-02,-6.22266717e-02,1.24139572e-02,-4.51852530e-02,-1.59236032e-03,
-4.90011945e-02,-3.50501053e-02,6.67448193e-02,4.84281741e-02,3.98507193e-02,
1.43871009e-02,-2.51887999e-02,9.19777527e-02,-5.04401401e-02,-8.31396133e-02,
1.82821769e-02,4.36396040e-02,5.56623638e-02,3.64664234e-02,-1.29555278e-02,
-9.12880152e-02,8.12316984e-02,2.15150341e-02,-5.93129285e-02,3.31607498e-02,
-8.73959512e-02,-2.47699730e-02,-5.79031594e-02,-7.54189268e-02,2.94865910e-02,
6.97663352e-02,3.44116539e-02,-1.91161111e-02,1.58876181e-02,-7.11495802e-02,
-8.79758745e-02,-8.39688703e-02,5.28065003e-02,-3.75390388e-02,-6.41580373e-02,
-3.36788371e-02,-1.69176608e-02,-8.09721947e-02,-4.95826788e-02,4.49135620e-03,
-2.22746972e-02,-6.55512586e-02,-2.72615580e-03,1.97569169e-02,3.26028019e-02,
4.67698462e-02,6.72139004e-02,3.56912836e-02,-1.96039956e-02,4.76816669e-03,
6.64327899e-03,3.80044021e-02,-3.92334051e-02,6.96523637e-02,6.10393770e-02,
8.44198689e-02,2.50351448e-02,-9.29662883e-02,3.33434716e-02,5.32071516e-02,
3.25321294e-02,-4.75251228e-02,-6.32238016e-02,1.96918417e-02,-4.06799130e-02,
2.25340966e-02,6.79173842e-02,6.40476355e-03,-6.22270517e-02,-9.28176120e-02,
6.82745595e-03,3.09937820e-02,3.91686670e-02,5.60768396e-02,6.35092780e-02,
-3.47241908e-02,-7.70605505e-02,-3.50750573e-02,-6.62292168e-02,-5.77911958e-02,
-5.37153445e-02,-7.01407045e-02,-4.02427837e-02,-6.09149486e-02,-6.43019080e-02,
5.31287082e-02,-5.32792532e-04,6.54744729e-02,3.90848555e-02,-3.98112200e-02,
6.43629804e-02,-4.24255133e-02,-3.57201435e-02,-6.61386624e-02,-5.05045317e-02,
-1.96769135e-03,-5.18011414e-02,-3.76785994e-02,1.41487373e-02,1.63373239e-02,
-1.92911411e-03,8.15282241e-02,-6.56889305e-02,-6.03364594e-02,6.86202273e-02,
4.12298329e-02,5.98260984e-02,3.62656228e-02,-1.24089299e-02,4.15362045e-02,
3.99738178e-02,4.28363755e-02,-8.57151113e-03,-5.14965206e-02,-6.36902675e-02,
2.63298675e-02,7.17618363e-03,2.71523707e-02,-1.27476333e-02,-4.83169332e-02,
-2.43281992e-03,3.99260335e-02,-3.86497974e-02,9.66379594e-04,-1.70760807e-02,
7.60441134e-03,1.81453340e-02,2.31964104e-02,4.81453957e-03,-4.95445840e-02,
-7.67092630e-02,-7.53243864e-02,6.67010397e-02,7.41820969e-03,-9.25726146e-02,
2.31496356e-02,-5.78393675e-02,6.64190575e-02,6.16437430e-03,-8.54210779e-02,
-3.73626724e-02,9.92240757e-03,-3.31197232e-02,4.69349958e-02,-7.83630908e-02,
5.45986183e-02,-2.56108940e-02,-7.09316134e-02,-3.73049974e-02,5.90845458e-02,
-5.03029414e-02,-6.35617673e-02,4.52583916e-02,-4.33833823e-02,2.28872672e-02,
8.45053121e-02,4.19865921e-02,-5.25392629e-02,4.02187137e-03,2.31177211e-02,
3.68249938e-02,-1.09781567e-02,-3.49314585e-02,1.18899075e-02,-3.34582254e-02,
-8.32454711e-02,-5.57513386e-02,1.02251787e-02,-7.05344677e-02,-6.11946173e-02,
7.01033473e-02,2.59790011e-02,-4.89113033e-02,-7.07920119e-02,4.32027467e-02,
2.20563915e-02,7.69174621e-02,-1.65182129e-02,-3.78912091e-02,-8.77784267e-02,
7.64816031e-02,-8.66709724e-02,1.72831013e-03,-9.02485568e-03,-9.00602527e-03,
-3.43274251e-02,-5.50378188e-02,-2.59760469e-02,3.99865061e-02,5.93755096e-02,
3.49441357e-02,4.26556654e-02,5.01776636e-02,4.58491370e-02,-6.93058074e-02,
-6.28814176e-02,6.22102804e-02,1.29635716e-02,-8.62287916e-03,-4.53322791e-02,
-7.38274902e-02,7.36646354e-02,3.56781408e-02,-1.65600271e-03,-4.71057184e-02,
-8.81835744e-02,9.21775773e-02,5.93086854e-02,3.89983170e-02,-3.26529667e-02,
4.04472090e-02,-2.80921925e-02,1.16897468e-02,1.47664174e-03,-1.46118749e-03,
6.67302497e-03,1.63657833e-02,3.18090282e-02,7.33778626e-02,3.78267765e-02,
6.89210817e-02,-8.03399235e-02,-6.53895885e-02,6.98928460e-02,-2.77279112e-02,
5.60668111e-02,-8.06832239e-02,5.26709743e-02,6.24101721e-02,-4.88798358e-02,
5.56435250e-02,-8.96510258e-02,3.51378657e-02,4.88310978e-02,4.93125804e-02,
6.80097863e-02,5.13275228e-02,-2.36046426e-02,-3.02335657e-02,1.84105150e-02,
7.98136219e-02,-2.89464369e-02,-9.01059583e-02,-5.85470982e-02,-3.07558961e-02,
7.00687617e-02,-6.69041425e-02,4.25496921e-02,5.46294227e-02,3.55656669e-02,
3.79154012e-02,-1.08846202e-02,6.63106591e-02,-6.15846626e-02,-6.90933466e-02,
-1.36493528e-02,-8.17342252e-02,7.22678080e-02,6.78140000e-02,7.92431757e-02,
-4.99748513e-02,3.60736325e-02,3.98253091e-02,-7.21694455e-02,-3.62968035e-02,
3.66002996e-03,-5.47509938e-02,2.57364698e-02,1.21181784e-02,1.26504917e-02,
5.70262484e-02,-1.86901316e-02,6.98979646e-02,3.58499438e-02,-6.17558621e-02,
5.49297605e-04,1.58061497e-02,5.90339908e-03,-5.01471832e-02,-4.88755386e-03,
4.52122614e-02,7.03656971e-02,1.64139383e-02,-4.69105504e-02,-6.53209537e-02,
5.09265736e-02,-2.01505460e-02,-7.72679746e-02,-4.18020412e-02,8.47308785e-02,
-8.22683275e-02,5.64803220e-02,-7.21683800e-02,5.65416133e-03,-4.17408235e-02,
-6.95963427e-02,-7.34941587e-02,-5.18027209e-02,2.69742310e-02,-7.97089934e-02,
-8.56812224e-02,-9.49795637e-03,-2.52386108e-02,1.00266729e-02,-1.11793214e-02,
3.85234654e-02,5.07916100e-02,6.10031858e-02,-5.44373058e-02,-9.37199965e-02,
3.09825428e-02,1.95875894e-02,9.93544143e-03,-1.71246380e-02,-1.88802518e-02,
6.89922422e-02,-3.85491401e-02,-9.20027494e-02,-1.35011971e-02,-5.76491132e-02,
-3.74460011e-03,5.06375059e-02,2.91344039e-02,6.58627972e-02,-5.17821610e-02,
6.66899011e-02,4.11471212e-03,3.01951077e-02,7.53951147e-02,6.02167435e-02,
5.47768585e-02,3.91691066e-02,4.60173152e-02,-7.36064930e-03,-6.72417730e-02,
-7.12643713e-02,-2.29681171e-02,1.20879710e-02,-7.00598210e-02,-7.07606599e-03,
-4.55891415e-02,-9.16624814e-02,-4.49347384e-02,-2.73578241e-02,-3.06198746e-02,
5.31506017e-02,-1.88000761e-02,-3.83522399e-02,-3.04574780e-02,-5.69948275e-03,
8.99800938e-03,1.96381155e-02,4.06865105e-02,-3.55287977e-02,2.46016104e-02,
3.94427739e-02,5.81358857e-02,-7.68248364e-02,-3.17782047e-03,-8.91126469e-02,
3.30882682e-03,-7.45659024e-02,3.66064161e-02,-8.98963064e-02,7.14457929e-02,
2.09127106e-02,-8.47942159e-02,-8.59118626e-02,-6.30368739e-02,7.84480646e-02,
-3.67426276e-02,-3.67440283e-02,5.06133921e-02,-2.08823010e-02,-3.12327668e-02,
-7.38124549e-02,-8.17642584e-02,-4.31655124e-02,-7.62420967e-02,-3.28854136e-02,
1.66304260e-02,-5.99917918e-02,-4.46000583e-02,6.75590411e-02,-3.90132777e-02,
2.92153750e-02,4.27899919e-02,-1.09802466e-02,5.84002212e-02,-8.27598665e-03,
-3.11993342e-02,7.55997226e-02,6.08036518e-02,-1.67270079e-02,-1.68683641e-02,
8.18814412e-02,-2.64825914e-02,-2.71872971e-02,-8.76064878e-03,-7.96349645e-02,
-8.36673304e-02,2.57924199e-02,3.39518599e-02,3.12123336e-02,2.36318237e-03,
8.24922025e-02,8.58070925e-02,-2.21331278e-03,-2.85181161e-02,-8.44559222e-02,
-4.24690321e-02,6.58738613e-03,-8.80162790e-02,-4.19011228e-02,4.98053618e-02,
-6.82453290e-02,4.64969091e-02,4.17114943e-02,-6.07260838e-02,4.17758152e-02,
-8.14757347e-02,3.42711769e-02,1.28358416e-02,7.25542679e-02,1.38732046e-02,
-1.40702063e-02,2.12577526e-02,-7.29251839e-03,8.97287973e-04,5.79135232e-02,
2.75767334e-02,7.23954365e-02,-8.46785456e-02,6.94840848e-02,-9.65299606e-02,
-7.55969584e-02,-3.37499343e-02,-3.23520564e-02,-4.01494186e-03,-9.12552401e-02,
-7.77004361e-02,-8.54236707e-02,8.02260563e-02,-7.08454056e-03,-1.38404155e-02,
3.76570933e-02,4.05705273e-02,-7.72325918e-02,4.65469286e-02,-7.33941123e-02,
-8.49609151e-02,-7.56373182e-02,8.27283319e-03,5.26138172e-02,-6.68565463e-03,
4.34517860e-03,-5.13676889e-02,-2.58471724e-03,-1.77833578e-03,-2.36118529e-02,
-2.04306860e-02,2.46665347e-02,-6.25910014e-02,1.81615539e-02,-2.72777583e-02,
-7.99309909e-02,7.20456764e-02,7.12256506e-02,-4.21559401e-02,-7.13611469e-02,
9.32521652e-03,2.14902498e-02,6.48815259e-02,1.03247203e-02,7.06320107e-02,
-4.51716445e-02,-8.71504545e-02,2.43735556e-02,3.16834189e-02,6.57605305e-02,
5.89202531e-02,5.21717332e-02,-1.82258207e-02,-8.26883763e-02,-8.91678259e-02,
4.77390811e-02,-2.85860314e-03,-7.54947960e-02,9.61911399e-03,-7.70934820e-02,
5.16528971e-02,-8.97578895e-02,3.40459798e-03,-5.42976223e-02,1.22865252e-02,
-5.12222573e-02,-9.11539327e-03,3.14783826e-02,-4.31853626e-03,1.60640571e-02,
4.12150249e-02,-2.22376976e-02,6.45120218e-02,-7.87768587e-02,-3.57641056e-02,
1.82947665e-02,-6.11990504e-02,7.03394860e-02,5.35347126e-02,-9.14105475e-02,
-4.98120077e-02,1.68570261e-02,-6.09234609e-02,-8.77893269e-02,-5.80577068e-02,
-3.31175998e-02,-2.62163300e-02,6.21613823e-02,1.61065664e-02,1.50743369e-02,
-8.32380950e-02,-7.46920034e-02,-7.69213885e-02,-6.63650781e-02,-1.95590826e-03,
7.63664171e-02,5.76846581e-03,-4.37066071e-02,5.45552559e-02,-4.17577289e-02,
5.19143194e-02,-6.79904446e-02,5.59677929e-02,-5.28166518e-02,-1.84739213e-02,
6.20091893e-02,-6.60775825e-02,8.19041058e-02,8.22204426e-02,6.19082116e-02,
-8.60841107e-03,-3.83996442e-02,8.60347599e-02,-5.49346991e-02,1.37412176e-03,
-7.11818459e-03,-6.93849474e-02,-8.02873001e-02,2.31514778e-02,-3.48893330e-02,
1.12295412e-02,-4.97925729e-02,-8.83220807e-02,-4.24553230e-02,1.14730950e-02,
5.89241274e-02,-5.24242222e-03,-4.89073247e-02,-3.56906541e-02,1.95941585e-03,
-7.52135925e-03,-2.50756424e-02,7.25481361e-02,5.65427681e-03,5.05484222e-03,
-1.77883543e-02,-6.45445334e-03,-5.72003089e-02,3.54038440e-02,8.18049014e-02,
6.38441071e-02,-1.26330331e-02,-8.36130306e-02,1.98849346e-02,-6.32054210e-02,
-3.54327969e-02,-2.22423822e-02,-8.57663304e-02,-5.52391447e-02,-8.82171616e-02,
-4.63408343e-02,-9.04862285e-02,-4.79847528e-02,-9.20409262e-02,-3.66883576e-02,
-8.37189034e-02,-7.03398287e-02,5.98540492e-02,-4.74489704e-02,3.72838229e-02,
-1.70444474e-02,3.30319069e-03,-9.04659927e-03,-7.85595104e-02,2.06595957e-02,
1.04172900e-03,-5.29583544e-02,4.19774204e-02,6.35473505e-02,7.96381906e-02,
-6.49077371e-02,3.37670632e-02,-4.56892475e-02,4.27949205e-02,-3.67418081e-02,
-3.92738096e-02,2.52846573e-02,1.36696026e-02,1.96183827e-02,-6.10133074e-03,
7.66878482e-04,1.58914402e-02,-4.76775095e-02,-9.36795026e-02,-5.78763001e-02,
5.08166067e-02,-5.35728671e-02,7.96699002e-02,-7.73432925e-02,-6.85552359e-02,
7.80715942e-02,-1.81954857e-02,-2.53430810e-02,6.22416176e-02,2.85009407e-02,
-4.15228605e-02,6.30009472e-02,5.29522076e-02,4.35100533e-02,-3.53944600e-02,
-3.94418836e-03,1.74363237e-02,3.22576612e-02,-5.93148135e-02,-4.12996067e-03,
-3.10675744e-02,4.10070037e-03,6.62994906e-02,-3.65754701e-02,-2.48894431e-02,
4.36830074e-02,-5.98472916e-02,-5.66978119e-02,-6.95423409e-02,-2.97168847e-02,
7.12222382e-02,-1.13847433e-02,4.14148308e-02,8.43283087e-02,-8.39132741e-02,
4.30069976e-02,7.60258585e-02,-6.62443936e-02,-3.05438805e-02,5.00025600e-02,
2.60807574e-02,-2.41931044e-02,2.06729248e-02,5.71880527e-02,5.94938435e-02,
3.58311087e-02,-8.44297484e-02,2.38269400e-02,5.56530058e-02,2.75628455e-03,
6.26991875e-03,-3.32531333e-02,-2.68052947e-02,6.38150722e-02,2.34898590e-02,
-7.00412095e-02,9.70698241e-03,-5.14688995e-03,2.86692213e-02,-4.62486334e-02,
-5.65012135e-02,-9.06796306e-02,-6.57459646e-02,3.72806005e-02,-5.33106960e-02,
-7.15056583e-02,6.41561300e-02,9.39339027e-03,4.59887832e-02,1.67111512e-02,
-5.38062006e-02,4.21081036e-02,-1.64298005e-02,6.78106397e-02,8.12869798e-03,
-3.71485390e-02,4.11560722e-02,-6.07327074e-02,-1.15236454e-03,6.57657534e-02,
-1.16119031e-02,3.08095329e-02,-6.50550202e-02,3.49153695e-03,-2.60392595e-02,
5.87748364e-02,-7.39337057e-02,-4.39051315e-02,4.03952412e-02,-9.22579039e-03,
7.65676722e-02,3.03524695e-02,-6.93833530e-02,-5.34587353e-03,2.39291657e-02,
3.21376622e-02,-3.68205346e-02,-3.39304060e-02,7.96395540e-02,-7.06379190e-02,
5.19093387e-02,1.28700798e-02,-2.10855510e-02,3.16619016e-02,2.41309535e-02,
-6.06377944e-02,3.07933670e-02,-1.84331834e-02,-3.26895975e-02,-5.67132421e-02,
3.21534425e-02,-1.56811848e-02,-3.29981446e-02,-3.80859431e-03,-8.88156798e-03,
-6.55627400e-02,-6.98300004e-02,6.35286123e-02,-6.69924682e-03,-7.42863640e-02,
3.47708389e-02,-6.02628775e-02,-4.42212448e-02,3.98241766e-02,5.52102849e-02,
1.25130834e-02,-8.81390125e-02,-6.24007219e-03,-7.52527639e-02,2.36719027e-02,
4.78998497e-02,-6.95532113e-02,-7.99684301e-02,4.63165157e-02,-6.60342276e-02,
2.35008821e-02,6.40892759e-02,2.87359096e-02,-7.11147338e-02,-3.30159515e-02,
-2.77557466e-02,-8.66739601e-02,1.02654137e-02,-8.14201683e-02,2.43722647e-03,
2.59867255e-02,-6.19575642e-02,7.81881064e-02,6.22771941e-02,6.78229481e-02,
2.96222419e-02,-7.29080960e-02,2.07534861e-02,5.11936890e-03,-2.06600036e-02,
-2.44960245e-02,1.02406628e-02,3.30735892e-02,4.16673347e-02,-7.02395430e-03,
-7.48436898e-02,2.34403200e-02,5.94667904e-02,4.10478003e-02,3.64329107e-02,
-1.18456166e-02,9.70597286e-03,6.65296167e-02,-6.54759854e-02,-5.24419770e-02,
-8.13210681e-02,-3.39764706e-03,-1.23746833e-02,6.09655343e-02,-2.36844141e-02,
-5.91475554e-02,-6.43547326e-02,3.98065150e-02,-9.23297182e-02,-1.77062792e-03,
7.11960793e-02,-6.94636181e-02,-7.02269226e-02,-8.47159848e-02,-7.46780634e-02,
5.69347441e-02,7.38413334e-02,2.43901107e-02,-1.13958437e-02,-8.03786069e-02,
-8.88978988e-02,-5.96667640e-03,-1.63591895e-02,-2.58618332e-02,6.69618547e-02,
-3.10098995e-02,8.48055258e-03,3.67703475e-02,3.48421629e-04,3.69041739e-03,
-6.50084168e-02,1.97431492e-03,7.89186582e-02,-5.05353399e-02,-6.62273988e-02,
-4.50057983e-02,-1.82108209e-02,3.08817327e-02,-4.01466861e-02,6.30606487e-02,
6.14845194e-03,7.50862584e-02,-5.84059022e-02,3.37261409e-02,-1.61671005e-02,
7.02810809e-02,-1.19070588e-02,-7.78763220e-02,-5.97209670e-04,2.62115560e-02,
-4.67364350e-03,1.71165243e-02,2.28502974e-02,5.28549105e-02,-4.84059798e-04,
2.44871266e-02,3.08309477e-02,-6.72980621e-02,-5.79340151e-03,3.24694142e-02,
8.08890015e-02,-1.94174647e-02,-5.35219721e-02,6.27278304e-03,-1.84450969e-02,
2.66312185e-04,1.24151632e-03,-5.39419204e-02,2.68342961e-02,7.83538446e-02,
4.75301733e-03,7.53012151e-02,5.99663258e-02,-3.89603451e-02,-1.58541594e-02,
3.24854627e-03,7.42428303e-02,-5.84713668e-02,8.16724226e-02,3.47247683e-02,
-5.64264059e-02,6.73916563e-02,2.47977842e-02,7.35438466e-02,4.81740460e-02,
-6.29178360e-02,6.79801181e-02,5.54287732e-02,-4.46681641e-02,6.56426996e-02,
4.09818441e-02,-3.66147682e-02,-6.01431765e-02,1.12897344e-02,2.10215617e-02,
-3.18149775e-02,7.55497813e-02,1.70861464e-02,-2.77356654e-02,7.55109563e-02,
4.21412010e-03,7.67924264e-02,1.81621239e-02,5.33597581e-02,-5.94161861e-02,
-6.09591715e-02,-3.32939401e-02,-6.94837049e-02,-2.38282327e-03,7.12787285e-02,
4.73475754e-02,-6.87553734e-02,1.35511747e-02,5.22783324e-02,3.29318568e-02,
-8.88778418e-02,3.81299555e-02,4.09517288e-02,6.75104633e-02,2.72750501e-02,
3.83046083e-02,-5.36575774e-03,-4.96842265e-02,-2.30650436e-02,1.58089828e-02,
3.19381207e-02,-4.66800220e-02,5.71028367e-02,1.72945280e-02,-5.68879955e-02,
7.82074332e-02,-1.80063378e-02,2.18228921e-02,-2.36005206e-02,6.15409128e-02,
-8.13201815e-02,-9.29968283e-02,-2.55760308e-02,5.90837784e-02,-5.15484288e-02,
-6.61642924e-02,-6.78285956e-02,-8.02823994e-03,7.55074844e-02,-4.64318432e-02,
-5.94617939e-03,-6.84746802e-02,7.75047690e-02,5.18393181e-02,-4.95217778e-02,
-6.70722425e-02,7.21282437e-02,5.64763919e-02,-6.66363612e-02,-9.98477563e-02,
-2.94783376e-02,-7.25081563e-02,1.82681661e-02,6.53880462e-02,3.72433588e-02,
8.24512728e-03,4.22164463e-02,7.67107382e-02,-6.37471080e-02,8.04514140e-02,
5.62539175e-02,-3.88411991e-03,-5.22835590e-02,-8.49432722e-02,1.69915601e-03,
4.08360958e-02,-1.06339082e-02,3.26772965e-02,-7.50568211e-02,1.32561270e-02,
1.70068406e-02,-3.36605310e-02,-1.12990476e-02,1.29088601e-02,-7.82734752e-02,
3.32129709e-02,-3.32312733e-02,-2.65261140e-02,-4.74282838e-02,3.87017950e-02,
-5.38437590e-02,-5.93977757e-02,3.64220962e-02,-5.15187271e-02,-7.62140751e-02,
-6.46983460e-03,7.01677203e-02,-1.70893352e-02,-7.73347765e-02,3.27117108e-02,
-8.18155184e-02,-1.93355158e-02,6.51077460e-03,-8.20100904e-02,-7.08281100e-02,
7.34636933e-02,-6.34693801e-02,-3.68317738e-02,4.14444432e-02,-6.49132058e-02,
-6.19327351e-02,4.93206270e-03,1.48106401e-03,9.50535201e-03,7.62536600e-02,
8.23135525e-02,-6.51027337e-02,6.13563210e-02,-4.28449847e-02,2.90691759e-02,
1.65463034e-02,2.22314522e-03,1.63363945e-02,-2.14551669e-02,4.98534972e-03,
-7.62995929e-02,-6.76101446e-02,-5.20082191e-02,-8.90182853e-02,1.00061167e-02,
2.37604957e-02,5.18577397e-02,-7.20555894e-03,6.46826178e-02,-1.82272363e-02,
-6.52494952e-02,1.64240077e-02,7.98747018e-02,1.54428994e-02,-3.61383706e-02,
-6.08576536e-02,-7.06475005e-02,-4.54497375e-02,7.15734586e-02,3.01830168e-03,
-6.00989275e-02,-4.65856493e-02,-2.00492367e-02,8.29418227e-02,-6.47417903e-02,
3.25990692e-02,-2.82246005e-02,1.20450035e-02,-7.56808370e-02,7.28886342e-03,
6.19514510e-02,-6.23792468e-04,4.23570946e-02,7.65758082e-02,3.38989310e-02,
-9.00994428e-03,7.21763521e-02,-6.92467466e-02,-5.08637428e-02,-8.25105309e-02,
5.69988303e-02,3.67581137e-02,2.38948837e-02,-2.01976150e-02,-6.17263615e-02,
7.36594573e-02,-1.01057002e-02,2.36722678e-02,-9.74361971e-02,2.30199285e-02,
-1.85268875e-02,-1.77437253e-02,6.25276119e-02,-7.53724016e-03,-2.17536911e-02,
-8.30712914e-02,4.70319763e-02,6.94116531e-03,-9.61258914e-03,1.35343466e-02,
6.33364022e-02,4.93420027e-02,-6.58460110e-02,9.88112111e-03,-2.38036900e-03,
3.48207466e-02,2.06871554e-02,1.36996107e-02,-4.51401770e-02,2.31181383e-02,
-2.18554158e-02,7.42356777e-02,-5.28154783e-02,-7.99240470e-02,-4.60114852e-02,
-5.37187606e-02,-4.64126542e-02,-7.12177381e-02,-1.83008071e-02,-6.83714598e-02,
-1.19288089e-02,-5.49781881e-02,5.53973690e-02,1.69413816e-02,3.22666578e-02,
-4.05929536e-02,-2.51615793e-02,5.84835447e-02,9.43463820e-04,-7.24316463e-02,
6.36589080e-02,-4.59842794e-02,5.74405454e-02,-1.58284847e-02,-4.23541889e-02,
-7.23902956e-02,-6.67732581e-03,8.11145529e-02,-7.31280297e-02,-3.68676335e-02,
1.50057615e-03,6.21986650e-02,8.35439339e-02,-3.96713838e-02,3.06021478e-02,
7.17142001e-02,-7.43104815e-02,-2.67281309e-02,-5.88529520e-02,-7.53585696e-02,
8.18234682e-02,-7.57932067e-02,4.65648137e-02,-7.25056753e-02,-4.95568514e-02,
2.19972525e-02,-6.83153421e-02,7.66962394e-02,-4.83033508e-02,3.68724912e-02,
-6.25004247e-02,-2.72269547e-03,6.84986040e-02,-8.65852907e-02,2.86891218e-02,
7.89237246e-02,3.55155617e-02,7.82396272e-02,-7.33412057e-02,-6.23989962e-02,
2.07905262e-03,6.33836314e-02,6.59193993e-02,-8.43696892e-02,1.28519768e-02,
-4.16383147e-02,-6.62423596e-02,-5.16942441e-02,4.83457483e-02,-3.10774893e-02,
-2.70684902e-02,6.30983487e-02,-1.85074541e-03,-5.55122131e-03,-4.65620048e-02,
-2.84498092e-02,3.80786415e-03,2.35934015e-02,4.63527404e-02,-8.52248371e-02,
9.54931322e-03,1.47567382e-02,2.21185498e-02,-3.53947766e-02,-6.85809776e-02,
-7.52991885e-02,-5.89043684e-02,5.39083667e-02,-8.64105672e-02,1.23214340e-02,
1.58810969e-02,-5.85861914e-02,7.52173411e-03,8.92240182e-03,4.42228317e-02,
-6.95790024e-03,-4.40958999e-02,3.26805525e-02,6.79316148e-02,2.41633691e-02,
6.35020211e-02,8.33121315e-02,-5.54124936e-02,5.38109392e-02,-5.56416102e-02,
-6.47921711e-02,-9.70446393e-02,4.04269286e-02,-4.93394993e-02,1.50593035e-02,
-6.64964095e-02,3.59157175e-02,-7.38600567e-02,-3.48796248e-02,7.81894550e-02,
-6.84277862e-02,-4.89957184e-02,1.85947157e-02,-5.88746602e-03,-2.61366200e-02,
-7.92628005e-02,2.66701169e-02,-1.32317152e-02,-4.10657190e-02,7.54631534e-02,
2.69645490e-02,2.04459708e-02,-1.66026149e-02,5.24348281e-02,4.63511609e-02,
5.56394048e-02,2.62280777e-02,2.92303395e-02,-5.02105765e-02,-3.81041206e-02,
3.21438946e-02,-5.95728755e-02,-3.14105935e-02,4.52939384e-02,-2.18157191e-02,
3.58367595e-03,5.36026359e-02,1.78572629e-02,-7.67276958e-02,6.75604260e-03,
3.48409861e-02,-2.25754697e-02,-4.49758321e-02,-6.67287558e-02,5.36979064e-02,
-8.81223232e-02,-7.30488300e-02,5.08452430e-02,-2.59939097e-02,-8.52940008e-02,
-6.11866526e-02,7.94277042e-02,2.66672764e-02,5.62291406e-02,-5.99652156e-02,
-4.53531779e-02,5.92921562e-02,6.40822854e-03,-7.95585066e-02,-7.43892640e-02,
-4.66332212e-02,-8.02443251e-02,-3.01757511e-02,-8.22119936e-02,-3.98826674e-02,
8.74379836e-03,2.81632151e-02,7.74997920e-02,1.40048265e-02,-7.68164247e-02,
-6.49230704e-02,-1.88343239e-03,1.54199461e-02,-7.74326771e-02,1.32603683e-02,
5.40980771e-02,1.66110583e-02,-2.59819231e-03,4.69092540e-02,-4.22187671e-02,
-4.26601656e-02,-8.83773565e-02,-2.53737029e-02,4.47478369e-02,-1.25177149e-02,
-1.39189735e-02,7.32450038e-02,-5.71804605e-02,5.91305606e-02,9.35232546e-03,
7.62068331e-02,-3.71776372e-02,-4.03027162e-02,7.54782856e-02,8.67808145e-03,
4.15690755e-03,6.50915653e-02,-5.21050803e-02,-8.24778378e-02,5.48786856e-02,
6.64982274e-02,-5.34343868e-02,-7.87956268e-02,-3.18872323e-03,4.14101966e-02,
5.68744838e-02,-2.27998644e-02,3.51248458e-02,4.23895530e-02,2.98799984e-02,
-8.52046981e-02,-1.84740890e-02,7.72106498e-02,5.90917394e-02,4.33228053e-02,
-1.96632318e-04,-4.24401276e-02,-6.95220530e-02,-1.69849023e-02,-7.96316192e-02,
-3.17741744e-02,7.27700293e-02,-6.52213991e-02,-6.55668378e-02,-5.20398691e-02,
-4.82611135e-02,-3.44056487e-02,5.45531176e-02,-9.00208130e-02,-2.60286648e-02,
7.44377896e-02,-6.93815798e-02,4.85418168e-05,-8.24712291e-02,5.23729511e-02,
-1.55091449e-03,-6.04100786e-02,-2.73873471e-02,3.93620506e-02,-2.84772608e-02,
-5.98636176e-03,-2.49428488e-03,6.42848313e-02,-5.19157648e-02,4.66379076e-02,
-3.33662033e-02,-3.95744853e-02,6.62448257e-02,-4.61831428e-02,-6.93353778e-03,
8.22635517e-02,-5.82139790e-02,5.82919940e-02,-6.45515472e-02,6.62121773e-02,
-5.53365760e-02,-5.07483222e-02,3.52087407e-03,8.13383311e-02,5.45971328e-03,
-1.84427891e-02,7.34683452e-03,1.21244891e-02,3.14419977e-02,8.18546861e-03,
1.10511584e-02,-1.37847783e-02,-6.47104904e-02,5.66996187e-02,7.16305897e-02,
-2.20042164e-03,-4.99180369e-02,-9.25398543e-02,3.80523987e-02,3.03683244e-02,
4.65908796e-02,-1.61252916e-02,-5.91259729e-03,1.63622666e-02,-1.04079098e-02,
2.53030509e-02,-4.59792875e-02,-4.88933437e-02,5.88572994e-02,-1.28297452e-02,
1.92559883e-02,3.00407931e-02,-1.24673489e-02,7.01645017e-02,7.47449845e-02,
2.45829318e-02,6.00739457e-02,1.03129437e-02,-2.00210642e-02,1.09210948e-03,
5.48411496e-02,5.35084307e-02,-2.59824842e-02,-3.41306068e-02,7.39758760e-02,
-2.10090610e-03,6.57967851e-02,4.98112515e-02,5.52867763e-02,4.67665568e-02,
-3.31845097e-02,-1.64624546e-02,2.86364672e-03,-5.18609844e-02,-5.02948090e-02,
-6.31517395e-02,3.68118435e-02,-8.64950567e-02,-5.05970558e-03,8.99826735e-03,
7.81923458e-02,1.25668617e-02,-8.69690701e-02,-7.07451329e-02,8.49690661e-03,
-3.87694426e-02,1.62347630e-02,6.60211146e-02,4.43721749e-02,-8.64825677e-03,
4.53009382e-02,-6.54811133e-03,6.30889311e-02,-1.94947645e-02,-3.71685699e-02,
-4.42201737e-03,4.86371899e-03,5.12197874e-02,-9.88891907e-03,-8.62450972e-02,
-6.66450188e-02,-7.19546899e-02,8.29545408e-02,-1.14327054e-02,-3.08303721e-02,
7.43376138e-03,-2.68023107e-02,-1.15397749e-02,6.80381656e-02,-1.85014624e-02,
8.87158420e-03,3.26365381e-02,5.17064817e-02,-7.91628286e-02,-8.05698931e-02,
7.36346766e-02,-5.40855853e-03,5.38302660e-02,-1.42866084e-02,4.91841510e-02,
-3.63050662e-02,-8.70125890e-02,-9.04365778e-02,-7.72265792e-02,4.22262251e-02,
2.70833913e-02,-3.99314053e-02,7.26048499e-02,1.51200574e-02,4.69207726e-02,
5.92532940e-02,3.48392650e-02,1.57774035e-02,-7.57394582e-02,1.95474830e-03,
8.76976401e-02,-6.07714290e-03,-5.37534803e-02,-8.48036483e-02,-2.66400948e-02,
3.19450088e-02,-2.41045058e-02,1.14583727e-02,6.05439804e-02,-9.24932770e-03,
7.44631067e-02,-7.75792450e-02,3.50174084e-02,-8.11414048e-02,-7.21357018e-02,
-4.57650498e-02,6.92236423e-02,-7.30793029e-02,3.26824300e-02,-2.67168693e-02,
-2.90655755e-02,5.59753403e-02,5.83792143e-02,4.50359322e-02,3.45167657e-03,
5.14727756e-02,-1.22002512e-03,5.81056103e-02,-1.54928882e-02,-5.64478636e-02,
7.13431239e-02,3.52824889e-02,6.03993833e-02,5.01097925e-03,-6.27564415e-02,
8.17904621e-02,7.15418831e-02,1.64095797e-02,-2.36835219e-02,7.48748034e-02,
5.59712835e-02,1.23987747e-02,7.41358250e-02,4.97458056e-02,2.68771257e-02,
6.60712793e-02,7.61144757e-02,6.20215945e-03,-9.13494900e-02,6.14184774e-02,
5.22501720e-03,-3.44162248e-02,-9.40270443e-03,5.46836331e-02,-7.77350068e-02,
-6.46301657e-02,-5.98559203e-03,5.83255142e-02,-7.42495805e-02,-3.49384658e-02,
-2.36407649e-02,-1.94171667e-02,5.48011065e-02,-9.15444121e-02,-4.83797975e-02,
-3.75401340e-02,4.01724838e-02,6.66271523e-02,-1.82617325e-02,5.78606389e-02,
-3.86663675e-02,-6.31674156e-02,-8.45004171e-02,-2.91271992e-02,-8.26660469e-02,
5.60532846e-02,5.12535945e-02,-3.56875546e-02,-2.94577908e-02,6.75757155e-02,
6.87030181e-02,-9.30641498e-03,-4.20848373e-03,6.28063902e-02,2.32957620e-02,
-9.16302353e-02,-4.61016372e-02,8.20823479e-03,-8.26662481e-02,-9.82987434e-02,
5.70184067e-02,-3.08965128e-02,3.17694768e-02,-5.27289025e-02,-7.72776902e-02,
1.85459293e-02,3.50727886e-02,-9.10465373e-04,-1.20780785e-02,3.13222446e-02,
1.21725481e-02,-5.54372817e-02,-8.34068358e-02,-4.70929518e-02,-7.41163967e-03,
2.55117398e-02,-4.70830612e-02,2.36902572e-02,-7.95031115e-02,5.71399219e-02,
-4.64092791e-02,-8.18548817e-03,-4.48496230e-02,1.77419148e-02,-1.26079107e-02,
-2.97123063e-02,7.02622086e-02,6.06862232e-02,1.64061226e-02,2.68604327e-02,
-7.41222203e-02,1.77152967e-03,1.82551574e-02,-3.14692706e-02,1.01942113e-02,
-3.50363143e-02,7.96616375e-02,-9.45449620e-02,3.70685644e-02,-1.90830510e-03,
-8.09984952e-02,-4.21040468e-02,2.69910060e-02,7.90870488e-02,3.55955288e-02,
-7.61853307e-02,3.79244313e-02,1.30839963e-02,-4.83359657e-02,-1.74007856e-03,
-5.88723719e-02,4.22847383e-02,-5.01192547e-03,4.22794595e-02,4.15038951e-02,
1.77476089e-02,2.05001961e-02,4.23256010e-02,-5.56824803e-02,-4.08627279e-02,
6.34072646e-02,-3.86353880e-02,-8.47632661e-02,7.78764561e-02,-1.76332500e-02,
-9.23744403e-03,2.04561045e-03,8.23796466e-02,2.80220732e-02,6.43246695e-02,
6.85199862e-04,6.06169440e-02,6.51630089e-02,-8.51465240e-02,-7.96318799e-02,
4.68465649e-02,6.68778718e-02,5.28686456e-02,-7.37387035e-03,2.67218649e-02,
-4.37218621e-02,3.81588079e-02,7.22192153e-02,1.19120739e-02,2.94391122e-02,
-8.18762779e-02,-1.05749834e-02,-7.04979105e-03,3.92122418e-02,-7.38667101e-02,
-9.13231522e-02,3.88969146e-02,-8.98403227e-02,-6.22327104e-02,4.66541648e-02,
5.26163690e-02,7.14085847e-02,7.64742047e-02,-3.58294323e-02,3.45698670e-02,
6.05356321e-02,-5.27093075e-02,2.89862286e-02,-7.38925934e-02,-9.39298421e-04,
-1.18877152e-02,-7.07580533e-04,-8.78654048e-02,7.49681070e-02,-2.85798945e-02,
-3.85088772e-02,-4.21102084e-02,-8.57281610e-02,7.88881071e-03,8.01456422e-02,
-2.68247221e-02,-5.84987253e-02,-7.53298774e-02,-2.35632323e-02,1.97757259e-02,
-5.70264980e-02,-7.12500587e-02,-3.27380896e-02,2.75104959e-02,1.68007966e-02,
5.78987598e-02,5.72648458e-02,7.01830834e-02,3.72751579e-02,5.19350776e-03,
-4.92874458e-02,-2.73104161e-02,3.50744091e-02,4.51398008e-02,-1.69926125e-03,
-8.39515552e-02,6.54003099e-02,6.34388328e-02,6.80375919e-02,-5.88124618e-02,
-2.01871116e-02,-7.24793524e-02,-6.86583295e-02,-4.34180014e-02,-8.07590559e-02,
1.77509431e-02,5.05811982e-02,2.49313023e-02,7.83736538e-03,1.28076235e-02,
-7.36213401e-02,6.38652518e-02,3.50337587e-02,8.01422298e-02,-3.66238430e-02,
9.65897553e-03,-3.69682088e-02,-6.29051169e-03,-3.87099087e-02,-7.70620331e-02,
4.86734547e-02,5.53082116e-02,1.19347102e-03,6.22277223e-02,-6.62591010e-02,
-3.55232097e-02,-6.49838820e-02,-1.41209522e-02,-4.72427979e-02,-4.79417108e-02,
-6.82598278e-02,-4.46081609e-02,6.71388581e-02,6.96516708e-02,-4.45522033e-02,
5.73450103e-02,8.07750449e-02,6.89706672e-03,-6.33366406e-02,-6.17985949e-02,
5.77192828e-02,-1.18970815e-02,4.98631634e-02,5.55804148e-02,8.47711712e-02,
1.63292866e-02,-5.31388298e-02,6.06702454e-02,-1.47913005e-02,5.94838560e-02,
-2.12543160e-02,-8.56273696e-02,8.77745170e-03,-7.37706497e-02,-4.79438193e-02,
3.71518731e-02,5.22485599e-02,6.10606046e-03,-3.31531337e-04,-9.78862308e-03,
-3.06773949e-02,6.75349981e-02,7.82401115e-02,3.14297900e-02,3.15440595e-02,
4.22395952e-03,-5.41550443e-02,-4.72590774e-02,-8.51182416e-02,-4.21987672e-04,
1.39781786e-02,5.45223616e-02,5.72383702e-02,4.88086119e-02,7.23640621e-02,
7.30460063e-02,3.42396833e-02,-4.12295088e-02,-5.46570420e-02,2.93351361e-03,
1.02222273e-02,3.62482085e-03,-2.19805297e-02,2.02060752e-02,5.72158098e-02,
8.61861184e-03,-1.18089169e-02,-5.35157099e-02,6.44062385e-02,-1.76931378e-02,
6.17711619e-02,-1.39376745e-02,-2.36529578e-03,-1.12195546e-02,3.46545726e-02,
-6.64654747e-02,-2.19980553e-02,-6.82687908e-02,5.10594174e-02,6.90453351e-02,
4.65573668e-02,-4.58516255e-02,3.46288271e-02,7.56822005e-02,3.33029106e-02,
-2.32152231e-02,1.25113679e-02,-7.64476359e-02,-6.98293839e-03,4.73444574e-02,
-5.24013899e-02,6.40342012e-02,5.46465963e-02,-7.16646537e-02,5.25554642e-02,
-8.34078938e-02,-8.41649175e-02,-2.27578450e-02,-5.69766425e-02,6.60003796e-02,
6.45675659e-02,-7.41976649e-02,-1.58117563e-02,-6.64433688e-02,-2.64329184e-02,
4.10655737e-02,9.94040519e-02,3.58659737e-02,1.94109008e-02,5.28577808e-03,
-7.04858303e-02,-4.84407283e-02,7.02867582e-02,6.41442910e-02,6.28372803e-02,
-5.84971346e-02,-1.06526278e-02,3.33779007e-02,-2.94627398e-02,6.64971620e-02,
-6.50267154e-02,-3.44668031e-02,-1.36418799e-02,-3.71175744e-02,5.71589405e-03,
2.96565276e-02,-3.14290673e-02,9.49765518e-02,-2.65612453e-02,-4.74011749e-02,
-7.20729306e-02,-7.72809461e-02,6.65944517e-02,-2.20889468e-02,-4.15156484e-02,
-3.89058292e-02,7.71941841e-02,4.68070693e-02,3.39897946e-02,2.59818826e-02,
-1.79444794e-02,-5.87808751e-02,-1.58073530e-02,5.75817339e-02,2.72078104e-02,
-4.85387594e-02,2.34327279e-03,-7.76626244e-02,-7.27671981e-02,-6.33264929e-02,
3.16019319e-02,9.41558704e-02,-6.66122651e-04,-1.98954195e-02,7.57190585e-02,
-7.81741180e-03,-5.07033505e-02,6.66547641e-02,-6.97685108e-02,-2.17699837e-02,
-6.30718395e-02,-4.42509539e-03,-3.80764268e-02,5.87077066e-02,4.79604043e-02,
-7.09732473e-02,-5.25480928e-03,7.79894665e-02,5.12661487e-02,-1.95621159e-02,
3.06068659e-02,-4.96684946e-02,-5.60682006e-02,-5.04112393e-02,-1.91992130e-02,
1.87763525e-03,-1.64210666e-02,1.60451550e-02,3.84557731e-02,8.48908052e-02,
-3.00589520e-02,-4.22505662e-02,1.94268934e-02,3.70757170e-02,-6.32463545e-02,
-5.18125147e-02,-3.16283968e-03,-8.68371129e-02,4.06566672e-02,-7.36337155e-02,
-3.11546400e-02,-7.54876360e-02,1.09931463e-02,-5.27753606e-02,-6.24039248e-02,
-3.27934907e-03,4.07578498e-02,3.18831997e-03,-8.11335295e-02,5.18428460e-02,
6.04703603e-03,-2.69959196e-02,3.62664014e-02,-2.65796296e-02,2.17195861e-02,
9.10622068e-03,8.97322819e-02,7.58237392e-02,-1.02803800e-02,-5.97199500e-02,
-1.29595185e-02,-6.87127337e-02,5.30212261e-02,-1.02103781e-02,9.85920802e-03,
-4.69851047e-02,7.33149499e-02,5.74739017e-02,7.06229135e-02,3.08731711e-03,
-3.71279418e-02,-6.57067224e-02,6.31618798e-02,7.60362297e-02,4.58108373e-02,
-6.02217838e-02,3.78402695e-02,6.77951202e-02,-2.49691810e-02,2.66134478e-02,
-7.66508654e-02,7.65611082e-02,8.39399770e-02,-6.61986917e-02,2.29498595e-02,
-8.12309086e-02,-5.83773153e-03,6.56828359e-02,-6.45699874e-02,-6.28639534e-02,
-7.30508044e-02,-5.53702749e-02,5.73515594e-02,-3.15967090e-02,4.26748060e-02,
-4.82562245e-05,-7.77615979e-02,-2.42665317e-02,-7.04103410e-02,4.45012897e-02,
-2.31497008e-02,2.68716160e-02,1.88670997e-02,7.04375282e-03,-2.83928793e-02,
3.02044656e-02,2.64730230e-02,1.04982164e-02,-6.77291006e-02,-1.33951390e-02,
9.71246585e-02,-3.89864743e-02,3.08580548e-02,3.70588601e-02,-9.06428031e-04,
6.86084405e-02,-7.76192322e-02,6.33120462e-02,-6.54305220e-02,4.74715866e-02,
6.23180084e-02,-6.52067829e-03,4.21967953e-02,8.14977810e-02,-6.78761769e-03,
-5.60686998e-02,-3.57924923e-02,7.18787685e-02,5.40444516e-02,-8.55141506e-02,
6.48428053e-02,-7.20467716e-02,8.69576484e-02,3.09956502e-02,-8.05625021e-02,
3.40879895e-02,-4.97719869e-02,5.64423464e-02,-5.12172617e-02,-3.03893024e-03,
-2.34594606e-02,-3.83742563e-02,-2.56294012e-02,6.95098415e-02,1.11470558e-02,
-2.45531145e-02,1.40167447e-02,7.60122091e-02,-7.74919763e-02,1.00858603e-02,
-3.78078707e-02,-8.33809525e-02,6.20353371e-02,-6.26196936e-02,-7.53991529e-02,
-7.30993450e-02,8.76475126e-03,-1.32450471e-02,6.75888360e-02,4.06913757e-02,
-2.08233744e-02,-5.00523336e-02,5.32922596e-02,-1.18712103e-02,2.90005915e-02,
-5.65690547e-02,2.11365279e-02,-4.48627071e-03,4.18103449e-02,8.50919709e-02,
-6.75942078e-02,-1.81521587e-02,-3.64463404e-02,-1.98819675e-02,-2.89462898e-02,
7.72902509e-03,-8.43255296e-02,-5.17067388e-02,3.67635600e-02,3.77872959e-02,
-6.46721497e-02,-2.34331633e-03,2.64500603e-02,-2.20302101e-02,3.12282350e-02,
-2.36128904e-02,-6.72052428e-02,-4.07103673e-02,2.39672977e-03,8.04846063e-02,
5.19849062e-02,-1.38652902e-02,4.25070152e-02,-4.55379039e-02,5.32967038e-02,
6.56987950e-02,-6.03028424e-02,3.43855540e-03,8.03241804e-02,-7.51665533e-02,
-5.88981286e-02,-6.59938455e-02,-4.57361974e-02,1.30956713e-03,-6.75975308e-02,
4.94049042e-02,-3.01486440e-03,6.41043624e-03,-7.97146633e-02,3.53939943e-02,
-3.59523967e-02,-7.35097900e-02,4.22575884e-02,-4.84121852e-02,-7.95474276e-02,
7.46929571e-02,4.16839160e-02,7.09246174e-02,-4.34361920e-02,7.46843889e-02,
-2.91051716e-02,4.30612862e-02,1.22093521e-02,-4.67283465e-02,2.08470579e-02,
7.16548860e-02,3.88902910e-02,8.20548981e-02,6.78086951e-02,-4.22599874e-02,
1.06409863e-02,-8.32227524e-03,-7.36635691e-03,5.71135618e-02,-2.41418034e-02,
-4.06780764e-02,8.37505013e-02,5.77011593e-02,2.84949932e-02,2.79383771e-02,
-7.12984800e-02,-1.68868639e-02,-4.08919491e-02,2.00096332e-02,2.28700368e-03,
3.56469229e-02,-1.90301910e-02,-3.79016325e-02,9.66607593e-03,4.83062156e-02,
6.92407340e-02,5.03223017e-02,-2.43553170e-03,-2.41415221e-02,-2.02688109e-02,
-3.21152769e-02,-6.00569062e-02,6.67122155e-02,-4.39131744e-02,4.31028381e-02,
-5.83832599e-02,4.88133468e-02,1.78965572e-02,6.42417446e-02,-4.21402194e-02,
4.94759344e-02,6.52536154e-02,-7.93108810e-03,2.53768340e-02,-6.18493780e-02,
-3.22569683e-02,-6.20941594e-02,-2.78970879e-02,-1.49823343e-02,-2.57334094e-02,
4.94414233e-02,-7.38477409e-02,-6.02702349e-02,6.80736378e-02,6.02297895e-02,
-1.68212820e-02,3.72860804e-02,3.95195978e-03,-7.67801479e-02,2.76858099e-02,
-5.15074059e-02,3.66199091e-02,3.68795767e-02,7.77304843e-02,2.03122664e-02,
2.44800020e-02,-4.27076593e-02,-4.46401201e-02,8.33209306e-02,5.24894819e-02,
5.45952208e-02,-6.69066086e-02,4.88646701e-02,7.76833594e-02,-7.67269805e-02,
-6.59581721e-02,-3.95040261e-03,2.44158115e-02,-6.54700994e-02,1.89379994e-02,
-1.83819737e-02,-4.99675125e-02,-5.40180951e-02,2.31224075e-02,-7.22882943e-03,
-4.67646383e-02,-4.25348394e-02,7.51791745e-02,9.34021955e-04,-3.70025635e-02,
6.14366643e-02,-7.52611756e-02,-4.80262972e-02,-4.20655720e-02,-8.08685943e-02,
-3.59309912e-02,-3.76114361e-02,7.39821643e-02,-3.78490537e-02,-3.73528264e-02,
-6.57574087e-02,6.59955367e-02,4.38193232e-03,-6.07131934e-03,-1.68669987e-02,
-6.20928481e-02,7.42662251e-02,-4.92163412e-02,6.90675974e-02,1.71208475e-02,
1.56437997e-02,2.34632790e-02,7.97470883e-02,8.33172202e-02,-5.65749183e-02,
-8.38037357e-02,3.22264656e-02,-6.54632673e-02,3.06981988e-02,-8.35631266e-02,
-6.69051185e-02,5.45642860e-02,-1.53910078e-03,-6.14691824e-02,-7.73168681e-03,
7.44129419e-02,-7.25387037e-02,4.24496531e-02,7.60283414e-03,5.44010773e-02,
2.22136434e-02,-5.90075217e-02,3.28196138e-02,1.04365032e-02,-4.47136834e-02,
9.89927165e-03,-3.70839722e-02,-4.93902899e-02,-5.60535211e-03,4.59077861e-03,
5.16269431e-02,2.21183524e-03,-7.63342083e-02,-6.82680979e-02,-4.95166518e-02,
-7.73872882e-02,4.62020449e-02,6.12433255e-02,-2.24067736e-03,1.05152698e-02,
-8.11351314e-02,-2.56739222e-02,7.71758482e-02,-3.64105515e-02,3.54550928e-02,
-1.49791781e-02,-3.91482599e-02,-3.88769917e-02,1.55962268e-02,-2.36372035e-02,
-3.65169793e-02,-3.99604887e-02,-2.07752194e-02,3.07101943e-02,4.94033545e-02,
3.03849834e-03,9.77223180e-03,7.23987147e-02,5.12794964e-02,-1.39001394e-02,
-8.47569172e-05,-6.63568676e-02,-2.22444795e-02,5.81014529e-02,-1.87178236e-02,
1.04782078e-02,4.44322154e-02,6.72462434e-02,-8.46686307e-03,3.08148228e-02,
-7.09078833e-02,-6.90885857e-02,-7.05808252e-02,-5.70793115e-02,-1.55276777e-02,
7.24584684e-02,-1.44087411e-02,5.08731157e-02,-4.40052971e-02,-2.27815658e-02,
1.62160816e-03,-1.54093709e-02,8.58313143e-02,-6.77680001e-02,-5.62406192e-03,
1.04842242e-02,4.25461233e-02,2.14323401e-02,6.81402311e-02,-3.13328318e-02,
4.84124348e-02,-2.09718160e-02,-4.54116203e-02,4.06480171e-02,-4.76505421e-02,
4.16017184e-03,3.36287580e-02,6.67129382e-02,-3.45247686e-02,8.12960118e-02,
3.62132601e-02,-3.50132175e-02,-2.41363551e-02,-6.92347735e-02,-6.57249242e-03,
-7.55803138e-02,-7.92468414e-02,-2.93121375e-02,-8.51105452e-02,3.04203527e-03,
-1.77260786e-02,3.19413585e-03,5.36672771e-03,1.34529667e-02,7.33393580e-02,
-2.32470222e-02,-6.71715066e-02,-5.33797555e-02,-6.67499229e-02,-8.29188898e-02,
5.02596386e-02,-7.41245449e-02,7.90916830e-02,-7.67859221e-02,-5.94614558e-02,
-2.21395995e-02,-1.59702660e-03,-3.21082724e-03,-8.20374675e-03,8.14373419e-02,
8.15079361e-02,6.45371005e-02,-5.22462800e-02,4.93012145e-02,4.21619080e-02,
-6.54815584e-02,-7.55257579e-03,-7.08389143e-03,4.30367375e-03,5.95847778e-02,
6.40755966e-02,-5.94368167e-02,7.57571980e-02,-7.46272579e-02,7.90760368e-02,
-8.32233950e-03,6.43210560e-02,-6.08835444e-02,-8.49085748e-02,-7.06901923e-02,
-2.97463052e-02,2.63272114e-02,-4.61716875e-02,-8.80998501e-04,6.18628003e-02,
8.22428148e-03,7.53681511e-02,-5.00935614e-02,-7.53876790e-02,-2.83061769e-02,
-7.71038467e-03,6.96653277e-02,5.90863377e-02,-7.38182962e-02,7.91263133e-02,
-6.62106276e-02,1.62213854e-02,7.92460516e-02,-6.55177683e-02,8.49652216e-02,
-8.54213163e-02,4.02885908e-03,-6.45060018e-02,7.44240880e-02,-6.29526377e-02,
-1.46901403e-02,7.46971965e-02,-2.83491029e-03,-3.73194888e-02,-5.21761812e-02,
-6.46433085e-02,6.54110610e-02,4.06067222e-02,6.35405853e-02,-3.95232774e-02,
1.92093123e-02,-7.05517605e-02,5.96546270e-02,-2.84428559e-02,-2.39351578e-02,
3.64263058e-02,7.65128359e-02,-6.96749836e-02,2.30775215e-02,4.80432622e-03,
-6.97629601e-02,-9.76555888e-03,-1.33919436e-02,8.74283025e-04,1.68296900e-02,
-4.89460900e-02,-6.65448466e-03,-2.16741655e-02,2.47786213e-02,1.75066683e-02,
-4.67895120e-02,-1.80566069e-02,2.16133762e-02,3.19501781e-03,9.05270595e-03,
-2.64602192e-02,-5.27384318e-02,-9.58710257e-03,-1.41890510e-03,-2.76086666e-02,
-3.12666818e-02,-4.02785130e-02,4.83366549e-02,1.74148567e-02,-2.87795216e-02,
-3.28294933e-02,-5.73071018e-02,-6.86185807e-02,-3.71672027e-02,-7.50874355e-02,
-1.42303435e-02,2.62068938e-02,5.42461276e-02,6.77390322e-02,8.09870064e-02,
-7.03562126e-02,3.80391954e-04,7.50490427e-02,4.33011614e-02,-7.61643574e-02,
-1.04588615e-02,-8.21858495e-02,4.11175303e-02,-5.05327210e-02,-8.41863230e-02,
1.81118548e-02,-8.93663839e-02,8.44570633e-04,-1.48721663e-02,-8.10190067e-02,
-2.10785437e-02,-2.78679188e-02,-3.34020151e-04,3.44449729e-02,-4.69478145e-02,
4.58400249e-02,-6.31821454e-02,3.53998095e-02,-2.74800248e-02,-8.42353404e-02,
4.22698408e-02,7.28120431e-02,4.49098572e-02,2.22755093e-02,7.20856190e-02,
-1.55801782e-02,8.47615823e-02,-2.22218316e-02,4.48249839e-02,-6.33874834e-02,
-6.32836297e-02,-6.98262155e-02,3.35018300e-02,-6.26721382e-02,-2.75971871e-02,
-4.12833877e-02,2.95693371e-02,-9.39475559e-03,-8.53730515e-02,-7.65026128e-03,
5.17274924e-02,3.83236185e-02,-2.46432126e-02,2.91695744e-02,-7.59275816e-03,
1.83790307e-02,-5.68587109e-02,-2.66413856e-02,4.82541993e-02,6.18576109e-02,
-2.14452725e-02,-3.25749302e-03,-1.51129887e-02,2.22609602e-02,-2.16531903e-02,
-3.56067270e-02,-2.33095549e-02,-1.75011028e-02,2.15225462e-02,-1.90584385e-03,
-4.65458333e-02,5.05249687e-02,-8.51798877e-02,-2.50012279e-02,-7.06476048e-02,
3.07971798e-02,7.08048940e-02,-7.87071213e-02,-1.14782481e-02,7.96017349e-02,
-3.96888815e-02,7.99647346e-02,8.29778537e-02,4.55936044e-03,-4.51369919e-02,
-5.46370149e-02,-1.33998403e-02,4.22641598e-02,-1.49052646e-02,6.88465014e-02,
-4.78210784e-02,3.84716578e-02,-4.47201096e-02,-6.12378344e-02,-5.32046594e-02,
-3.47952545e-02,7.03913495e-02,3.78519786e-03,7.36242458e-02,-3.04655954e-02,
7.62555227e-02,-1.34039493e-02,4.85708453e-02,-1.70046892e-02,-2.21179947e-02,
6.41831709e-03,-2.51966156e-02,6.20831996e-02,-5.71612604e-02,-3.62989008e-02,
4.12461460e-02,-6.98336065e-02,-1.68001093e-02,8.69018659e-02,6.37601689e-02,
7.47230835e-03,-3.34983785e-03,-5.93031570e-02,-1.77110583e-02,-4.53647971e-02,
-5.82566150e-02,-3.49494591e-02,4.43920419e-02,8.30388963e-02,-6.50026798e-02,
-4.35484899e-03,-6.97315335e-02,9.18493494e-02,5.04747592e-02,-3.78701277e-02,
2.29883417e-02,5.38744451e-03,-5.96796907e-03,5.25941215e-02,-1.58275720e-02,
8.37022588e-02,-5.36817163e-02,7.55747268e-03,1.31731778e-02,-6.90995455e-02,
-7.72001520e-02,1.63498409e-02,2.65712780e-03,-8.54200795e-02,6.03439324e-02,
1.23737864e-02,-6.27430901e-02,-1.35024525e-02,-8.98496881e-02,-1.89896114e-02,
-7.50905648e-02,-1.13687171e-02,-2.68074293e-02,2.86464300e-02,-2.73473226e-02,
-2.42541097e-02,4.53174785e-02,2.84736380e-02,4.64944616e-02,-7.18461275e-02,
-5.24367727e-02,5.25573008e-02,-5.32391556e-02,7.53659457e-02,-7.48647302e-02,
7.39972442e-02,4.36042249e-02,-2.72484776e-02,5.87240793e-02,4.15460281e-02,
-2.49002930e-02,-2.55149622e-02,8.03765878e-02,-4.44346890e-02,3.44594149e-03,
3.23274322e-02,-1.83170531e-02,-6.35198504e-02,2.76653431e-02,-4.34873663e-02,
-7.47409686e-02,2.35372502e-02,4.03186493e-02,-9.18364804e-03,3.32643688e-02,
-8.96100178e-02,-7.88398758e-02,4.82070744e-02,3.33951414e-03,-7.79544339e-02,
-1.73108876e-02,8.40011016e-02,-6.67777658e-02,4.00786176e-02,5.19937016e-02,
-5.16286260e-03,-4.49209958e-02,-6.85878247e-02,2.31159199e-02,-6.42994270e-02,
-6.30397573e-02,-7.34479651e-02,7.95096084e-02,-4.45595682e-02,4.51003723e-02,
3.86809409e-02,6.81493804e-02,7.41455406e-02,-2.10751351e-02,-6.38298839e-02,
2.52403668e-03,3.10720177e-03,4.62093242e-02,-4.04532701e-02,-7.74890110e-02,
1.98453311e-02,1.61356218e-02,-4.86190245e-02,-5.34153469e-02,-5.99769391e-02,
7.55359903e-02,9.85180400e-03,8.22456926e-03,-2.74624471e-02,4.55183312e-02,
-3.73042449e-02,1.50867533e-02,1.35077331e-02,2.61779148e-02,6.41567558e-02,
-7.56392954e-03,-1.55786881e-02,-8.06537271e-02,-1.93831534e-03,-1.22052394e-02,
-3.75540592e-02,5.71428090e-02,3.36118857e-03,7.72939771e-02,-9.53917857e-03,
5.72513342e-02,1.41093275e-02,4.08866927e-02,-1.04462216e-02,-9.48948227e-03,
3.88208330e-02,1.86163895e-02,-5.99663286e-03,-1.58400666e-02,-5.52066155e-02,
1.78071614e-02,4.97617424e-02,-6.26608357e-02,7.11293444e-02,-5.00397123e-02,
8.05560946e-02,-4.10122052e-03,-3.62950042e-02,-1.89936701e-02,-6.28873557e-02,
-6.53446764e-02,-5.94150759e-02,-8.38139653e-02,-6.99828267e-02,-6.97203502e-02,
8.24191347e-02,-4.93531525e-02,-6.92524463e-02,-7.91247413e-02,-7.18163177e-02,
5.80036417e-02,6.69847103e-03,-5.53972572e-02,2.19338816e-02,6.16850443e-02,
7.13358726e-03,-7.04199774e-03,-5.56983799e-02,-3.72649617e-02,-8.40943903e-02,
-3.61443162e-02,7.99967349e-02,5.70230372e-02,1.44399414e-02,8.30874592e-02,
-5.35135716e-02,-5.51004596e-02,-8.33633244e-02,2.33954657e-02,5.96324094e-02,
1.17595568e-02,-2.55677812e-02,-2.86560524e-02,4.52360176e-02,7.83540905e-02,
-3.34138796e-02,6.79978579e-02,-1.41858803e-02,-4.21215482e-02,7.83315897e-02,
-7.83186592e-03,-3.30306254e-02,7.23606125e-02,-2.90429182e-02,7.98426718e-02,
-3.72701627e-03,-4.23774123e-02,2.54318696e-02,-3.56989503e-02,-9.58098797e-04,
4.07322533e-02,4.18469645e-02,-2.15952806e-02,2.58612037e-02,4.17628922e-02,
-3.11124120e-02,2.82692518e-02,3.33314389e-02,2.85170302e-02,3.54575925e-02,
-2.41816919e-02,-1.17521966e-02,1.86997224e-02,-4.81532291e-02,6.40696958e-02,
