#include <math.h> 
 #include <string.h> 
#include "./include/k2c_include.h" 
#include "./include/k2c_tensor_include.h" 

 
static struct FRNN_0D_12channels_static_vars 
{ 
float lstm_1_state[256]; 
float lstm_2_state[256]; 
} FRNN_0D_12channels_states; 


void FRNN_0D_12channels(k2c_tensor* input_1_input, k2c_tensor* dense_1_output) { 

float lstm_1_output_array[128] = {0}; 
k2c_tensor lstm_1_output = {&lstm_1_output_array[0],1,128,{128,  1,  1,  1,  1}}; 
float lstm_1_fwork[1024] = {0}; 
int lstm_1_go_backwards = 0;
int lstm_1_return_sequences = 0;
float * lstm_1_state = FRNN_0D_12channels_states.lstm_1_state; 
float lstm_1_kernel_array[6144] = {
-5.07109277e-02,-9.34872925e-02,-1.23612203e-01,-5.91143295e-02,5.46416305e-02,
1.78474467e-02,-1.60402395e-02,7.27163330e-02,-6.13178127e-02,-1.10734619e-01,
4.90499884e-02,6.39184192e-02,5.90026975e-02,6.67864755e-02,3.73231396e-02,
9.91931781e-02,1.82236861e-02,5.82071356e-02,-5.98571775e-03,-6.87275901e-02,
8.52205530e-02,5.05271442e-02,-7.79302698e-03,1.29387736e-01,-1.17143504e-01,
-6.12867549e-02,1.71749406e-02,6.98522031e-02,2.61238609e-02,-4.94608805e-02,
-9.66235623e-03,3.39379124e-02,-9.01689455e-02,6.82975799e-02,1.15613580e-01,
1.44439964e-02,-5.38525404e-03,-7.92195946e-02,1.30104795e-02,8.26979056e-02,
5.42874113e-02,-6.44972101e-02,-8.54858458e-02,3.95858251e-02,3.03073879e-03,
4.03951630e-02,1.11908190e-01,-1.34146214e-01,1.17294965e-02,7.10175112e-02,
-1.59659684e-02,-2.36657709e-02,1.22858785e-01,-1.63721275e-02,8.20200220e-02,
-3.02618947e-02,-8.83845463e-02,3.70980129e-02,1.24546317e-02,-6.80586025e-02,
-8.98937657e-02,5.91422953e-02,8.90927482e-03,4.07701358e-02,7.92442914e-03,
4.19904664e-02,-1.26386315e-01,-1.35195687e-01,8.99057314e-02,-8.56807549e-03,
-4.27284539e-02,4.32660580e-02,7.96486363e-02,-1.19609475e-01,-1.09793760e-01,
-2.93739885e-02,2.45787837e-02,-5.43284602e-02,-1.89654902e-03,1.53449392e-02,
-5.89672029e-02,-4.19994406e-02,-3.99402119e-02,4.68147062e-02,-6.87940717e-02,
7.08167907e-03,-6.62093386e-02,-4.46294919e-02,4.97410595e-02,-2.79072151e-02,
-1.10683648e-03,-2.70157196e-02,8.94098058e-02,-7.64662996e-02,6.70744479e-03,
6.95442930e-02,-9.04630870e-02,1.46091729e-03,9.36613977e-02,-1.42842218e-01,
7.93901831e-03,-9.34228227e-02,4.55603376e-02,6.95992783e-02,-6.35825563e-03,
-1.00845257e-02,-5.74399307e-02,-1.57601237e-02,-1.33217797e-01,-7.96530992e-02,
-1.01822034e-01,-3.16447616e-02,1.17458105e-01,9.48434174e-02,1.05965242e-01,
6.70718029e-02,-9.00115296e-02,9.72345751e-03,-7.16268420e-02,-6.66345134e-02,
1.52101591e-02,-3.99777479e-02,5.62483957e-03,1.10886479e-02,1.07795164e-01,
-1.04933619e-01,-8.43226090e-02,-9.20186937e-03,-9.02669728e-02,4.57346179e-02,
3.71334255e-02,-7.96923861e-02,-1.24240918e-02,-9.98573145e-04,-1.05284415e-01,
3.16718705e-02,-1.13542296e-01,4.30334173e-02,6.79020733e-02,7.73838684e-02,
5.07234931e-02,1.50198117e-02,-5.00184782e-02,-1.70482025e-02,1.21847309e-01,
3.04279756e-02,5.20065054e-02,-1.05604537e-01,5.98102883e-02,8.85016546e-02,
-1.15570299e-01,-8.75202715e-02,-2.36366224e-02,4.68794256e-02,-6.98287860e-02,
4.52509634e-02,2.14379374e-02,-7.70233795e-02,-6.85618669e-02,3.33842896e-02,
-8.10895674e-03,-9.82474014e-02,-3.19413990e-02,9.05663818e-02,3.68669792e-03,
-6.31197765e-02,7.01882243e-02,-1.26259312e-01,-5.91230728e-02,-9.11706537e-02,
-9.73661169e-02,-5.48851006e-02,-5.63592874e-02,1.24570027e-01,-4.16597538e-02,
-7.72003010e-02,-1.05251610e-01,4.66709062e-02,3.48457880e-03,-2.84729525e-02,
4.06941120e-03,-7.49114901e-02,1.29430354e-01,-9.28131863e-02,1.03163116e-01,
6.43851981e-02,-4.54825461e-02,6.11269362e-02,7.04677552e-02,7.85582960e-02,
-1.33427501e-01,-9.47372094e-02,2.15017125e-02,-4.85615842e-02,4.19541970e-02,
-1.32890418e-01,-1.18505269e-01,1.21727392e-01,-2.96596680e-02,-1.09941415e-01,
-4.55270261e-02,7.34044239e-02,-1.29826739e-01,1.09550413e-02,4.72679622e-02,
6.41761124e-02,3.98339741e-02,-1.00081094e-01,2.11733077e-02,1.41832922e-02,
-4.21669483e-02,-1.33127337e-02,-6.10999689e-02,-8.58005807e-02,-5.96048795e-02,
-4.42607813e-02,-4.31912206e-02,1.19991601e-01,-7.52044022e-02,-2.63295174e-02,
1.63583981e-03,-1.65979713e-02,6.67115748e-02,-4.75935033e-03,-7.07863495e-02,
-5.07057318e-03,1.37178928e-01,-1.02646135e-01,5.48960380e-02,3.75670083e-02,
-8.39067400e-02,-6.22831173e-02,-1.19567044e-01,-1.17841519e-01,2.62034349e-02,
1.39993299e-02,4.18792590e-02,6.46428913e-02,-1.45434579e-02,2.99041476e-02,
-7.55165368e-02,7.71315768e-02,-3.67049314e-02,9.42184869e-03,1.35124000e-02,
-1.26071960e-01,8.18469748e-03,-3.48788239e-02,6.83285594e-02,-3.61690335e-02,
-1.13858886e-01,1.05894566e-01,-2.95792390e-02,-3.93622965e-02,-9.81061459e-02,
4.83538918e-02,7.31526932e-04,-8.15457925e-02,3.88455130e-02,-4.51274738e-02,
1.24069266e-01,1.11343816e-01,6.57632947e-02,-6.14508055e-03,-6.39752671e-02,
4.69944644e-04,6.58046678e-02,-6.33611679e-02,-8.17582384e-03,-6.80312663e-02,
-1.04157627e-01,4.87097492e-03,7.69249443e-03,5.73396273e-02,4.84663807e-02,
-7.49713033e-02,1.46605194e-01,6.03720993e-02,6.18765950e-02,-1.92240123e-02,
-2.35628225e-02,-3.60032097e-02,-4.93973605e-02,-6.34837598e-02,1.47002144e-02,
1.76826529e-02,-1.05655313e-01,-4.47209366e-03,-1.60655472e-02,9.79553908e-02,
-4.56225611e-02,1.15404211e-01,-8.83565564e-03,-6.83951229e-02,-3.66992988e-02,
-8.92785490e-02,3.55875567e-02,3.40446159e-02,-6.44868836e-02,-7.70493522e-02,
-5.28481929e-03,8.94763619e-02,-1.23266503e-01,2.50961389e-02,1.86740654e-04,
8.57406408e-02,2.16017570e-02,-9.62405279e-02,6.94708601e-02,6.39805943e-02,
8.78519267e-02,-3.21286283e-02,-7.11057633e-02,1.51292235e-02,-7.68521940e-03,
8.72388408e-02,-1.18723549e-01,-1.07503638e-01,1.76374279e-02,-4.46604416e-02,
-7.47596547e-02,1.80317871e-02,1.08404368e-01,4.05355915e-02,2.17513368e-02,
3.39674838e-02,-9.50344130e-02,2.31949296e-02,1.69677958e-01,-5.32409996e-02,
3.44631895e-02,3.89219113e-02,-8.19661319e-02,-1.00206509e-01,1.34694474e-02,
2.35185325e-02,3.41882855e-02,9.58721712e-02,1.02349915e-01,-5.87544329e-02,
-1.53367013e-01,-1.09352760e-01,1.67580438e-03,8.65420848e-02,-3.38812009e-03,
-3.95798348e-02,9.82419029e-02,-8.98073018e-02,-1.49828732e-01,5.74328750e-02,
-4.35373634e-02,-9.60653722e-02,-5.06460480e-02,-5.05380034e-02,5.28862253e-02,
-4.56300825e-02,7.98709840e-02,-4.13595624e-02,-9.37106684e-02,-1.15422934e-01,
3.50169204e-02,-1.13570750e-01,-1.34782583e-01,-3.74701433e-02,-3.58829610e-02,
-7.79643506e-02,1.59552861e-02,7.61533976e-02,6.04414232e-02,-3.59855196e-03,
8.53368565e-02,1.44690305e-01,1.20049128e-02,8.17252025e-02,1.17081583e-01,
8.98071155e-02,1.43384724e-03,1.64498910e-02,1.28372341e-01,-9.02614966e-02,
-5.15893847e-02,1.91808566e-02,-6.56982660e-02,3.67996916e-02,-6.86059818e-02,
8.71980842e-03,2.03985851e-02,-7.60128349e-02,4.98447195e-02,-8.70569646e-02,
-1.20544732e-01,-5.28893014e-03,2.42302354e-04,4.94735502e-02,-2.61421856e-02,
-1.58780023e-01,7.80014470e-02,-1.13532692e-02,-1.23435594e-01,1.39056265e-01,
-7.07797408e-02,7.30040297e-02,6.29145578e-02,-7.44361663e-03,6.37524128e-02,
-3.42614837e-02,-1.62503615e-01,-1.29157141e-01,3.80274020e-02,1.09836124e-01,
9.93489996e-02,1.17461450e-01,8.71664658e-03,4.49128337e-02,8.90034288e-02,
-1.88176334e-01,-3.57585698e-02,-1.61998972e-01,-4.01129685e-02,3.98696028e-02,
4.52101603e-02,-1.38081715e-01,1.17116652e-01,1.07126283e-02,1.09026313e-01,
-2.07466893e-02,4.60631289e-02,-1.22585513e-01,4.72559147e-02,-5.20249084e-02,
-4.81334664e-02,-3.74251753e-02,7.78952744e-05,6.51471503e-03,-5.86566143e-02,
-1.98756550e-02,6.57042041e-02,7.44598806e-02,6.38484359e-02,4.00762521e-02,
-7.04972595e-02,-2.80077253e-02,-8.97397920e-02,1.18987150e-01,-1.05988495e-01,
2.56189611e-02,2.44973786e-02,-5.96035458e-02,1.29256342e-02,1.11178480e-01,
8.92544910e-02,6.35723621e-02,1.79055594e-02,-7.48362392e-02,7.03246221e-02,
-7.59243518e-02,-1.76496841e-02,8.62895623e-02,-1.47883952e-01,1.15791053e-01,
3.64692882e-02,-6.95623904e-02,5.61790727e-02,-6.40941486e-02,-9.84584987e-02,
1.66942421e-02,-6.64957762e-02,-3.06156408e-02,-2.02770066e-02,-1.39805209e-02,
1.21248081e-01,-5.78002445e-02,1.61337346e-01,-6.83000833e-02,1.12434793e-02,
1.26549071e-02,-9.46654752e-02,-1.42020866e-01,1.04649343e-01,-8.36085156e-02,
-1.75004795e-01,2.45524794e-02,5.12321964e-02,-2.23682255e-01,2.34282222e-02,
-1.35286641e-03,3.36942673e-02,-1.24911852e-01,-3.23913023e-02,6.64561465e-02,
-9.55997556e-02,1.29948124e-01,4.44184728e-02,-1.99620053e-02,-4.14667511e-03,
8.56724381e-02,-1.09276742e-01,1.05802290e-01,1.41030652e-02,1.99277643e-02,
4.43706289e-02,-1.03288338e-01,-4.72046360e-02,2.71081110e-04,-6.60898387e-02,
5.50730154e-02,2.47189347e-02,3.12403217e-02,-8.65755677e-02,6.38256744e-02,
4.17396799e-02,-4.76097427e-02,2.78514940e-02,-4.38623279e-02,-1.67949162e-02,
-1.02935866e-01,-6.96984008e-02,3.14972140e-02,9.38127339e-02,-6.33046404e-02,
-7.55720064e-02,-4.42372374e-02,2.98012104e-02,-2.42091212e-02,-3.72318216e-02,
-2.44611725e-02,-3.73893119e-02,6.02406636e-02,2.71537006e-02,-1.23469122e-01,
6.01251274e-02,-1.35325804e-01,-4.21364382e-02,-5.25105037e-02,2.98266374e-02,
1.01781927e-01,-1.85435489e-01,-2.32724007e-02,1.15963951e-01,-3.52380574e-02,
1.05437398e-01,1.19538516e-01,1.47427563e-02,-9.61509943e-02,-7.69862011e-02,
-4.88850065e-02,4.61730286e-02,-1.48577755e-02,1.01694509e-01,-8.65790620e-02,
2.88737062e-02,-6.57571256e-02,-9.14977118e-02,-8.90386999e-02,-5.93292527e-02,
4.26132567e-02,-2.40555182e-02,7.43622407e-02,-2.98151355e-02,2.24624779e-02,
-3.54064628e-02,8.09537321e-02,4.13142331e-03,-3.81472334e-02,1.54773379e-03,
-5.32771088e-02,1.13610052e-01,-1.02999248e-01,-4.18232754e-02,1.30740963e-02,
-1.43084228e-01,-4.00354899e-03,6.60894066e-02,8.48862082e-02,-2.30539516e-02,
-4.18979712e-02,-5.74018396e-02,-3.42604071e-02,-3.42219360e-02,-1.28131956e-01,
-5.61014563e-02,7.30482638e-02,3.99996489e-02,-1.33458048e-01,-3.98649871e-02,
-1.24524988e-01,7.10340440e-02,3.89724746e-02,-5.90416603e-02,-2.85773363e-04,
3.82787511e-02,-3.02702393e-02,-1.82419363e-02,-1.57781597e-02,9.60297137e-02,
-3.35068181e-02,1.00055151e-02,7.06789270e-03,-7.43979290e-02,-1.46578088e-01,
-6.82105264e-03,-4.19231830e-03,-1.29052565e-01,7.53411576e-02,1.24727944e-02,
-1.09208643e-01,-2.26388182e-02,-1.29307598e-01,-5.20738624e-02,-9.89273563e-02,
3.20159784e-03,-6.95245340e-02,6.42407872e-03,-6.96766749e-02,-8.02467391e-02,
2.98267379e-02,1.60006564e-02,6.23512827e-02,-9.20770988e-02,-9.74448994e-02,
5.06963655e-02,-8.86666253e-02,1.00703284e-01,-9.77386236e-02,1.23897739e-01,
6.73034564e-02,-9.68211368e-02,1.42228780e-02,4.76143621e-02,-5.68146594e-02,
-1.68631859e-02,1.18515640e-01,-8.77944902e-02,-1.57087035e-02,-5.12105785e-03,
-5.00800321e-03,-9.55302864e-02,-2.95273867e-02,-1.03343748e-01,-9.07850266e-02,
4.98353057e-02,3.97141278e-02,8.55886191e-03,9.38198715e-02,-7.86281079e-02,
-6.41708896e-02,-1.44196972e-02,-1.21592559e-01,4.87589687e-02,-1.44999415e-01,
-5.66703640e-02,3.02241668e-02,-9.99794677e-02,2.74675544e-02,7.51955062e-02,
1.31961495e-01,9.74974409e-02,-1.36503667e-01,-7.55346864e-02,-2.02244502e-02,
-3.82118970e-02,-3.01959794e-02,5.72367832e-02,-7.81508237e-02,-1.75568610e-01,
-2.74617169e-02,-2.17141490e-02,-8.28393847e-02,-1.74750350e-02,-7.91539401e-02,
-3.26892547e-02,-4.59745759e-03,-2.30651442e-02,5.10495640e-02,-3.18958610e-02,
-8.08052868e-02,-6.50596395e-02,2.91124871e-03,1.60946753e-02,-3.63806039e-02,
-3.01225181e-03,6.62724860e-03,2.32069455e-02,-4.66531888e-03,-1.05046727e-01,
9.89633203e-02,-2.91181561e-02,-1.99004896e-02,1.69832967e-02,-7.84676969e-02,
-1.97163168e-02,2.91338451e-02,3.10351662e-02,6.04862813e-03,-5.88042242e-03,
-1.45574904e-03,-1.08100273e-01,-8.07959065e-02,-1.78276420e-01,-1.11787738e-02,
-5.23072621e-03,-6.06854409e-02,-1.12477660e-01,-9.01355967e-02,-1.90536566e-02,
-8.94441828e-02,8.36638436e-02,-1.31980404e-01,3.88170481e-02,3.94718070e-03,
-7.74083287e-02,4.41799350e-02,-1.64067913e-02,-8.37865099e-02,4.01156582e-02,
7.91398212e-02,-8.53411295e-03,5.47031723e-02,2.45079566e-02,-1.18942268e-01,
-1.02214897e-02,-1.05169423e-01,-8.90925899e-02,3.28344069e-02,3.86250354e-02,
6.06945120e-02,-6.54134154e-02,-1.41100362e-01,2.73015480e-02,1.98707841e-02,
-3.20735499e-02,-1.22317478e-01,2.54594330e-02,-1.56868864e-02,3.61685902e-02,
-1.28539771e-01,2.59879511e-02,-1.19973376e-01,1.57830976e-02,-6.79259980e-03,
-6.91386089e-02,-1.35994956e-01,-9.37354416e-02,-8.49717557e-02,-1.98307596e-02,
5.13878316e-02,1.51783247e-02,2.57827304e-02,-6.31286800e-02,-1.42167434e-01,
9.91547108e-02,-1.81302540e-02,-9.60915443e-03,-8.60726461e-02,-1.83856830e-01,
-2.87766457e-02,5.13831042e-02,-1.64672062e-02,-2.08373498e-02,-1.21707655e-02,
-2.83996165e-02,3.34672146e-02,-9.06235874e-02,-5.55959716e-02,2.37329165e-03,
-1.26407728e-01,4.97165602e-03,3.06567214e-02,-4.40670475e-02,-5.89302443e-02,
1.84231177e-02,-4.99806879e-03,-7.02394824e-03,5.34004197e-02,-6.41167462e-02,
7.38331582e-04,-1.59661509e-02,-1.03011504e-01,8.41931850e-02,7.34225363e-02,
-6.74260557e-02,-3.01210880e-02,-1.11059181e-01,2.48712511e-03,3.51900421e-02,
-1.20778270e-01,1.09231368e-01,3.76911350e-02,1.26360208e-01,3.57388556e-02,
5.74959815e-02,-3.07461992e-02,-1.01426445e-01,6.75642937e-02,9.80237126e-02,
-7.02645183e-02,-3.13048996e-02,4.52965870e-02,-7.47739077e-02,4.90280725e-02,
6.53375685e-02,-2.85235886e-02,1.00204647e-01,4.39604148e-02,6.09932095e-02,
5.88843711e-02,1.03403032e-01,1.22198440e-01,1.30712330e-01,9.60135832e-02,
-2.00914573e-02,-6.58650324e-02,6.97644241e-03,-4.55657579e-02,-3.42270136e-02,
9.32944268e-02,7.74251446e-02,1.40479580e-01,5.54361902e-02,3.75980772e-02,
3.10739875e-02,-9.57513303e-02,1.11814693e-01,5.97490817e-02,5.17048016e-02,
-1.32370636e-01,9.20737460e-02,-3.20283473e-02,-4.42340672e-02,6.54930472e-02,
-5.70850484e-02,4.63936180e-02,8.33077133e-02,-4.94734906e-02,-9.22898576e-02,
5.51104499e-03,-3.80012300e-03,1.02726124e-01,-1.11443430e-01,5.25622964e-02,
2.44137328e-02,-6.18234947e-02,-7.37330541e-02,1.93582196e-02,4.81860265e-02,
2.47216523e-02,-5.53110577e-02,3.77202942e-03,-1.33580253e-01,-7.90923238e-02,
1.42922178e-02,2.57611647e-02,-4.85183187e-02,1.35368258e-01,8.67730100e-03,
6.44051880e-02,5.10325357e-02,3.51124816e-02,1.19553186e-01,-7.51058906e-02,
-5.18071689e-02,-9.95010734e-02,7.34032840e-02,-8.68559703e-02,6.32665902e-02,
-2.31102630e-02,-1.45044196e-02,-3.37737016e-02,3.07658855e-02,-1.02096379e-01,
3.18842120e-02,-1.41726896e-01,-3.37403454e-02,6.65912777e-02,4.15309966e-02,
7.08040074e-02,-1.90270450e-02,-1.27486870e-01,-1.49393514e-01,-1.13836378e-01,
-2.09407904e-03,2.74364073e-02,-2.40212362e-02,-3.05289272e-02,-2.00888254e-02,
1.46409329e-02,4.40405086e-02,4.55616415e-02,-2.98463702e-02,-1.42307818e-01,
1.12765431e-01,-2.47216821e-02,2.41063572e-02,3.16364737e-03,-1.80937320e-01,
-7.96764866e-02,-8.61855596e-02,-1.39337614e-01,6.56227022e-02,1.01114109e-01,
4.83685061e-02,-8.11772272e-02,-1.48743421e-01,9.34664607e-02,8.07422101e-02,
6.59293234e-02,1.93651710e-02,5.90034807e-03,-6.45971224e-02,-6.92847297e-02,
1.09207062e-02,4.11353223e-02,4.26294506e-02,4.44907993e-02,2.71270499e-02,
-8.77678469e-02,-8.81589716e-04,9.46411267e-02,-6.22256175e-02,-8.33015591e-02,
-6.64955005e-02,-3.42359650e-04,-1.05084330e-02,2.67052557e-03,-3.69701278e-03,
5.92053980e-02,8.60464852e-03,-4.31552492e-02,-7.63590559e-02,-3.87412570e-02,
-4.65704538e-02,-8.65564644e-02,2.64903810e-02,-1.62453465e-02,-5.70385307e-02,
9.02161449e-02,-6.47918414e-03,-1.14186697e-01,-6.48039281e-02,3.29817855e-03,
-4.08089831e-02,2.55186600e-03,-1.35320067e-01,-1.56176090e-02,6.49434328e-02,
-2.48814747e-02,-1.73248500e-02,1.01674218e-02,1.06617674e-01,-3.73368412e-02,
-3.22380960e-02,-9.50367842e-03,3.83722819e-02,9.34849381e-02,-4.59625609e-02,
6.07405454e-02,1.88155789e-02,8.89841467e-02,-4.67497744e-02,-6.38142228e-02,
-1.10671625e-01,5.13093770e-02,-2.69192755e-02,3.33491014e-03,-4.01305407e-03,
9.14041102e-02,-7.19773918e-02,-1.29059449e-01,1.00409620e-01,2.83293519e-02,
3.50845158e-02,8.06873962e-02,2.35198662e-02,-8.80327001e-02,-3.84668373e-02,
6.20291643e-02,-9.33288559e-02,5.19204549e-02,1.18357636e-01,-8.37629512e-02,
-1.00547373e-01,-1.04765780e-01,1.79871455e-01,-6.45981506e-02,3.76426801e-02,
-3.23890746e-02,-1.87634137e-02,-9.18040946e-02,-1.37575507e-01,-5.90475798e-02,
9.36675519e-02,-1.84349492e-01,-1.30871356e-01,6.94426522e-02,-2.59986762e-02,
4.72716130e-02,-3.01977433e-02,-1.13985881e-01,4.85018082e-02,-7.29672909e-02,
-1.42618656e-01,1.33085242e-02,-3.78349125e-02,8.90233815e-02,-1.73983574e-02,
-1.53090402e-01,-8.46030042e-02,-4.91641043e-03,4.54320721e-02,3.86202894e-02,
1.81984287e-02,1.07694700e-01,-8.14691745e-03,-5.82653917e-02,3.02412137e-02,
-1.33116562e-02,-3.58040854e-02,-3.53909396e-02,9.78246257e-02,-4.91597839e-02,
-1.08374380e-01,1.33407995e-01,-6.51826635e-02,-4.69998680e-02,-4.21916656e-02,
5.23368344e-02,-9.86595675e-02,1.07738778e-01,5.91471717e-02,-5.53490259e-02,
7.65051022e-02,-2.55358834e-02,9.95721575e-03,4.71514985e-02,-9.86546557e-03,
-1.32147819e-01,-1.43588170e-01,1.01996921e-01,-7.81103149e-02,8.96554291e-02,
-6.25972077e-02,1.97773241e-02,6.26278147e-02,-1.31485164e-01,4.98612858e-02,
-1.18049338e-01,-2.44407319e-02,-7.03082532e-02,-1.19334750e-01,7.59934559e-02,
3.55390529e-03,-3.04879434e-02,1.36043668e-01,-8.29946697e-02,-8.26234594e-02,
-1.42904907e-01,-1.39292449e-01,-4.67646830e-02,1.25435606e-01,-9.14844498e-02,
-8.58259723e-02,-3.35731730e-02,-1.27961993e-01,3.16043422e-02,1.94713306e-02,
8.92835408e-02,-1.07151546e-01,-1.19597271e-01,-2.61116698e-02,2.37006843e-02,
-4.04108828e-03,-1.61925897e-01,5.91243394e-02,-1.01317875e-01,2.78974455e-02,
-3.10825240e-02,5.10203280e-02,-1.12837002e-01,7.20521510e-02,-1.34691581e-01,
-4.31367196e-02,-1.53729785e-02,-4.10411842e-02,-1.19819855e-02,-4.46942225e-02,
8.24881122e-02,-6.05971478e-02,-2.52816491e-02,3.39971408e-02,2.04490349e-02,
-1.35816246e-01,3.61486129e-03,-3.17947641e-02,7.00913966e-02,-1.07936040e-01,
-1.61721110e-01,3.01163960e-02,-1.12171859e-01,-1.56737790e-01,1.04634911e-01,
-1.52550295e-01,1.19983964e-01,4.20706794e-02,1.07059792e-01,-6.64573163e-02,
3.84723395e-02,-3.21823806e-02,-8.49189907e-02,1.34926960e-01,1.83615610e-02,
3.05739548e-02,-5.16676232e-02,5.76999262e-02,-8.71832594e-02,8.51868019e-02,
-5.44671230e-02,4.68844175e-02,-1.27729535e-01,-2.53293887e-02,-1.59928516e-01,
-9.67734084e-02,-7.39915296e-02,2.65951194e-02,-6.60396963e-02,-1.13729469e-01,
5.61742287e-04,-5.08377440e-02,-1.40825629e-01,2.66657546e-02,3.59783024e-02,
1.35243712e-02,9.66469571e-02,3.56836095e-02,8.85960758e-02,-1.43130049e-01,
-1.38461322e-01,1.08534805e-01,2.40064934e-02,-3.05326190e-03,-4.09622304e-02,
4.43755612e-02,8.34986344e-02,-1.17292210e-01,7.10812584e-02,-1.20149791e-01,
7.94074964e-03,9.76061225e-02,1.09344192e-01,5.30432537e-02,5.81544973e-02,
-9.48829390e-03,-1.71732716e-02,-1.08113654e-01,-6.19580969e-02,4.58452664e-02,
-1.06947728e-01,4.06814814e-02,3.29727903e-02,1.03011746e-02,-9.29163620e-02,
-9.37431119e-03,-7.36579448e-02,7.71709755e-02,3.77027951e-02,1.16728611e-01,
5.26032820e-02,-6.05442636e-02,-3.30515467e-02,-8.15807469e-03,-7.81891495e-02,
8.32564682e-02,-2.98269317e-02,-4.52471003e-02,-1.07187048e-01,5.81754223e-02,
-8.66373107e-02,-7.04066306e-02,5.55644296e-02,1.09135315e-01,-8.76642838e-02,
-4.12929393e-02,2.97424588e-02,5.99011667e-02,-1.10930100e-01,-6.40972555e-02,
4.38935272e-02,-6.46580989e-03,-4.44272794e-02,-6.65626675e-02,6.72788844e-02,
7.27664167e-03,-4.35067201e-03,-1.23086192e-01,-1.01091512e-01,2.09168121e-02,
2.75689736e-02,1.17786527e-01,-2.06639953e-02,7.54095847e-03,-1.10505611e-01,
4.04353887e-02,5.23125120e-02,-9.23514217e-02,7.66186640e-02,-4.38137725e-02,
-1.04567818e-01,-8.50958377e-02,5.43075725e-02,5.38735874e-02,-1.32720336e-01,
8.85421112e-02,9.13514569e-02,5.98131567e-02,1.64754018e-02,-3.86358151e-04,
1.07317932e-01,-9.27716345e-02,1.04984781e-02,4.73847575e-02,1.23115042e-02,
-8.83728936e-02,6.25727186e-03,4.86065596e-02,4.47176350e-03,1.13686070e-01,
-1.14814535e-01,1.40908025e-02,-1.34784907e-01,-1.18371025e-01,5.90561032e-02,
-3.32025327e-02,-6.95420504e-02,5.67345298e-04,-1.41945351e-02,1.10664092e-01,
-5.07113114e-02,-4.69296947e-02,-3.40015674e-03,-7.15911314e-02,-3.00803166e-02,
-7.96485469e-02,-3.95215265e-02,-4.55054417e-02,-7.77732804e-02,-1.29620209e-01,
-3.20676193e-02,-3.32092568e-02,-1.99112725e-02,-6.32597581e-02,-6.25059903e-02,
-1.08805478e-01,-4.68621254e-02,-6.61481023e-02,-9.58568230e-02,1.76522415e-02,
-6.55720457e-02,-7.07246661e-02,-4.33893874e-02,-6.13375828e-02,-6.62028641e-02,
-1.17054425e-01,-9.49964821e-02,-2.01380495e-02,9.17810202e-02,1.05677523e-01,
-1.00302376e-01,6.44108653e-03,-4.70021134e-03,9.27336290e-02,-6.42000213e-02,
1.11890472e-02,1.25630833e-02,-7.55365239e-03,6.75079003e-02,2.93752961e-02,
-7.49241486e-02,1.64013840e-02,7.05173761e-02,5.33140674e-02,1.04140922e-01,
7.19234198e-02,-1.39955431e-01,4.35506850e-02,6.55674189e-02,6.58605620e-02,
-6.39608316e-03,-6.22431375e-02,9.16747600e-02,-7.31319934e-02,7.38361618e-03,
-1.19762342e-04,-1.31866828e-01,-8.14003348e-02,2.53203679e-02,-5.54701574e-02,
3.88494022e-02,-3.70354503e-02,-1.21670611e-01,-9.13583934e-02,2.39286805e-03,
7.47483820e-02,6.58505550e-03,-8.19183365e-02,-6.02782629e-02,-2.08501015e-02,
2.47826017e-02,-1.49461487e-03,1.26246035e-01,3.90059687e-02,-1.99844735e-03,
-1.65614877e-02,-1.54798999e-02,-6.29348233e-02,3.06653883e-02,1.11208148e-01,
9.30223614e-02,-8.90957657e-03,-1.06473863e-01,3.93414497e-02,-1.37420163e-01,
-3.98020521e-02,-4.59423847e-02,-1.13262422e-01,-1.30771264e-01,-1.26308665e-01,
-3.02591529e-02,-1.17237754e-01,-1.10005111e-01,-1.11931734e-01,-8.03647190e-02,
-1.21038631e-01,-1.11809745e-01,7.92193860e-02,-5.66843599e-02,7.51570612e-02,
-5.08330911e-02,1.11229054e-03,3.42131779e-02,-1.50647491e-01,4.53255735e-02,
-1.78179312e-02,-7.76210800e-02,1.95929520e-02,9.79773849e-02,8.71105865e-02,
-6.60302043e-02,1.74100064e-02,-1.07073247e-01,3.34075354e-02,-1.28414053e-02,
-7.81175420e-02,-1.85761265e-02,-2.92764395e-03,6.63689920e-04,-2.48979423e-02,
-2.42723804e-02,4.04222719e-02,-7.56218508e-02,-9.99320075e-02,-1.01361565e-01,
-4.81895730e-02,-6.11508079e-02,-6.58253348e-03,4.05503884e-02,-6.53650910e-02,
-8.23222548e-02,-8.87949541e-02,-5.04490323e-02,3.10811084e-02,-3.28063853e-02,
-1.67740807e-01,2.66819503e-02,-8.07088986e-02,-7.91791081e-02,-1.08485796e-01,
-1.45161942e-01,3.47418562e-02,-1.41451554e-02,-1.93412825e-02,-1.07624784e-01,
2.21038815e-02,-2.58007031e-02,-4.73374985e-02,6.55177468e-03,-4.98360060e-02,
-3.95296887e-02,-6.31420165e-02,-9.38311070e-02,-4.76493165e-02,4.77457866e-02,
-9.80298892e-02,-2.80874711e-03,3.46656069e-02,-2.80790143e-02,-5.01919799e-02,
2.46538632e-02,-6.55492768e-02,-7.93321952e-02,-2.93073505e-02,-8.15184265e-02,
-1.05695307e-01,-8.37078542e-02,-6.13420643e-02,4.84425910e-02,-1.55477419e-01,
1.25810700e-02,-4.68221158e-02,1.70585024e-03,1.34765908e-01,-3.12085543e-02,
-8.31253901e-02,-1.00067221e-01,1.27449143e-03,3.77717242e-02,4.60464694e-02,
-5.12362681e-02,-1.65596884e-02,2.77489461e-02,-1.88986771e-02,6.01550490e-02,
-1.68315545e-02,2.41504721e-02,1.02474377e-01,-5.23107126e-02,5.95411509e-02,
5.10526858e-02,4.46473546e-02,-3.66426185e-02,-1.64463341e-01,1.22622335e-02,
5.10393493e-02,1.33787170e-01,9.06270370e-02,3.53397690e-02,-1.16920538e-01,
-2.12516473e-03,-1.52606321e-02,-5.57099283e-02,8.59517828e-02,3.34056877e-02,
-5.45388199e-02,-5.21267094e-02,-1.39328074e-02,-8.00924450e-02,-1.05145879e-01,
6.56883046e-02,4.02808934e-02,2.13504303e-02,7.87004977e-02,-1.93860810e-02,
-2.21730443e-04,6.72421008e-02,-4.24193963e-02,7.71699697e-02,1.02906220e-01,
-6.12387136e-02,-1.32157698e-01,-4.13325354e-02,1.13261349e-01,4.73226141e-03,
2.33481303e-02,-7.51724467e-02,-1.29548386e-01,-2.66435798e-02,6.94164857e-02,
-1.14485277e-02,9.59545560e-03,8.03431943e-02,-1.75406970e-02,-1.83893442e-02,
-6.57044351e-02,-1.14812747e-01,-3.52495946e-02,1.43128373e-02,-8.85135084e-02,
-9.01890993e-02,-8.57717544e-03,2.71973591e-02,-3.48713659e-02,-2.10148543e-02,
4.29311134e-02,-6.15621284e-02,-1.02196008e-01,1.14572413e-01,1.54034436e-01,
-2.19215546e-02,8.74734521e-02,4.06070277e-02,1.66464284e-01,-6.04647025e-03,
-6.68127611e-02,1.54997677e-01,-3.15067954e-02,1.18594505e-01,6.67252690e-02,
1.36195734e-01,7.35986903e-02,-1.20270535e-01,-1.83182824e-02,-7.56006166e-02,
8.87430683e-02,-4.00222801e-02,2.14962419e-02,2.46915850e-03,-9.79367364e-03,
-4.91513871e-02,-1.08674966e-01,-8.42350572e-02,2.30266247e-02,-1.01226419e-01,
2.28422079e-02,-6.01785220e-02,-6.64063692e-02,-2.11248826e-02,7.11239362e-03,
-3.52940038e-02,-1.84554756e-02,2.74406355e-02,8.04753453e-02,-5.11951093e-03,
1.32290572e-01,-7.77607933e-02,1.33424429e-02,-7.08265835e-03,-2.05413662e-02,
-4.86303978e-02,1.38805574e-02,1.03220511e-02,1.86047822e-01,6.61260262e-02,
3.57416533e-02,-2.31856164e-02,1.83813736e-01,-7.05425665e-02,-4.43643741e-02,
7.65509307e-02,1.19267263e-01,-1.40384212e-02,2.66992040e-02,3.67275700e-02,
7.42301643e-02,1.34014785e-01,8.38503465e-02,5.88721558e-02,8.15028548e-02,
-5.39702959e-02,-3.51352580e-02,5.48137119e-04,-1.07255906e-01,1.26648173e-01,
-2.58388016e-02,1.02246672e-01,5.56712374e-02,4.70343940e-02,1.05174847e-01,
-7.03085214e-02,-4.35056090e-02,6.20629415e-02,-2.69828439e-02,4.04059216e-02,
-3.52820046e-02,-6.95402094e-04,-2.69247051e-02,-5.41584417e-02,9.59485397e-02,
1.18379794e-01,8.32135081e-02,5.46637289e-02,1.35650067e-02,4.89798784e-02,
9.36285928e-02,-4.08356413e-02,-5.87003194e-02,-2.26515867e-02,1.09699471e-02,
1.00797080e-01,-1.37737242e-03,-4.06952612e-02,7.79524148e-02,1.39216542e-01,
1.14417776e-01,7.92282596e-02,-6.23852946e-02,1.00047350e-01,9.46867242e-02,
-7.22321868e-02,9.51262638e-02,2.10251734e-02,4.37644497e-02,1.33464104e-02,
1.27986267e-01,-9.22502205e-02,-2.54741274e-02,-3.67087424e-02,1.12688124e-01,
-8.92858505e-02,-2.79133786e-02,6.14278130e-02,-5.66436872e-02,8.51868615e-02,
8.19336250e-02,8.39515477e-02,1.22515284e-01,1.26210213e-01,-4.96937661e-03,
1.03095330e-01,1.26951441e-01,4.89952080e-02,1.14640124e-01,-7.30876997e-02,
2.07622685e-02,8.47069081e-04,6.85873553e-02,-1.56461727e-02,2.30862908e-02,
-6.74831718e-02,8.17083567e-02,1.30632326e-01,-4.81072217e-02,9.57918987e-02,
9.42062438e-02,-3.14109959e-02,7.98038691e-02,1.21257685e-01,1.13783568e-01,
-4.50074226e-02,9.31806117e-02,-8.35015625e-02,1.50525644e-01,-6.36895597e-02,
6.31275028e-02,8.37628022e-02,1.23083502e-01,-8.08409154e-02,5.44840246e-02,
-3.85518149e-02,-1.12710223e-01,6.22228086e-02,4.01347019e-02,-8.83302391e-02,
9.38603133e-02,5.52624697e-03,5.65367341e-02,-4.87232022e-02,7.98986107e-02,
-1.08560234e-01,-7.57841617e-02,-2.72440296e-02,-3.62190381e-02,2.01185551e-02,
2.75924001e-02,1.15253434e-01,-6.44345507e-02,1.12688422e-01,1.44043035e-04,
8.30212887e-03,-3.63496505e-02,7.25789890e-02,1.07241362e-01,1.49733489e-02,
1.37984484e-01,1.17608823e-01,-6.53227419e-03,-6.41927794e-02,5.78119494e-02,
8.58915597e-02,3.45758982e-02,-6.42001629e-02,1.99481547e-02,3.89398597e-02,
-7.89809451e-02,1.05426088e-01,1.38648152e-01,9.25380066e-02,9.08138603e-02,
4.59663048e-02,-1.80774443e-02,1.04720242e-01,8.48094448e-02,5.61764352e-02,
-5.72541580e-02,-9.28085111e-03,-6.17239513e-02,5.44940270e-02,-1.59465168e-02,
8.49541873e-02,-3.02314572e-03,-9.45270583e-02,-1.80537812e-03,1.97898541e-02,
-6.90176859e-02,-6.24659806e-02,3.39062070e-03,2.52901111e-02,-5.14345095e-02,
-4.97167790e-03,9.28316861e-02,-1.14133149e-01,-7.75720999e-02,-8.21510777e-02,
1.12134188e-01,-1.58048067e-02,8.21343958e-02,1.04783781e-01,-3.43580090e-04,
-9.11351293e-02,-8.25833455e-02,-2.48764418e-02,8.04304928e-02,4.75464575e-02,
-5.38670607e-02,3.55969593e-02,-5.94366603e-02,-8.95768926e-02,2.37916950e-02,
2.81072930e-02,5.20784445e-02,-5.21284202e-03,7.76346475e-02,-1.87519770e-02,
1.61436778e-02,2.00724900e-02,-7.78421806e-03,5.00389666e-04,6.21030703e-02,
-2.28422415e-02,2.35491060e-02,-6.29248619e-02,-2.88025066e-02,-2.05756351e-02,
5.27055040e-02,7.27640092e-02,-4.43522595e-02,1.76494107e-01,5.25587127e-02,
-1.01721203e-02,-3.24677769e-03,-3.18934210e-02,-1.76982209e-02,1.49118910e-02,
-3.82326208e-02,-9.41649303e-02,-2.54292544e-02,4.09434959e-02,-9.40154772e-03,
7.91184828e-02,1.13616638e-01,7.06929108e-03,8.87790248e-02,7.58561119e-02,
6.62383586e-02,1.12616539e-01,1.75189748e-02,1.77939516e-02,-7.86991715e-02,
-8.22653323e-02,9.00472850e-02,7.32317194e-02,-4.45686653e-02,-1.08215716e-02,
5.12408279e-03,1.21001691e-01,8.30609642e-04,8.10129419e-02,-1.76431658e-03,
1.30443946e-01,7.08260387e-02,8.56208131e-02,-4.03033420e-02,7.56713077e-02,
9.78196338e-02,1.04626790e-02,-8.87152925e-02,4.69685644e-02,5.06194085e-02,
6.10045530e-02,-9.32158753e-02,-8.70746821e-02,-2.82378942e-02,-2.61094351e-03,
8.87392163e-02,-7.47598261e-02,1.09793082e-01,9.72366855e-02,-1.85495475e-03,
4.66591716e-02,2.53941491e-02,-3.80440839e-02,7.61912614e-02,1.99569911e-02,
-4.49810028e-02,-8.09078589e-02,1.56580247e-02,-1.08844489e-01,9.90070477e-02,
7.58095160e-02,-3.72995995e-02,4.69396673e-02,-4.34173010e-02,-4.90155965e-02,
-1.94827467e-02,4.17056382e-02,-9.16895717e-02,-1.75670628e-02,-6.15436547e-02,
-4.82569225e-02,1.02093618e-03,1.42246587e-02,-3.58929820e-02,-5.77336699e-02,
-5.44936918e-02,3.86551991e-02,-1.64609347e-02,-1.23095557e-01,4.72358316e-02,
-1.07334994e-01,1.24420814e-01,-9.23945084e-02,-8.87455642e-02,-4.94519211e-02,
-1.12524226e-01,-8.59432891e-02,8.26234668e-02,3.05230189e-02,-7.25498870e-02,
-2.71218810e-02,1.23282455e-01,9.40004513e-02,-9.30912644e-02,9.28298086e-02,
-2.86885165e-02,8.09986964e-02,2.99326461e-02,-1.45188952e-02,-1.66248307e-02,
9.84687209e-02,7.85833821e-02,8.70662481e-02,6.02812134e-02,-5.56943081e-02,
6.75949454e-02,-1.25610037e-02,-1.15076363e-01,-1.10100858e-01,-6.08949475e-02,
-1.16069943e-01,6.58200607e-02,8.54881182e-02,1.72978844e-02,1.39885899e-02,
-6.72392026e-02,7.63372006e-03,1.00842044e-01,-4.69288342e-02,5.16522042e-02,
-8.28029774e-03,-8.83390084e-02,-6.25061020e-02,4.17769477e-02,2.59465259e-03,
-5.04317731e-02,-1.68352970e-03,3.84891070e-02,3.83463763e-02,8.34801570e-02,
1.79082304e-02,1.49537427e-02,1.29466072e-01,8.06508511e-02,-3.66565473e-02,
-7.51795322e-02,-1.05418473e-01,5.57045788e-02,7.73610771e-02,-2.03723293e-02,
-1.42762333e-03,3.18035558e-02,6.88538253e-02,3.22085829e-03,4.67047691e-02,
-7.51217753e-02,-6.22659214e-02,-1.00274399e-01,-8.10585767e-02,-4.26992662e-02,
9.00615305e-02,-3.69676724e-02,6.13362119e-02,-4.25370596e-02,-2.40743998e-02,
-4.29908819e-02,-1.23210931e-02,8.45193118e-02,-6.27345666e-02,-1.88946500e-02,
-1.17409611e-02,5.08764088e-02,-7.31198909e-03,6.98598474e-02,2.33596694e-02,
4.91083637e-02,-4.90532555e-02,-7.48646408e-02,2.77078096e-02,-5.38909584e-02,
1.23293465e-02,8.80166218e-02,1.42336801e-01,-4.82804663e-02,8.75001401e-02,
2.83822883e-02,-4.19130996e-02,-5.41450456e-04,-6.48720860e-02,-1.19025456e-02,
-5.70125021e-02,-1.01638898e-01,-3.73397693e-02,-4.61482219e-02,2.04298180e-02,
-7.85770640e-02,-2.50473637e-02,1.12043716e-01,1.29204243e-01,-6.05410449e-02,
-3.85375433e-02,-3.02399900e-02,-2.73414068e-02,7.47855827e-02,-2.59726420e-02,
-1.35853231e-01,-4.95564379e-02,1.06523640e-01,3.91249396e-02,-8.31198394e-02,
9.87782255e-02,-6.07047975e-02,1.75579429e-01,-1.15051374e-01,-1.22364350e-01,
-1.13872096e-01,-2.57382262e-02,-1.02142848e-01,2.66196728e-02,5.40141873e-02,
-5.45053408e-02,-3.45662571e-02,2.41630040e-02,-3.47896330e-02,2.77936179e-02,
-5.56614297e-03,-4.53437977e-02,-1.08690776e-01,-6.97885826e-02,8.88739079e-02,
-8.81208777e-02,8.00401121e-02,-7.46186599e-02,-2.14646161e-02,-6.70242161e-02,
-8.87721628e-02,6.71511963e-02,1.21477373e-01,1.96404476e-02,1.29861459e-01,
8.74698982e-02,-6.42471388e-02,6.25723302e-02,3.44395563e-02,-1.33561149e-01,
-5.86757734e-02,5.82062863e-02,-1.10198624e-01,7.76565596e-02,-5.25683314e-02,
2.33946331e-02,4.90514114e-02,1.19478768e-02,1.09717725e-02,-5.53791746e-02,
-3.35567794e-03,2.42647692e-03,8.76746252e-02,6.56269938e-02,3.92275564e-02,
-1.18552065e-02,6.43348917e-02,-8.68396275e-03,-2.40347465e-03,1.01476721e-01,
1.45839825e-01,2.69132340e-03,7.69394711e-02,7.15542212e-02,8.11254233e-02,
8.54818523e-03,-1.22920595e-01,7.24466592e-02,3.69616114e-02,-3.28713155e-04,
-1.14598908e-02,3.04506551e-02,-5.53065212e-03,-8.15988928e-02,5.54872900e-02,
1.12520024e-01,1.61286235e-01,7.64622614e-02,1.12210549e-01,-6.41855672e-02,
1.09668367e-01,8.60704109e-02,-9.64967627e-03,-1.38889432e-01,1.34544283e-01,
-6.01385534e-02,-1.18540749e-02,-1.34257283e-02,-4.93452698e-02,-2.15102479e-01,
2.35702749e-02,1.23731866e-01,5.24973683e-02,-8.45973715e-02,-1.58405453e-01,
-8.14294815e-02,-7.78070688e-02,1.11912809e-01,4.43368219e-02,1.82484724e-02,
-2.64559034e-02,-3.20099592e-02,-1.22746505e-01,7.42185563e-02,-3.29312235e-02,
-3.90166044e-02,1.89139731e-02,-7.98690990e-02,8.80412161e-02,4.11663316e-02,
-8.25561807e-02,-2.57701650e-02,3.97551283e-02,-6.89466074e-02,8.71403515e-02,
2.10513715e-02,1.69022486e-01,6.16922341e-02,5.06439544e-02,5.17058000e-02,
-1.24538075e-02,1.54408440e-02,-9.16479677e-02,-7.27588013e-02,6.35803416e-02,
-1.98419355e-02,-9.92379114e-02,-4.27492000e-02,1.21663183e-01,-7.56995156e-02,
8.72519389e-02,9.64627564e-02,-4.63602424e-04,-2.16974188e-02,-4.20127027e-02,
2.48698629e-02,-6.59578666e-02,-7.56596401e-02,-6.70062229e-02,1.16681144e-01,
-3.50325741e-02,7.19253644e-02,-6.60958439e-02,-1.07742779e-01,4.48698588e-02,
-5.71197569e-02,-7.74879158e-02,1.10061653e-01,-4.53636013e-02,-9.28795040e-02,
-1.61257740e-02,-9.05007347e-02,9.35390890e-02,9.12004560e-02,-2.61276849e-02,
-4.54717577e-02,6.19738922e-02,5.75189963e-02,-1.04592624e-03,7.25219026e-03,
-2.98055355e-02,-6.95239194e-03,8.90429541e-02,-9.64147523e-02,1.10484585e-01,
-1.27212420e-01,2.49445997e-02,9.10047591e-02,-4.66119032e-03,-8.96213800e-02,
-4.67727147e-02,-1.01173677e-01,1.31950647e-01,8.50337222e-02,3.05805001e-02,
-7.59268701e-02,-1.07495887e-02,5.87598719e-02,1.49826249e-02,5.78280687e-02,
3.91097479e-02,9.11012143e-02,5.13557829e-02,-1.14944145e-01,1.60417706e-01,
9.46177095e-02,-1.11804761e-01,6.50552362e-02,5.52492253e-02,5.42040274e-04,
-8.17833021e-02,-1.77911874e-02,-7.15346560e-02,1.16128042e-01,6.76625073e-02,
8.93344134e-02,3.00124474e-02,5.57083823e-02,1.78700220e-02,-9.09072682e-02,
-2.27083303e-02,9.52018648e-02,8.05054903e-02,6.07565865e-02,-3.03654037e-02,
1.02111772e-01,1.20027229e-01,9.72276367e-03,-1.86040979e-02,-9.15054381e-02,
-7.71982670e-02,-6.84840456e-02,-7.77721545e-03,-4.19443735e-04,-5.20042516e-02,
4.42255568e-03,-1.37329819e-02,-3.60113941e-03,5.18439785e-02,-5.37410527e-02,
-3.35928472e-03,3.55679728e-02,8.32856297e-02,1.80434771e-02,-7.47548714e-02,
1.12940691e-01,-1.00866109e-01,4.54247035e-02,1.03004858e-01,7.03816488e-02,
7.51218572e-02,4.84301783e-02,1.72640309e-02,6.00213185e-02,-6.47083223e-02,
4.60674725e-02,3.82357575e-02,4.38776836e-02,-5.70224077e-02,1.13956048e-03,
-2.38023140e-02,5.09863310e-02,8.62676948e-02,-4.91499389e-03,3.81115340e-02,
-3.44158672e-02,5.87198846e-02,6.60857186e-03,6.74540773e-02,8.26677494e-03,
4.83286418e-02,-7.29158670e-02,8.37468952e-02,-1.02443233e-01,-8.78747106e-02,
-1.24225259e-01,-5.17545864e-02,-8.06381851e-02,-2.74194544e-03,9.60291028e-02,
-9.54130441e-02,5.79673648e-02,-7.33327791e-02,1.20218229e-02,1.00310646e-01,
1.09488666e-01,7.54893571e-02,1.30908728e-01,-2.66943518e-02,-8.34345743e-02,
-7.69232679e-03,2.55064666e-02,-3.17202657e-02,7.01931678e-03,-1.09639280e-01,
-1.04218826e-03,6.08377159e-02,5.73022589e-02,7.25989416e-02,7.48769334e-03,
-2.71044318e-02,9.75040570e-02,1.08009391e-01,-1.01130027e-02,-4.80296090e-02,
5.89438714e-02,6.51372373e-02,3.06274798e-02,3.45767140e-02,3.52625805e-03,
-6.56780899e-02,-5.17303264e-03,-1.61073040e-02,8.04970786e-03,-8.99451077e-02,
1.16331466e-01,1.03674069e-01,-7.04232007e-02,2.22284179e-02,5.10383770e-02,
1.01205856e-01,-6.02567270e-02,-6.87023178e-02,2.20211428e-02,9.24898684e-03,
-1.41883809e-02,-1.07890107e-01,-2.33585965e-02,2.78384592e-02,7.38625526e-02,
8.84899199e-02,-3.17408554e-02,1.90538689e-02,1.24374606e-01,9.20137763e-03,
-4.11906987e-02,5.51960543e-02,4.73616980e-02,4.34409156e-02,8.52704421e-03,
-8.49127695e-02,7.78258443e-02,4.09800783e-02,-6.73296675e-02,-2.73135826e-02,
-7.51904845e-02,4.95116599e-02,-1.81858819e-02,-5.49251260e-03,6.21867962e-02,
1.59147102e-02,-6.54319078e-02,1.24694027e-01,1.15096755e-01,-1.47215917e-03,
4.96581569e-02,-7.50340596e-02,-4.65918034e-02,8.19218382e-02,-7.39653036e-02,
2.02628169e-02,-7.92878345e-02,5.15762810e-03,-7.44049773e-02,-4.55500148e-02,
8.56163129e-02,3.32849137e-02,9.57403053e-03,-5.75966714e-03,-5.23621291e-02,
1.07075095e-01,-3.69788930e-02,-1.31911352e-01,6.63804263e-02,5.30978851e-02,
6.58454373e-02,8.93687606e-02,-2.53325142e-02,7.76572376e-02,9.51636285e-02,
7.19847828e-02,-4.60264683e-02,-9.50988159e-02,4.05259877e-02,1.50356768e-02,
7.61184320e-02,-5.79446778e-02,-8.59392509e-02,2.81209722e-02,8.68975595e-02,
-5.39285205e-02,-1.16505839e-01,-8.64802822e-02,7.88642541e-02,4.89554480e-02,
1.39975613e-02,-3.07123847e-02,-8.44523385e-02,2.95375045e-02,-6.74844906e-02,
3.69907767e-02,4.08804528e-02,4.78409529e-02,2.22340459e-03,1.03081398e-01,
1.60816796e-02,3.01019964e-03,-2.58799754e-02,1.76867694e-02,9.49561149e-02,
2.98810061e-02,7.86177665e-02,4.90694717e-02,-2.57973131e-02,-2.16424931e-02,
4.12310362e-02,1.87834576e-01,-4.43139412e-02,8.92921388e-02,7.70483166e-02,
5.98340034e-02,9.10041854e-02,9.35889035e-02,-5.56041189e-02,-6.60496354e-02,
-5.53826429e-02,6.26136037e-03,4.83836457e-02,1.07286200e-01,-2.49993522e-02,
-4.45628352e-02,1.01845125e-02,-5.71858548e-02,4.06413041e-02,3.41373906e-02,
4.37234677e-02,-5.97326942e-02,1.14144415e-01,8.99733696e-03,-2.17109872e-03,
4.06186543e-02,-1.79896113e-02,8.61113444e-02,2.30284818e-02,2.07166914e-02,
9.05009359e-02,-3.68696302e-02,2.93014664e-02,7.27456138e-02,3.30403633e-02,
1.14703095e-02,-8.15333873e-02,8.65213200e-02,-3.99242304e-02,-9.89134684e-02,
8.33220780e-02,1.22750983e-01,-9.04144794e-02,-2.67783161e-02,1.37725677e-02,
1.44413440e-02,1.13920644e-01,1.27732232e-01,8.59601423e-02,-1.79506522e-02,
4.49840203e-02,8.35719109e-02,-4.17933352e-02,-9.08109099e-02,-2.87517346e-02,
-1.08427815e-02,7.25447759e-02,-5.33834063e-02,3.07497177e-02,-6.13411814e-02,
-5.24883606e-02,-6.53783306e-02,1.09676838e-01,4.02742177e-02,-3.08759529e-02,
1.16849855e-01,1.68180373e-02,-2.21932195e-02,-5.51311634e-02,2.06080414e-02,
-2.47510020e-02,-7.01050907e-02,6.31822422e-02,1.11331567e-01,7.26525187e-02,
1.13209255e-01,1.56620126e-02,-1.16528629e-03,1.07956506e-01,-1.28939282e-02,
-3.34072625e-03,-2.44986359e-02,-2.35129218e-03,8.38127732e-02,5.83792329e-02,
2.39397455e-02,1.20985389e-01,3.85468043e-02,-5.77473305e-02,-4.58683483e-02,
2.52482221e-02,6.86737224e-02,3.45007442e-02,5.82434610e-02,1.43511131e-01,
-7.79680014e-02,8.15707371e-02,-8.71619806e-02,-3.78608406e-02,-1.24445722e-01,
-1.21793441e-01,-4.44258228e-02,1.35510355e-01,-2.05590334e-02,1.08781844e-01,
2.58632246e-02,-6.23378381e-02,7.04656988e-02,-4.18886580e-02,9.79439765e-02,
-3.64124612e-03,6.80853128e-02,6.40931726e-02,-1.15171209e-01,-1.24990672e-01,
1.65898427e-01,2.19747927e-02,-1.06374780e-02,4.64243032e-02,-9.76613909e-02,
-9.35029984e-02,2.12879200e-02,9.02151614e-02,7.21810907e-02,1.58907741e-01,
-8.15119967e-02,8.31709132e-02,1.34445569e-02,3.65481935e-02,-7.67057315e-02,
-1.35896867e-02,1.74754307e-01,-4.28494625e-02,-7.99515471e-02,7.12751076e-02,
3.80277261e-02,-1.67094786e-02,-7.33919218e-02,1.16010252e-02,-7.44795054e-02,
6.52153231e-03,-9.43358580e-04,3.19672599e-02,6.68072701e-02,-8.31120610e-02,
1.48667350e-01,-3.73555943e-02,1.08168628e-02,7.97465816e-02,2.08382718e-02,
7.86857903e-02,8.84176642e-02,-8.53315741e-02,-2.47566421e-02,-6.90193176e-02,
-3.71707082e-02,-2.20001563e-02,-3.32777165e-02,-2.59324443e-02,1.46126896e-01,
8.03258345e-02,-3.97616588e-02,2.67617255e-02,-1.07524402e-01,1.26133636e-01,
-7.72126839e-02,1.64991263e-02,1.01547241e-01,2.24957131e-02,-1.01645224e-01,
-1.64429955e-02,8.26597065e-02,-1.57694090e-02,-7.82940239e-02,3.06309555e-02,
-7.38173202e-02,9.91583839e-02,-1.18835839e-02,4.19764034e-02,1.64603302e-03,
8.44475478e-02,-8.78294408e-02,1.59349754e-01,-3.60235833e-02,3.45482118e-02,
-1.23150609e-01,-6.02749437e-02,-2.63180882e-01,-6.05343841e-02,9.07454416e-02,
-4.62045036e-02,8.95571187e-02,-4.66345958e-02,1.75626695e-01,5.74381165e-02,
3.91013771e-02,1.11138158e-01,-7.09377462e-03,8.85301158e-02,-3.75416987e-02,
-4.65295687e-02,-7.41948634e-02,-2.08819821e-01,-3.77955809e-02,6.04314171e-02,
2.70262603e-02,9.35320109e-02,-5.46455570e-02,-7.16298819e-03,1.91565007e-02,
-4.61772308e-02,1.66111421e-02,5.78140765e-02,-6.35042116e-02,1.44715399e-01,
-8.02311227e-02,1.02447439e-02,2.59240735e-02,1.27456993e-01,4.88895566e-05,
-7.63298571e-02,7.96290785e-02,2.87840236e-02,-7.33197853e-02,-1.80781111e-02,
1.94016397e-02,9.50479507e-02,-3.11005097e-02,7.80919045e-02,-6.46477416e-02,
1.31042272e-01,-1.28574342e-01,1.85018573e-02,-2.56084688e-02,3.09958905e-02,
8.97224993e-02,7.69998208e-02,-3.10529247e-02,-1.81509331e-02,5.97881712e-03,
-2.95078456e-02,1.39654070e-01,-8.35163519e-02,4.50738631e-02,8.31040069e-02,
6.33222386e-02,3.90084572e-02,-6.10447228e-02,1.14769012e-01,-6.17999136e-02,
-3.43023911e-02,3.04948492e-03,-2.44654994e-02,1.55693918e-01,9.32642370e-02,
1.34379879e-01,-4.11060750e-02,1.35148793e-01,8.62753987e-02,-4.34663258e-02,
-5.52785061e-02,3.90900336e-02,-2.75042541e-02,3.13601121e-02,5.33244759e-02,
3.46809402e-02,5.85019626e-02,-3.11657060e-02,9.04651210e-02,8.57180506e-02,
-7.99253583e-02,2.89308224e-02,2.50770785e-02,6.00388274e-02,-2.12383885e-02,
-2.34283898e-02,7.44889528e-02,6.19560257e-02,5.12277558e-02,-3.75283770e-02,
-7.83074796e-02,1.02962844e-01,-9.56064463e-02,-7.71078989e-02,-3.07975393e-02,
1.40341908e-01,-1.54340550e-01,1.80086210e-01,-1.04823269e-01,6.33416921e-02,
-6.83853179e-02,-1.02282725e-01,-8.81353840e-02,-8.95450823e-03,4.77553979e-02,
-1.03670120e-01,-8.96848366e-02,-2.93667894e-02,-4.07872833e-02,2.17713788e-02,
3.61813009e-02,5.51122501e-02,1.14055291e-01,4.78030257e-02,7.08200736e-03,
-8.22359994e-02,1.78482067e-02,6.40597418e-02,5.79803884e-02,-4.97640409e-02,
4.97045405e-02,1.38381450e-02,6.30192235e-02,-9.94927809e-02,2.25262009e-02,
-9.20160562e-02,7.85932764e-02,9.36608762e-02,6.66894317e-02,1.54111356e-01,
-6.73809424e-02,1.83991104e-01,1.13728739e-01,1.39685616e-01,1.03506900e-01,
9.99786854e-02,1.85294505e-02,4.33361046e-02,1.63055994e-02,1.47583382e-02,
-1.39740497e-01,-5.95327131e-02,-7.22675631e-03,-3.84526215e-02,-9.38317925e-02,
-1.22653330e-02,1.40363593e-02,-1.39882371e-01,-9.45641845e-02,2.98049692e-02,
-1.95969362e-02,2.67172456e-02,2.63841935e-02,-4.49831560e-02,-2.40541976e-02,
-4.11536768e-02,-7.49386614e-03,7.07444549e-02,9.07713175e-02,-8.15367773e-02,
9.85250324e-02,3.37721035e-02,1.08091623e-01,-1.01689078e-01,6.41620159e-03,
-1.14680007e-01,-1.84696342e-04,-7.95550123e-02,7.64983594e-02,-9.70720798e-02,
9.91463289e-02,6.47918433e-02,-1.14397548e-01,5.72168864e-02,1.93811078e-02,
6.35993332e-02,-5.11648618e-02,9.81365740e-02,1.73826814e-01,9.83079523e-02,
-1.35513004e-02,1.02448978e-01,-3.63542549e-02,2.75951009e-02,6.98713139e-02,
-5.90014607e-02,7.69607276e-02,-4.29668054e-02,-5.79545647e-02,-2.77833976e-02,
1.76476338e-03,-1.02753423e-01,-8.23761225e-02,6.18850812e-02,-3.64612751e-02,
-5.29703461e-02,1.08739123e-01,3.37822363e-02,5.33944853e-02,-5.47984950e-02,
-1.15273498e-01,-9.38221067e-02,5.36964461e-02,-4.75048879e-03,-5.38034700e-02,
9.47317556e-02,-1.75392702e-02,2.08558831e-02,6.33170605e-02,7.48738870e-02,
-6.01652786e-02,9.46276169e-03,1.26509070e-01,-1.09870650e-01,9.69322696e-02,
-2.93336045e-02,9.16067213e-02,3.63794193e-02,-5.53645454e-02,5.39360531e-02,
1.02409199e-01,7.94322863e-02,4.89596799e-02,1.71945859e-02,-3.95917557e-02,
9.75363404e-02,-4.05255258e-02,-1.43279368e-02,4.50509600e-02,8.77700746e-02,
-7.74680898e-02,-2.12312713e-02,-5.92903979e-02,-3.01324166e-02,7.17890263e-02,
5.69506884e-02,6.32737800e-02,-2.48684324e-02,-6.72682896e-02,1.56198367e-02,
-1.63990613e-02,-2.18817242e-03,1.97490007e-02,1.06659919e-01,-4.68998924e-02,
-5.18749543e-02,-6.03636689e-02,-1.00054555e-01,-2.13741735e-02,3.46467346e-02,
1.36692645e-02,-2.40903371e-03,-6.31784350e-02,5.55210225e-02,5.66634163e-02,
-8.43765959e-02,-7.09615126e-02,-7.81401768e-02,1.89263765e-02,4.21666391e-02,
5.56877330e-02,-3.72531340e-02,8.76653418e-02,7.61458725e-02,1.43393474e-02,
1.88809745e-02,-7.06470311e-02,2.19787029e-03,2.72798613e-02,1.16486698e-02,
-3.26326117e-02,-3.52921411e-02,-5.10325693e-02,8.90983045e-02,3.77601124e-02,
3.28068212e-02,-7.54986480e-02,-6.62808195e-02,6.57063127e-02,-6.93473890e-02,
5.64967729e-02,6.74263462e-02,-2.78721303e-02,-1.51353888e-02,-8.32523629e-02,
-6.45803064e-02,5.22013940e-02,-1.58403888e-02,1.33629113e-01,1.64794568e-02,
9.45637599e-02,-6.95038363e-02,8.66522118e-02,-3.55841150e-03,1.28316075e-01,
-9.02843550e-02,-4.62407693e-02,9.14276615e-02,5.10073341e-02,-3.70169617e-02,
-5.09942658e-02,-1.03222944e-01,4.12207246e-02,-1.28548592e-02,8.42226222e-02,
1.62160804e-03,1.11857057e-01,6.23224005e-02,1.20971501e-01,7.99320415e-02,
-9.27981436e-02,-2.61685438e-02,-6.14602529e-02,2.59716101e-02,7.24042505e-02,
-5.88134229e-02,3.25765237e-02,-4.42563891e-02,2.45368946e-02,-7.26365075e-02,
1.31136894e-01,-7.34575093e-02,-9.62151273e-04,4.83310930e-02,9.26557928e-03,
1.00344591e-01,6.21404909e-02,1.83625631e-02,-5.38589880e-02,-4.07238603e-02,
-4.58095782e-02,-2.53491364e-02,1.16241820e-01,-2.11066734e-02,-1.97848137e-02,
-7.58586973e-02,-3.53751145e-02,1.12170838e-01,-5.66448979e-02,1.53868318e-01,
-8.35644975e-02,1.04196712e-01,1.60656264e-03,-3.79702523e-02,-2.55965292e-02,
3.13948318e-02,-3.38232592e-02,2.14209990e-03,-5.98367080e-02,6.21023029e-02,
7.26837851e-03,-3.59737054e-02,-1.09811082e-01,7.72857219e-02,-1.80641804e-02,
-7.30668828e-02,2.18419638e-02,8.90970826e-02,9.46737453e-02,-2.43891333e-03,
-3.99172939e-02,3.86033580e-02,8.02153125e-02,-5.22851683e-02,-1.85067374e-02,
-6.55285940e-02,1.38102556e-02,-8.85867402e-02,7.52325282e-02,-1.39355846e-02,
1.21864036e-01,-2.68474929e-02,7.73009285e-02,1.47962913e-01,-1.23324385e-02,
1.04201831e-01,1.43760769e-03,5.83396293e-02,-3.02493144e-02,2.20907163e-02,
-7.86164999e-02,5.14428765e-02,9.98373851e-02,-7.78775364e-02,8.54788534e-03,
-7.73280337e-02,-9.63774100e-02,-1.03286626e-02,-9.53218192e-02,3.70001979e-03,
-8.51086006e-02,-2.63963696e-02,1.21288160e-02,2.42561866e-02,9.23675895e-02,
3.66593339e-02,-9.04510915e-02,-1.27482824e-02,8.38344321e-02,-9.56684351e-02,
-5.86709231e-02,-8.95262510e-02,1.25490233e-01,-8.17180350e-02,-4.34067324e-02,
2.99171116e-02,-1.02589138e-01,1.61429457e-02,8.22787285e-02,7.88789690e-02,
2.32825689e-02,1.10104032e-01,1.03879340e-01,-7.59743527e-02,-8.16266835e-02,
2.56623011e-02,2.44761519e-02,-3.17015387e-02,6.91001192e-02,4.61786613e-02,
4.73860353e-02,1.87855083e-02,8.52106586e-02,4.59641358e-03,1.08768687e-01,
3.84163335e-02,-8.11277777e-02,-6.91356286e-02,4.38311212e-02,4.27349322e-02,
8.58352780e-02,-1.70312673e-02,-1.49919763e-01,1.04212530e-01,-5.93988560e-02,
5.95005928e-03,-6.51336163e-02,-2.42453236e-02,-3.14796204e-03,8.68178830e-02,
7.92140141e-02,7.28940917e-03,8.09950978e-02,8.57374147e-02,7.31945187e-02,
-2.47907937e-02,-1.17055453e-01,1.91885103e-02,9.17263776e-02,5.22642629e-03,
-1.17863335e-01,8.98049213e-03,4.09617014e-02,3.28298435e-02,-7.51980543e-02,
1.22854263e-02,-4.16523032e-02,5.65184280e-03,1.33429542e-01,1.10960409e-01,
-6.54858723e-02,-7.86153376e-02,1.05483651e-01,5.34617901e-03,5.67803495e-02,
1.41459554e-02,3.88468727e-02,-1.52954802e-01,1.04984537e-01,9.34558660e-02,
-1.23651408e-01,5.77815212e-02,-1.75347570e-02,-1.48914471e-01,9.26805213e-02,
-3.46062221e-02,-6.74788281e-02,7.55018815e-02,7.93414339e-02,-1.43099390e-02,
5.71010038e-02,9.67401713e-02,6.78174943e-02,-8.23258907e-02,2.60641817e-02,
1.17618516e-02,1.53045431e-02,-1.20786816e-01,-3.28180976e-02,-2.73258258e-02,
-4.08138931e-02,3.62194814e-02,-5.65509200e-02,-1.10708189e-03,3.47085968e-02,
-9.20150355e-02,-1.28197581e-01,-7.41139501e-02,-3.00364662e-02,8.00350979e-02,
-3.55054550e-02,-1.93898436e-02,1.10087708e-01,-1.21639833e-01,3.25451754e-02,
1.23825058e-01,-2.47883070e-02,-2.33220421e-02,4.00484763e-02,6.78000855e-04,
-1.24790343e-02,1.36005031e-02,9.54759344e-02,1.10950857e-01,1.18481249e-01,
-1.77131847e-01,2.93013807e-02,1.27573580e-01,-1.11527435e-01,5.12646586e-02,
-3.37660722e-02,-1.89338140e-02,7.01391175e-02,2.63705496e-02,-1.17367491e-01,
-7.23019466e-02,-2.81144828e-02,1.48422515e-03,-1.00500830e-01,-9.96250734e-02,
-2.04116389e-01,-1.98850319e-01,9.62510239e-03,-6.50283992e-02,-1.04678638e-01,
8.15085024e-02,2.36769728e-02,7.32124075e-02,9.34144575e-03,-5.66115044e-02,
3.94331338e-03,1.71240494e-02,1.03337303e-01,-2.76343822e-02,-4.28464711e-02,
9.51709133e-03,-7.07074925e-02,-1.90319307e-02,1.06208593e-01,5.75401187e-02,
4.01099622e-02,-3.06311576e-03,1.32443635e-02,-2.46829689e-02,3.42546068e-02,
-2.09489927e-01,-3.17581296e-02,1.13337263e-02,-2.03915779e-02,-6.32093921e-02,
-1.04302362e-01,-1.27840266e-01,2.81368773e-02,3.94142494e-02,-1.47751607e-02,
1.10063761e-01,6.07175604e-02,1.03522412e-01,-1.03863560e-01,-1.04050279e-01,
7.26651773e-02,6.15779459e-02,2.36297436e-02,9.70949754e-02,-9.37927216e-02,
-2.40982790e-02,-1.00640967e-01,1.24118827e-01,1.04500569e-01,2.76579317e-02,
9.44445506e-02,-1.06747414e-03,4.93524410e-03,-4.93411534e-02,6.57650083e-02,
-5.74206524e-02,-2.48769075e-02,5.04329614e-02,1.04419969e-01,5.85400052e-02,
9.00827423e-02,-8.58256668e-02,9.80447382e-02,7.81307463e-03,3.55584025e-02,
1.06089093e-01,8.63448754e-02,-5.10342866e-02,1.71221234e-02,3.80946435e-02,
-5.05965315e-02,-2.00198870e-02,9.00781453e-02,7.95189440e-02,6.64726347e-02,
-9.34399590e-02,-8.30833688e-02,2.82541309e-02,4.51790467e-02,7.85033554e-02,
-2.48588901e-03,3.86064760e-02,1.43455928e-02,5.87332956e-02,-1.43194273e-01,
-4.42002155e-02,9.83920991e-02,-5.90420589e-02,2.17410922e-02,6.20081238e-02,
-5.42584397e-02,3.03370953e-02,4.68593352e-02,1.72818340e-02,-1.14315875e-01,
8.82316083e-02,-1.33326590e-01,2.36598384e-02,-6.98514134e-02,8.73277783e-02,
1.21665142e-01,5.03263548e-02,-3.65057103e-02,9.72239286e-05,-4.68317568e-02,
-1.16537817e-01,-9.29090381e-02,5.16684614e-02,6.30024374e-02,-3.88447680e-02,
1.79879144e-02,-2.03852672e-02,-2.96870023e-02,9.11092311e-02,-3.41860391e-02,
5.32472096e-02,-1.05650671e-01,5.68667017e-02,3.85768674e-02,-3.11578978e-02,
-3.69942673e-02,-1.04659721e-01,4.04499331e-03,5.00426888e-02,-8.32352266e-02,
-1.36014801e-02,4.35264483e-02,5.74102029e-02,5.27367555e-02,9.93290693e-02,
4.39781062e-02,5.91134764e-02,1.31476894e-02,-3.60980108e-02,-8.12635273e-02,
1.95696447e-02,7.70675242e-02,-1.14865145e-02,-8.62760395e-02,-1.05621919e-01,
-1.26827210e-01,-2.97612417e-02,3.17854285e-02,-2.13127322e-02,-6.30161986e-02,
-6.81158975e-02,7.99199194e-02,3.25253643e-02,-1.07529536e-02,-9.30102244e-02,
5.26481355e-03,-5.61431348e-02,4.48620729e-02,4.91487794e-02,-3.97737250e-02,
7.36308843e-02,1.30294347e-02,-1.15038324e-02,7.06748813e-02,1.11725396e-02,
-8.96205679e-02,-8.87107179e-02,-3.84439342e-02,-1.99857913e-03,-1.61624234e-02,
2.30556726e-03,-3.85332368e-02,6.61650896e-02,-2.19245311e-02,-3.65212895e-02,
5.08772489e-03,-2.66748946e-02,2.99807172e-02,-1.10591995e-02,9.43968669e-02,
-6.20686486e-02,-3.69301103e-02,-1.26019031e-01,4.16740179e-02,-6.97467625e-02,
-9.52305794e-02,-2.65761111e-02,-8.00841451e-02,-3.84514108e-02,2.30173524e-02,
5.78840896e-02,3.63273807e-02,-1.62728708e-02,-4.43112701e-02,5.83901256e-02,
6.62289932e-02,5.86284772e-02,-2.85658259e-02,6.13712557e-02,6.18617386e-02,
1.74867958e-02,6.43791705e-02,-5.87327592e-02,-2.25840025e-02,-4.55565825e-02,
6.02005683e-02,-1.00356974e-02,1.03749476e-01,6.84490427e-02,-2.11310852e-02,
5.72722778e-02,4.17113304e-02,2.60938276e-02,1.71664413e-02,-1.28928768e-02,
9.47036222e-02,-3.43459100e-02,7.90452287e-02,7.13023245e-02,-7.01028779e-02,
-5.97486608e-02,-3.38290930e-02,4.41293530e-02,4.73643430e-02,-5.46731763e-02,
6.15281463e-02,5.06533422e-02,-9.69066545e-02,-9.55094118e-03,-4.38987017e-02,
-3.05758845e-02,-4.93317060e-02,4.37257811e-02,-9.86264274e-02,-3.66386063e-02,
8.58651623e-02,1.06999941e-01,5.52922264e-02,6.13210574e-02,8.81068129e-03,
-4.15827595e-02,-7.25108236e-02,4.02447768e-02,6.78602681e-02,7.42220208e-02,
3.72826457e-02,-9.22972187e-02,-7.83052668e-02,-1.37717882e-02,-8.51929635e-02,
-1.01567440e-01,5.35968281e-02,5.14420606e-02,-4.61109914e-03,-9.21821743e-02,
1.03465438e-01,-5.72780110e-02,-7.30018765e-02,-9.11843032e-03,5.69810756e-02,
-8.02000538e-02,5.22083826e-02,4.60960297e-03,-6.67028734e-03,-4.81950268e-02,
2.81883255e-02,4.59771417e-02,-3.70030403e-02,-9.47552249e-02,-5.26555739e-02,
1.45107014e-02,-1.29731011e-03,-7.70630315e-02,2.17908304e-02,9.96678174e-02,
1.05481647e-01,-8.85300264e-02,-5.74087538e-02,-8.70586559e-03,6.02245331e-03,
9.66342092e-02,-2.39005126e-03,-8.80421773e-02,9.87919867e-02,-9.27725583e-02,
2.36275867e-02,8.22937712e-02,-4.24898006e-02,-2.69670654e-02,8.26882012e-03,
2.74251122e-02,2.32522059e-02,9.09450427e-02,1.04134530e-03,-8.55283812e-02,
-5.28478064e-02,-1.01043262e-01,-9.39117521e-02,5.38863204e-02,-1.03437155e-01,
8.80890563e-02,-1.14700891e-01,-6.74897209e-02,-2.96319723e-02,-1.07226055e-02,
-5.54005010e-03,-2.36991164e-03,1.04754746e-01,1.00236811e-01,1.23422541e-01,
-8.17288607e-02,7.99378678e-02,4.70596589e-02,-8.18684623e-02,-2.76143346e-02,
-1.56406146e-02,-3.91667150e-03,5.62844947e-02,8.46438333e-02,-1.06937349e-01,
6.49253204e-02,-8.73821452e-02,1.18892692e-01,-4.39905114e-02,9.28013399e-02,
-6.13367036e-02,-8.21887776e-02,-8.74580443e-02,-4.90308888e-02,4.55002002e-02,
-2.88942195e-02,1.06638260e-02,9.19634104e-02,6.78614713e-03,1.23201363e-01,
-5.32870926e-02,-9.85001028e-02,-4.57328670e-02,6.53139874e-03,7.63153657e-02,
1.31342217e-01,-1.04675733e-01,9.57382619e-02,-8.53984803e-02,2.23180223e-02,
6.04326129e-02,-6.81954548e-02,1.15577213e-01,-8.68787020e-02,-5.29084448e-03,
-9.88989398e-02,8.74693170e-02,-8.41885507e-02,-1.21936304e-02,1.32715166e-01,
-9.04871151e-03,-4.40986715e-02,-8.80691484e-02,-5.79221807e-02,9.53024477e-02,
4.08842862e-02,5.87736256e-02,-5.31722680e-02,-6.40699081e-03,-7.02387691e-02,
7.87644014e-02,-4.07845713e-02,-3.11481804e-02,3.57685238e-02,9.06241909e-02,
-7.38971755e-02,3.67432572e-02,1.16016269e-02,-7.85021335e-02,2.89555104e-03,
9.62662417e-03,-1.54402955e-02,1.92188658e-02,-2.75366697e-02,-1.01974141e-02,
-9.73336585e-03,5.17606921e-02,-3.22934333e-03,-6.12395965e-02,-2.26783827e-02,
2.31460575e-02,-9.52532608e-03,-5.92024578e-03,-4.05898504e-02,-9.86625925e-02,
-1.45912194e-03,-3.28614283e-03,-5.95736280e-02,-3.96089591e-02,-5.23377210e-02,
6.72148541e-02,2.62289587e-02,-3.72453853e-02,-4.06209603e-02,-4.30312529e-02,
-6.79663792e-02,-4.18962426e-02,-7.37576932e-02,-4.26124141e-04,3.88949551e-02,
8.02051574e-02,1.05117001e-01,1.56427905e-01,-5.39623238e-02,6.77860379e-02,
7.06304163e-02,-1.09474085e-01,3.99215408e-02,-8.41270611e-02,9.76225138e-02,
-2.98539530e-02,-8.29020292e-02,1.50018660e-02,-1.99114587e-02,9.55369920e-02,
2.64063589e-02,1.20373838e-01,-1.22648224e-01,9.89189968e-02,4.84250449e-02,
-3.96065749e-02,-2.93960962e-02,-8.42420012e-02,-7.28395395e-03,-5.97838536e-02,
9.10524577e-02,-1.97367668e-01,1.68867469e-01,9.01978239e-02,9.07177664e-03,
-7.23713711e-02,-5.08940294e-02,1.27037626e-03,2.26124972e-02,2.39773784e-02,
-2.74978485e-02,9.84416679e-02,1.13867484e-01,2.81157773e-02,1.30097896e-01,
6.12741709e-03,4.90557253e-02,2.89588775e-02,1.29276708e-01,2.31316574e-02,
-3.38429734e-02,-1.14163253e-02,1.40283361e-01,1.28655210e-02,-6.14973009e-02,
1.20943666e-01,-5.80991544e-02,-1.25495121e-01,8.07696432e-02,-7.13370740e-02,
-4.11250405e-02,-2.16081645e-02,-6.18444346e-02,3.82963941e-02,-3.26564163e-02,
-1.14825734e-05,-4.83942702e-02,1.02241058e-02,-5.04206605e-02,7.83399791e-02,
-1.38241380e-01,7.38150924e-02,3.23403999e-02,-9.81524140e-02,-6.59163147e-02,
3.89145203e-02,-1.58091076e-02,-1.63043246e-01,-2.43405197e-02,-1.07348345e-01,
-1.68323033e-02,2.48722006e-02,-4.92165014e-02,4.82963137e-02,1.23783618e-01,
7.05839321e-02,3.49238544e-04,-2.64232513e-02,8.55777338e-02,4.91299666e-02,
-1.04591586e-02,-6.91116974e-02,1.55721694e-01,3.09494007e-02,3.65155429e-04,
5.09308241e-02,-9.35959965e-02,-7.56605417e-02,1.94747001e-02,3.19107808e-02,
1.05918825e-01,4.42170836e-02,-6.16228208e-02,1.81837156e-02,5.82433045e-02,
7.13493451e-02,-1.72018744e-02,3.17988172e-02,7.76125938e-02,-2.18843780e-02,
-1.20441429e-01,-9.82273137e-04,1.02695204e-01,-8.41336325e-02,3.14539634e-02,
-8.67251605e-02,5.04554324e-02,-9.25786346e-02,-6.96172267e-02,-9.98318419e-02,
-1.72136091e-02,-1.47006894e-02,-6.50436431e-02,6.18039556e-02,3.01151741e-02,
-8.57866481e-02,3.87124568e-02,1.22607440e-01,-1.34865880e-01,-3.19109820e-02,
-8.73852596e-02,1.37024879e-01,-4.44889143e-02,3.32410000e-02,1.66744683e-02,
2.29940261e-03,-2.71967612e-02,-2.70039914e-03,-8.92760009e-02,-1.40928835e-01,
-2.00837851e-02,1.50076151e-02,-4.64435443e-02,1.17541105e-01,6.50839731e-02,
-2.09821779e-02,-7.57930204e-02,-9.35810208e-02,-1.24164492e-01,2.42492724e-02,
-1.18728340e-01,8.33796114e-02,4.93487483e-03,-9.19980109e-02,-4.80112322e-02,
7.72630572e-02,3.08583006e-02,4.35861163e-02,-6.90486729e-02,-2.38769092e-02,
2.70861667e-02,-5.96362986e-02,-8.66562426e-02,-9.35313031e-02,-6.81319833e-02,
4.83869426e-02,-4.77766208e-02,7.54930228e-02,6.60961866e-02,7.03417063e-02,
-6.90231174e-02,-7.47910663e-02,2.00382508e-02,6.65472224e-02,3.78249176e-02,
-6.87486604e-02,2.12101918e-03,5.90428822e-02,-8.09879303e-02,-5.74768744e-02,
-4.38536052e-03,-1.57941449e-02,-2.88741793e-02,-5.89167476e-02,-3.85990478e-02,
-1.10389017e-01,1.52906459e-02,8.23134482e-02,4.81279120e-02,-1.01983406e-01,
1.02120049e-01,1.02080479e-01,5.47115095e-02,-5.27015813e-02,-2.95454031e-03,
1.10034086e-02,3.41484770e-02,3.58700119e-02,-8.06160867e-02,7.22154751e-02,
-1.25438794e-01,-2.91910283e-02,-3.78165133e-02,-5.79110198e-02,8.24563727e-02,
2.79239602e-02,-8.10246356e-03,4.25944179e-02,-4.34510484e-02,-3.83468866e-02,
4.93040159e-02,1.11442059e-02,-9.30693299e-02,-8.88878405e-02,-5.42326532e-02,
3.70147787e-02,-1.01451509e-01,5.92022464e-02,-7.21117258e-02,1.06258020e-01,
-9.77991223e-02,-8.87043551e-02,1.02872767e-01,-8.33605230e-02,1.73794329e-02,
-1.10350244e-01,-4.15725149e-02,-7.90998265e-02,-1.79174505e-02,-1.04340658e-01,
-6.10735128e-03,7.46821612e-03,-5.36406003e-02,1.26877688e-02,2.50938535e-02,
-7.59924017e-03,2.53549702e-02,-9.01233628e-02,2.90594082e-02,1.20684788e-01,
-8.00522417e-02,5.59025854e-02,9.09579396e-02,-9.68114361e-02,9.07453299e-02,
4.96530607e-02,-2.81219110e-02,2.43544914e-02,-1.03718713e-01,-1.01335116e-01,
-2.55798567e-02,-3.64698507e-02,2.89816745e-02,-3.15468572e-02,-2.69038472e-02,
-5.19846082e-02,-1.37920789e-02,2.89637987e-02,-1.37386741e-02,-3.03809028e-02,
6.33070171e-02,3.97206359e-02,7.97298774e-02,7.29508027e-02,-8.01180117e-03,
1.17615750e-02,-3.10811400e-02,5.16021252e-03,-7.20337853e-02,1.58631969e-02,
5.78969382e-02,-4.46915217e-02,5.00716828e-02,2.46474035e-02,-4.28829826e-02,
6.03184737e-02,-9.06731039e-02,6.31370693e-02,-1.69732571e-02,4.83655110e-02,
7.07486570e-02,-1.46040283e-02,-1.65610444e-02,-1.05999656e-01,-3.66247222e-02,
-1.41769275e-02,-3.84973548e-02,5.91227487e-02,-1.05978539e-02,7.56634399e-02,
-6.34505972e-02,5.63966073e-02,1.99335404e-02,7.71702826e-02,-3.66048366e-02,
1.61586050e-02,7.30537772e-02,3.60881500e-02,-4.13908549e-02,-2.48731263e-02,
-8.73421729e-02,4.61024046e-02,5.85628152e-02,-7.15626702e-02,9.04239938e-02,
-5.03600277e-02,9.38131437e-02,1.98031846e-03,-5.06766476e-02,-1.06356312e-02,
-5.05297892e-02,-6.29927665e-02,-9.32559967e-02,-1.12422861e-01,-8.82365555e-02,
-7.86563158e-02,1.02503754e-01,-8.00351202e-02,-6.90100566e-02,-1.05572298e-01,
-1.04444079e-01,8.27600136e-02,2.38618068e-02,-7.15201050e-02,3.82360100e-04,
5.90187758e-02,-1.01898909e-02,-4.10832930e-03,-9.90989357e-02,-1.06634051e-01,
-1.01511680e-01,-4.25231233e-02,1.13855936e-01,6.52521029e-02,2.96214074e-02,
1.04181170e-01,-6.08519576e-02,-8.70164409e-02,-7.65920207e-02,2.09233053e-02,
7.50145465e-02,-1.76611729e-02,-2.11370364e-02,-2.08388790e-02,4.31786105e-02,
1.33804768e-01,-5.84778264e-02,8.57369602e-02,-3.20656300e-02,-9.64044854e-02,
8.71856213e-02,-2.17786822e-02,-3.03547084e-02,7.70986676e-02,-4.47692275e-02,
9.21386480e-02,-2.25934722e-02,-5.56223728e-02,9.79426876e-03,-4.76364084e-02,
-2.59650387e-02,3.69626172e-02,3.05428691e-02,-2.80446522e-02,4.72002961e-02,
6.09439686e-02,-7.53239170e-02,-9.27831745e-04,3.62193324e-02,5.11886440e-02,
1.08570926e-01,-4.16511595e-02,-4.16164510e-02,3.06561822e-03,-8.80622938e-02,
6.26168028e-02,-5.36594354e-02,-9.28763151e-02,6.20153695e-02,-4.96045947e-02,
3.52847688e-02,1.75634399e-02,3.60880233e-02,-6.35395572e-02,-1.09015055e-01,
-7.63430446e-02,-8.01756680e-02,8.14011917e-02,5.15742078e-02,-4.43019010e-02,
-7.80638680e-02,-5.73966764e-02,-6.71692044e-02,-1.20020874e-01,9.12410617e-02,
-1.03202187e-01,2.75989119e-02,1.14365987e-01,-9.07967240e-02,-2.36231200e-02,
2.25234814e-02,3.93130258e-02,8.63958448e-02,-3.88428867e-02,-4.11072075e-02,
-1.83420014e-02,-3.14806513e-02,-5.72370328e-02,6.36205152e-02,8.24893489e-02,
3.71358804e-02,9.28262174e-02,-6.57031611e-02,2.65512206e-02,8.12827423e-03,
-6.37301952e-02,-1.04700932e-02,-6.70876652e-02,-1.47904456e-01,-9.44519490e-02,
-8.17347541e-02,6.66928440e-02,-5.94331548e-02,7.60737211e-02,-6.29161075e-02,
3.69288661e-02,-5.62266000e-02,-3.13932970e-02,7.65806064e-02,7.52236992e-02,
6.50343895e-02,6.43229857e-02,-1.21351946e-02,-6.88263625e-02,-9.94005352e-02,
1.47458585e-02,-9.52192303e-03,9.79434475e-02,-6.65324926e-02,2.18276307e-02,
-7.10351625e-03,-1.54447183e-02,1.58476066e-02,9.00186151e-02,8.80836025e-02,
8.33154768e-02,1.37700021e-01,-1.02713563e-01,3.08668241e-02,-1.58224441e-02,
-1.46201607e-02,-1.01142144e-02,-4.33308482e-02,-4.14699540e-02,9.36662257e-02,
7.97665864e-03,2.04614899e-03,1.12211101e-01,7.08868578e-02,-9.99330953e-02,
-3.63957919e-02,8.30435231e-02,-2.45697759e-02,-8.94515496e-03,1.07472040e-01,
-8.51288214e-02,-7.06728175e-02,9.28270891e-02,-4.45641130e-02,-2.34063398e-02,
1.09770954e-01,-5.20704873e-02,-1.18762642e-01,1.54802874e-01,1.38715366e-02,
-7.88341910e-02,6.50670752e-02,-1.31977573e-01,-6.08376451e-02,-8.61394703e-02,
-1.07192829e-01,7.13154674e-02,1.00721888e-01,4.41676639e-02,-2.05406304e-02,
2.01256052e-02,-8.80101919e-02,-1.31333962e-01,-1.17379494e-01,7.03793392e-02,
-5.88185564e-02,-8.02866593e-02,-2.12077461e-02,-5.66420890e-03,-1.17610864e-01,
-4.35542054e-02,1.33436574e-02,-2.94410866e-02,-1.10685669e-01,-1.84216630e-02,
4.09487523e-02,3.04557774e-02,6.60561174e-02,8.10340792e-02,2.37527713e-02,
-9.48003493e-03,-1.17709441e-02,2.44237036e-02,6.71045110e-02,-3.47585753e-02,
9.28367153e-02,9.20084715e-02,1.10954888e-01,3.97298224e-02,-8.49485621e-02,
6.29087090e-02,1.05501004e-01,7.47036636e-02,-4.86717261e-02,-7.57963881e-02,
3.79839428e-02,-7.42424428e-02,3.04612927e-02,8.78600702e-02,-1.40227433e-02,
-5.21634333e-02,-1.35471746e-01,7.87247345e-03,6.81863725e-03,-8.98350477e-02,
-9.47352275e-02,6.44453317e-02,5.00635840e-02,1.07826531e-01,6.98842630e-02,
7.60684535e-02,-6.54268339e-02,-7.00575635e-02,1.23832829e-01,-5.50543424e-03,
-3.70481908e-02,-9.62373093e-02,1.77719463e-02,-5.45677030e-03,-1.77483018e-02,
1.41774118e-02,5.03406934e-02,-4.69361283e-02,1.33882966e-02,1.14617802e-01,
-5.79094253e-02,2.28485204e-02,1.35316506e-01,1.06779136e-01,-1.15369894e-01,
1.08155698e-01,-8.50394368e-02,-6.89898357e-02,6.20222241e-02,6.02228008e-02,
-9.61048007e-02,9.82914343e-02,1.38852507e-01,4.21357192e-02,-6.74718395e-02,
4.32868712e-02,-5.40067665e-02,4.30328175e-02,9.24714878e-02,-8.68162024e-05,
-2.05479581e-02,-1.21585431e-03,3.70942764e-02,1.06516872e-02,7.24226981e-02,
-8.26896504e-02,-2.45405231e-02,-1.55116320e-02,1.03228167e-01,-6.36544377e-02,
1.87616557e-01,8.00856128e-02,8.90201982e-03,-6.46266267e-02,1.25611555e-02,
-7.79140666e-02,9.20954421e-02,1.76086426e-02,8.13344643e-02,4.22146469e-02,
5.98159470e-02,-9.36164483e-02,-5.52026257e-02,1.05132952e-01,9.49640234e-04,
3.80390137e-02,-7.11098406e-03,-1.12834714e-01,5.57051189e-02,-7.05452561e-02,
-1.30845636e-01,-9.99760479e-02,-2.80740112e-02,-8.04867148e-02,-1.57056078e-02,
3.91669944e-02,4.59278263e-02,-4.41787317e-02,5.25782071e-02,-4.38682623e-02,
-1.94023957e-03,1.02284208e-01,1.26554474e-01,2.79204119e-02,-4.94926721e-02,
1.31649505e-02,2.73492988e-02,-1.65618844e-02,-1.90709755e-02,7.17221200e-02,
-2.34234575e-02,3.77658643e-02,-1.11758731e-01,-2.48458255e-02,-5.56279346e-02,
-3.82343866e-02,5.72778992e-02,-8.92026722e-03,8.42555985e-02,-1.28641292e-01,
-7.56648928e-02,7.31819570e-02,-2.35113781e-02,-1.06325053e-01,8.80366340e-02,
-3.85482721e-02,3.04575861e-02,-7.31620053e-03,2.73838434e-02,2.51648035e-02,
-4.85731848e-03,6.52516335e-02,-1.23331316e-01,1.34619012e-01,1.41280983e-03,
-9.17881429e-02,2.17898302e-02,7.05579221e-02,1.08997919e-01,3.25161070e-02,
-2.15476546e-02,-3.02563366e-02,-1.28127143e-01,-2.22144369e-02,-2.08744183e-02,
-8.42565447e-02,-1.09014280e-01,-7.35636428e-02,1.03568703e-01,-4.90795709e-02,
-7.77980164e-02,1.12699039e-01,-4.68923710e-02,-1.15785971e-02,-8.27049166e-02,
-1.05866365e-01,-1.79242548e-02,-1.20552130e-01,-1.11103885e-01,2.79104579e-02,
-4.74263392e-02,-4.47377041e-02,9.45611522e-02,-4.84455489e-02,3.86782736e-02,
4.68204692e-02,-1.88216716e-02,1.09986544e-01,-7.14779347e-02,1.22269718e-02,
1.04003645e-01,8.73240530e-02,-5.87814748e-02,1.37674464e-02,9.87821445e-02,
-1.29670277e-02,-1.79175083e-02,2.64732298e-02,-1.38706401e-01,-8.86315256e-02,
3.97005081e-02,4.81769368e-02,6.77511171e-02,1.33182220e-02,8.94157290e-02,
1.41399458e-01,-1.25611499e-02,-8.33827853e-02,-7.43697733e-02,-5.56729771e-02,
7.60637149e-02,-1.09666288e-01,4.44583595e-02,7.72266835e-02,6.41420558e-02,
-8.18280131e-02,2.65740175e-02,-9.10681486e-02,1.32301465e-01,-8.07626843e-02,
-8.33306685e-02,-1.07256807e-01,3.03477258e-03,-1.44588053e-02,-4.36884388e-02,
2.98620388e-02,3.50839235e-02,-8.86251256e-02,3.77241336e-02,3.00895143e-03,
-7.14243427e-02,7.76086152e-02,7.58265331e-02,7.60610998e-02,6.90353587e-02,
-1.12510279e-01,4.89029055e-03,-4.83256541e-02,-6.91776127e-02,3.08604259e-02,
9.99754295e-02,5.46719693e-02,-3.51453535e-02,1.13567710e-01,-4.89960127e-02,
-8.22589919e-02,-7.98018202e-02,-8.30791146e-02,-7.12631345e-02,1.04057238e-01,
6.77916259e-02,1.03444308e-01,6.17968328e-02,-7.01015592e-02,-9.17035807e-03,
-3.58636789e-02,7.50179514e-02,-9.60070931e-04,9.46415812e-02,-5.26761264e-02,
6.40141666e-02,-7.06534460e-02,-6.93981126e-02,2.80685723e-02,-2.91080698e-02,
-1.05980016e-01,-1.08482748e-01,-1.15675731e-02,4.77984771e-02,2.78500710e-02,
-2.34793965e-02,-5.87933557e-03,6.06818870e-02,-2.39380673e-02,4.50890660e-02,
-6.42040446e-02,-5.69012426e-02,-2.57448331e-02,-7.27013648e-02,-1.12441666e-01,
1.87608805e-02,8.67523029e-02,1.57398973e-02,1.19585521e-03,5.03236726e-02,
-7.44216517e-02,1.55741438e-01,-1.15981765e-01,3.40944231e-02,-5.37185743e-02,
3.99355963e-02,6.85250908e-02,-1.14161558e-02,-1.00825608e-01,-3.45534878e-03,
-6.98501244e-02,7.34341592e-02,2.24381331e-02,-6.70432076e-02,-9.11486074e-02,
2.76998542e-02,3.03236991e-02,-2.17355564e-02,3.58087420e-02,-1.12683363e-02,
6.81752414e-02,6.35635853e-02,-4.71138880e-02,-5.76405488e-02,-5.28746136e-02,
-6.60060495e-02,4.92578233e-03,-6.61327243e-02,8.13171342e-02,2.55834442e-02,
9.50291157e-02,7.91196898e-02,1.21343955e-01,-2.73372829e-02,-1.57426130e-02,
1.90515758e-03,-4.40219454e-02,-5.02741300e-02,-7.13589936e-02,-1.06153712e-01,
8.08799565e-02,-3.72420624e-02,7.87367299e-02,-1.02110036e-01,-6.13995865e-02,
1.06647849e-01,-8.60777870e-03,1.39337638e-03,5.88933527e-02,-6.77362978e-02,
-9.00701433e-02,1.23976313e-01,-6.86915219e-02,-4.82354686e-02,6.97294548e-02,
-9.73338168e-03,2.96350904e-02,7.53997564e-02,4.44776341e-02,-1.52387517e-02,
2.01568678e-02,-1.87616553e-02,-1.12369731e-01,-2.69733798e-02,-2.81984303e-02,
-9.75877196e-02,6.80306554e-02,1.10807158e-01,3.65807638e-02,3.82361487e-02,
-1.68491509e-02,-3.85277718e-02,5.35304770e-02,4.72252294e-02,8.96645263e-02,
1.52790698e-03,-8.12746733e-02,-9.88987386e-02,7.29822787e-03,1.16053730e-01,
-6.75910786e-02,3.89035381e-02,-6.75432533e-02,-2.08620587e-03,-4.81951721e-02,
5.58029227e-02,-2.49962751e-02,-7.96025619e-02,9.91585925e-02,-4.60441932e-02,
-2.24434305e-03,-4.93524887e-04,3.02912556e-02,-1.54201798e-02,-8.31570756e-03,
9.08378977e-03,7.44322594e-03,6.27149865e-02,9.06672627e-02,-1.16150202e-02,
6.13310486e-02,7.86984414e-02,-2.34780107e-02,-1.17953621e-01,-3.03801466e-02,
-8.34429190e-02,6.74641430e-02,-2.13901587e-02,-9.30250958e-02,2.89935172e-02,
5.42346425e-02,-7.11715966e-02,-7.36670643e-02,5.96595183e-02,-6.16143644e-02,
-5.52720055e-02,-5.44632412e-02,1.06940158e-01,8.87342915e-02,9.09763016e-03,
2.39454582e-02,1.30582554e-02,8.84933472e-02,-7.46502578e-02,1.05831653e-01,
8.47534090e-02,8.66058189e-03,-2.07898375e-02,5.34059070e-02,-8.72410759e-02,
-9.57041755e-02,8.96061435e-02,4.14357781e-02,1.76718999e-02,5.27298227e-02,
9.02018100e-02,-2.46861707e-02,1.10901415e-01,-3.45717780e-02,7.68605247e-02,
5.20150997e-02,7.69336149e-02,1.23520754e-02,-1.26458898e-01,5.61902337e-02,
-1.04800768e-01,1.16008945e-01,-7.32442364e-02,9.72949862e-02,3.41533907e-02,
5.40952273e-02,-8.77510831e-02,-4.20775078e-02,-3.71609838e-03,8.22678506e-02,
-3.69542055e-02,-3.34346667e-02,-3.26807573e-02,1.64300978e-01,-1.12421907e-01,
5.28009124e-02,8.04955885e-02,-4.44953963e-02,2.84345839e-02,6.70285597e-02,
-3.12541537e-02,3.38604525e-02,-6.97055236e-02,-3.22309695e-02,-8.39366242e-02,
4.20605727e-02,-7.43246004e-02,-2.66485196e-03,-6.75602108e-02,8.32537562e-02,
-3.22576091e-02,-2.06061061e-02,7.36125484e-02,3.37689407e-02,-7.28397816e-02,
4.03189026e-02,-3.77762541e-02,-6.12933710e-02,1.17827222e-01,-6.49449974e-02,
4.96300906e-02,-9.88210663e-02,1.29287750e-01,2.36373618e-02,1.05377145e-01,
5.79194501e-02,-9.93693992e-02,-8.76052305e-02,7.12872669e-02,4.30288576e-02,
1.02125026e-01,-5.76251140e-03,-7.93209672e-02,-5.56794479e-02,5.28850406e-02,
-8.93615931e-02,-7.50333741e-02,-3.73457894e-02,-8.46821889e-02,3.58192027e-02,
5.16647361e-02,-1.46000743e-01,-7.29525387e-02,-4.33858205e-03,4.52558100e-02,
-9.75306258e-02,2.62203142e-02,1.06029734e-02,-5.38154170e-02,-7.86777884e-02,
1.59492344e-02,-4.65000682e-02,-2.57610008e-02,-7.25648254e-02,-4.22607623e-02,
-9.22258645e-02,-3.77660734e-03,1.09881602e-01,1.36655560e-02,1.08811446e-01,
-7.92772695e-02,1.51969353e-02,-9.76836961e-03,7.27323890e-02,6.81017190e-02,
9.29237157e-03,-1.48981735e-01,2.51528341e-02,5.19362539e-02,9.28703323e-02,
4.09322232e-02,-3.97648215e-02,9.42672342e-02,6.81712627e-02,-3.60256806e-02,
-1.20463237e-01,-1.24014392e-01,2.79408768e-02,-9.81007442e-02,2.02226453e-02,
-8.26026872e-02,-8.61133412e-02,4.81684506e-02,4.29155529e-02,9.18555781e-02,
2.86555085e-02,6.38074651e-02,4.82272683e-03,-5.83647192e-02,4.23260080e-03,
1.85323153e-02,-4.53062914e-02,-8.74779671e-02,7.49751404e-02,-2.65122689e-02,
-2.84772366e-02,-8.19231570e-02,-5.14616594e-02,-3.74191143e-02,6.87839836e-02,
7.73539394e-02,-3.87561098e-02,9.26262513e-02,5.18692546e-02,-8.89523700e-02,
2.02373303e-02,1.83355110e-03,4.47839983e-02,-2.84779817e-02,-2.37229597e-02,
1.09393217e-01,-7.60552287e-02,7.79846758e-02,1.26621909e-02,2.50528529e-02,
-1.01290364e-03,4.68625724e-02,-9.75908637e-02,7.22439773e-03,-1.54926358e-02,
-1.92293357e-02,-3.84341404e-02,5.72745968e-03,-7.58840982e-03,-6.85067922e-02,
-1.92520544e-02,1.28076673e-02,-8.61727223e-02,-1.10532686e-01,1.20752141e-01,
-2.18970682e-02,-6.38672933e-02,4.38603126e-02,-9.20460671e-02,-6.53650686e-02,
1.04931206e-01,9.05938745e-02,-2.11260188e-02,-9.13403481e-02,-2.21920311e-02,
-6.24170415e-02,6.07956834e-02,1.01157442e-01,-9.87803638e-02,-1.22075394e-01,
9.24425796e-02,-6.20416477e-02,-2.48560589e-03,8.37386400e-02,-5.56835346e-03,
-1.03530556e-01,-4.57824208e-02,-5.62476413e-03,-1.15687743e-01,1.82224326e-02,
-1.06473930e-01,1.47097660e-02,8.25357810e-02,-8.03863406e-02,1.13941394e-01,
1.18285574e-01,1.14345357e-01,1.19071761e-02,-7.22037926e-02,1.79125089e-02,
5.05653098e-02,-2.28117127e-02,3.10688722e-03,1.41146351e-02,5.74574759e-03,
1.16713807e-01,-2.22754143e-02,-4.88305949e-02,9.62222368e-02,1.08019859e-01,
1.21184774e-01,5.39467558e-02,-3.18613723e-02,8.08076784e-02,9.39151198e-02,
-1.08441733e-01,-4.88367490e-02,-9.23247039e-02,1.73931923e-02,-1.18559385e-02,
9.83115733e-02,4.51024331e-04,-7.06658736e-02,-1.40319675e-01,2.78306678e-02,
-1.30455703e-01,1.52621150e-03,6.29135296e-02,-9.62877646e-02,-4.94041014e-03,
-8.68018642e-02,-1.03527635e-01,8.06096345e-02,8.31688792e-02,7.31276870e-02,
-2.09740717e-02,-7.88431391e-02,-8.83772895e-02,-4.67459261e-02,1.26847187e-02,
-6.18777052e-02,6.30784109e-02,-6.03068359e-02,4.68427502e-02,7.47103617e-02,
9.05336067e-03,1.51131209e-02,-5.96440285e-02,-1.89350136e-02,-6.71335831e-02,
6.69426322e-02,-9.10964832e-02,2.44544540e-02,-2.55219731e-02,-6.22105435e-04,
1.13812789e-01,1.67340580e-02,-4.82007638e-02,-1.07837409e-01,-6.95516244e-02,
-3.21315266e-02,8.01772475e-02,3.60169187e-02,5.10865897e-02,4.11695465e-02,
-1.02286693e-02,4.09405008e-02,1.21781275e-01,-3.97070125e-02,1.27531394e-01,
6.85031386e-03,4.66878191e-02,2.80417828e-03,-3.04525695e-03,3.53963375e-02,
-1.31621674e-01,4.77530845e-02,7.87464976e-02,3.14612105e-03,-4.63878177e-02,
1.22872526e-02,1.72658097e-02,5.13009205e-02,1.36216208e-01,-5.01461439e-02,
1.03132660e-02,8.07297358e-04,-3.29931751e-02,-2.72906534e-02,3.02354116e-02,
-7.86483288e-02,-3.73757817e-02,4.88021933e-02,4.51668464e-02,-1.06282488e-01,
1.18969576e-02,2.48550139e-02,-2.69550905e-02,4.08305898e-02,-3.22691798e-02,
-1.02590136e-01,-1.03322685e-01,4.78280783e-02,9.62647423e-02,8.79100338e-02,
-1.91847607e-02,5.92558049e-02,-4.93776277e-02,5.62887266e-02,1.29017293e-01,
-8.83785933e-02,4.50039189e-03,1.00585192e-01,-5.60768321e-02,-7.24322423e-02,
-6.12823702e-02,-9.07550603e-02,2.70174053e-02,-9.91213396e-02,7.11752251e-02,
-3.75188552e-02,4.57428768e-02,-9.42832381e-02,3.08227222e-02,-5.88431098e-02,
-7.14323148e-02,4.04642001e-02,-6.34157136e-02,-9.58120227e-02,1.08331926e-01,
5.75379990e-02,7.54341632e-02,-3.83559763e-02,8.90543088e-02,-4.24026102e-02,
5.37650548e-02,1.84826646e-02,-8.92764106e-02,1.40755577e-02,7.86783174e-02,
8.54046047e-02,9.38488469e-02,9.81571749e-02,-4.55470122e-02,3.46056893e-02,
-3.58522078e-03,9.86468233e-03,1.03164181e-01,6.45934744e-03,-4.93013337e-02,
1.16669804e-01,7.95037001e-02,5.93788214e-02,7.24331290e-02,-1.10764608e-01,
4.30738786e-03,-8.66916776e-02,5.09364828e-02,3.77236977e-02,7.33615309e-02,
-1.83113068e-02,-6.47498518e-02,3.26825455e-02,3.39304917e-02,6.66542053e-02,
4.11980227e-02,-1.80389844e-02,-5.09989522e-02,-2.20794454e-02,-5.13412766e-02,
-7.71961510e-02,5.81856221e-02,-8.50034356e-02,6.57045171e-02,-9.61492583e-02,
8.98392275e-02,3.93256694e-02,8.52362588e-02,-2.58055609e-02,4.08174619e-02,
6.17398471e-02,1.64592825e-02,6.28261790e-02,-4.76535335e-02,-6.19885698e-02,
-6.62275106e-02,-2.53871139e-02,2.09210776e-02,-4.50815484e-02,1.03626616e-01,
-9.76045355e-02,-1.08634025e-01,5.16946502e-02,-7.90658593e-02,8.57610181e-02,
2.94625629e-02,-7.10147545e-02,5.66124506e-02,6.85813883e-03,3.94602190e-04,
1.08344831e-01,-2.37925593e-02,1.45783657e-02,-8.16628933e-02,3.54332402e-02,
1.08014084e-01,5.81292994e-02,-2.52285954e-02,3.14612836e-02,7.59568252e-03,
-1.23203518e-02,-1.06673280e-03,-1.28046621e-03,-6.09573051e-02,4.38299701e-02,
2.63925288e-02,8.70521590e-02,-1.93777040e-03,1.29990615e-02,3.02101430e-02,
-1.04284018e-01,1.73289794e-02,7.69633725e-02,7.03746974e-02,8.56537372e-02,
4.34830077e-02,5.46650700e-02,-1.53300157e-02,-5.92085384e-02,1.38936257e-02,
-3.61791276e-03,-2.51473058e-02,-5.22501618e-02,-8.06764439e-02,4.59926538e-02,
-7.13193193e-02,9.73797515e-02,-3.65685374e-02,4.19009551e-02,9.47231054e-02,
1.96685120e-02,-7.38149062e-02,-5.37671037e-02,-6.51312694e-02,2.43302397e-02,
-9.32430476e-02,4.09595892e-02,1.03415102e-01,1.52592778e-01,-7.05068260e-02,
4.63948734e-02,-1.18239507e-01,-4.74724099e-02,3.52213457e-02,-6.96757585e-02,
-9.40047652e-02,-3.40632722e-02,6.44140095e-02,7.34869018e-02,-1.26581788e-01,
5.97768985e-02,-3.75604071e-02,1.25479037e-02,-6.70732111e-02,1.13632172e-01,
6.14709370e-02,3.63933295e-02,1.05719484e-01,-6.31292313e-02,-1.10215461e-02,
-1.73399802e-02,-2.12138705e-02,6.58330619e-02,-9.25751030e-02,8.45052749e-02,
-1.11629009e-01,4.47425712e-03,-3.48233953e-02,-3.03949155e-02,9.18881074e-02,
7.57193267e-02,-3.37852500e-02,-2.71739829e-02,-1.01540625e-01,-1.15510002e-01,
9.75365341e-02,-3.05186454e-02,2.78856140e-02,1.04875803e-01,1.95210949e-02,
8.56055170e-02,-6.09399267e-02,-6.37636334e-02,8.04283544e-02,-8.25899616e-02,
-3.91663611e-02,4.46425602e-02,5.75253181e-02,6.26896024e-02,8.38225260e-02,
-6.37117326e-02,8.10586214e-02,-4.28562351e-02,-3.54487523e-02,1.12162083e-01,
-8.73472020e-02,-5.79189658e-02,9.01241824e-02,-1.42495692e-01,-6.61517028e-03,
2.81942636e-02,7.03585595e-02,-1.00628026e-01,-2.66544633e-02,-4.02907375e-04,
-1.00588575e-02,-8.11599568e-02,-3.96522135e-02,-8.05751234e-02,-7.53172264e-02,
-1.69937566e-01,1.30970180e-02,8.68905261e-02,-6.49328232e-02,-3.81716862e-02,
-1.18223898e-01,-6.75756559e-02,7.88914338e-02,2.61534937e-02,9.60817561e-02,
5.36233857e-02,1.15929596e-01,2.56458707e-02,8.96091312e-02,-5.18740602e-02,
5.97814247e-02,-7.95222744e-02,1.44788278e-02,5.03006168e-02,-6.51560575e-02,
-4.40485366e-02,-1.06886268e-01,7.04449266e-02,-1.96623225e-02,-6.15112623e-03,
-4.24782140e-03,-3.06337066e-02,1.46860653e-03,-3.62977013e-02,8.29805657e-02,
9.78437513e-02,-1.66724306e-02,-2.13132296e-02,-6.50164951e-03,6.11788370e-02,
-3.08407117e-02,-3.46378051e-02,7.23854527e-02,-6.69263944e-04,-6.65842649e-03,
-1.06283963e-01,2.14635395e-02,-4.09468897e-02,-1.06631935e-01,-7.29738995e-02,
8.58934298e-02,1.22478548e-02,9.99248847e-02,-3.82240824e-02,5.66390082e-02,
4.73806523e-02,-5.92252761e-02,7.01598898e-02,-3.98046011e-03,-3.31195183e-02,
1.03636123e-01,2.36289389e-02,-9.13953483e-02,-7.14431852e-02,4.68435735e-02,
2.97412532e-03,-4.68161330e-02,5.43058701e-02,-5.67454882e-02,7.04467222e-02,
-9.64862034e-02,-2.81420927e-02,8.27882066e-02,-1.12388298e-01,1.99721139e-02,
8.67317393e-02,6.81391507e-02,1.89872440e-02,9.41074044e-02,6.25409931e-02,
6.63829520e-02,6.16477132e-02,-1.35789454e-01,-8.09924155e-02,-5.35708182e-02,
5.10674939e-02,-1.87682733e-02,5.19627007e-03,-1.60125166e-03,-1.19602054e-01,
6.84142262e-02,3.55376340e-02,-1.16760116e-02,5.92289492e-02,-1.60845235e-01,
-1.12963594e-01,4.70373034e-02,-1.24269031e-01,-8.30221996e-02,1.09630048e-01,
-3.21783684e-02,1.08389273e-01,-8.32146183e-02,-4.54901680e-02,-1.13464564e-01,
-5.50476871e-02,4.39171046e-02,-3.64066008e-03,5.87590709e-02,-1.09694175e-01,
7.79044405e-02,4.08646092e-02,8.02695379e-03,6.33729771e-02,-1.03648342e-01,
-8.35355595e-02,1.78606389e-03,9.96286869e-02,-8.17536190e-02,-2.49407198e-02,
6.05684035e-02,1.94831826e-02,-1.10576838e-01,-9.15896799e-03,2.76678260e-02,
1.65672041e-02,-2.35608667e-02,1.44469058e-02,3.09668817e-02,-7.43078813e-02,
1.25274613e-01,6.29425868e-02,-6.26417249e-02,5.19420058e-02,9.31990147e-02,
8.92452672e-02,7.70048425e-02,-8.98311362e-02,-8.58569369e-02,1.19030429e-02,
3.41074243e-02,-9.88541692e-02,-5.94519526e-02,-1.24148615e-01,-7.85756782e-02,
1.12482578e-01,-1.45202372e-02,-1.41647652e-01,1.29443756e-03,1.31120965e-01,
9.01904479e-02,-1.70664415e-01,-6.20757863e-02,2.87045110e-02,-9.37904119e-02,
-6.15256317e-02,1.04552284e-01,2.28879247e-02,8.57262388e-02,-3.24319005e-02,
-3.11480137e-04,9.09022391e-02,-1.09727539e-01,-5.37008978e-02,-1.27946772e-02,
7.46514127e-02,5.33531159e-02,8.88867006e-02,8.24991092e-02,-7.14694187e-02,
-1.21421114e-01,7.26171359e-02,9.34804678e-02,-6.76228106e-02,1.18632764e-01,
-2.22736057e-02,2.70283744e-02,2.16803681e-02,-7.59696439e-02,1.03510566e-01,
9.11653414e-03,-3.77376229e-02,-9.56237912e-02,7.51822069e-02,-6.82989359e-02,
-7.59534165e-02,-7.20854402e-02,7.48886764e-02,-3.96353118e-02,8.87726173e-02,
-2.53110863e-02,6.22654967e-02,-2.13167984e-02,-7.86489025e-02,1.41203925e-01,
-1.28959149e-01,5.40299453e-02,1.18427821e-01,-9.28467363e-02,-9.02969837e-02,
4.46610339e-03,5.06307483e-02,7.68350735e-02,6.27148449e-02,6.19439818e-02,
1.14764780e-01,2.29693502e-02,-1.65500250e-02,-6.63046241e-02,-5.47059737e-02,
-8.27063620e-02,6.10767119e-02,-7.88315311e-02,-2.95897257e-02,9.63887721e-02,
3.42673026e-02,-1.00167722e-01,1.09196473e-02,-8.43923986e-02,3.99690270e-02,
-5.65115139e-02,-1.47315785e-01,5.35121076e-02,-1.39412180e-01,-1.27662737e-02,
-1.22947961e-01,-1.28286749e-01,-3.24581824e-02,-8.92814249e-02,-3.15870973e-03,
2.90133990e-02,-1.42508626e-01,-4.02843812e-03,-7.74891749e-02,1.58250779e-02,
-5.43192066e-02,-1.56022131e-01,1.94544736e-02,7.38555565e-02,1.34016173e-02,
2.10797675e-02,4.25052494e-02,3.52342203e-02,1.21547356e-01,-4.43189703e-02,
8.17684531e-02,-1.09787263e-01,-1.03232808e-01,-7.44200945e-02,-4.77503836e-02,
-8.16881806e-02,-6.28271922e-02,-4.62245494e-02,3.61467935e-02,1.83891819e-03,
-9.73648354e-02,-1.06344838e-03,5.91426976e-02,9.99312848e-02,1.19062010e-02,
7.16359094e-02,-6.53844848e-02,-7.12469518e-02,-6.83739036e-02,-7.49653205e-02,
3.30080534e-03,6.69798404e-02,5.10385148e-02,-5.52540906e-02,-4.25135531e-02,
1.13326432e-02,6.93468973e-02,-1.30504812e-03,8.74665156e-02,8.73946622e-02,
1.19810142e-02,7.57487640e-02,-8.67325068e-02,-5.27238064e-02,1.12173473e-02,
1.11184344e-01,9.09016356e-02,-5.41237183e-02,3.78948660e-03,-1.39855161e-01,
-2.15975903e-02,7.80287087e-02,2.10399032e-02,-5.29952087e-02,8.39278996e-02,
3.17612593e-03,-2.81781275e-02,-3.86240445e-02,-9.21700969e-02,4.85501805e-05,
8.71817842e-02,3.87170687e-02,-1.11979805e-01,-1.86149985e-01,-3.14916037e-02,
1.56888589e-02,-2.15205830e-03,-4.99217063e-02,3.52378488e-02,-1.28243491e-02,
7.82758668e-02,-8.08574725e-03,2.46278699e-02,1.04957707e-02,8.28155130e-02,
4.72549489e-03,-1.02377459e-01,-5.78617081e-02,-1.05881162e-01,-7.02402741e-02,
-6.12278096e-02,-7.99169913e-02,-1.27006710e-01,-5.76622412e-02,-6.27624691e-02,
-2.83874832e-02,4.45205756e-02,-6.61953911e-02,5.12114652e-02,4.00750227e-02,
2.39475984e-02,4.49421369e-02,3.60820889e-02,5.11522479e-02,-8.16421062e-02,
-8.25019479e-02,-5.31448098e-03,-6.83975667e-02,1.92646459e-02,7.72527680e-02,
-6.29436821e-02,-6.25383481e-02,-6.26734272e-02,-9.38583910e-03,-5.15500410e-03,
5.26084565e-02,2.15721726e-02,-1.74502879e-02,4.27165255e-02,5.67538142e-02,
8.73221532e-02,-7.69312009e-02,9.56784114e-02,6.07592752e-04,-4.77763265e-02,
-1.69661809e-02,3.47410142e-02,-7.05189407e-02,-1.89410746e-02,8.93351659e-02,
-9.26847011e-02,3.71939354e-02,9.56191570e-02,-9.04771611e-02,-4.98588122e-02,
-7.27770254e-02,-1.36931777e-01,4.14003730e-02,8.15538168e-02,7.01180380e-03,
-2.21162587e-02,5.99434748e-02,-6.04824722e-02,6.18699156e-02,8.38694796e-02,
6.78625628e-02,6.89876452e-02,8.54702201e-03,-4.03213874e-03,-6.58048782e-03,
2.28124149e-02,-1.01029910e-01,-8.08311477e-02,5.29198386e-02,-6.27033487e-02,
2.02175826e-02,-3.08586713e-02,-4.99537326e-02,-5.35149276e-02,-5.50628304e-02,
-8.08005035e-02,-1.14265988e-02,1.36123570e-02,-5.90797961e-02,4.98202182e-02,
-3.12244240e-02,7.49972314e-02,3.04112323e-02,3.75713408e-02,-4.87367669e-03,
-5.94440438e-02,-3.52607742e-02,-1.22900866e-01,-3.59487385e-02,7.71994665e-02,
3.50036584e-02,-3.70550044e-02,3.95759903e-02,-3.33965607e-02,-7.37542808e-02,
1.46562292e-03,8.24955478e-02,-5.58331609e-02,-9.49003920e-02,1.59086268e-02,
1.20982297e-01,-8.04232284e-02,-7.64792338e-02,-2.03011790e-03,4.23736349e-02,
-8.61701220e-02,7.14694560e-02,-5.00603355e-02,2.99684163e-02,1.09420165e-01,
7.26648048e-02,-6.21816032e-02,-1.17034703e-01,-6.57402351e-02,-2.32513212e-02,
7.07236752e-02,-1.44358277e-01,2.01575719e-02,1.07795008e-01,-5.76515310e-02,
1.51490076e-02,-7.06182467e-03,-3.91740771e-03,3.75246368e-02,4.14892612e-03,
-8.07188898e-02,-1.80286430e-02,-5.45967259e-02,5.15334832e-04,-3.82333174e-02,
9.11590531e-02,-2.36565396e-02,1.65317003e-02,-1.05050564e-01,-5.02562001e-02,
-1.21332310e-01,-7.18517005e-02,9.00040194e-02,-8.02460164e-02,8.18826333e-02,
-3.55799869e-02,-6.50982335e-02,1.19400993e-01,-1.00064464e-01,9.31121595e-03,
-1.79256499e-02,2.37318780e-02,-4.19283137e-02,-1.10060625e-01,1.04239844e-01,
-1.09417669e-01,-2.57605929e-02,2.69739479e-02,-1.18605874e-01,-8.92509297e-02,
-1.08308031e-03,6.55685440e-02,-9.08829868e-02,-4.35467735e-02,-7.41307810e-02,
-3.30934860e-02,8.61057118e-02,1.01816982e-01,-4.39883918e-02,-2.00013556e-02,
-8.02170560e-02,-4.75074314e-02,2.08312999e-02,1.02698252e-01,8.72116014e-02,
8.04566871e-03,1.92403570e-02,-6.81434646e-02,-1.23411633e-01,5.30216508e-02,
-1.25113249e-01,-1.26457810e-01,1.09785467e-01,-9.46572199e-02,-1.62661910e-01,
-1.53101206e-01,5.87916709e-02,9.77570843e-03,1.02060273e-01,1.87331196e-02,
-1.01438584e-02,-8.19623917e-02,5.77645935e-02,-3.77568044e-02,7.31583238e-02,
-1.95191391e-02,-1.71491187e-02,-4.72353809e-02,4.54773632e-04,-5.41713797e-02,
3.62348668e-02,3.38566341e-02,-2.39877962e-02,-7.40010366e-02,-2.40464229e-02,
9.80244279e-02,6.94679888e-03,-5.06186904e-03,7.82351661e-03,1.08163603e-01,
3.29675823e-02,5.18890880e-02,7.01132715e-02,7.05797970e-02,4.48310897e-02,
-2.10868306e-02,-1.16356805e-01,-1.96814071e-02,-9.82852429e-02,-8.63430426e-02,
-1.07716613e-01,-5.11269681e-02,1.87014937e-02,-1.29010335e-01,-7.58849382e-02,
5.13930880e-02,1.08759794e-02,1.44074708e-01,1.90922581e-02,-4.82411906e-02,
4.44360487e-02,-3.87752131e-02,-1.76994633e-02,-5.50943650e-02,-1.75167900e-02,
-3.02877743e-02,-6.31601810e-02,-3.39807756e-02,6.52929246e-02,3.97736952e-02,
8.93642101e-03,1.06947057e-01,-1.00546777e-01,-4.20126915e-02,9.03414488e-02,
4.10209559e-02,8.39715675e-02,6.81527555e-02,-1.18140914e-02,5.72783612e-02,
9.55144018e-02,8.82846192e-02,9.41652711e-03,-3.11274435e-02,-2.02745385e-02,
1.06422324e-02,3.65933180e-02,9.97737944e-02,2.75241416e-02,-5.42150177e-02,
-9.21276119e-03,7.96689913e-02,-6.03707992e-02,2.57635731e-02,-9.75201130e-02,
6.47156015e-02,4.73693199e-02,2.94909440e-02,-9.42622647e-02,-3.51350382e-02,
-1.41205639e-01,-1.36203319e-01,1.10480115e-01,4.30272222e-02,-1.18146010e-01,
4.06615436e-02,-1.30028173e-01,8.28808770e-02,-1.58136636e-02,-5.77833354e-02,
-4.64392304e-02,-1.24654351e-02,-5.18499389e-02,1.13761932e-01,-1.49046570e-01,
4.66902629e-02,-5.13331182e-02,-9.85112935e-02,-1.08552622e-02,7.89472461e-02,
-8.48543271e-02,-5.41285761e-02,8.16988423e-02,-3.50720361e-02,2.56529488e-02,
1.57826096e-01,1.10019684e-01,-3.88607904e-02,1.83117054e-02,-3.96602368e-03,
8.96892399e-02,3.09705120e-02,-9.38053504e-02,5.50428368e-02,-6.93031773e-02,
-8.25112984e-02,-4.61886078e-02,3.57303955e-02,-1.08989567e-01,-1.56270668e-01,
1.38245851e-01,3.07985325e-03,-8.14130679e-02,-1.46451324e-01,2.74368078e-02,
2.51375381e-02,1.10866874e-01,-1.63816119e-04,-6.06264323e-02,-1.46011844e-01,
5.31165935e-02,-7.52619728e-02,-1.46815460e-02,3.66721451e-02,1.60254389e-02,
-4.16528620e-02,-3.99957523e-02,-1.13335013e-01,5.59603944e-02,7.99765587e-02,
6.83679283e-02,2.79574450e-02,2.69033853e-02,1.37403846e-01,-3.81353982e-02,
-4.06277701e-02,9.54301804e-02,8.88417438e-02,1.13724172e-02,-5.19161113e-04,
-4.54131141e-02,-8.39452073e-02,9.29956585e-02,-7.06243291e-02,-1.51397198e-01,
3.57116647e-02,-5.91591112e-02,8.72470066e-02,-4.49232683e-02,1.37473732e-01,
-5.30783832e-03,-1.23025337e-02,1.00790691e-02,-4.50169109e-02,-1.19896874e-01,
-7.72073343e-02,1.01041473e-01,-1.94880075e-03,2.93854512e-02,2.61633527e-02,
6.78702220e-02,-7.58617669e-02,1.60376243e-02,1.11548871e-01,-5.02013005e-02,
-9.11598951e-02,1.60871241e-02,7.48730004e-02,8.63136277e-02,6.34106202e-03,
9.64719579e-02,-5.26944473e-02,-8.05121032e-04,5.53525612e-02,9.47181359e-02,
-5.52294329e-02,1.04990341e-01,8.77096280e-02,-8.84218514e-02,8.42685029e-02,
3.01938877e-02,-2.42060237e-02,-4.34682369e-02,7.72352293e-02,-8.36887062e-02,
-1.03840820e-01,8.09694380e-02,2.77030375e-03,-4.52437773e-02,-7.60960653e-02,
6.43225713e-03,7.11234808e-02,5.82988821e-02,7.35852122e-02,7.80026317e-02,
-1.69309806e-02,-5.62060205e-03,-6.17770292e-02,3.91066968e-02,-4.52663042e-02,
-6.39238730e-02,-4.18773554e-02,-9.37260315e-02,2.27929801e-02,1.65697560e-01,
2.22193319e-02,6.12311102e-02,-1.50242262e-02,-8.45760778e-02,-3.70069295e-02,
-2.88978964e-02,1.62306975e-03,-1.97210871e-02,-1.04258768e-01,9.23813134e-02,
-7.10698143e-02,2.81678364e-02,-1.29632279e-01,-5.18561304e-02,-2.53679365e-01,
1.68922134e-02,1.19331367e-01,4.00932170e-02,-9.00408030e-02,7.11544678e-02,
-1.32678039e-02,-2.57700942e-02,-2.69048940e-02,-1.05705559e-01,-1.11186832e-01,
4.02694158e-02,7.14470372e-02,-9.10126328e-05,-4.37379330e-02,-1.12981521e-01,
9.96019691e-02,9.08223018e-02,-6.59153983e-02,1.16498746e-01,-6.49049655e-02,
9.90598276e-02,7.19221483e-04,-5.32272197e-02,6.92341849e-02,-6.78409189e-02,
-1.33328885e-02,7.81029835e-02,5.64075708e-02,1.45609472e-02,-9.66485664e-02,
1.36335850e-01,-8.80474299e-02,-1.08469175e-02,-6.51078820e-02,-1.26219556e-01,
-7.01667517e-02,3.53062190e-02,-8.49736184e-02,-1.99630149e-02,-6.55943081e-02,
-8.91708136e-02,-3.00718062e-02,1.24206945e-01,-9.44237635e-02,5.85400797e-02,
-5.26501518e-03,2.79070847e-02,1.47320434e-01,7.15494826e-02,1.04046576e-02,
-7.90823996e-03,1.07926965e-01,4.13056426e-02,-4.92327400e-02,-7.07780197e-02,
-6.06090948e-02,-4.96944226e-02,9.23091546e-02,-2.99494658e-02,-9.53204557e-02,
-8.57485160e-02,9.08132717e-02,-2.99087781e-02,-8.64940211e-02,-3.65000777e-02,
-4.25868295e-02,1.05586611e-01,-8.73875022e-02,1.68805122e-02,1.82424728e-02,
1.40436277e-01,4.54394333e-02,-7.63245821e-02,3.90221737e-02,7.48061016e-02,
4.96635512e-02,5.66765331e-02,5.95512129e-02,-1.26733229e-01,4.93810810e-02,
-1.04745135e-01,-6.32279813e-02,3.19666751e-02,5.16707487e-02,-9.94624645e-02,
-1.39536053e-01,4.51629125e-02,-7.09031969e-02,-9.09718126e-02,-5.41250929e-02,
-2.07044110e-02,7.88604468e-02,-1.88636538e-02,-5.31388186e-02,-4.56442237e-02,
8.54165480e-02,1.13509744e-01,1.01191089e-01,-1.36424690e-01,-4.54713358e-03,
5.96410371e-02,6.28194883e-02,7.82745108e-02,3.58089507e-02,-1.38670087e-01,
-7.03720599e-02,5.59222288e-02,4.71128896e-02,-4.28543985e-02,1.75011046e-02,
3.97857800e-02,9.28587988e-02,-1.44368717e-02,5.39280996e-02,-6.20054491e-02,
-1.21431589e-01,7.34660476e-02,-3.02027143e-03,-8.50131512e-02,-2.60293111e-02,
1.56377628e-02,-6.96828291e-02,-6.58532903e-02,-1.12915978e-01,9.20811668e-02,
-6.92154542e-02,7.12456480e-02,-1.30832000e-02,1.53915165e-02,1.26830041e-01,
-2.02950053e-02,-1.94211677e-02,-4.39418890e-02,-3.15632075e-02,-7.71438628e-02,
1.33563355e-01,-5.18829264e-02,-3.94871160e-02,-7.32689276e-02,5.44049256e-02,
-7.30091110e-02,3.70959938e-02,5.94180487e-02,4.32609171e-02,5.09684496e-02,
-1.36578903e-01,-2.45168731e-02,-4.69801836e-02,-3.57719623e-02,-4.52403724e-02,
-5.34139276e-02,-5.78900538e-02,-1.39225721e-02,-1.45047113e-01,-7.87828639e-02,
-9.91710424e-02,-1.13117974e-02,1.09416293e-02,5.14951907e-02,5.20287789e-02,
2.53531896e-02,-1.53041825e-01,1.04563395e-02,-3.81791368e-02,-7.04958513e-02,
3.40780802e-02,7.66922953e-03,-8.60640481e-02,-7.32156783e-02,1.04018316e-01,
-5.43639958e-02,2.90363468e-02,8.92340392e-02,7.13378862e-02,1.02456406e-01,
-6.96470495e-04,-1.04558934e-03,-9.44323316e-02,5.25180362e-02,-1.99671183e-02,
-1.20577635e-02,-2.09695399e-02,-6.80181757e-02,-4.83301580e-02,9.60975662e-02,
6.73486292e-02,-5.33085763e-02,5.82615919e-02,-9.95172188e-02,4.12775688e-02,
1.97256040e-02,1.10020824e-01,8.18047486e-03,-2.52368692e-02,5.94358332e-02,
4.10143379e-03,1.67538319e-02,8.05409998e-02,6.47428185e-02,1.21475324e-01,
-1.01027101e-01,1.03251353e-01,-1.04378857e-01,-9.33791846e-02,-3.94986905e-02,
-3.50281522e-02,1.17962919e-02,-8.78946260e-02,-9.74329785e-02,-1.03026301e-01,
1.12085745e-01,-6.93375897e-03,-2.58502532e-02,3.79798040e-02,5.94707839e-02,
-9.65817124e-02,6.06832728e-02,-2.25556418e-02,-7.60039613e-02,-1.07731707e-01,
2.47538276e-02,8.53690729e-02,1.98409166e-02,3.35446745e-03,-8.00460279e-02,
-6.79151947e-03,-2.38038506e-03,-2.04549190e-02,-2.12120190e-02,3.51400264e-02,
-6.01797216e-02,4.16292958e-02,-6.48191124e-02,-8.45762193e-02,1.04203008e-01,
6.83865026e-02,-4.05070744e-02,-6.78729936e-02,4.71709669e-02,1.16077217e-03,
7.54718781e-02,3.92027311e-02,1.23351604e-01,-4.70739119e-02,-9.97064039e-02,
4.47555371e-02,3.81937511e-02,7.39762187e-02,6.31606430e-02,5.58579415e-02,
-2.48359591e-02,-9.35536921e-02,-9.61587653e-02,1.97693333e-02,-9.74733476e-03,
-5.48474230e-02,-4.36123600e-03,-8.96404833e-02,5.39038144e-02,-8.41807202e-02,
5.73506020e-03,-7.41159245e-02,1.77159309e-02,-1.00408241e-01,5.35690859e-02,
2.93656681e-02,-8.68655648e-03,2.39385013e-02,3.69508304e-02,-2.28602570e-02,
1.12612054e-01,-6.26739636e-02,-1.32912882e-02,-1.90927251e-03,-5.00743836e-02,
7.09228218e-02,1.07113004e-01,-1.31017998e-01,-5.91181740e-02,4.20607068e-03,
-7.88724422e-02,-1.20282635e-01,-6.03141375e-02,-7.18818456e-02,-3.92616205e-02,
6.85305446e-02,6.67940360e-03,3.58960330e-02,-8.94096270e-02,-8.02689642e-02,
-8.72707516e-02,-9.44947973e-02,-3.66196483e-02,9.09439549e-02,2.88830716e-02,
-3.06675006e-02,7.77150914e-02,-4.15138938e-02,1.01833634e-01,-5.49851842e-02,
5.58709502e-02,-2.81610852e-03,6.31393865e-03,1.35524217e-02,-2.09903810e-02,
4.65391465e-02,3.07752378e-02,-7.13640898e-02,-4.42169756e-02,2.40554102e-02,
8.93211812e-02,-6.58313558e-02,-4.70212214e-02,-5.99653646e-02,-1.20599419e-01,
-2.63621751e-02,-1.20775267e-01,-1.38939414e-02,-1.22596391e-01,-4.09194827e-02,
4.42379154e-02,5.29223904e-02,-4.78807017e-02,7.77671561e-02,-1.12183891e-01,
-1.91865917e-02,-9.98433754e-02,2.96345782e-02,1.95412547e-03,9.52391252e-02,
1.27529964e-01,1.10385977e-01,6.99654082e-03,-5.95799414e-03,6.94607571e-02,
1.88511796e-02,2.69162897e-02,-7.79453218e-02,-9.37841926e-03,1.95245370e-02,
-4.83359434e-02,-4.13398296e-02,-7.37813339e-02,1.75111219e-02,8.24958682e-02,
1.53308753e-02,8.69687498e-02,4.14001644e-02,1.18234701e-01,-7.05356449e-02,
8.33400339e-02,-6.40149936e-02,-8.15433264e-02,-1.15448214e-01,7.55091291e-03,
-6.75763339e-02,-8.29202905e-02,4.37458456e-02,7.66063556e-02,9.88936797e-02,
-5.87878078e-02,4.65367660e-02,-1.85190383e-02,-1.00474551e-01,-6.93033561e-02,
-8.73074587e-03,5.94595112e-02,-4.19474468e-02,9.98520777e-02,4.64392342e-02,
-6.65726364e-02,2.76231058e-02,-1.89571455e-02,1.01704687e-01,7.77089084e-03,
-4.28251177e-02,-6.78603798e-02,-1.69847365e-02,2.01074984e-02,-2.14147083e-02,
-1.01448245e-01,-6.03841245e-02,9.23572574e-03,-9.07981396e-02,-3.39607485e-02,
-4.35062051e-02,5.68448007e-02,6.53329641e-02,4.70998101e-02,2.68922038e-02,
-3.35579999e-02,-1.04158863e-01,-7.37238079e-02,-5.91691919e-02,7.53654987e-02,
-6.97343573e-02,4.12984602e-02,8.51667151e-02,1.64719224e-02,1.01356044e-01,
-8.60822499e-02,7.70217776e-02,-2.30181757e-02,-6.78043142e-02,2.82749254e-02,
-1.37971314e-02,1.86849777e-02,2.43369509e-02,-2.73916926e-02,1.39899002e-02,
1.84304193e-02,-9.12760645e-02,-2.28628106e-02,3.14703099e-02,-1.01463161e-01,
7.30206519e-02,-4.94346581e-02,-3.13206622e-03,8.06841254e-02,7.48065338e-02,
2.31581964e-02,-1.33480653e-01,-5.58185987e-02,-6.85237423e-02,-1.09720439e-01,
-5.46191540e-03,-4.79459539e-02,-4.98974547e-02,-4.77291383e-02,1.92574691e-02,
5.50975353e-02,-9.37774591e-03,-1.12184085e-01,-5.09251952e-02,-6.37655556e-02,
-7.03797638e-02,-1.60233259e-01,9.86483600e-03,2.33400194e-03,-1.46188259e-01,
-6.27529547e-02,2.15413291e-02,-6.48181289e-02,-1.13182589e-02,9.03270841e-02,
-8.97078663e-02,-4.10992876e-02,-2.51896046e-02,3.09005454e-02,7.14124218e-02,
-7.01450258e-02,5.67248836e-02,7.38107041e-02,1.84253007e-02,2.79892962e-02,
3.18156257e-02,-9.58707109e-02,2.13520173e-02,-6.33933991e-02,1.27987340e-02,
-5.76997027e-02,-5.44439256e-02,-7.90597573e-02,-4.67919037e-02,-4.67489250e-02,
9.92047712e-02,5.50337695e-02,1.35948271e-01,-7.57653192e-02,-1.17341772e-01,
-5.88228274e-03,1.12292133e-02,2.57763709e-03,-1.00156538e-01,6.67076781e-02,
1.07271217e-01,-1.13134749e-01,3.57853211e-02,-5.38333915e-02,-3.48059908e-02,
-1.80953462e-02,-3.75629440e-02,-7.04172105e-02,1.10270247e-01,4.84136418e-02,
-5.16922586e-02,-6.27340972e-02,-4.89253737e-02,2.29684953e-02,-1.63050413e-01,
-7.97711387e-02,9.70739126e-03,-1.86871774e-02,-1.08700372e-01,-5.39242662e-02,
5.24502173e-02,5.39695248e-02,1.33617474e-02,-3.79566178e-02,9.61875468e-02,
4.22833078e-02,1.57212280e-02,7.56646171e-02,-2.57215314e-02,-6.67213835e-03,
2.58665849e-02,1.11921206e-01,-9.96304490e-03,8.33875313e-02,-4.71382067e-02,
-8.28642845e-02,7.65683949e-02,8.12550634e-02,-9.71011296e-02,1.18720196e-01,
1.34723514e-01,1.17561005e-01,2.78845299e-02,7.49395415e-02,-2.35477183e-02,
1.39099243e-03,1.42601445e-01,-3.04820249e-03,8.15174729e-02,-1.30286310e-02,
4.47782688e-02,-7.85411373e-02,-1.10190354e-01,-2.47317664e-02,-8.78396630e-02,
-7.92720690e-02,3.81095149e-02,-7.01883063e-03,-9.21352282e-02,8.81863534e-02,
1.07097313e-01,-5.10141812e-02,8.68490934e-02,-1.08865954e-01,-9.65677276e-02,
-7.11580813e-02,6.95846006e-02,-1.27326310e-01,4.60416749e-02,-1.59161985e-01,
-1.68622620e-02,3.29499170e-02,2.42072046e-02,4.29853192e-03,-2.05906783e-03,
1.43628165e-01,-3.74486558e-02,-1.57730639e-01,-4.12578061e-02,4.23860550e-02,
-1.37504721e-02,-4.25986797e-02,-1.46441758e-01,1.39638465e-02,}; 
k2c_tensor lstm_1_kernel = {&lstm_1_kernel_array[0],2,6144,{ 48,128,  1,  1,  1}}; 
float lstm_1_recurrent_kernel_array[65536] = {
7.05457351e-04,-9.95600149e-02,1.71366539e-02,-3.09194326e-02,1.84576567e-02,
-7.46962279e-02,-5.47243282e-02,1.93148367e-02,3.48950960e-02,-6.52294680e-02,
-6.69070035e-02,-3.53881195e-02,-8.63519777e-03,-7.73145929e-02,-8.44934508e-02,
2.38235369e-02,-1.00711791e-03,-4.68441993e-02,2.07947940e-02,6.82233972e-03,
7.63370097e-02,1.02184743e-01,1.23042963e-01,1.91987026e-02,-1.09636314e-01,
-1.01170819e-02,-2.49887202e-02,4.59947810e-02,-5.27761616e-02,4.64781187e-02,
1.54314637e-02,-4.27547805e-02,-8.84928033e-02,-1.43326800e-02,-2.00620806e-03,
-6.67786738e-03,2.62327660e-02,5.49790636e-02,-2.85031069e-02,-1.87559538e-02,
-5.77787636e-03,-1.49183217e-02,-7.83854630e-03,2.37212479e-02,-1.01995133e-01,
-3.30061391e-02,6.29690662e-02,-1.39102980e-03,-2.47797444e-02,2.49337703e-02,
7.10544810e-02,1.51123740e-02,-3.20020542e-02,2.92265359e-02,2.62671039e-02,
-4.46621627e-02,8.27973261e-02,8.15854315e-03,-3.46699096e-02,2.94107683e-02,
-5.62221780e-02,5.56983165e-02,-3.40680107e-02,4.37405445e-02,-4.70091365e-02,
-4.95503051e-03,-3.68987061e-02,-5.98889813e-02,-5.05666807e-03,8.11568573e-02,
-2.46242266e-02,-1.26770243e-01,-6.10020608e-02,-3.68375331e-02,-3.97024415e-02,
-3.92862111e-02,3.84707674e-02,-7.05818757e-02,4.87403274e-02,-7.72600770e-02,
-6.42662719e-02,5.28859273e-02,1.21726483e-01,5.63087733e-03,3.82520780e-02,
-2.65490022e-02,2.46647373e-02,-6.38403967e-02,-1.52773922e-02,-5.46261929e-02,
-4.72973697e-02,-4.35778312e-02,-5.89729622e-02,5.51380683e-03,-1.01102619e-02,
3.14803384e-02,-1.53185683e-03,-2.91299447e-02,2.82516074e-03,-5.74601106e-02,
-3.96420155e-03,4.62267920e-02,9.24481358e-03,-1.40818739e-02,-8.23307410e-03,
2.81905942e-02,-8.03487524e-02,-1.59610081e-02,-8.40280876e-02,-9.78594199e-02,
-6.10934719e-02,-7.68556958e-03,1.27611551e-02,9.14887898e-03,2.30872855e-02,
3.29990424e-02,1.68467369e-02,-3.19937244e-02,-4.27414812e-02,-1.21992566e-02,
2.15002503e-02,-4.40993309e-02,-4.05838639e-02,6.06805310e-02,-6.89600222e-03,
-6.36581331e-02,-7.50488415e-02,4.62267473e-02,-1.75548624e-03,-1.11763049e-02,
2.52825245e-02,-1.21720254e-01,-1.17771335e-01,-1.07088324e-03,-2.48011351e-02,
3.16701829e-02,-5.55701181e-02,-6.67505339e-02,-5.63450977e-02,2.33440921e-02,
-5.95973385e-03,-3.05093825e-02,8.27699527e-02,5.60443737e-02,5.96007332e-03,
-7.43662342e-02,-7.47175142e-02,1.70209620e-03,2.83650793e-02,-1.62405819e-02,
-2.61342619e-02,7.74440691e-02,-4.71446738e-02,-9.55564156e-03,5.55803478e-02,
6.77333549e-02,6.53227419e-02,2.13731267e-02,2.47782599e-02,-1.81625858e-02,
-3.73619944e-02,-6.15029000e-02,4.14233189e-03,-4.38757390e-02,-4.33825776e-02,
